weight 0:
          -0.16894          -0.45549         0.0114133         -0.481352         -0.687667          -1.54644         -0.653398          0.903334         -0.501711          0.478849          0.891837           0.51171          0.505508          0.253138          0.420268         -0.418541          0.910581         -0.476619         -0.178258        -0.0923267         -0.515797         -0.404777          0.707764          -1.01409         -0.608164           0.58598          0.727726          0.648756          0.837622         -0.663981         -0.263476          0.868981         -0.372054          -1.28368          0.186793         -0.450691         -0.124032          0.131807          0.660797           0.30767          0.904174          0.344341           1.29185          0.123365          0.503215         -0.592335          0.653532         -0.450425         -0.294285         -0.203437          0.609216          -0.27716          -0.37954           0.19036         -0.855186         -0.535249         -0.599323        -0.0129453         -0.373031         -0.578574         -0.518222            1.0194         -0.381159         -0.711131          0.633229          0.607984          0.180279         0.0712009         -0.547781          0.182866         -0.725804         -0.884836         -0.807097           0.93198           0.22629          0.914384          -1.29832          -0.26334        -0.0705135          -0.13082           1.04782         -0.353813          0.766631           1.22017         -0.623354          -1.00168           1.18776        -0.0388788          0.972543          0.687749          -0.61431        -0.0931532         -0.544516           1.28508          0.729922          -1.03117         0.0615724         -0.262304         0.0568519         -0.174791          -0.73319           1.09735         -0.657185          0.763233         -0.839052         -0.347653         -0.165723          0.742248         -0.101969         -0.684532           0.69416          0.694001        -0.0941115          -0.29713          0.684346         -0.186942         -0.587905           1.19585           1.46572          0.117254             1.106         -0.691156         -0.715621           1.28374          -0.42263         -0.333663          0.117664         0.0379706        -0.0628918         -0.694834          0.332432           -1.1371          0.816408         -0.237827         -0.717452          0.148559          0.608911          0.972515          0.417657          0.458107         -0.461864         -0.037694          0.826802          0.239503         -0.373093          0.537094          0.687684         -0.216412         -0.242135         -0.251675          0.276133          0.910372        -0.0940208         -0.215656         -0.671497        -0.0252835         -0.115002         -0.582921          -0.41145         -0.281148          0.420467         -0.485113          0.797428         -0.162607          0.248458         0.0711474          0.919208           1.01789         -0.671408          0.697368         0.0901537          -0.73911           0.45028          0.505969          0.200302         -0.589668          -0.69185          -1.03275          0.669714         -0.696516         -0.171948         -0.624149         -0.629411          -0.32052         -0.630735          0.960793           1.36755         -0.570656          0.751377          0.353438         -0.450868        -0.0480904         -0.145732         -0.594462          0.913903           -0.3801           1.25873          0.343047         -0.377706          0.868174         -0.735382        -0.0188257         0.0706319          0.146635          0.726993         -0.262965           0.93365         -0.852962          0.504953          0.751368           -1.2371         -0.926802           0.39882         0.0924158         -0.533206          -1.09588           1.21872          -0.41883           0.47481          0.575834          0.108047         -0.545716         -0.904512         -0.497426           1.03921         -0.500916          0.521681         -0.203634          0.993893         -0.415365         0.0761534         -0.153077         -0.170625         -0.660963          -0.15531          0.647838         -0.790506          -1.10466          0.783665           1.25695          0.605434         0.0385992            0.8219         -0.390235         -0.458295          0.376663         -0.771257            1.1882         -0.435635         -0.675766          0.769302         -0.393103          0.835715         -0.127079         -0.544291           1.15157          0.835961           0.34802          0.698427          -0.78931          0.314591         -0.355203          0.562876          -0.20204          0.697524         -0.146738           0.50791          0.647686            0.8442          0.378733          0.654574         -0.180531          0.829657         -0.605161         -0.600096          0.964176         0.0790421          0.284001         -0.524388          0.122806          -1.10539          0.763731         -0.123475          0.745228         -0.778295          0.196898          0.688218          0.436662          0.308506         -0.716359         -0.398295           0.82118         -0.357839         -0.728381          0.535709          0.762136          0.280617           0.69015         -0.823919         -0.411082          -1.08982          0.336215           1.34869         -0.240182         -0.912114          -1.24662         -0.856329         -0.630236        -0.0418205        0.00399497         -0.465811         -0.657275          0.890946          0.193935         -0.362972          0.813565         -0.860948          0.752715           1.38248         -0.580955         -0.436421         -0.813319           0.58396          0.727361          0.149592          0.767665       0.000936071          0.830795         0.0153691         -0.598331         -0.524225          0.380951          0.195172          0.701786         -0.348836         -0.672309          0.529646          0.137899          0.345671          0.167096          0.656127          -1.53519         0.0995502         -0.996365         -0.317301        -0.0255585          0.243985         -0.727688        -0.0742081          -0.73849          0.323799         -0.898834         -0.836747        -0.0793655          0.826441         -0.656628          0.765325        -0.0335708           1.06874          0.264694         -0.155666          0.863163          0.802181         -0.652703         -0.373054         -0.153392          0.177414         -0.318802         -0.683504         -0.814812          0.343975          0.452054         -0.727111        -0.0916564         -0.778484         -0.684176         -0.740541         -0.567608          -1.31686         -0.837734          0.754641         -0.460335          0.297417           1.18326         -0.311557          0.470867          0.970368          0.381579         -0.383887          0.753355          0.768579         -0.585065         -0.207174         -0.697757          -1.03827          0.883399          0.820291          0.608845         -0.826853        -0.0700026         -0.185092         0.0241303         -0.497453        -0.0362501          0.742906          0.622969          0.310027         0.0302503          0.385338          0.740784         -0.976547          0.934978           1.25688        -0.0830941          0.478264         -0.370351         -0.606768          0.686955         -0.864797          -1.21952         -0.274577          0.744898           1.17847         -0.199945          0.270374          0.678486         -0.243999          -1.83989          0.809827          0.508137
          0.504754           -0.7878          0.566727          0.880931         -0.234792          0.159888         -0.306459          0.698457         -0.109224          0.584299          0.167593         -0.778324           1.04695          0.356137         0.0533705         -0.918788         -0.691046          0.590282          0.824666          0.700779         -0.795706         -0.168464         -0.322895          0.918343          0.457111         0.0785264         -0.531176          0.638299          0.496278          0.420109          0.644401         -0.190558         -0.813077           1.16886           1.25196           0.36154          0.070361          0.188206          0.713878           0.26221         -0.263654         -0.758845         -0.189908          0.410253          0.187595           1.40806          0.113422          -0.28813           0.36727         -0.299744         -0.265348          0.460701          0.357944          0.194003          0.470287          0.665836          0.689831         -0.274283          0.564536           -0.2397          0.621611         -0.757415       0.000985406         -0.455107          0.839797        0.00889157         -0.955724          -0.62359           1.01226        -0.0857654           1.01686          0.635819         0.0701715         0.0797256         -0.195611         -0.665633           0.52806          0.663065           1.00089         -0.618695         -0.733103          0.659284          -0.54798          0.531882         -0.647757           1.82502           0.74731         -0.333453          0.661454         0.0900063         0.0840342            0.6892          0.337564         -0.220923          0.679782          0.798534          -1.08811         -0.424308         -0.721835          -1.09904           0.89316          0.440503         -0.577677          0.501723         -0.511024          0.310157          0.734803          0.259274         -0.437141          0.292226         -0.249872         -0.660722         0.0128713           0.89608         -0.377325         0.0525928         0.0374121          0.962863          0.298847         -0.659565          0.772924         0.0470382           1.09282          0.576493          -1.13923          0.125164         -0.777349         -0.574844          0.623697         -0.672017         -0.419153          0.537815          0.294017         -0.502495          0.984109           1.02822           0.13591         -0.609602          0.929706         -0.807791          -0.87204       -0.00194592          -0.78575          0.482721         -0.343896         -0.350697          0.610716         -0.319535         -0.654173         -0.676528          0.840787          0.233123           0.29914         -0.606261         -0.358893         -0.433091          0.414812           1.29228          0.176598         -0.243805          0.263225          0.857426          0.690195          0.512798          -0.77818         -0.558911          0.260811        0.00882405          0.996731           1.06158          0.412784        -0.0346108         -0.905311         -0.645313          -1.30263         -0.621656          0.506326         -0.270122         -0.626719           1.01866          0.321571         -0.873684           1.31443         -0.546778          0.969727         -0.682962          0.272344            1.5576         -0.695345          0.386739           -1.4482          0.628634         0.0797304          0.156718          0.945474          0.986133          0.680932         -0.292889          0.154623          0.844129         -0.821746         -0.809454         0.0579952         -0.688335          -0.71464           0.64244          0.484366         -0.329479         -0.236736          0.216919           1.00703         -0.182356         -0.877466           1.19093         -0.156467         -0.053516         -0.613383         -0.254727         -0.331508         0.0133616          0.662114          0.797342        -0.0412135         -0.543432          0.512405          0.310717         -0.621649          0.441304           1.01319         -0.619052         -0.734618         -0.915524          0.235947           1.12642         -0.645962          0.540974        0.00903117         -0.477807         -0.815026          0.522471         -0.899839         -0.459313          0.677678          0.890462         -0.292871         -0.690642         -0.247662          0.935527          0.069298         -0.325787          0.428055          0.744146         -0.786781          0.707496           0.36587          0.475416          0.386934           0.28871         -0.370163          0.198532         -0.123207          -1.60597          -1.09744           0.27278         -0.718077          0.504796         -0.832095          0.252353         -0.281026          0.212604         -0.102771          0.873625         -0.395168         -0.292705          0.978788          0.602535          0.571653          0.240871          0.474289          0.591666         0.0176037           -0.5253         -0.694447         -0.863732         -0.476444           0.56946          0.292159         -0.179852         -0.359594         -0.508632          0.960051         -0.482802          0.146855          0.121422          0.724929         -0.637453          0.988832          0.871861          -0.22425          0.440772          0.245133         -0.564201          0.398392         -0.740215          -0.57998          0.666456          0.141987          0.895321         -0.699507         -0.588352            1.1331         -0.222596         -0.743163         -0.426708         -0.190733          0.508391          0.771861         -0.746803         -0.429848        -0.0519883           1.01296           0.13698          0.294996         -0.339749          0.699521         -0.847259          0.438415         -0.603683          0.347847         0.0152431          0.517576          -0.93814         -0.128671          0.373867         -0.486034          0.485039          0.549259         -0.348159          -1.16251         -0.813639         -0.646351          0.739443          0.387531           1.04268          -1.33075           0.67157         -0.598548          0.479017         -0.889481          0.636517         -0.398527         -0.572195          0.724795         -0.185222          -0.69749          0.951491          0.529822          0.175225         -0.728321         -0.166078         -0.702938          0.400092        -0.0823904           1.14882         -0.458595          0.394234         0.0103333         -0.214753           1.12729          0.886897          0.241012          0.384736         -0.335734          0.336593          0.779635         -0.321722          0.512836          0.276784        -0.0185594          0.146623         -0.655745          0.683009          0.830882          -0.67042         -0.319326          0.337477          0.109885         -0.447669         -0.645366          0.285826           1.53559          0.981929         -0.771644         -0.540147          0.883654          0.328505           0.90504         -0.284543         -0.226589           -1.0382         -0.638655         -0.513503          0.182166          0.336205         0.0627098         -0.150948         -0.394401         -0.659994          -0.91613         -0.537796         -0.542075         -0.141813           1.11298         -0.374512          0.522313          0.347348          0.714806         0.0415222           1.10195         -0.136696          0.307024         -0.569553         -0.995961          0.931568        0.00933426           -0.5761         -0.694203          -0.18355         0.0104775         -0.480492
           0.32693          -1.15542         -0.349063         -0.684956           1.11035         -0.556696          0.464509         -0.654713         -0.807627          0.132087         -0.719587         -0.993654         -0.732962         -0.432855         -0.507283          -0.49967         -0.772224          -1.13023          -1.05344         -0.573055           -1.2435         -0.795916         -0.936409          0.374743          0.478287         -0.040635          -0.98507         -0.740226         -0.569023         -0.420563         -0.125514         -0.695473          0.273499         -0.151514           1.54292           1.16255          -1.81628         -0.845125          0.729479         -0.524649          0.539626          -1.22702          -1.25767          0.345211          0.379771         -0.338848           0.77226         -0.490167         -0.777355          -1.20621         0.0694035         -0.825495         -0.453203          0.397745           0.24018          0.708072          0.666173          -1.07872         -0.684164         -0.774082         0.0579281         -0.807583         -0.460427         -0.497892          -1.10568         -0.402687         -0.327241           0.10873         -0.876172         -0.526558           1.39629         -0.337704          0.222992          0.700106         -0.562269         -0.408497         -0.544948          -1.05264         -0.840405         0.0967023         -0.590022         -0.941376           0.58644         -0.819964          0.743211          0.132079         -0.266701          0.223137          0.772982          -1.07612         -0.606434         -0.902891         -0.521388          0.227988          0.629898         0.0563194        -0.0550514          0.122018          0.730935         -0.396974           1.08435         0.0421613          -1.25209          0.550892         -0.125011          -1.11813         -0.936879          -1.35593         -0.637682         -0.555683         -0.533854         -0.482657         -0.838873          0.364514          0.013494         -0.350638         -0.121729         -0.587395          0.552586         -0.606137           0.87881         -0.560618          -0.78059         -0.442011         -0.724945          0.068221         -0.320526         -0.324858          0.644478          -0.20325        0.00148344          0.274207         -0.890735          -1.20177          0.314377         -0.572363         -0.426617          0.396572          0.844067          -1.08554           0.42401         -0.832385         -0.824664          -1.12768          -0.41431          -0.87002         -0.606101          -0.92166         -0.544234         -0.836589           1.09526         -0.971112          0.580065          -1.07779          0.317136          0.812754         -0.922577          0.247776         -0.365585         -0.699063         -0.727062          0.692211         -0.408522         -0.437853         0.0481235         -0.836782          0.202314         0.0857605         -0.601687         -0.827598          -1.06663         -0.715344          0.674816          -1.26255         -0.789571        -0.0326164         -0.646966         -0.881241         -0.669376         -0.568427          -1.14195         -0.739256         -0.601077          -1.02726         -0.400107         -0.654192         -0.468552          0.292582         -0.892268          -1.05687         -0.485616         -0.124189          -1.19357         -0.401599          0.313374           0.21763          0.819013         -0.678102         -0.427859         -0.647197         -0.561348         -0.587305           0.67793          0.652117          -1.25734         -0.880259           1.40607         -0.488337         -0.300199          0.548891          0.294984         -0.289845         -0.320804         -0.021785          0.213393         -0.478563          0.832954         -0.270408         -0.352436         -0.859752           1.12681          0.424756         -0.367673         -0.402417         -0.751891         -0.969943          0.238645         0.0115021         -0.419688         -0.966243         -0.535295         0.0706699         0.0351986         -0.437401         -0.364797          0.675953          -0.38182         -0.315428          0.128059         -0.287819          -1.19015         -0.505661          0.476744           1.06761         -0.615001          -1.45532         -0.354412         -0.503804         -0.627789         -0.789566          -1.65188          0.654996         -0.790949          -1.06059          -1.00869         -0.170156         -0.897489         -0.694492          -1.01794         -0.227389         -0.719725          -1.06279        -0.0766977          -1.10781          0.851036         -0.465971          0.644243         -0.893164         -0.729298         -0.553623          -0.14414         -0.151748         -0.723722           1.11649           1.05193          0.678688         -0.242361          -0.35957         -0.356776           -0.2439         -0.509181         -0.670752          0.781709          0.158494         -0.433355          0.694246         -0.322086         -0.748923        -0.0561286         -0.428114         -0.130857          0.233158         -0.460105          -0.52381           1.04925         -0.435257         0.0212431         -0.408707          -1.01885          0.186715          0.598507         -0.385474         -0.766564         -0.828703         -0.604507         -0.325441         -0.194118         -0.303649            0.2971         -0.607562         -0.569247         -0.591639         -0.327222          0.130393         -0.912176          -1.06373         -0.696989         -0.535422        -0.0440416          0.714879         -0.579129         -0.348268          -0.24969         -0.673384         -0.626234         -0.827247          0.512409         -0.969332         -0.579429         -0.279771         -0.116867         -0.453884          -1.10027          -1.09014          -1.25171         -0.504294         -0.153163         -0.438899         -0.996518         -0.671396        -0.0676654         -0.226872          0.410279           1.62758         -0.533394          0.697251         -0.817269          -0.54005         -0.818278         -0.486395          0.203533          -1.59922           1.21917         0.0383654          0.206697         -0.612094          0.705924         -0.562471         0.0655492         -0.322287         -0.473702         -0.470897            -0.318        -0.0816033          0.615675         -0.695639         -0.749891         -0.848433         -0.599865          0.606916          0.470773         -0.667293         -0.343858         -0.554742          -0.15852         -0.656852         -0.514951         -0.528721         -0.179194          0.075791         -0.498686         -0.456621          0.953233        -0.0114334         -0.722228         -0.488895          0.869412         -0.501961         -0.627469         -0.128891          0.977028         -0.629437          0.154301         -0.444851         -0.070525         -0.554803          0.556508          0.770423         -0.482311           0.32466         -0.794721           0.61498         0.0825394         -0.594007         -0.431528         -0.154339         0.0668739         -0.370922         -0.733362          -1.25088         -0.369318         -0.559215         -0.610783        -0.0498568         -0.318514          0.091464          -1.30236          0.604023           0.86298         -0.387639         -0.829258         -0.737639         -0.551933          0.570198         -0.508714         -0.445689       -0.00487614           1.00217         -0.603993         -0.358101
         -0.931297          0.358811           0.51834          -0.29547         -0.332284         -0.882502         -0.414339          0.549061          -1.24808          0.147787         -0.631911          0.168385           0.40229          -1.11628         -0.449903          0.221314         -0.317216         -0.423544         -0.106466         -0.698619         -0.474556         -0.474981        -0.0350867         0.0701899         0.0368562        -0.0965951         -0.578176          -0.41733         -0.561016         0.0582843          0.961722          0.548792          0.383249          0.044828           1.29079         -0.350163          -1.47191           -1.1605         -0.393243         -0.973126         -0.315351         -0.795355        -0.0292112        -0.0192463          -0.38907         -0.238117        -0.0197904         -0.358948            -0.681         -0.771295         -0.667449            1.3437          0.920522         -0.621848         -0.895485         -0.488262          -1.03431         -0.522082         -0.203719         -0.498767         -0.363092         -0.673342         -0.498848         -0.394682         -0.203788         -0.734153         -0.906453           -1.0715         -0.811652         -0.538697         -0.236032          -1.09206         0.0811839         -0.739803          0.540186         -0.451881          0.888986          -1.21429         -0.370639         -0.750472          0.285667          -1.00948          0.492892         -0.627777         -0.466935          0.921985         -0.941614         0.0690094          0.692716         -0.720059         -0.606618         -0.956301         -0.546792          0.453375         -0.478885           0.19725         -0.758821          -1.19188         -0.277207         -0.888688          0.252098           1.26855          -0.91731        -0.0965472         -0.953491          -1.23093          0.509412          -1.08698         -0.476934         -0.427594         -0.482592          0.544155         -0.774311         -0.686445          0.499335         -0.327695         -0.368455         -0.614184          0.586876          -1.12497         -0.120897         -0.494987         -0.178646         -0.367745         -0.620406          0.618358         0.0560947         -0.168429         0.0767086           1.44568         -0.431958          0.980461          0.215204          -1.05248         -0.296292          0.144601         -0.304754          0.746913         -0.335562         -0.594692           0.63229         -0.602821         -0.660274         -0.845161         -0.186977          0.323306         -0.198158         -0.824445         -0.237075          0.159531         -0.362679        0.00112061          -0.49005         -0.127572         -0.265501           1.04875         -0.670073          0.847675         -0.389443         -0.297391         -0.606289         -0.676258         -0.299461          0.124587         -0.619504          0.246677           0.39882          0.971376          0.790507         -0.400767         -0.406519         -0.367649         -0.262971          -1.03707          0.450342           0.53839          0.972638          0.545387         -0.867199         -0.294812         -0.948789          0.131568          0.476018         -0.569628         -0.305195         -0.441428         -0.537995           1.23456         -0.586798          -1.02833          0.254155          -1.34596         -0.727909         -0.206857        -0.0858024           1.27005         -0.134625         -0.929216         -0.438601         -0.720308          0.518086           -0.2871         -0.951513         -0.238757         -0.675837         -0.598561           1.73926         -0.431965         0.0885534           1.20184           1.82368          0.194713           0.17798         0.0821675           1.25179          0.414664         -0.258678           1.70392          0.969465         -0.719029          0.294766        -0.0409915         -0.191706         -0.494378          0.530888         -0.957813          0.038883          0.859412         -0.596833          -1.05627         -0.541727        -0.0648229           1.73651           0.86423          0.265269          0.538895         -0.140024          0.930431         -0.806307          0.642262         -0.723143          -0.32353         -0.582786           2.42821          -0.37213          -1.20388         0.0924379         -0.552204         -0.543005         -0.445481         -0.973389          0.345373         -0.514308         -0.296092          -0.64317         -0.792418         -0.481475          -1.18393         -0.564909         -0.658761            -0.825         -0.920187          -0.28417          0.295851         -0.359489         -0.436293           1.04871         -0.561511           -1.0402         -0.406856         -0.535007          0.505793          0.177802         -0.251929         -0.313369          0.242881        -0.0259265          0.840953         -0.598018          0.184392        -0.0788426         -0.101869         -0.284397         -0.956933          -0.20464         -0.884368         -0.755541         -0.710129         0.0955311         -0.305191           1.60143          -0.11755          -1.11512         -0.412172         -0.366836         -0.284284         -0.593138          0.477486         -0.159292          0.750168         -0.517761         -0.574727         -0.498534        0.00387908         -0.412319        -0.0171321          0.734059          0.780095         -0.630851         -0.540835          0.508486         -0.440748         -0.215414         -0.756083         -0.121253          -1.17696         -0.723625         0.0556377          0.894411         -0.354107           0.65312         -0.411074         -0.537213          0.641026         -0.283032         -0.978768           1.24322         -0.694562          -0.23781         -0.261983         -0.649241         -0.887902         -0.933854          -1.13047          -0.61197       -0.00343097           0.34675         0.0175543         -0.563747         -0.754753         -0.882485         0.0660574           1.05628           2.11643         -0.545276         -0.448729          0.532598           1.15911         -0.958089         -0.321641         -0.648759          -0.99876          0.320983         -0.671002         -0.702758          0.141812          0.570035         -0.197907         -0.452482          0.156418         -0.202984         -0.161545         -0.624781           1.22621         -0.326599         -0.555455         -0.262016         -0.932708         -0.339674         0.0859531          0.282034         -0.506878          -0.48085           -0.6206          0.351126         -0.415422          -0.41738        -0.0730035         -0.141045          -1.04757         -0.285822         0.0368391          -0.26322         0.0579484          -1.01277         -0.207357          0.706551          -0.24404         -0.791521          0.402952           1.73794         -0.471495         -0.915583          0.538853          -0.20809         -0.393608          0.455394         0.0397793         0.0923507         0.0229604         -0.486034         -0.392986         -0.627395         -0.268705          0.841714            1.7342           0.46018          0.993054         -0.746478          -0.99729         -0.566873         -0.195925          0.461312           1.27499            0.1536          0.810534         -0.687282          -0.20443          0.999297           1.24212         -0.869225         -0.312548          -0.79309         -0.459632          0.822999         -0.569617         -0.738276          0.574091         0.0016954         -0.584741
          0.648465          0.179243          0.318907          0.882018          0.395073         0.0955741          0.431929           1.21151           1.04669            1.0099           1.85113           1.39889          0.699473          0.807048         -0.483826        -0.0693961         -0.214506        -0.0227177          0.770458         -0.224131           1.00326         -0.361862         0.0409354        -0.0565093          0.558292          0.639406         -0.176714          0.322478         -0.368386          0.109697          0.157091        -0.0165269         0.0753546         -0.689522         -0.984448          0.633341         -0.182667            1.9517        -0.0852568            1.5309          0.555262          0.564491           1.16372          0.371433           1.06495         -0.830741           1.79105          0.563826           1.52909           1.53392         0.0891008          0.727791          0.446663          0.167706           1.04944         -0.691345          0.265644          0.172554          0.861794         -0.495044           1.43107           1.26617         -0.747778          0.899546         0.0613276          0.090716           0.13133           1.36426         -0.621075         0.0753825         -0.999709         -0.802267         -0.032809          0.519771         -0.507227           0.32355         -0.588631          0.608323          -0.26445           0.51553          0.572911        -0.0580911          0.962566          0.398816          -1.02667          -1.34773          0.718665        -0.0202284         0.0616567           1.35286         0.0304727           1.60035         -0.936137         -0.464772         -0.347851          -1.06358          0.157093           1.09059          0.987416           1.14008          0.124804           1.41946         0.0572347           1.06052           1.06412           1.02892          0.591821          0.665338          0.312553         -0.829944         -0.160997         -0.772486          0.647705         -0.429229          0.965752         -0.842158          0.884095          0.728553           1.41328          0.997637         -0.305009          -1.27924          -1.00969          0.276835          0.747442         -0.517154          0.275046           1.03008         0.0895391         -0.399644        -0.0729743         -0.150144            0.3628          0.102746          0.466977          0.802861          -0.80814           1.12855         -0.239248          0.439325          0.794446          0.532234           0.37663        -0.0490592         -0.106094           1.31306          0.228018         -0.292475           1.12098          0.895558          -1.20854           1.64564          0.346472         -0.235821        -0.0261462         -0.172509         -0.114872         -0.621341         -0.525407           1.48732           1.07791         -0.612647          -0.66479         -0.217706          0.462212          0.646512          0.366187         0.0403329          0.437565         -0.494151          0.189068         -0.744436         -0.624835           1.36899          0.947019          0.928198           0.33434           -1.0181          0.841773         -0.816568           1.61355          0.886897          -1.08526          0.104229          0.296139         -0.145985          0.351321          -1.04921         0.0649631           1.14738         -0.588442           1.62016          0.588329         -0.618985           1.91219         -0.145859          0.854106           1.64665         -0.615811         -0.132518         -0.739822           1.16265           1.54449            1.5654        -0.0794136           0.15836          0.596133            0.3841         -0.420777          0.504987          -1.17419          -1.03063        -0.0762771          -1.30885         -0.237861         -0.687774        -0.0406337         -0.530569        -0.0638783         0.0595904          -0.08839          0.271222          -1.00613          0.283683          0.242589           1.03551          0.943614          0.470014          0.596625          0.137471         -0.929972          0.165727         -0.253246         -0.854241           1.28805          0.732095         -0.264686        -0.0108651          0.092397           1.46688           1.31604        -0.0205707         -0.653123          0.430536         -0.725387          0.274196         -0.139854          0.611004         -0.499925         -0.568151          0.590588          0.170469       -0.00818989          0.375408          0.645818          0.304327           1.15118          0.875969          0.212026          0.515282         -0.628215          0.581115           0.22647          0.964988          0.666673         -0.981981           1.37565           1.19767          0.769687          -0.77399           0.48031          0.450687           1.33588          0.564678          0.156425          0.710771         -0.163449         0.0851163          0.425057          0.368121          -0.92186         -0.623767          0.201381            1.6194         -0.532529          0.861764           0.77477         -0.721446          0.510682          -0.95159        -0.0917605          0.160169           1.40574         -0.900646         -0.600188            1.2004         -0.278146          0.521466         0.0792455         -0.193512          0.154833          0.640406          0.349431         0.0530171         -0.698407          -1.70269          -1.19565          -1.60451          0.097244           1.32373           0.46457         0.0762957           0.74254         -0.017486           1.29721        -0.0886091          0.313998           1.00241          0.108265          0.542311         -0.564615        -0.0311457          0.473272           1.09499         0.0113362           1.48002         -0.306818          0.545584         0.0293408          0.509845          0.606916          0.307771           0.15488           1.41334           0.35613         0.0351451         -0.395449           1.18081          0.637047           1.22623          0.909256         -0.905788          0.883295          -2.02072             1.146          0.219085         -0.329448          0.209413          0.806253          0.124196         -0.338467          0.740948         -0.856304           0.49877          0.207716          0.828153          -0.21693          0.101323          0.200687         -0.992513          0.858698          0.666658         -0.450797         -0.595316           1.08633          0.288194           1.71633          0.541632         -0.701032          -1.12818          -1.01549           1.50669          0.497989          -0.78129          0.744584         -0.718508         -0.951325          0.297054          -1.07171          0.226666         -0.303884         -0.396386         -0.896701          0.878858          0.532341           1.38426           1.08032         -0.717025         -0.849765          0.929536       -0.00696295         -0.473281          0.907925         -0.848352         -0.213589          0.172319         -0.166926          0.845814         -0.550327          0.424565          0.574368           1.40916           1.32473         0.0655213         -0.467908         -0.196658          0.534116        -0.0713229        0.00878147           1.51707         -0.937388         -0.440894         -0.229302          0.919269           1.13052        0.00424416          0.267589          0.889761         -0.259454         -0.749612          0.422789          0.927409          0.341831         -0.113123          0.286556          0.568969          0.409535          0.214954           1.45261            1.1518
         -0.334184          -0.17856          0.724252           0.75428           1.03697         -0.896308          0.465553         -0.355623         -0.216594           1.45434          0.347611         -0.977125         -0.465795         -0.803908         -0.660494         -0.370838         -0.601002          -1.03201          0.606814         -0.580589         -0.215856          0.397809         -0.709807          0.205826           1.03468         -0.211671         -0.653021          0.383064          0.575511         -0.202664          0.418757         -0.548132          0.736061          0.117121           2.01762          0.806163          -1.43235          -1.42655          0.974294          -1.11158         -0.406732         -0.963402           0.25414          0.650757           0.74211         -0.107231          0.310933          0.276545          0.474968         -0.922186         -0.541133           1.26952          0.794382         -0.339106          0.266758          0.951645          0.640675         -0.757592         -0.729384          0.729448          0.131445         -0.644027         -0.456947         -0.201329          -1.00695         -0.547646         -0.559815          -1.30624         -0.781332          0.511242           1.40365          0.163679          0.767789         -0.226309        -0.0254969          0.656774         -0.426755         -0.229025         -0.613059         -0.501704         -0.690344         -0.972474          0.842152         -0.809243         -0.709769           1.84977          -1.12776           1.12834          0.627331          -1.27423           -0.4813          -1.04601         -0.465579          0.518027         -0.317157          0.972777         -0.540293         -0.944954           0.63344         -0.861388         -0.352202            1.2468          -1.09677        -0.0704724         -0.476745         -0.975398         -0.734633          -1.26583         -0.586813         -0.483392         -0.694117         -0.567157         -0.816668         -0.622104          0.968339         0.0157069         0.0780593         -0.627906             0.644          -1.24235          0.447843         -0.152482          0.263463          -0.31618        0.00257276          0.919408         -0.411253         -0.736871           1.06414         -0.158355          0.304478          0.556586          0.504974         -0.973597          0.699184         0.0921705         -0.292742          0.696292           1.01821          0.179417          0.404599         -0.707751         -0.705092         -0.959861         -0.425613         -0.914382         -0.485761          -1.18295         -0.629457         -0.471879           1.22137          0.392835          0.636186         -0.671837         -0.587878          0.300134         -0.928145          0.708486          0.192395         -0.504803         -0.388954         -0.519982          0.691011         -0.333233         -0.968824         -0.829438           0.50813            1.0359         -0.492866         -0.443517          0.993398         -0.513715           0.84226         -0.132637          -0.73633         0.0461101         -0.214679         -0.342891         -0.706648         -0.454678         -0.196713         -0.656975        -0.0808872         -0.764463          0.947885         -0.263145         -0.441604           1.41406          -0.69818            0.3793          -0.72652         -0.763871         -0.784988         -0.527745          0.323527          0.813717          0.329865         -0.522307         -0.099412         -0.589656         -0.343178         -0.642174          0.110359           0.34939          0.394173         -0.756727           1.56214         -0.475601        -0.0676729          0.171624           1.52388         -0.136607         -0.373471          0.941304           1.42996         -0.468549         -0.304419          0.254114          0.179577         -0.698397          -0.28895          0.983375          0.658905          0.317164         -0.638483        -0.0105689          0.146477          0.347267         -0.459972         -0.992004         -0.617404          0.289198           1.31479         -0.528233         -0.680573           0.82372         0.0549333         -0.336778         -0.819639          0.209858          -1.00651         -0.525462         -0.339339           1.86306          0.158303         -0.784881          0.057237        -0.0621002         -0.360048         -0.282409        -0.0570689          0.482449         -0.686714         -0.573218          -1.00533         -0.816955          0.343501         0.0386248          0.268554           0.29876           0.66174         -0.953856          -1.09612          -1.34548           1.01017         -0.669638          0.519019          -1.23748         0.0961232         -0.853276          -0.22864           1.06337         0.0350315         0.0228194           1.16436          0.759243          0.976046            0.5881         -0.623665          0.593073         -0.191922          0.164571         -0.345793          0.111214          0.940236          0.269741         -0.777297         -0.571022           1.00443         -0.321249           1.23386         -0.782811          -1.16711         -0.526907          0.928999          0.891637          0.266055         -0.561371          -1.38147           1.15369         -0.421396          -0.76573         -0.597957         -0.616284         -0.579024         -0.169727         0.0492724          0.286489          0.381663          0.310497            1.0474         -0.347506         -0.367028         -0.895185         -0.803489        -0.0566311         -0.840094          0.770923         0.0288971            0.9245         -0.401938          -1.15982         -0.680253         -0.484049         -0.469446         -0.820737          0.843505         -0.648202        -0.0598952         -0.044753         -0.477512         -0.906759          -1.01148         -0.940189          -1.15225         -0.756346         -0.211206         -0.231975          -1.06292          -0.85592          0.393916        -0.0176949           1.43509          0.387851          -0.48312           1.21424          0.497416         -0.238681         -0.821829        -0.0627476          0.478877          -1.75149           1.27154         -0.899689         -0.722789        -0.0533994         -0.187295          0.438609         -0.451972          0.143154           0.59392         -0.878248         -0.465235          0.933286          0.659157         -0.548175        -0.0831083          -0.92225         -0.372432           1.44355           0.25481          0.344632           1.18811         -0.617527            -0.846         -0.542966         -0.314416         -0.403059           1.15579         -0.442643         -0.233191           1.11373            1.3929         -0.148154         -0.180365         -0.544243          0.825913         -0.739285         -0.648702         0.0804475          0.945475          0.866847         -0.865848         -0.510445           0.99307          0.667968         -0.655355           1.35522         -0.240293          0.449335          0.562863         -0.298007         -0.793474         -0.108829           1.37582          0.560145            1.5767        -0.0500719         -0.808034          -1.17342          0.472249         -0.620827         -0.570959          -0.16253          0.250767          0.955715          -1.00692         -0.116982          0.482871         -0.244876         -0.441446         -0.675457         -0.788744         -0.518079         -0.624243          0.718842         -0.903453          0.140688           -0.8198         -0.689244
         0.0387672          0.748142          0.213915          0.783884          0.134842         0.0561145         -0.748425         -0.387996          0.680568         -0.411169           1.07489         -0.315432         -0.949048         -0.642551         -0.561375          0.485404         -0.728848         -0.349556          0.992914         -0.290843         -0.845378         -0.672421           1.20475          0.217137          0.522781          0.564216          0.576208         -0.317695          0.739292         -0.584543          0.813037         -0.173148          0.254242          0.236368         -0.557787         -0.596559          0.665593           1.03642         -0.913623          0.106185           1.09482          0.688587         -0.467257         -0.645884          0.689385         -0.865102          0.906123          -1.35434          0.648425          0.260992         -0.646197         -0.315255          0.473656          0.724163          0.720908         -0.811589         -0.903595          0.630259           1.03511         -0.539577          0.108649           1.00698          0.605607          0.992519          0.646492         -0.673791         -0.200791          0.605163        -0.0711762          0.581956          0.278613         -0.820708         -0.635353         -0.370034          0.627477         -0.265277         -0.562238           -1.0914          0.150196          -1.04314          0.753472          0.398128         -0.679555        -0.0856261          0.294818         -0.892863          0.132677         -0.731747          -0.33355         -0.232168          -0.66466         0.0649136         -0.933341       -0.00747414         -0.352917          -1.20218          0.665585         -0.521758          0.176304          0.363317         -0.679446         -0.339001         -0.752698          0.652509         -0.676112          0.707093         -0.103693          0.375152          0.873065           0.64611         -0.342313         -0.715488         -0.234585         -0.562334         -0.322371         -0.861222          0.140096          0.677059         -0.229474         0.0953627         -0.524039          -1.11433            -1.016         -0.368827          0.194263           0.90945          -1.02942          0.704994          -0.48702          -0.50065         -0.272509         -0.747821          0.437671         -0.401138         -0.889782          0.999347         -0.789069          0.700447         -0.675917         -0.107902         -0.449702         -0.125291         -0.379609         -0.280697          0.955785        -0.0244785         -0.372793         -0.627753         -0.612126         -0.641708         -0.896771         -0.399799          0.700041         -0.538774         -0.762902          0.308421         -0.711706          0.897669          0.548722           1.04443         -0.525873         -0.615446         -0.344411          0.574985          -0.56397        -0.0446739         -0.420017         -0.580238         -0.151787          0.521495         -0.498165        -0.0230601          0.337739          0.945133         0.0342127          0.709311         -0.713119        -0.0969828            0.6286         -0.799798          0.569401         -0.584748         -0.703327         -0.414975         -0.547692         -0.469164         -0.272588          0.545208          0.494465           1.16558         -0.877435           1.30968         -0.489731         -0.768552       -0.00917687          0.471371         -0.120767         -0.401469         -0.772505         -0.390583         -0.575445          0.584572        -0.0783271          0.576095          0.277799        -0.0148752          0.805044         -0.735246          -0.59141           0.54165         -0.532856         -0.935775           1.03775         -0.904556         -0.466014          -1.10013          0.753764         -0.383496         -0.672209          0.922709          0.191547         -0.655984         0.0815001          0.440232         -0.451482          0.397576          0.941905         -0.452437           0.78651         0.0167367         -0.914977          0.332149          0.539383         -0.879764         -0.576855         0.0868703          0.232609          0.619225          0.418933          0.933565         -0.431257         -0.270985          0.589773         -0.491134         -0.739742          0.310984         -0.741705         -0.610567         -0.848007         -0.682892         -0.144707         -0.823802          -0.53779         -0.451142          0.349486          0.443275         -0.318284         -0.663342         -0.244797         -0.664268         0.0563127           1.11594          -0.60194          -0.38709          0.362853          -0.74354           0.34602         0.0315695          0.543324         -0.511339          0.791325         -0.613139          0.289171          0.454941          0.522754         -0.573023          0.109008          0.412057        -0.0443351         -0.131209          0.257949          0.198198         -0.511531         -0.111341          -1.12188          0.780778         -0.171632         -0.769914          0.684233         -0.986945         -0.390276         -0.427069          0.071733         -0.703113          -0.51403         -0.344191           0.60163        -0.0840043         -0.392123          0.856471         -0.902749          0.872474         -0.272272         -0.432999         -0.845475         -0.207364         -0.595652          -1.36227          -1.22469         -0.497651         -0.788333         -0.795952           0.41419          0.506175          0.562409         -0.372549           -1.1559         -0.960248          0.856202         -0.492182          -0.70007          0.506766          0.774914         -0.507308            0.5754          0.808705          0.816718         -0.447528         -0.280048         -0.687348          0.656714         -0.298701         -0.657851          0.570781         -0.663363          0.295028        -0.0783638          0.896369          0.922364          -0.54582          -0.46222         -0.766339          0.655663         -0.752958          0.142141            0.3742          0.710452          0.420889           0.82671         -0.783618          0.320958         -0.615047         -0.682779          0.241946         -0.533645         -0.587503         -0.404278         -0.689676          -0.55568         -0.942125          0.234118          0.391937          -0.67509         -0.700985         -0.316181          0.708779           1.40963           1.00333           -1.3125          0.296157         -0.810843            1.1089          0.486817          0.158908         -0.647345           0.41508          0.422053          0.767467         -0.919197         0.0341497         -0.708586          0.512459         -0.829912         -0.603309         -0.807725          0.432414         -0.282296          0.172587         -0.752661         -0.437797          0.938567           0.50273         -0.410239         -0.500994          0.217242          0.516979          0.137496          0.591515          0.130473          0.563608          0.396172         -0.212487          0.694472          0.441903          -0.21004         -0.138855          0.615326          0.588115         0.0543979         0.0123665          0.418015          0.662251         -0.487961          0.557765          0.131775         -0.149601          0.435852         -0.623655          0.311847         -0.533662          -0.41596         -0.427011         -0.257743         -0.351723          0.187485         -0.710479         -0.277783          -0.74326          0.583994          0.124002
         -0.171553         -0.555376         -0.432529         -0.525697          -0.29773          -0.96196           0.63197          -0.76042         -0.419337           -0.4829           1.24146           0.57938         -0.518645         -0.421065         -0.422355          0.693832         -0.109102          -1.27382         -0.547594         -0.351547          0.391622          0.327572         -0.171943         -0.144232          0.476865        -0.0643187         -0.641163         -0.679667          0.999873         -0.952718          0.449231         -0.208567         -0.523818         -0.654997         -0.954198          0.741489         -0.263572         -0.473487          0.432259         -0.296068          0.853232          0.455935          0.140344         -0.787066          0.568937         -0.660049         -0.161379          -0.39743         -0.552382         -0.381183         -0.295055         -0.698549          0.964461          0.255147          0.468949         -0.645947          -1.02656         -0.952607         -0.143037         -0.532955          0.186535         -0.540212           0.72358             1.155         -0.175975         -0.722031         -0.356979          0.156674          0.420293          0.296876          0.268879         -0.557685          0.734864          0.249117         -0.442054         -0.468569           -0.7647         -0.306032         -0.398225          0.805896         -0.304682         -0.320659          0.232628         -0.793435         -0.931445          -1.71134          0.873628         -0.817455         -0.589698        -0.0589713          0.159859          0.897706         -0.761883          0.474673          0.800812          -1.08632         0.0636654         -0.134492           0.42195         -0.138018          0.277177         -0.206914          -1.11222          -1.45219         -0.225926          0.605587         -0.742952        -0.0510105          -1.03551          -0.64929         -0.727762          0.618684         -0.428239          0.335392          0.434165         -0.762677         0.0539645          0.717703           1.21559         -0.795554         -0.676555         -0.489218          0.233238         -0.839921           1.02905         -0.595877          0.624753          0.663032         -0.872443          -0.43262        -0.0961388         -0.589668          0.452969         -0.740456          -1.28151          0.608777          0.215693          0.514578         -0.680865          -0.56272        -0.0240652         -0.622269         -0.423951          -1.04845          -1.10573         -0.175766          -1.29101          0.269807          0.208219           1.23352          0.278283         -0.746772         -0.271776          0.707683         -0.966305          -0.90892          -1.02312         -0.449858           0.78252         -0.999036         -0.695463         -0.534288          -0.77897         -0.754471         -0.516495         -0.301647         -0.545653         -0.341442          0.657318          0.432308          0.379453         -0.527278         -0.432695          0.797547          0.274054          0.948467         -0.239898          -0.76082          0.637825         -0.663367          0.249193         -0.816097         -0.920349          -0.72675          0.819856         -0.798132          0.298394          -0.64218         -0.755873          0.670303         -0.396955          0.962952         -0.709099          0.584907          0.847742          0.899024          0.484472         -0.348852         -0.234567         -0.409073         -0.659367        -0.0739878           1.00934          0.575615          0.343492         -0.780269          0.203594         -0.741083         -0.134463         -0.479547          -1.15533         -0.454765          0.402657          -1.48438          0.378235         -0.586691          0.456964         -0.643171         -0.392341         -0.515158         -0.500717         -0.370243          -1.36681         -0.583841         -0.629443           1.11099          0.883335          -0.76846         -0.157672         -0.797215         -0.716242         -0.870222         -0.460594          0.185913          0.210597         -0.869899           1.12145          0.306933          0.100445           1.17444         -0.736169         -0.626366          0.375889         -0.335974        -0.0959157          0.291707         -0.555067        -0.0733387         -0.500627          -0.56848         -0.350134          -1.60733          -1.01414          -1.09367           0.93939           1.07281         -0.867001         -0.982371         -0.401143           1.54992         -0.562209        -0.0932293         -0.508451         -0.573336          0.493383           -1.1509          0.567042          0.846813          -0.45312           -0.2867          -0.18287          0.245552          0.887027         -0.255944          0.747766         -0.934825         -0.130082         -0.399791          0.134409          -0.69228          0.649519          0.575004         -0.536491          -0.49501         -0.151437          0.913623         -0.316496         -0.622958         -0.469348         -0.183603         -0.145001          0.754924         -0.508434          0.939854          0.684363          -1.00052         -0.647757          0.785737         -0.723024         -0.559068          0.856001          0.699736          0.311373         -0.749187         -0.704697          -1.06396          -1.31499          -1.00323          -1.00281         -0.953859         -0.524846         -0.600112          0.966725          -1.01934         -0.394056          0.249868        -0.0125822         -0.186761         -0.833629         -0.285238         -0.758569          0.281411           1.22988          0.306128          -1.26988          0.603337         -0.461016          0.373935          -0.83743         -0.206162          0.785965         -0.379828         -0.544944         -0.664209         -0.193932          0.589457          0.321628         -0.105397          0.585115          0.592169         -0.631844         -0.355191          0.601089         -0.501921         -0.236903           -1.1066         -0.604763         -0.770271         -0.323541         -0.466074         -0.958761         -0.459887          0.822697         -0.188702         -0.907809         -0.534156          -1.02986         -0.547404         -0.697997         -0.868444          0.338706          0.182064         -0.736524          0.748957        -0.0802089         -0.894793           1.23724         -0.222626         -0.577977          0.418756          -1.42524           0.63127          -0.19541         -0.646577          -1.08924         -0.419824         -0.732954         -0.416821         0.0427904         -0.531058           -1.1336          -1.32318          0.752924         -0.656042          0.111658          0.572723          0.670066         -0.680773          0.313342         -0.767996          0.507646         -0.284632         -0.548138         -0.326971          0.847137          0.338864         -0.209728          0.160608          -1.27922         -0.228509         -0.866434           0.65884          0.878839          0.472745          0.336565         -0.831206         -0.449218         -0.758503         -0.555692         -0.689844          0.497145         -0.844899           -0.2908          0.109877          0.858651         -0.787034          -1.01335         -0.340336         -0.420846         -0.450365          0.207067         -0.692508          0.505426         -0.612879          0.180791        -0.0196748         -0.735621         -0.715589         -0.324886         -0.297601
         -0.227762         -0.858879           1.11864          0.158751         -0.420822          0.765444          0.534773          0.729246         -0.457923           1.89922         -0.187245          0.144114          0.913506          0.403386         -0.362241          0.895324          0.800624         -0.668184         -0.366355         -0.454205         -0.747784         -0.482469         -0.196905           1.20563         -0.426653          -0.92138         -0.794634          0.591334         -0.494163          -1.07818          0.337017         -0.545848         0.0873931          0.323795          0.497244         -0.358343         -0.596682          -1.61246         -0.320935          0.128631         -0.421712         -0.782145         -0.659634         -0.419378          0.853448         -0.406083         -0.248232           1.27179          0.101522         -0.256468         -0.860219         -0.266103          0.542055          0.525072         -0.968277          -0.28914         -0.480864         -0.420516           -0.5665         -0.356001          0.816172         -0.589554         -0.415332          0.186844         -0.344478         -0.937329          -1.17709         -0.997801          0.815167         -0.606859         -0.160436          -0.92936          0.290191          -1.14606         -0.411902         -0.283798         -0.153186         -0.866686         -0.308405         -0.206724         -0.591832          0.767137         -0.421265          0.639824         -0.574427           0.77939         -0.753787         0.0797279         -0.324451         -0.917448         -0.246971         0.0657764         -0.212217          0.543471           -0.2918           1.86411         -0.735435         -0.891144         -0.210829          -1.34709          0.842654          0.184986          0.354619         -0.535636         -0.975457          0.301039          0.584901         -0.951739          0.595794         0.0302071          -0.42294         -0.496516          0.369176         -0.424577          0.914719         -0.190819          -1.16091         -0.220131         -0.320248         -0.823314         -0.167746         -0.286049           1.19131         -0.126243          0.516346            1.5105         -0.178715        -0.0885162        -0.0699814            1.3945         -0.784004          0.903119         -0.523735         -0.930144         -0.507723         -0.302165         -0.251093         -0.572727         -0.102034         -0.707317          -0.54605          0.355311         -0.646591         -0.718508         -0.387298         -0.139825         -0.248679         -0.885563          0.599253         -0.342706        0.00597437         -0.500875         -0.646858         -0.661103          0.605051          0.978489         -0.531445         -0.336404         -0.229646          0.704598         -0.639376           1.15212           1.34038         -0.289339         0.0807176         -0.120822         -0.487691           1.09673          -0.11237         -0.427051         -0.481252         -0.416406         -0.202715          0.208536           -0.5612          0.174993         -0.400268           1.48336           -1.2318         0.0908396         -0.903876         -0.310125          0.424362          0.580627         -0.456679        -0.0710957         -0.524016           1.15864         -0.714061         -0.563607         -0.529141        -0.0251853         -0.762025         -0.278849         -0.648051         -0.510819         -0.142101         -0.584654         -0.152522           1.12193           0.34119         -0.466228         -0.865112         -0.281589         -0.605453         -0.827208           0.19952         -0.453151          0.337996          0.285901           1.42478           1.17641         -0.549502          0.310355           1.03457         -0.118657         -0.386731           1.55767        0.00234388         -0.636685          0.164952        -0.0655298          0.820634        -0.0158334          0.693163         0.0523228         -0.629854           0.30912          0.858916         0.0876963         -0.250509         -0.717525           1.96148         -0.211585         -0.479685          0.760216         -0.327155         -0.135874         -0.720997         -0.416917         -0.762165         -0.187397         -0.444705          0.764152         -0.440249         -0.205949         0.0099962         -0.500538            1.0245          -0.30298         -0.640776         -0.628894         -0.616134         -0.451065          0.431833         -0.574677         -0.439743          -1.25737          0.457587          0.186445         -0.944021           0.30191          -1.11323         -0.128994         -0.597675          0.488632         -0.461992          0.325186          0.589429          0.133206         -0.624507           1.24613         -0.738986        -0.0790508          0.233213         0.0485343         -0.183514           1.06668          0.615264          -0.68438         -0.452393          0.859043         -0.320963          -1.17842          0.959943         -0.454603         -0.533782         -0.537044        -0.0771903         0.0391139            1.4399         -0.519221         -0.503088         -0.606968         -0.206209         -0.432287         -0.165965         0.0524249         -0.205274          0.434555         -0.813755         -0.535007         -0.571547         -0.717733          0.551596           1.24711          0.561362          0.951728          0.411402         -0.557222         -0.113227         -0.371536         -0.628236         -0.778958         -0.158063          -1.17057         -0.445851         -0.725834          0.761763         -0.371024          0.960517         -0.488971         -0.297601         -0.302018           0.79869          -1.09096          0.123782         -0.576864          0.798603         -0.189749           1.08667         -0.396142         -0.550722          -0.71892         -0.962077          0.674725         0.0145145         0.0763483         -0.139102         -0.853994          -0.92172         -0.246272          0.614346          0.319819          -0.71312         -0.263209           0.60256         -0.366846         -0.971201           0.13337          -0.19963          -1.19557           1.11402          -0.38278         -0.637512          0.979042         -0.388882         -0.312405          -0.53795         -0.205018          -0.26844          0.275061         -0.529568         0.0754858          0.626192         -0.364404        0.00861805         -0.998751          0.858754         0.0699416          0.817283          0.325967          0.692193        -0.0561017          0.390995         -0.477113         -0.187253          -0.35716          0.601511         -0.962151          0.451302         -0.151283         -0.169865            1.0426          -1.42372         -0.203122          0.146567          0.704548         -0.548302           1.23324           0.10697         -0.394516         0.0203049         -0.618389          0.204673         -0.445994          0.803334          -0.22901         -0.131845          0.880109         -0.544922          0.101097         -0.959459         -0.197251          0.194548          0.692085         -0.332006           1.17013          -1.10851         -0.774262         -0.744756         -0.505364         -0.236302          0.694128         -0.716616           2.19871         -0.657123         -0.502471           1.52861           1.39826         -0.876897         -0.373662         -0.708212         -0.266658         -0.562761         -0.394571         -0.773339         0.0944778         -0.700301         -0.784904
        -0.0799088          0.353661           1.40891        -0.0696047         -0.576855          -1.36763          -1.05881         -0.178166          -1.18358          0.761009         -0.698649         -0.964113         -0.122104         -0.945343          0.287361         -0.108547          0.426377         -0.653805         -0.584826         -0.649309          0.209047         0.0909474         -0.571466         -0.404576         -0.701122         0.0867965        -0.0925666        -0.0568206         -0.729378          0.491044           1.70674          0.529002         0.0834632          0.607427          0.949768         -0.316521          -1.20544         -0.915223         -0.673877         -0.186384          0.124058         -0.730438         -0.295021           1.05857         -0.186188          -0.70197          0.258519         -0.106533         -0.326253          0.217269         -0.242712          0.719748          -0.54345         -0.448526         0.0872031         -0.750198          0.531176          0.627922          0.400016          0.198085           -0.3608         -0.366364         -0.543362         -0.644128         -0.696246         -0.197417         -0.592155          -1.04709          -1.25641            0.4876         -0.437296         -0.426272          0.849865         -0.518927           1.04645          0.115416         -0.755703          -1.25578         -0.593567         -0.782854          0.231003          -1.15444         -0.283079         -0.612325         -0.800226          0.111621         0.0354764          0.703878         -0.198061         -0.739045         -0.860081         -0.771972         -0.739381           1.18089           0.22667          0.445992          0.325485         -0.288798         0.0892821          0.527661          0.993324            1.7127          -1.04339           1.08581         -0.956372          -1.32217         -0.502066         -0.817712          -0.28315         -0.551177         -0.660157         -0.700931         -0.409803         -0.639546          0.242563         -0.539364          -1.16038         -0.521788          0.516777          0.143425          0.947342         -0.456426         -0.123451          0.270062         -0.715749          0.857235         -0.530015          -1.17528           1.46655          0.210864          -0.14714          0.103732         -0.219656         -0.838858         -0.407046        -0.0742712         -0.461044          0.900236          0.679259          0.782862          0.564344         -0.282877         -0.396792         -0.522789          -0.25487         -0.630413         0.0379342         -0.784478         -0.330488         -0.910083        -0.0700243           1.16289          0.219282         -0.448559         -0.453105           1.32185         -0.601388         -0.508829          0.515307         -0.249462         -0.330052         -0.551532          0.331859          -0.12444         -0.569196          0.319011           1.15822          0.650693         -0.644367          -0.68026         -0.467792         -0.850801           1.24509         -0.298377          0.491357         -0.975825          -0.66705         -0.702957          -1.00672         -0.578665          -1.24335        -0.0526779          0.698773          -0.51574         -0.509204         -0.196842         -0.706966          0.809733           1.37073         -0.849444         -0.745946         -0.790274          0.974802         -0.668409          0.437392         -0.434853          -0.37031          0.054032         -0.431496          -0.11555            0.5242         -0.301709          0.714023           1.50159         -0.294004         -0.251685           1.97995         -0.773411         -0.119572          0.344825          0.433438          0.478809          0.270102          0.901022          0.442602         -0.687153           1.06778          0.986607         -0.505261           1.36967          0.358853         -0.471043          0.493939           1.53222          0.233575          -1.08154          0.787318          0.422794          -0.51043         -0.737607         -0.613714          0.463604          0.760468         -0.638786          0.174717           0.79717         -0.758865         -0.816097          0.889631         -0.116442         0.0121831         -0.298357         -0.453055           1.12468         -0.512707           -0.7972        -0.0942013         -0.446299         -0.523105          -0.96118          -1.21873         -0.751705         -0.589109         -0.283709           -1.2189         0.0462334         -0.323988          -0.91085          -0.31552         -0.381881          -1.27988         -0.881994          0.132515         -0.602363           1.53407         -0.197194           1.02552         -0.108598           -1.0835         -0.914605         -0.183274          0.388657          0.610234         -0.144984          0.615491          0.453063           1.08118          0.275473         -0.649572          0.302591         -0.625159          0.873903           1.01614         -0.572292         -0.472586         -0.575266         -0.291096         -0.331951          0.443794         -0.549477           1.60654         -0.867887          0.025886         -0.751675         -0.492836           1.14922         -0.460455          -1.22233          -1.19628           1.89845         -0.766507         -0.468255         -0.326109         -0.457294         -0.658094         -0.314525            1.1882         -0.134056         -0.870432         -0.315237         -0.866505          -1.12822          0.430116        -0.0463942         -0.232429          -0.86136         -0.801932          0.988507          0.655618          -0.59035         -0.630692          -1.09078         0.0371782          0.971567          0.352635            -0.613         -0.482425         -0.257706          0.147037         -0.559413         -0.760345         -0.355478         -0.346562         -0.231728          -1.00474         -0.596113          0.312107          0.664148         -0.832584         -0.140206         -0.492219         -0.526477          0.768259          0.981934         -0.748409           0.41299         -0.695893          0.628398         -0.908017         -0.808875         -0.650028           -1.3927         0.0113825         -0.200812        -0.0709826           0.31091           1.00825           1.09154          0.289031          0.961175        -0.0777193           0.32202           1.01199         -0.527872         0.0363688          0.899299         -0.336829         -0.711036         -0.566107          0.210072          0.319084          0.740588         -0.500037         -0.558593          0.179063         -0.661794         -0.616414         -0.449958         -0.400576          -1.21315           0.10211           1.30601         -0.319005           1.68836          -1.12832         -0.015948           1.59549         -0.791688         -0.674626          0.202931          0.808813         -0.537942         -0.150948         -0.385503         -0.234251         -0.112853         -0.689606           1.49659          0.952944         -0.057971          0.220241            1.2928         -0.922336         -0.376302          0.182502          0.564728         -0.294407           1.24458         -0.834173         -0.636508         0.0295564         -0.671713         -0.802856          0.149554         -0.253499           0.71122         -0.800045         0.0984105           1.64246           1.15531          0.913796         -0.307109         -0.875104         -0.949721          0.242849          -0.61031         -0.488042          0.774396          -0.39629         -0.552718
          0.954347          0.072242        -0.0486369           -0.3473          0.863303         -0.615361         -0.120145           1.50717         -0.142697         -0.439658          0.618627          0.913424         -0.541474         -0.122332       -0.00946174          0.567747         -0.327558         -0.285193           1.01387        -0.0611996         0.0294543          0.525846          0.318029          0.452104         -0.527586         0.0716701         0.0951999         -0.127859         -0.551477       -0.00553729         -0.643613           1.35446         -0.589878         -0.377286         -0.487479          0.963858         -0.077059          0.516511         -0.575829          0.193319          0.674153           1.21232          0.985797        -0.0763318          0.216039          0.797113          0.135302         -0.615106          0.346513          0.250639          0.368915         -0.567218         -0.608263           1.25954           1.09195          0.564282          0.285842         -0.108848          0.316211            1.1364          0.809339          0.435184         -0.463334         0.0352834          0.163894          0.741932          0.877251          0.916338         -0.344749          0.653509          -0.71636          0.220692           -1.4731          0.607737         -0.839862         -0.267289          0.581944         -0.243594        -0.0746789         -0.287288            1.2452         -0.226598         -0.564286        -0.0265229          0.405049         -0.528281           1.17934         -0.895475        -0.0179287           0.25485           0.18574          0.147803         -0.204283         -0.520401          0.250257         -0.668265          0.310625       -0.00943521          -0.21928          0.297249         -0.756449         -0.431604         -0.201563         0.0797707         -0.448329           1.36499          0.586298         0.0266761        -0.0208362         -0.732101         -0.280613          0.616828            1.2045         -0.257159          0.798307         -0.535776           0.58222           1.41114         0.0172463          0.307714          0.295338         -0.908679         -0.531764         0.0702921          0.556421          0.926517          -1.71253           1.18037          0.902565         -0.927969         -0.212339         -0.959421         -0.200851          0.139399        -0.0201297           1.32686          0.653571          0.546919          0.132637          -0.22101          0.871364           1.19593           -0.3189          0.371884          0.237087          0.153435         -0.268277          0.500566           1.10378          0.670154         -0.845076         -0.165396          -0.13607         -0.122863          0.656486           0.71448          0.224696         -0.195418           1.14901           1.26642         -0.234565          0.763321         0.0209558          0.715143         -0.139924         0.0995551          -0.18304          0.103891          0.680696         -0.321558           1.17272          0.911505         -0.386041            1.5256           1.25454           1.07935          0.688793         -0.779529           1.32648          0.515858          0.536043         -0.442534         -0.131589         -0.259477         -0.547277         -0.306291           0.21589        -0.0366358          0.747384           0.18224         -0.950871          0.682891         -0.158129         -0.164435           0.11227         -0.452202           1.32808         0.0506453         -0.140708          0.125381         -0.624581          0.187535         -0.157696           0.95348         -0.437037          0.365918         -0.498137         -0.558744         -0.509692          0.184505          -0.80099          0.266001         -0.126329          -0.68297         -0.761521         -0.597475         -0.280709         -0.656947          0.447386         -0.272922         -0.146102         -0.510214          -1.12704         -0.379923         -0.239385           1.23574           1.54795         -0.426329       -0.00673044          0.985788         -0.649282          0.684007         -0.706429          -0.48898            1.0058         -0.316237          0.376902          0.368141          0.825959          0.592877           1.28696        -0.0495673         -0.600242         -0.524951         -0.682028           1.07719          0.131825         -0.138491         -0.362957           1.06548        0.00358833          0.819409         -0.457672         -0.243106          0.896841          0.188431         -0.147573          0.316365          0.331684           1.18322        -0.0992737          0.396763           1.04264         -0.118957          0.297352         -0.793879         -0.418659          0.992732           1.00316         -0.150461           1.14542          0.042796         -0.274619          0.407768         -0.444569         -0.411158          0.852676         -0.641637             1.153          0.239141         -0.488939          0.242978          0.263974          0.779345         -0.693176           1.06741         0.0521527          0.243638         -0.374526         -0.652105         -0.481537         -0.136797           1.03922          0.743155         -0.631777         -0.363621           1.11337          0.758407           1.41119          -1.04254          0.625725          0.884775         -0.380424           1.12962         -0.509953         -0.921101         0.0768112         -0.623164          -0.53519          0.275899          0.671439         -0.422427          0.987967         -0.162337           1.29653         -0.125205         -0.539079          0.257114          0.155721         -0.573563         -0.645442         -0.281835          0.960194          0.920454         0.0828533           1.07986         -0.123426          0.450407           1.04829         -0.619266         -0.103636         -0.185947         -0.655666           1.21209         -0.217312          0.933396         -0.556896           1.27293          0.901801          0.988697           1.38378         -0.662178         -0.802591          0.245046          0.897782           1.34131         -0.288439          0.544908           1.15757         -0.578443        -0.0867027         -0.926926         -0.705741          0.689518          0.412146          -1.11344         -0.109549         -0.518984          0.862817          0.181379        -0.0522783           1.79115         -0.462573         -0.598368           1.19473         -0.513221           1.17745          0.166654         -0.492578         -0.732042          0.027778          0.250329         -0.609138         -0.581515         -0.336193           1.10639          0.593414         -0.418649           0.13042          0.369713         -0.479916         -0.594086         -0.312517         -0.582849         -0.540284          0.882868         -0.315284          0.603046          0.394373          0.635247         -0.405341          0.877248          0.200022         -0.693428          -0.64858         -0.340516         0.0807147          0.732089           0.36574         -0.148328         -0.149821         -0.108362         -0.181972          0.837096          0.540327          0.456119          0.667789         -0.255741         0.0758364        -0.0682481         -0.648593         -0.467312           1.49508          0.767104          0.208757         -0.966703           0.45374           0.28643         -0.502901         -0.736137           1.23613          -0.11408           1.02296         -0.591295         0.0721955          -0.68073           1.27915         -0.310698           1.10464          0.619176
          0.916383          0.418603          0.624838         -0.153551          0.875048          0.120078          0.391681          0.444753         0.0947062         -0.198562         -0.183587          0.318322          0.305207          0.912786           1.09812         -0.837234          0.422135          0.495966          0.159307          0.483597          0.511254          0.218149          0.115931           1.19321          0.418555          0.121286         -0.705154          0.442026          0.596146         -0.181374         -0.113569          0.922762         0.0985458           0.97323          0.310831           1.10846          0.580802          0.417037           1.16142         -0.672404         -0.118799          0.257056          0.710659          0.250257        -0.0537528          0.989535          -1.16963          0.424219         -0.705095         -0.874813          0.879689          0.368182          0.297979          0.597913           0.61858          0.638258           1.09245          0.373426         -0.715711          0.968788          0.298374         -0.593907           0.80289          0.604857          0.484913          0.502929         -0.136734          0.510055           1.22485          0.272309        -0.0917983          0.495984         -0.287804          0.498985          0.513643          0.266425          0.236206          0.806436         -0.664534          -0.25893          0.169492           1.03273          0.370136         0.0313629       -0.00842591         -0.198259           0.58586          0.903834          0.507112         -0.222424          0.914172          0.324739           1.24339          0.224305          0.759595          0.929719         -0.424246         -0.107759          0.316956          0.839832           1.00819          0.405082          0.376282          0.297685          0.206694          0.186084          0.528874         -0.158235         -0.448413          0.337362           1.02185          0.750117          0.476389         0.0264442         -0.547621           1.01992          -0.88825           1.19568          0.964545        -0.0790544          0.457731          0.896572           1.08359          0.264737           1.05481         -0.546746          0.793546          0.553296         -0.766483          0.456864          0.747537          0.449175          0.361402          0.270492           0.80219         -0.788748          0.940084          0.259436          0.707117          0.491246          0.656257          0.493128           0.28788          0.201008          0.161709          0.625982          0.395122          0.462372         -0.329892          0.896484          0.359449          0.562992         -0.717714          0.725601          0.152344          0.208421          0.391339          0.691636          0.591919           0.55114         0.0871434           1.06749          0.744449          0.427194         -0.675241          0.514109          0.145232          0.316128          0.417147         -0.321651          -0.41936           1.09685         -0.406355          0.692177        -0.0044605         -0.497808          0.776674          0.390782          0.682355           1.11336         -0.282134          0.430478          0.851398         -0.640104          0.410219          0.198877          0.669516          0.689675          -0.54417          0.854237            1.1193          0.657521          0.523429          0.624965         -0.734183          0.285019          0.958548          0.486398           1.24472          0.430126          0.370482         -0.467343          0.340337         0.0902182          0.549982           0.14755          0.377778            1.1085          0.911801         -0.106031          0.519638           1.01213          0.471113           1.19873         -0.658857          0.498415           0.24359          0.654523           0.97642          0.288562          0.424927          0.900243           1.09008         -0.854156           0.34792         -0.333436          0.272436         -0.930287           1.22451         -0.309392          0.833393          0.586581        -0.0662468          0.283158          0.431376          0.211872          0.819775          0.943375         -0.761264          0.569247          0.243549         -0.713279          0.260232          0.146489          0.782428          0.480039          0.710214          0.226045           1.23631          0.808311         0.0392412           0.99882          0.412489           0.46214          0.420951          0.821738          0.278073          0.729037          0.412915          0.621045          0.794896         -0.786692         -0.598538          0.785421          0.413721           1.02833         -0.802866         -0.374422           1.00545          0.933116          0.251324          0.638355          0.463365          0.502644           0.96737          0.320652         -0.478083           0.66184          0.814124          0.293827          0.215456          0.983424         -0.665616         -0.687284          0.263503          -0.33592          0.679991          0.340337         0.0193759          0.143985          -0.85334          0.825896         -0.234429          0.174455          0.700411          0.197239          0.894732          0.977012          -0.55474          0.443803          0.787629          0.820036         -0.486082          0.355618          0.664658           1.05827          -0.39297         -0.475305          0.623694           0.45795          0.917324          0.505311         -0.858296         -0.655909         -0.524434          0.600849          0.279901          0.433283          0.381947          0.986501          0.935661          0.302637        0.00621392          0.423932           -0.6636          0.337481          0.560873          0.300577          0.406979           1.05886           1.22014           0.69364          0.779806          0.509311          0.545698          0.205955          0.377027          0.242988          -1.10735          0.291902         -0.813426          0.370961         0.0392311         -0.534893          0.722786         -0.552557          0.509371           1.07846         -0.928833          0.989352           1.29082          0.701467          0.919973          -0.64907         -0.524281          0.366595          0.301864          0.360325          0.323646          0.917561          0.494717          0.828224           1.01881          0.388115          0.397381         0.0738203          0.473269         -0.683152           1.10702          0.914106           1.05278          0.219138           1.05763          0.770064          0.746149          0.231951          0.622559           1.00255         0.0831225          0.452188          0.456659         -0.818281          0.128644         -0.698809          0.291118         -0.718609          0.171984             1.109          0.825853          0.134899          0.893036          0.672544         -0.564965          0.993269          0.905266          0.541609           1.00013          0.244823          0.691487          0.365073          0.184543          -0.76828         -0.902641          0.363965          0.477465         0.0125109          0.182133         -0.558508         -0.347969          0.425881          0.934321          0.955306          0.966809         -0.698135         -0.327483        0.00096365          0.293617          0.167756          0.643955          0.992937         -0.861868          0.349227          0.106166           1.26567          0.873425          0.853423          -1.02279          0.951101         -0.361232          0.777519
