weight 0:
         -0.240044          0.135149         -0.904706          0.424746         -0.978234          -1.07284          -1.15114           -1.1402            0.6422          0.124556        0.00474275         0.0668119          0.245142          -1.44059          0.939539          0.253203         -0.100034           -1.1615          0.146301          0.988063          0.352031           0.24791          0.904852           0.87854          -1.11331        -0.0716614          0.506026          0.872238          0.215428         -0.106394          0.348335         -0.847462          0.894425          -1.21266         -0.469943          0.386022          0.138891          0.330229          0.130202          0.206969          0.268272          0.351427          0.713818          0.351712          -0.05083         -0.191387         -0.086232           1.00499          0.530449          0.156452          0.300215         -0.803948          0.585324         0.0387297          0.692727          -1.23966          0.273741          0.937742          0.925832          0.726797         -0.572531          -1.06097          0.327505          0.379879          0.467135           -1.1301           1.01455          0.232924          0.242074           0.30446          0.875123           -1.0858          0.300749           0.85208          0.285749         -0.627745          0.499296          0.294249          0.983447          0.245244         -0.026227         -0.565924          0.265235         -0.372914          0.446992          0.953282          0.274329          0.673033          0.453498         -0.892639          0.188638          0.397457           0.11678          0.952693          -1.17522         -0.337287          -1.14712         -0.610369         -0.363856          0.256646         -0.658032       -0.00993476         -0.522306          0.334053            -1.274          0.165206          0.969592          0.171684         -0.877842          0.769587         -0.315873          0.588869          0.188243          -0.13566           1.02983         -0.255096        -0.0421364        -0.0244985        -0.0540733         0.0235777         -0.175329          0.312226         0.0937077           1.22486         -0.875632          -1.08973          0.441417            1.0375           0.48811         -0.905955         -0.662031          0.299297          -1.06668           0.32613          0.237343           1.22959         -0.431966         -0.904144         -0.996881          0.120741            0.2178         0.0976432          0.927607          0.179226          0.283321          0.245487         -0.149714         0.0147304          0.266165          0.911039          -1.05527         -0.522653          0.450166         -0.662985         -0.138646          0.380401          0.669263          -1.23919          0.941275          0.088281         -0.129517           -1.0885         -0.509022          -0.91815         0.0888418         0.0644284          0.510756          0.576377          0.511598         0.0879785          0.204877          0.275391          0.252385          0.321877          -1.03134          -1.00065          0.854171            1.0262         -0.905527         -0.119335          -1.05222            0.1082          -1.12429          0.513516         -0.891213        -0.0390755          0.183752         -0.775162         0.0245596         0.0835685         -0.112804          0.278226           1.02078          0.445193          -1.00231         -0.928938          0.292771         -0.080393         -0.556884         0.0298332           1.33967          0.253319          0.229377          0.172192          0.380494          0.326549        -0.0870829          0.862765         0.0938242          0.352709         -0.216176          0.213553         -0.301839         -0.110388         -0.980006          0.158065          0.392513          0.969038          0.894248          0.903291          0.789749          0.875677          -1.04886          0.991913          0.761424         -0.784547         -0.757101          0.475582          0.122479         -0.190484        -0.0232944         -0.246399          -1.13585         -0.577346           0.63039          0.426123        -0.0703126        -0.0221977          0.396417          0.126774         -0.966994          0.414749          0.181575          0.594725         -0.673078         -0.771242          0.937683         0.0816916          0.907703          -1.08788          0.113992           0.18373          0.672092          0.433385          0.976835         -0.831769          0.197694          -1.02706         -0.943506          0.564716          0.316937         -0.100741          0.727199          0.110932          0.527343         -0.311842         -0.302683          0.939127          0.501273          0.872098         -0.376387         -0.958063           0.60415           0.41434          -1.45167           0.64243           0.71982          0.116591          0.520596         -0.151908          -1.14184          0.198227          0.574085          0.886194         -0.313206         -0.110719          0.189415        -0.0999061          0.338743         -0.088452         -0.440413          0.161202          0.207302          0.891927          0.633575          0.412047         -0.424753         -0.442964         -0.438274          -1.38896          0.466196           1.01682          0.104177          0.423921         -0.356014          0.277695         -0.344299          0.195328          0.267614           0.99723          -1.38751         -0.196374            1.0058         -0.882315          0.844252             1.364          0.918316        0.00915759          0.490431          -1.13602           1.14632          0.452582          0.917992          0.361006         -0.344166         -0.622271           0.51376          0.815055          0.456864         -0.411657          0.809751          0.374658          0.251789           0.39182          0.211863           0.33356          0.221726          0.165784
          0.169752          -1.13074         -0.632981         -0.589397            -1.035         -0.868365         -0.864742           -0.2476         -0.150639          0.592935         -0.675088         -0.612477         -0.667086         -0.587258         -0.745215         -0.664766          -0.92508          0.425024         -0.777087          -0.45236        -0.0261162         -0.969049         -0.718264          -1.14275          -1.13944         -0.784574         -0.259028          0.723868         -0.973423         -0.806239         -0.891151         -0.573408           0.33083         -0.653265         -0.166359         -0.263829          -0.88055        -0.0586907         -0.669382          -1.29602         -0.584863          0.232264         -0.490827         -0.856899         -0.587346          -1.25058          -1.19419          0.851838         -0.526262         -0.815246         -0.999923         -0.880546         -0.684126         -0.997841         0.0660588         -0.648426         -0.579895          -0.95551         -0.521643         -0.814112          0.489218         -0.287547          0.267606          0.731252          0.983844          -1.10947          0.126702         -0.765054         -0.696667         -0.715445         -0.480098         -0.708024          -1.00516         -0.487253         -0.983241          -0.55698          0.252879          -1.04514         -0.919865         -0.938766           1.33119         -0.474443          0.974842         -0.195885          -1.00069         -0.117919         -0.266552         -0.558554         -0.507772         -0.790958         -0.900784         -0.566518          -1.07557         -0.817144         -0.641678           -1.1695          0.550118          0.519424          0.130171         -0.851743          0.839042         -0.745757         -0.626566          0.127276         -0.675459         -0.835956          -0.67042         -0.778756          -0.13312         -0.792857         -0.963149         -0.777841         -0.991624         -0.376127          -1.00158         -0.130094        -0.0225093         -0.887121         -0.791699          0.137164          -1.12749         -0.775867          -1.09737          0.649369         -0.633378         -0.711439         -0.608875         -0.535396         -0.428482         -0.329966         -0.168374          -1.35361         -0.786042         -0.518812          0.057026          -1.17297         -0.969724          -1.45756         -0.835539         -0.442263         -0.825516          -1.14942          0.329364        -0.0872765         -0.722493         -0.837558         -0.487187          -1.09943         -0.995261          0.856117         -0.755296         -0.929362           -0.7195         -0.930717          0.378812          0.123193         -0.743544          0.477313         -0.433475          -1.04685         -0.735799         -0.919454          0.118464         -0.820585          -1.13345          0.797614          -1.27161         -0.529305         -0.157892          0.422292           0.22609          0.371176          -1.05778          0.250665         -0.789837         -0.504268         -0.582977          0.743225         -0.613593         -0.771299         -0.826472          -1.00648         -0.745371         -0.931836          -0.66792         -0.677857         -0.856642          0.604864          -0.76355         -0.873796         -0.868194         -0.565554         -0.774109          -0.64983          -0.84841         -0.719623         -0.485792           -0.7749         -0.652259         -0.777837         -0.486418         -0.706314         -0.806899          -0.21471         -0.832962         -0.866974          -1.06031         -0.735199         -0.740897         -0.912432         -0.699298          -0.65795         -0.935884          -1.04422         -0.881317         -0.818707         -0.635528          -1.10412          -0.69804         -0.641751         -0.783154         -0.894262         -0.555801          0.531917          0.341107         -0.144732         -0.999733          0.066145         -0.422846         -0.976999         -0.649929         -0.802701          -0.61552         -0.708731         -0.203831         -0.966539         -0.433229         -0.736304         -0.983758         -0.754996          -1.14042          -1.24738        0.00552884          0.153809          -1.15036         -0.569995         -0.546573          -1.06856         -0.441885         -0.441799         -0.898215         -0.568192          -0.14763         -0.869779         -0.589145          -1.07922          0.715722         -0.731947         -0.906338         -0.465814          -0.80129         -0.715117         -0.644138         -0.218078          0.339256         -0.693116          -0.85819         -0.628238         -0.484554         -0.701015         -0.344961          0.316236         -0.346005          0.923107          0.611704          0.911266          0.283126         -0.703454          0.513406         -0.995024         -0.820313         -0.693139         -0.899999         -0.630387         -0.118189         -0.792628          -1.18507         -0.854982         -0.688586         -0.735771          -1.09467         -0.742287         -0.868372           1.16143         -0.133429         -0.353414         -0.739627         -0.178579          0.301344           1.13614         -0.897687         -0.523621          0.229118          0.251493         -0.519553          -1.33327         -0.708857         -0.791518           -0.1108         -0.524074         -0.676421          0.357343         -0.839492        -0.0854262         -0.119481          -0.88537         -0.524427          -1.05762         -0.223165         -0.929941          0.103358         -0.795215         -0.484194        -0.0278452         -0.508712         -0.368881         -0.572537        -0.0764333         -0.709051         -0.481642          0.139179         -0.829005         -0.897932         -0.759095         -0.666212          -1.47318         -0.596828         -0.303011
         -0.718636        -0.0830398         -0.468863         -0.586261          -1.34989          0.227074         -0.533837         -0.867883         -0.874932          0.329957         -0.827818         -0.865402         -0.340638          0.128758          -1.13358          0.224565         -0.255154          -1.24767         -0.712295         -0.791295          0.136323          -1.23802          0.191209          -1.09084          -1.04691          -1.17204          0.440731         -0.912007         -0.951836          0.361838           0.10798          0.169919        -0.0399419          -1.30208         -0.814798          0.287056         -0.796105         -0.657856           0.17701          -1.16001         -0.764513         -0.360596          0.225257         -0.165576         -0.806602          -1.21357           -1.4784          -1.23419         -0.576215          0.139461         -0.489715          -0.30409          0.484368         -0.745211          -1.36964         -0.286411         -0.354317          -1.01519          -1.15133          -1.27402       -0.00847538          0.173178        -0.0429452          0.209433         -0.939806           0.25319         -0.861209         -0.791505         -0.960747          0.261978          -1.20262         -0.804456          -1.31607          0.448096         0.0288567         -0.983836          0.363542         -0.899121          0.135236          -1.38213         -0.822199          -1.13871          0.163951         -0.437248          0.400811         -0.190658          -1.47598         -0.920988          0.175215          0.252357          -1.53844          0.234407          -1.22488         0.0876547        -0.0558159         -0.840347           -1.1254          -1.06561         -0.871805          0.330197         -0.954069          0.193181         -0.398426         -0.635627          -1.33237          0.106636           0.25765          -1.07701         -0.215503         -0.503235          -1.32549         -0.968068         0.0950257          -0.17637           -0.8244         -0.684122       -0.00606923        -0.0177845         -0.272218         -0.705858         -0.454862        -0.0545572         0.0451089         -0.215886          -1.35007         -0.350853          0.236508         -0.492556          0.418365           -1.1522          -1.47362         -0.413115         0.0814045         0.0572797          -1.18012         -0.287581         0.0816051         -0.419342         -0.847384          -1.07629          0.250171         -0.423319         -0.989833          0.267635         -0.486261         -0.911688          0.236522          0.131765         -0.772942          -1.00451          0.118451         -0.406647        -0.0281565         0.0853456         -0.114694          0.190963         -0.639444          -1.27134          -1.37976          0.199638          -0.36017         -0.677737         -0.127269         -0.245791          0.355677        -0.0842167         0.0393192          0.632684           0.19655         -0.277581          -2.01621          -1.35287         -0.880994         -0.135995        -0.0502105         -0.925558         -0.433064          -1.27525         -0.279748         -0.201566          -1.13011          -1.48417          0.344442         -0.110833          -1.06516          -1.05579          0.390338          0.527763          -1.19996          0.216837         -0.744899          0.274065          -1.23861        -0.0351517          -1.10944         -0.280739          -0.94371         -0.252006          0.068291         -0.358074         0.0780556          0.188774          0.296654         -0.864104         0.0756441          0.130858        -0.0324094         -0.836765          -1.47466         -0.149129          -1.22734           -0.2955          -1.48525         0.0989337          -0.93361         -0.185941         -0.073352          -1.09884          -1.05819          -1.13993         -0.610737          -1.37762        -0.0669539          -1.02989          0.350798          0.168517         -0.132055       -0.00768889           0.35877           -1.2044          -1.03647         -0.606529          -0.35161          -1.20282          0.478027         -0.407125          0.275602         -0.191844         -0.677734          0.205673         -0.968526          -1.15023         -0.265885          0.348122          -1.23214         -0.819918         -0.525048          -0.33913         0.0464979          0.229825         0.0914881          0.450051          0.199895          -1.01652          0.553169         -0.137499         -0.705612         -0.351959          0.373973          -1.01777           -1.2242          -1.14053          0.382699          0.161069          0.125681         -0.811332          -1.22778         -0.410295          0.469677         0.0588301         -0.178056          0.194905          -1.31607         -0.823857          -1.62022         -0.762314         -0.141931          -1.09028         -0.875881         -0.484443          -1.00774         0.0775792         -0.504049         -0.650383          -1.09374         0.0620225          -0.40185         -0.416864        0.00860674          0.419892        -0.0209019           0.37632         -0.385418          0.296512          0.319153          -0.33107           0.13079         -0.528502         0.0346282         -0.625222         0.0796234         0.0724085          -1.19473           0.54406          0.123081         -0.599172         -0.809662          0.285989           -1.0725          -1.65948          -1.28979         -0.900048         0.0830379         -0.632276          -1.18873          -1.03253           0.10894          0.286577          -1.27501          0.411589           0.22122         -0.139561          -1.02415          0.434973         -0.730311       -0.00804869          0.272929           0.46824          -1.04844         -0.738011          0.154435          0.133753        -0.0613742           0.56326         -0.909529          -1.13298         -0.442356          -0.84506
          -1.06027         -0.443476         -0.394571         -0.516765          -1.77677          -0.93745          0.918938          -0.81719         -0.428298             0.483          0.385112         -0.276129         -0.565237           -1.1547         -0.272493          0.976946          -0.52919          -1.05148         -0.631217           -0.7849         -0.610783         0.0483315          0.881274          -1.02917          0.763977         -0.590292         -0.994507           -1.0037            1.2631         -0.424852        -0.0023182           0.54957         -0.591155          0.281016         -0.463707         -0.407338         -0.876867          0.762881          -1.16641         -0.145161         -0.603594         -0.165793         -0.538264       -0.00596978         -0.777695           0.81273         -0.450154         -0.637566          0.154772          0.442082          0.226004         -0.251399           0.50564         -0.580673         -0.670133           0.15852         -0.763599         -0.962536          0.146254         -0.146855         -0.173126          0.863563         -0.486771          -1.19776         -0.670012           1.00147          -1.06696          0.194216          0.493671         -0.380754          0.411488          0.338366          0.731092         -0.900776         -0.886916         -0.466699          -1.43618           0.82187          -1.70301         -0.995939         -0.948965        -0.0242057         -0.466247          0.697283         -0.526284          0.550935         -0.861275          -1.05385         -0.715389         -0.965359           0.61404        -0.0847083           0.45493          -1.08014         -0.488479        -0.0135229           1.40157         -0.550657          0.585088          0.384756         -0.610648          0.448751          -0.97754         -0.813178         -0.778403         -0.297233          -0.94521         -0.197214          0.256986         -0.213527          -0.46942         -0.135158         -0.360067         -0.447077           -1.5151         -0.554624          0.687368         -0.208822         -0.579102         -0.815847          -1.31303        -0.0169427         -0.971972         -0.791061        -0.0127121          0.326696          0.639438         -0.664988          0.330213         -0.870663          0.242012         -0.649612           1.21803        -0.0471638            1.1088         -0.563128         -0.334932         -0.166733          0.716808          -0.79877         0.0911781         -0.365495         -0.130723          -0.40112         -0.561837         -0.563443         -0.335012         -0.430244           0.51803          -0.48817         -0.605441          -1.28911          -1.51984         -0.254163         -0.746489         -0.913033        -0.0536219         -0.801868         -0.511112          0.816069           0.62557          0.719508         -0.420649          0.332767         -0.801353         -0.871762        -0.0522078         -0.857014          0.558443           1.00676          0.916826         -0.839886         -0.354196          -1.10864         -0.318883         -0.922054         -0.503205         -0.726142          0.981775         -0.426032         -0.451934          0.139978         -0.199372         0.0996142          0.131034         0.0837532          0.152856          -0.41161         0.0388106          0.021098          0.494645         -0.649424         -0.776792         0.0810726         0.0725751         -0.667399           0.72786         -0.312177          0.629355         -0.794818          -1.12982         -0.475433         -0.506131         -0.572403          0.561676          -1.51366         -0.950788          -1.95782        -0.0871136         -0.791652         -0.940798          -1.27486          -1.41059          0.851211          0.729479          0.250998          0.509874         -0.939934         -0.944678          -0.41898          -1.71226          -1.06913         -0.418044          -0.79564          0.915239          0.345021          0.307189          -1.02817         -0.984575         -0.119187          0.813858          0.781903          -1.16352         -0.569261          -1.20533         -0.113583          0.919453         -0.387493         -0.486037         -0.302295           1.00734         -0.849248         -0.451861          -1.89138          -1.30806         -0.126424         -0.864076          0.852805          0.463369          0.269003           1.19082           1.05335         -0.928723          0.180418         -0.925749         -0.444972          0.796678          -1.13596         -0.149185         -0.522731           0.11896           1.29866         -0.117349          0.197588         -0.547537          0.765678          0.198995         -0.716899          0.351192         -0.369807          -0.42312           -0.5773         -0.761733          -1.22906          0.330313         -0.760161          -1.16723         -0.929803         -0.968145          0.996483         -0.779727         -0.654843          0.637414           -1.2341          0.540907         -0.894127         -0.159408          -1.29104          0.523399          0.655706         -0.444029           -0.9517           1.19818           -0.5887          -1.68258          0.284974          0.335237         -0.928314         -0.621224         -0.794772          -1.07299          -1.05942         -0.350941         -0.681543         -0.752454          -1.53951          -1.22987          -1.37378          0.313405           -1.1777          -1.26667          0.374544         -0.621617           1.07104         -0.511579         -0.955111         -0.982269         -0.418621           -1.2145           1.06015          0.559271         -0.745639         -0.351708         -0.537893          0.180379        -0.0155028         -0.472015         -0.515178         -0.647451         -0.423829         0.0885927         -0.514667           1.20693         -0.552063           1.27566          -0.44974          -1.12615         -0.599603
           0.17685         0.0584464          0.562975          0.592724          -0.65371         -0.903257          0.610054           -1.0318          0.338464          0.238589         -0.695956          0.168414          0.170594         -0.674778           1.12652          0.317528          0.890103          0.513719          0.505172         -0.401494          0.256049         -0.991997          0.669525          0.505318        0.00912099         -0.510114        -0.0861603         -0.711928         -0.851975          0.603475       -0.00260637         -0.449401          0.411319         -0.812759        -0.0670147         -0.642704         -0.662287         -0.729142         -0.760884         -0.780264         -0.721918          0.166757          0.460156         -0.450014          0.309231          0.366515          -1.17664         -0.150536          -0.35875           0.37722          0.576139          -1.07803         -0.609229          0.618839          0.449085          0.331865         -0.784114         0.0876855          0.540384          0.427204         -0.810803          0.371395          -0.70732          0.520539          0.426038         -0.840793          0.556784          -0.20273           0.33728         -0.683105          0.617863          -1.07818          0.653713          0.658013          0.423602          0.662622          0.510575          0.160241         -0.452248          0.257607         -0.790773          0.340724          0.881516          0.742548          -0.44892          0.421729           -1.0702         -0.591137          0.174985          0.419875          0.304482         -0.811304         -0.804588        -0.0888705          -0.66947         0.0602426         -0.853552          0.386672         0.0463493          -0.75816          0.386533         -0.804853         -0.725727         -0.834407          0.498145          0.362804          0.567364          -1.06337         -0.925108         -0.696817           0.59076          -0.58435          0.306093          0.302377          0.466176         -0.642027          0.259508         -0.100902         -0.521729          0.222814         -0.537073          0.350955          0.795809          0.615069          0.111879         -0.589116          0.403242          0.376329        -0.0457673           0.14392         -0.815417         -0.860064        -0.0622311         -0.226771         -0.781178          0.588172          -0.70625         -0.548973          0.723232           0.99554           0.35856         0.0771826          0.154693          0.163393          0.585356         -0.640761         -0.749794          -1.01676          0.304175          0.461288         -0.616687          0.257768         -0.671435           0.43924          0.555431         -0.831668         -0.354361         -0.800013         -0.529699          -1.10057         -0.787519          0.175668          0.478322          0.577161          0.586162          0.381201          -1.02653          0.691582         -0.154358          0.435309          -0.10259         -0.693181         -0.801275          0.584224          0.506546         -0.861239         -0.203919          0.423999           0.35486          0.176872          0.428725         -0.718331          0.676207          0.444457          0.535393         -0.788516          0.424778         -0.582435          0.441467          0.649515          0.209727         -0.963606         -0.316722          0.147887           0.64169         -0.654272          0.222686          0.267972         -0.897611         -0.827935          0.688702          0.523933         -0.651486          0.754666          0.520925          0.569209           0.46813          0.420768          0.591016         -0.822214         -0.731229           0.62141         -0.693063         -0.166781          0.563646          0.614106          0.302248          0.552568          0.484797         -0.352931          0.618146         -0.411006          0.114457          0.395092         -0.249482          0.385606        -0.0580083          0.304621         0.0376651           -0.8535         -0.398905         -0.823172          0.493316          -0.88309          0.271781         -0.403475         -0.805914          0.552888          0.169494          0.398053           -1.1875          0.705689          0.517115          0.375668          0.568819          -0.79617          0.556399          0.438811          0.417441         -0.220466          0.270756          0.960669          0.620238          0.287713         -0.911716          0.584866          0.407013         -0.656091          0.544106         -0.275425          0.381244           0.50346          0.390404         -0.882462          0.189848          0.455935          0.417544          0.532391          0.497476         -0.331174          0.519928         -0.477355           0.24104          0.302655          0.551846          0.357218         -0.626811          -0.52086          0.624365           0.31361          0.665946         -0.784139        -0.0935452          0.588729          0.367591          0.526577         -0.749471         -0.479633          0.411503         -0.619573          0.459301         -0.110219        -0.0782899          0.484015          0.197163          0.292212          0.396365         -0.418983           0.59165          0.460901          0.610196          0.289641          0.179313         -0.783743         -0.182003          0.349534          0.660205          0.661326          0.319629          0.358688          0.720231          0.333546         -0.359602         -0.895593          0.256061          0.608646           0.58197          0.340085          0.370784         -0.937819          0.652186         -0.892494          0.617594         -0.453872          0.325184           0.38097          0.313301         -0.467009          0.408937         -0.191487           0.32116         -0.571503          0.413319         -0.893022         -0.263937         -0.485475          -1.03153          0.529219
         -0.576439         -0.468485          0.860932          0.564849          0.691892         -0.225113         0.0138609          0.382864         -0.119511           -0.4073         -0.497181          0.724219          0.915669          0.597455         -0.861012          0.618741          -0.46051         -0.175665         -0.609914          0.651944           0.33417         -0.650363          -0.60296          -1.28524         -0.436972         -0.236947           1.29967           1.50468          0.574965          0.515394          0.189452         -0.236187         -0.669194         -0.993118         -0.858921          -0.48974        -0.0851684          0.878687         -0.564812         -0.220142           0.87715         -0.349224          0.792437         -0.480548          0.204504       -0.00319924          0.234385         -0.843278         -0.662034          -0.66502          0.577622           0.38158         -0.531561          0.674394         -0.715842         -0.758005           0.54528         -0.598221         -0.746933           0.20581          0.178627          -0.46954        -0.0768343         -0.827195          0.417794       0.000547517         -0.720887         -0.900233         -0.603313         -0.352947         -0.690449         0.0782283         -0.739793          0.641359         -0.871659         -0.747045         -0.352012         -0.487272         0.0311515          0.263638         0.0729821         -0.185798         0.0712085         -0.736608           1.04776         -0.651112           1.00008           0.90313          0.836341        -0.0826424          0.653722          0.715895         -0.455103          -1.05916         -0.378924         -0.761522          -0.89127         -0.571176          0.239537         -0.297588         -0.314447         0.0196226          0.385692         -0.297261         -0.388247          0.668505          0.133011         -0.400973         -0.556713         -0.176991         -0.530459           0.98156          0.200125           1.59869          -1.12892           0.75955          0.117573         -0.424339         -0.337768           1.01409         -0.430706          -0.19869        -0.0642551         -0.989713         -0.318168        -0.0533792          0.349846           0.63495         -0.818003        -0.0603622           0.96032         -0.575697          0.207973         -0.206393         -0.294263          0.630875         -0.473865            1.1026          0.727853          -0.24307         -0.344471          0.291254          -1.14754           1.70723         -0.877031         -0.283453        -0.0703545          0.153306         -0.372489         -0.110748          0.287034          0.331294          0.149024         -0.461395         -0.335604          0.401618          0.753263          0.429119         -0.803901         -0.543393         -0.482003         -0.855368          0.302997          0.993079          0.952396         -0.289143          0.123079          0.988417           1.01251           1.20047          -0.65703         -0.674059          0.860808         -0.939011          0.801984         0.0757796         0.0342586         -0.740876          0.354593           0.20504          -0.54531         -0.622887          0.409064         -0.918836          0.638034         -0.931199         -0.208122         -0.117635         -0.477082        -0.0597485         -0.357834          0.085108         -0.904976           0.46391          -0.18043         -0.283354         -0.163999          0.263669         -0.416937           0.88107         -0.795024         -0.486594         -0.508348           1.13893         -0.455823         -0.758271           1.25138          0.426286          0.957944         -0.524642          0.466747          0.618366         -0.336262         -0.622777          0.600294        -0.0292232          0.724158         -0.782788         -0.911554        -0.0164744          -1.04223          0.317525          -0.48044          -1.01115         -0.339807         -0.591262         -0.415214          0.468073         0.0216079         -0.715922         -0.595425         -0.438657           0.40024          0.430243         -0.276972          -0.41568          0.974621           1.19167         -0.572993         -0.212791         -0.520486         -0.918815        -0.0383668         -0.898458          0.644486         -0.523566         -0.763141          0.789978         -0.417371        -0.0850397          0.394042           1.11086         -0.645431          0.536183         -0.149635          0.183889           1.69915          0.340307           -0.9802         -0.731907         -0.112269          -0.81083         -0.185853          0.117736         -0.672776         -0.140533         -0.395918          0.532665          0.851998          0.857806           1.24891         -0.575184          0.364684        -0.0731797         0.0865778          -0.65955          0.515206          0.796466          0.442244         -0.182868        -0.0269344          0.387498         -0.459454         -0.973842           1.06728         -0.369224         -0.754938          0.558509         -0.924502          0.896823         -0.389478           1.16629          0.207967         -0.559636         0.0508456          0.598113           0.14726          0.193944          0.150635           1.05948         -0.710945          0.315119           1.25015          0.345857         0.0657408         -0.595506         -0.484333         -0.973447           1.04437         -0.597438         -0.187896         -0.566039          -1.09666         -0.556568          0.583541          0.194043        0.00336739          0.401698         -0.810464          0.261528         -0.522259          0.327934          0.225999         -0.352964         -0.775867          0.554975           1.10163          0.815405          0.165212         -0.175596         -0.770918         -0.646259           1.03599           0.86123          0.570281           0.38953         0.0546496           1.04652
         -0.487636         -0.225964          0.702695         -0.827539          0.108176          0.268693         -0.153842          0.438296         -0.422371         -0.220634          -0.52777         -0.457446          0.247608          0.127472           0.17453          0.313405         -0.857063          0.391582         -0.763291         -0.727034         -0.447876          0.334241         -0.716931         -0.401318          -0.48198         -0.559153         -0.725283         -0.768085         -0.384206          0.523804          0.319403         -0.715546        -0.0837808         -0.364583         -0.794756          0.639111         -0.939368         -0.651565         -0.707567         -0.640683         -0.474285          0.868409          -0.84364         -0.801217         -0.972443          0.678334         -0.401513         0.0198204        -0.0319438         -0.548325          0.568301         -0.810907          0.541356          0.377869         -0.318275         -0.488714          0.325785          -0.73786          -0.61874         -0.224935           0.56304         -0.741124         -0.542476         -0.846272          0.103198          0.675873         -0.575739         -0.395271         -0.396613         -0.572976         -0.752646         -0.329742         -0.411018          0.339864         0.0876947          0.217679          -1.10883          0.496026          -0.89663         -0.946709          0.277338         -0.898307          -1.34832         -0.336077          -1.12988        -0.0484187         -0.789741          -1.34874         -0.609318          0.494191          0.909631           0.66538         -0.391439         -0.828962          0.738959          0.735705          0.795715         -0.616419          -0.36624         -0.744792          0.206821         -0.698903          -0.73788        -0.0433225          0.561943           0.53863         -0.902234         -0.335874          0.179838         -0.555419         -0.508187         -0.302133          0.640561          0.486779        -0.0933004         -0.519113        -0.0522599          0.402157           0.71538         -0.565182          0.238043          0.460521         -0.953878         -0.764451          0.635754          0.707804          -1.16494          0.257551         -0.283203          0.618291          0.588746         -0.503046         -0.432782         -0.413472          -0.30132         -0.127559          0.107587          0.683958         -0.322509         0.0213362          0.664901          0.358893          -0.87033          -0.32932          0.186346          -0.18625         -0.235898          0.723575          0.542868         -0.864417          0.544467          0.199412          -1.24416         -0.215873         -0.525213           -1.0222         -0.605791         -0.727941         -0.765752          0.705563          0.644636          0.600176          0.569109          0.742129          0.538887         -0.679944          0.509816          0.426056         -0.502902           0.52944        -0.0621266         -0.610487         -0.679491         -0.463969          0.868468          0.242729         -0.837554          -0.64854          0.438288         -0.461295         -0.156187         -0.348603          0.109883         -0.179484          0.707119         -0.360385         -0.488983          0.553023          -0.15162          0.331498          0.338564         -0.482727          0.113776          -0.63925          0.430559         -0.413243         -0.487396          0.730947        -0.0778533         -0.434181          0.167348        -0.0626646         -0.728643          0.743265         -0.494444         0.0115007          -1.18191         -0.950736         -0.484941         -0.630576          -0.88823          0.311367         -0.263469          0.426098          0.658732          0.795279        -0.0412486           0.19509          0.425718          0.284554          -1.00214          0.176233          0.306241         -0.607302          0.260479          0.616194          0.691699         -0.033574          -1.35261           0.68765          0.100932         -0.558947          0.511539         -0.646907         -0.349445          0.254078          0.493602            0.8866         -0.482126          0.273212          0.737057         -0.391799          0.606993         -0.256341           0.37047          0.683122         0.0322919          0.659455        -0.0221669         -0.298525         -0.480086          0.753825          -1.29245          0.231712          0.697796          0.546455          -0.37016          0.493982         -0.416391          0.403992          0.560679         -0.461126          0.176249         -0.779924        -0.0333525          0.632741         0.0363692         -0.575338          0.594825          -1.06468          -0.03912          0.431757         0.0886262          0.317818          0.523018         -0.071472         0.0353395          0.228482           0.11765          0.207663          0.357791         -0.763114      -0.000565697        -0.0203113          0.446086          0.316961          0.609861          0.131651         0.0881768         -0.685334          0.351957        -0.0749728          0.576748          0.160999       -0.00260758         -0.922113          0.561583          0.187436          0.376492          0.471549         -0.152838         -0.881899          0.247515          0.570461          0.285074          -1.04943          -1.12475         -0.818364         -0.185712         -0.833163          0.471109         -0.165679          -0.79772          0.198332         0.0115051          0.204304          0.178572         -0.522342          0.173826          0.735994         -0.742256         -0.846058          0.125804          -0.54339          0.687253          0.105081          0.228157           0.40546          0.109068          -1.11676         0.0818386          0.431684         0.0529457          0.426819         -0.183753         -0.626642           0.58275          0.614665
           0.73176          0.192808          -0.46473         -0.889748          0.545981         -0.459558         -0.772985          0.602606         -0.923341          0.687667         -0.268759          0.662256         -0.950722          -1.10328          0.665352          -0.91173          0.640689          0.431866         -0.476946         -0.865564          0.787405         -0.734638           0.28534          -1.11082         -0.922524          0.460708         -0.354882         -0.500578         -0.657618         -0.572644          -0.95511          -0.36151         -0.631532          0.606166           -0.6563         -0.523371         -0.368257        -0.0108584          0.618535         -0.563876         -0.214311         -0.826815         -0.489506         -0.488705          0.402056          -0.61007          -0.91835          -1.14012         0.0735777          0.564111          -1.03114          -1.02123           0.40548         -0.266404        -0.0715918         -0.812989         -0.977641          -1.15382          0.481591         -0.808374         -0.446057         -0.439409         -0.362887          0.177682         0.0615463         -0.729111        -0.0362161          0.331852          0.465009           0.76937          -1.04148          -1.09324          0.410631          -0.62259          0.104668         -0.635797          0.633766          0.612952          -1.04673          -1.00467         -0.492338         -0.873024          0.269396           1.11612         -0.912783          -0.74768         -0.890448         -0.405772          0.498439         -0.629119         -0.455695         -0.417448         -0.960353        -0.0574652         -0.431339         0.0757622          -0.62271         -0.864007         -0.533448          0.304675          0.595015        -0.0954777          0.132216           0.82413          0.503799          -0.85391         -0.756704         -0.571912         -0.158337         -0.599815         -0.492378          0.257708         -0.801491          0.232505         -0.959122         -0.322239         -0.903629         -0.816134         -0.454298         -0.291814         -0.450103          -1.06568         -0.905595          -1.62114         0.0476185         -0.810201         -0.813472         -0.687318           -1.1149          0.537112         -0.694738          0.291992         -0.702417          0.452172          -1.25557          0.575112         -0.968889         -0.960766         -0.788206          -1.09113          0.177718          -1.42411         0.0970463         -0.240162         -0.934844         -0.819646         -0.601008         -0.793172         -0.533612         -0.954534         -0.173675         -0.882234         -0.345255          -0.40265         -0.159189         -0.510344          0.121536          0.441823        -0.0704062         -0.684027         -0.805886         -0.822198         -0.503481         -0.255341         -0.622963         -0.311501          -1.19981         -0.353711         -0.598694         -0.566721         -0.486733          0.829825        0.00671105          -1.06288         -0.522294         -0.715224         -0.099943         -0.820498          -0.67084          0.530005          0.579989          0.475891         -0.619672           -1.0693          -1.04455         -0.807834         -0.602458         -0.456609          0.159864          -0.49789          -1.15569          0.609656          -1.05423          -0.80824         -0.659306          0.509792          0.338989         -0.474696         -0.889266          0.250756          -1.36282          0.569881          0.353566         -0.549363         -0.526047          0.560967          0.362978          -1.12949         -0.876079         -0.742436          0.769797         -0.556377        -0.0145946         0.0657405         -0.295253         -0.146587          -1.19902          -0.94726          0.137474           0.32547          0.257639          0.472167         -0.259381         -0.220019         -0.389249         -0.932661          0.165699        -0.0208723          0.793174          0.480854         -0.542227          0.275111          0.812409         -0.649771          0.158679          0.323213          0.720038         -0.790306         -0.475605         -0.946257          0.538087         -0.611141         -0.115774          0.728837          0.121696         -0.617605          0.533375         -0.754175         -0.545663          0.223193         -0.932474          -0.17901       -0.00258914          0.426645        -0.0358606         -0.558833          0.315779          0.799106          0.531125          -0.76657          0.165041          0.306274         0.0207961            0.5604          0.206725          0.448819          -0.98093         -0.988987          0.431345         -0.754852         0.0609518         -0.245344          0.498446         -0.549326         -0.414095          -1.01091        -0.0723809         -0.375935         -0.832082         -0.695803         -0.396665          0.803346          0.450275          -1.17613          -0.70817         -0.586312          0.274286         -0.571531         -0.493676         -0.340626         -0.771882           0.44663          0.123481         -0.762582         -0.350894          0.352462         -0.560922         -0.335717         -0.279089         -0.341242         0.0687264          -1.45088         -0.892508         -0.687689         -0.622344         -0.114296         -0.371329         -0.838183          0.369567           -1.5405         -0.389562         -0.568033         -0.036223          -1.14369          0.477581         -0.619339         -0.675628           0.18168         -0.711324         -0.899572          0.508495          0.191368         -0.643955          0.811511         -0.322932          0.559096         -0.740439         -0.507752         -0.799641          0.390431         0.0373242         -0.294336         -0.716179        -0.0224507           0.22503         -0.908625         -0.561406         -0.873069
          0.083331         -0.577129          0.305333          0.795066          -1.22681         -0.229886         0.0675096          0.181264          0.414064        -0.0866986          0.393922         0.0654568          0.354823          -1.13465         -0.364968         0.0488433          0.471681          0.323185          0.385998          0.554139          0.195778          0.274689          0.656383          0.648648          0.191214         -0.818793         -0.184841          -1.03133          -1.30486          0.311534          0.203899         -0.197411          0.221306          -1.40047         -0.507787         0.0863663         -0.816149         -0.597533         -0.697746         -0.101835          -1.05981         -0.997293           0.75788          0.555474          0.195426         0.0970798         0.0158218          0.593992         -0.114114         0.0928928          0.212895         -0.435815         -0.757057          0.382251          0.711708          0.295938         -0.711804          0.789612          0.709725           0.86725         -0.113575          -1.19971           -1.3239          0.643807          0.571659         -0.947261          0.820577          0.151524          0.349046          -1.37277           0.65948          -0.63595          0.194718          0.569412           0.51656          0.297998          0.356381         -0.268215          0.608713          0.714708         -0.170377          0.825535        -0.0166047         -0.363952         -0.545302          0.768201         -0.309587          0.123222          0.279755          0.456524       -0.00877124          0.358535      -0.000985113          0.616139        -0.0537831         -0.571087          -1.52965           0.24781          -1.46652          -0.12612         -0.869917          -1.63906          0.552459        -0.0747897          0.373874          0.322324          0.536782          0.211726         -0.834148          0.645162          -0.24836          0.257502          0.552523         -0.346312         -0.157309        -0.0582709         -0.535798         -0.046073          0.282385         -0.274256          -1.28405          0.127047         -0.829066          0.766501         -0.468663          -1.07824          0.261136          0.580645          0.601927         -0.723075          0.123905         -0.399436          0.311435        -0.0922924          0.236143          0.186176         -0.317877          0.417652          0.301978          0.745868         -0.129742         -0.224292          0.613479          0.343104          0.784854         -0.085894          0.131328         -0.212821         -0.187015          0.155021         -0.790326          0.530989           0.58369       0.000193797          0.454621            0.3838          0.145094         0.0845254          0.222758          -1.57411           -1.3487         -0.456594          0.597225          0.100324        0.00982252          0.335737          0.150142          0.213344          0.809009           0.35495         -0.268525         -0.503248          0.153069          0.711582          0.361181          0.351163          0.488573          0.624473          0.075572          0.392198          -1.14085         0.0206343          0.392028        -0.0237348         0.0896393         -0.164622           0.44709         -0.472448          -1.05889          0.535425          0.445629          -1.29431          0.618535           0.56355          0.301417          0.304102          -0.29483         0.0261186         -0.391644         -0.113369          0.102117         -0.828964         -0.960858          0.599111         -0.208669          0.743297         -0.599772          0.610777        -0.0261213          0.227287          -0.14936          0.430109          0.221345         -0.801589          0.181434          0.362955          0.310899          0.705869          0.583397          0.513371          0.598015         0.0329413          0.421852          0.694825          0.556749          0.171225         0.0820295          0.487387          0.216253       -0.00767653         -0.557658         -0.176256          0.198952         -0.695378          0.117386         -0.861417         -0.921888         -0.161848          0.558415          0.106715         -0.795773          0.826496          0.650437          0.218776          0.122852         -0.512401          0.670924         0.0140934          0.496052         0.0891813        -0.0198635          -1.28593          0.439494          0.057021           1.08719          0.593876          0.564457          0.218147          0.428441          0.616089         0.0543475          0.231588          0.479016          -1.03586        -0.0626123          0.326606          0.400668          0.596539          -1.03812          0.556821         -0.046863          0.679226          0.550589          0.353969          0.033559          0.575325          0.221238          0.225068          0.716822          0.585422          0.446768          -1.04862          0.474798           0.57651          0.210331         0.0972956          -1.41522          -0.89352         -0.325629         -0.248798         -0.138556          0.208959          0.157373          0.622643          0.577918          0.336976          0.439283         -0.797096          0.236545          0.338972          0.787068          0.640728          0.355518          0.130095       -0.00139691          0.662918          0.357621           0.50199          0.699429          0.580481          0.305514          -1.51293        -0.0424689          0.339085          0.235709          0.348945          0.611661         -0.134644          0.506608         0.0376595          0.667825          0.727049          0.713772         -0.847963         -0.609348          0.321393          0.515584          0.347802          0.700109          0.494032          0.523602         -0.127276          0.312157           0.29429          -1.15252         -0.134277          0.762719         -0.826462
          -1.16031           -1.1683        -0.0336695          -1.53073         -0.107607         -0.543503          0.324019          0.735967         -0.623141          -1.21478          0.352653          0.446327          -1.36985          -1.52976          -1.44275         -0.874587          0.174227        0.00662788          0.438557          -1.29468          0.682809         -0.691659         -0.161728         -0.448176         -0.931073          0.181877          0.870006          -0.34522         0.0648453           0.36029         -0.298483         -0.923952           -1.1303           -1.5105          -1.23533          -1.60124         -0.295534        -0.0116621          -1.13306          0.337098          -1.14587         -0.860064         -0.416102          0.581706          0.171987          -1.05916           -1.6383        -0.0104915          0.339295         0.0582413          0.175066          0.252334          0.734241          0.254045          -1.05645          0.231443          0.729833         -0.763534          -0.99931          -1.55707          0.599493          0.484653          -0.15642          -1.19833         -0.659912          0.300318         -0.282157          -1.66054         0.0680696           0.24748         -0.583087         -0.149479         -0.909857          -1.00147         -0.408699        -0.0818912         -0.669998         -0.628104          -1.66297         -0.339293          0.705777          -0.26623         -0.866864         -0.577411          -1.10677          0.326966          -1.31835          0.190041          0.255143          0.266621         -0.569204          0.465188         -0.646978          -1.46689          -1.50538          -1.79208         -0.435729         -0.979028          -1.35844          0.398598          0.203413         -0.876764          -1.15587          -1.36321         -0.313815         -0.838496          -1.81745          0.353859       -0.00686435          0.570117         -0.804458         -0.383316          0.780835          0.443508          -1.50927          0.771795         -0.831538         -0.951261         -0.365784          0.261883         -0.923499          0.377753         0.0256043          -1.42007          -1.68801          -1.26226         -0.353284          0.438979         -0.270385          0.170396           -1.2524          -0.56792          0.322109         -0.845692         -0.846674          -0.12126         -0.403085          -1.00874         0.0201632          0.226095          -0.91961          -0.09764          -1.69641          0.374913            -1.449         0.0334898           -1.3797          -0.72474         -0.226975          -1.33287          0.394382         -0.552427          0.332822        -0.0234778         -0.588731         0.0965759         -0.202924          0.170845         -0.254756          -1.37375          -1.32076         -0.502826          0.744995          0.278799           -1.5228         -0.623016         -0.111629           1.17176         -0.783713        -0.0871548         -0.144581         -0.963453          0.252005          -1.01611          -1.01084         0.0612189          0.462849          -1.38978          -1.57424         -0.381083          0.261447           -1.6573           0.40339          -1.17339         -0.232208         -0.569644          -0.32459           1.45206        -0.0531812          0.127891        -0.0203106          -1.33349         -0.101906         -0.782181          -1.00911         -0.934391         -0.751927          -1.04631           0.26568          -0.83546         -0.886719          0.591321         -0.659817          0.490321         -0.816982          -1.26674         -0.670109         -0.203861          -1.68485         -0.312323         0.0361002        -0.0222958           -0.7522          -1.54305           0.27991         -0.776051        -0.0131123          -1.06629          -1.30159          -1.02592          -1.26125         -0.182235          0.203324        -0.0043252          0.484347         -0.834413          -1.64931        -0.0857904         -0.991629          -1.56873          -1.19532         -0.541207        -0.0160677          0.353618          0.277553          0.908529         -0.176394           -1.1921          0.125681          -1.30611          -1.64826         -0.284337          0.613066         -0.273304          -1.09912          -1.69094          -0.84094           -1.1127          0.315729         -0.658545         -0.170059          0.106167          -1.45446         -0.583068          0.654673          0.307295         -0.137009          0.304251          0.030506         -0.348063         -0.884706          -0.72676         -0.440566         -0.231493         -0.572133          0.457918          0.175825          0.130615          0.474097          0.778178         -0.325294         -0.251941          -1.13126         -0.587739          0.133807          -1.39873         -0.042776          0.123808          -1.03857          0.275678         -0.307915          0.312749          -1.10209          -1.37158          0.311078         -0.964055             -1.56          0.104388          -1.08184         -0.465041          0.124954          0.947803         -0.615396          0.329702          0.178464         -0.375808          0.281001          0.704234         -0.274322          0.590771           -1.1736         -0.284907         -0.726943         -0.139128         -0.763265         -0.348702          -1.23202          -1.16337          0.120316          -0.10007         -0.977338        -0.0138738          -1.34014         -0.610257          -0.24945         -0.566702          0.173366         -0.673179          -1.23029         -0.898806         -0.104032         -0.406434          0.412433           0.80574         -0.532652          0.205544          0.154625          0.580848         -0.412946         -0.458584          -1.12158         -0.816191          0.126655          0.185085         -0.882944          -1.22194         -0.308297          0.801272
          -1.03055          0.016466         -0.577065         -0.601109        -0.0168623         -0.920351        -0.0908658         -0.212588           1.13702           -1.0553           -0.1688          0.791591          -0.13384         -0.367783         -0.791261         -0.140707          0.777244          0.705397           0.67354         -0.733902         -0.474189         -0.244782         -0.441123         -0.713892         -0.587589          0.321628         -0.588629         -0.162347           -0.5829            1.1185          0.698964           0.47166          0.283823         -0.829157         -0.118426         -0.710495         -0.254943         -0.517061         -0.551088          0.824625         -0.210657          0.408484           1.26486        -0.0864982         -0.242651            -0.587         -0.723096         -0.858799        -0.0894415         -0.063543           0.26095         -0.371534         0.0209804         -0.236033          0.743441          0.113144         -0.194378         -0.693399         -0.648581         -0.655677         -0.156368         0.0651646          0.266764         -0.733425        -0.0907676         -0.273991          -1.04411          -1.40335         -0.405604          0.087367         -0.690507         0.0275535          0.157183          0.212997          0.268976          0.340084          -0.14252         -0.560199         -0.651742          -1.23143         -0.507874         -0.333098         -0.445663         -0.602225          0.627877          0.826072         0.0230196         -0.350023           1.31249        -0.0898067         -0.387617         -0.203774         -0.665087          -1.16634         -0.760446         -0.901625         -0.999325        -0.0467339         -0.316446         -0.137067          0.509292          0.291809         -0.406418         -0.682975         0.0447968           0.73983          -0.45194          0.858089        -0.0176366         -0.133154         -0.144984         -0.415529           1.34652          0.544658         -0.670019         -0.427958         -0.395474          0.484306         -0.222183         -0.630254           1.04191         -0.141127         -0.113239         -0.562979         -0.313438         0.0988226         -0.328443          0.663822          0.281661         -0.705487         -0.248184         -0.803742         -0.421972          -0.90094         -0.264598         -0.699908          0.183255         -0.174809        -0.0212574         -0.361071         -0.576099          0.789674         -0.981204          0.154253          0.278735          0.949619         -0.316026         -0.351368         -0.609896         -0.508978         -0.313423          0.283498          0.598075         -0.303983         -0.116901         -0.299328         -0.566767         -0.601368         -0.663052         -0.400109         -0.714539          0.033174         -0.605298         0.0113312         -0.443982         -0.592986          0.514718           1.16896           0.02827           0.88714         -0.654475         -0.815849         -0.262778         0.0943254          0.744369         -0.812988         0.0335318         -0.529314         -0.761192           1.08113          0.225217         -0.893042        -0.0815361         -0.581773         -0.179234         -0.727058           1.31842          0.782009         -0.294083           0.38056          0.810609         -0.774294         -0.575636         -0.233806          0.070394          0.100071         -0.623083         -0.189784          0.524983         -0.112155          -1.15334          0.241509         -0.134284          0.400314        0.00573559         -0.850808        -0.0527975         -0.679689         -0.809087           1.10415         -0.295078         -0.371705         -0.652685         -0.764265           1.03772            0.6575          0.261146         -0.727397          -1.14985         -0.106896         -0.526624         -0.983431          0.629209          0.266116         -0.831791          0.438444          -0.56223         -0.143775         -0.014067         -0.982126         -0.307379         -0.539225           0.80173         -0.239129          0.713467          0.962767         -0.393908        -0.0274693           0.24792        -0.0226015          -1.04906         -0.865206          0.899958           1.01965         -0.178551          0.490207         -0.796544          0.769258       -0.00863277         -0.326073         -0.515182         -0.195458         -0.259223          -0.72878           1.25154           1.36281          0.927304          0.499922         -0.471498         -0.147275          0.636671         -0.803553           1.11519         -0.527008         -0.191477           1.54475          0.464742          0.389283           0.75145         -0.137473         0.0144863           0.74215         -0.670199         -0.339155        -0.0530124          0.189742          0.100547         -0.107817         -0.999291         -0.280955         -0.107251          0.282181         -0.783001          0.340571          0.372714          0.414471          -0.76813         -0.371741          0.123953        -0.0653688         -0.120829          0.548523         -0.233961         -0.233465            0.2311         -0.292539          -0.42306         -0.348248         -0.231522          0.167033          -0.58333         -0.601884          0.848592         -0.206748         -0.510339         -0.417569          0.766001         -0.485809        -0.0818765         -0.562185          0.268202          0.304397         -0.709812          0.342543         -0.605082         -0.864203         -0.379236          0.452098         -0.440317          -0.41114         -0.563596         0.0397508         -0.320057          0.164842         -0.780896         -0.640133          0.919774         -0.353769          0.547721         0.0902497         -0.535615         -0.160241          -0.44109         -0.279193         -0.409235         -0.302594           0.34466          0.479883
         -0.449421          0.105286          0.639953         -0.608241          0.579263          0.242271         -0.263747             1.002          0.720085        0.00606961          0.106123         -0.996783         -0.119076        -0.0774188         -0.653003         -0.636458         -0.424994          0.129102         -0.603988         -0.302446          0.217203         -0.174415          -0.59165        -0.0649056          0.109164         -0.227297          0.327268          0.937216          0.434351         -0.639592         -0.673664         -0.619522         -0.648412          -0.19819          0.173613         -0.260195          0.540465          0.278407          0.240456         -0.682426          0.156655          0.302637          0.498009          0.743333          0.593892          0.240833         -0.529905        0.00484897          0.270902          0.436992         -0.725193         0.0646976        -0.0727932          0.154537          0.255344         -0.569884          0.647005         -0.136582        -0.0609946         -0.230518           0.50458         -0.671766          -0.70454         -0.651356          0.124446        -0.0845458          0.128541          -0.60459          -1.00888         0.0238737         -0.101867          0.504486         -0.952341         -0.315842         -0.383427          0.287954          0.160975        -0.0431251         0.0335434         -0.843741          0.727628         -0.678383         0.0392426          -0.77986          -0.12454          0.198272         -0.903484        -0.0739606          0.278285           0.45139         -0.383031          0.465915          0.231922         -0.640437         -0.218632         -0.794399           -1.4605         -0.748843          -1.10599         -0.699619            1.0892         -0.227912         -0.543161        -0.0501339          -0.22793          0.223309         -0.248955         -0.640244          0.253149          0.362079          -1.21075         0.0510942         0.0785328         0.0809952          0.413476           1.09782         0.0551077         -0.399832         0.0798107          0.141673          0.667479          0.085464          0.268381       0.000435611        0.00822823         -0.771408         -0.798413       -0.00697945         -0.513291          0.811144         -0.300643          -0.43759         -0.893414         -0.375275         -0.835414         -0.132104         -0.480176         -0.731065         -0.957392        -0.0957864         -0.565664          0.259661         -0.213849          0.899431         -0.170959          0.314296          -1.02241         -0.190024         -0.950926         -0.394714          0.292659        -0.0670384          0.014866          0.511399          0.329317         -0.891617          0.128104          0.269889        -0.0406872          -1.08713         -0.951367         -0.226376          0.768996         -0.434144          -1.03503         -0.559486         -0.850509           0.42996          0.255616         -0.104206         -0.691203         -0.753388           0.59557         -0.668884          0.123599           1.00807          0.661876          0.268855         0.0461676          0.190811      -0.000366433         -0.286432          0.141673         -0.179737          0.194449         -0.270326         -0.144942          0.104585         0.0883767          0.662226         -0.435131         -0.871196         -0.040753         -0.318756          0.567039          0.284417         -0.522988          -1.08607         -0.336977         -0.300153           0.51023         -0.167499          0.338518          0.761641         -0.561197          0.279054          0.274579         -0.016179         -0.283263         -0.264988          0.207756         -0.883053         -0.882176         -0.284504         -0.597487         -0.793768         -0.536936         -0.259576          0.462227         -0.680814         -0.694479          -0.67734         -0.383953         -0.706847          -0.15537          0.126345         -0.962171          0.558435         -0.364455         -0.161574         -0.258755          0.115973          0.351701          0.450365         -0.115253          0.670487         -0.976201         -0.916595          0.416624         -0.849658         -0.507126         -0.721045         -0.879964         -0.612951        -0.0160979         -0.775296         -0.209787         -0.947974          0.180978         0.0899905         0.0232843            1.0234         -0.148056        -0.0389642          0.425943         -0.354378         -0.515704         -0.784408          -0.69263          0.284016         -0.824378          -1.19228         -0.667744          0.889365         -0.397071           0.28808         -0.903022         -0.488631         0.0157249          0.148246        -0.0531808         -0.401631          0.196827          0.634183         -0.528168         -0.638568          0.465196          0.583282         0.0732129         -0.794626          0.743055          0.534903         -0.642063         0.0308884           0.73025          -0.71047         0.0690893          0.353496          0.500715          0.391736          0.245639          0.634144          -0.67922         -0.436947         -0.365335         -0.569123         -0.330309          0.645362        -0.0458291          0.922583         -0.633108       0.000481308           -0.1998         -0.219884        -0.0614391         0.0480758         -0.742605        -0.0411448         -0.287917         0.0928141          0.537987          -1.23341         -0.119783         -0.766822          0.109424          -0.13046          0.198087         -0.292119         -0.565908          -1.04944         -0.494672          0.471587         -0.530494         -0.167106         -0.208919         -0.264966         -0.268821          0.495284         0.0443436         0.0243124         -0.181682          0.677283          0.193148          0.297802           0.25807          0.267523         -0.537919        0.00903398
         -0.486846         -0.553335          0.854532         -0.357493          -0.12633         -0.403959            0.6217          0.226883         -0.643309         0.0293853           0.31169        -0.0310625          0.205496         -0.603962         -0.620254          0.499147          0.730308          0.611809          0.433761          0.628646           1.62267         0.0704766           1.23414           1.04176         -0.601399         -0.461954          0.455517           -0.1426         -0.558826          0.264598          0.393987         -0.431717           1.05476         -0.808561          0.499179         -0.524488         -0.470775         -0.324693          0.229107         -0.558466         -0.880752         -0.486659           1.26626          0.107215           1.40763         -0.511339          0.434501          0.246215         -0.142004         -0.859692         -0.341248         -0.433112         -0.570688          0.555789         -0.471038        -0.0115125         -0.342659          0.807713           1.06738          0.248224          0.724747          0.411762         -0.501982         -0.527822           1.46142         -0.463219           1.10076         -0.711988         -0.448988         -0.767811          0.929034          0.822341          0.313605          0.868691        -0.0456738         0.0512153           1.30417          0.178655         -0.187609         0.0819139          0.429598          0.789154         -0.618093          0.806937         -0.222316          0.729334         -0.493891          0.861617         -0.674999          0.831881         -0.279644         -0.492669          0.373556         -0.528831         -0.536492         -0.829591          0.417345          0.614998          0.443882         -0.826604         -0.229914           1.09212         -0.598003         -0.521659          0.637935          0.160193          0.974445         -0.707933         -0.810687        0.00806158          0.226328          0.666243          0.451436           1.71537         -0.516004          0.114151         -0.392985         -0.713069          0.951192           1.94144         -0.527944         0.0253744         -0.286887          0.985473         -0.558143         -0.441736          0.473085           1.09137         -0.154197           1.34232         -0.351938         0.0695822          -0.67604          0.467232         -0.425955          0.881193         -0.869223           -0.6814         -0.512777          0.260903         -0.570945         -0.971344           0.91569           1.98546          0.941165          0.150981         -0.544739         -0.403507          0.500963          0.874282          -0.15321          0.519369        -0.0419132          0.220635          0.778449         -0.518639         -0.506712           1.08074          0.733693          0.132835          -1.36122         -0.422066          0.986548           0.17182          0.729611          0.817562         -0.500514         -0.554445         -0.456593          0.954626         -0.727951         -0.375424         -0.376957          0.987795          0.164022           1.43021          0.731369         -0.319058          0.587969         -0.529458           0.42456          0.280324          0.808982          -0.31332         -0.520438          0.317673         -0.335596         -0.349416         -0.769371          0.667582         -0.091988          0.860369          0.915947          0.506539        -0.0210891         -0.685688          0.214518          0.578323         -0.298262         -0.551814           0.74736         -0.754275         -0.525942           0.84354         -0.646667         -0.585263         -0.542098          0.874107          0.613532         -0.561846         -0.274648          0.815163          0.749281         -0.323699         -0.652605           0.28347          0.735522          -0.29574          0.392981         -0.343678        -0.0916108           1.13387           0.88052          0.746338           1.06431          0.636868         0.0917659          0.325785          0.843785         -0.861648          0.130134         -0.297478         -0.034983         -0.286796           1.94498          0.125926          0.237465          0.492371         -0.507596          0.634413         0.0440668           1.04605         -0.195197         -0.272405          -1.29554         -0.615276         -0.398447          0.445186         -0.142618         -0.555653          -0.36078          0.446442           1.32258          0.797772          -0.56338          0.862499           1.36604        -0.0244671            0.2507         -0.499316          0.584247          0.502647         -0.469411          0.456461         -0.367432          -0.65132          0.718613          0.878799         -0.784095           1.39491          -1.16593         -0.423369         -0.470079          0.872187          0.898018         -0.115395         0.0293677          0.869226           1.23274          0.690952         -0.171525         -0.408618         -0.224331           1.06789           1.23696          0.682966         -0.838706         -0.494335         -0.721946         -0.387205          0.733157         -0.397415          0.513968         -0.163257           1.48623          0.202702           1.65093           0.40237          0.944305           1.49291          -0.36112          0.968688         -0.533732          0.326699          -0.18276         -0.552029          0.809023          0.325754          0.166814          -0.11704          0.977873          0.182886         -0.373351         0.0545809          0.984795           1.12543          0.767986           0.65991          0.404743          -0.25915         0.0799609         -0.834206         -0.317584          -0.72947          -1.06457          0.636568        -0.0622402           1.72322         -0.437728         -0.814432         -0.218882         -0.594867          0.421393         -0.402164         -0.533096         -0.620939          0.742911          0.692799
         -0.816161          0.592355       -0.00803979         -0.687118         -0.247421          0.805683          0.536561         -0.994293          0.649638           1.07823         -0.329991          0.811204          0.378751         -0.865097           1.14988          -0.57019          -1.00017          0.245678         -0.769076         0.0024582          -1.02313          0.656906         -0.455846           0.15704          0.752374        -0.0321326         -0.139599          -0.31457         -0.214204         0.0630862          -0.13001          0.514126          0.254712          0.920475         -0.610961          0.913507         -0.749792          0.684546        -0.0313901          0.413943           1.24997           1.34086         -0.274033           0.52617         -0.609645          0.978257          0.886609          0.218109          0.032863          0.329384          0.860126         -0.812502          0.703074          0.464631          0.100014          0.934491          -1.04632        -0.0958973         -0.164932         -0.800223         -0.649332         -0.442585         -0.508284         -0.454129         -0.471531         -0.332362          0.123397          0.830924          0.795338         -0.365841         -0.732184         -0.374697          0.487059         0.0194821         -0.115411         0.0658958         -0.171508           0.14365         -0.407582         -0.228141         -0.127868         -0.384624         -0.197216         -0.420241          0.259156          0.134177         -0.293557         -0.165886          0.800218          0.647663          0.932625          -0.60758           1.30771         -0.193753            1.2448           1.10207           0.85413          0.492749           1.15027          0.226261          0.130917         -0.225177          0.314174           1.18142           0.34014          0.992755         -0.648943          0.403283          0.502312        -0.0141685          0.368954          0.481676         -0.278994         -0.147233        0.00283072          0.174989          0.455057          0.896275           1.26592          -1.46864          0.717355          0.194427          0.963249         0.0597988           1.21324           1.06132         -0.687011         -0.190252          0.122854          0.341133           1.12417          0.836444          0.914364            0.3673          0.790708           0.15004          0.447846           1.13541            0.8136          0.666401          0.538662         -0.217366         -0.188559         -0.560509         -0.170395        -0.0987037         0.0972873          0.500222           1.40606         0.0545779          0.216174         -0.335659        -0.0269838          0.283338         -0.643755         -0.415213          0.614728          -1.23107          -0.37512          0.969093          0.981411         -0.322739         -0.297888         -0.755492         0.0445707         -0.993947          0.572402         0.0675467         -0.684238          0.319952          0.188126         -0.966682         -0.116863         -0.384789          0.940213          0.367701          -1.27766          0.227535         0.0281669          0.863847          0.772422           1.33082         -0.339122         -0.673116           1.16111          0.614597          0.598486         -0.156516           1.12311          0.552564           -0.1166          0.882431        -0.0811362         -0.759275          0.672334          0.306875          0.237103         -0.219336          0.451663          0.440176          0.527834          0.526614         -0.651507          0.906686          0.883741         -0.836397          0.785967         -0.757926          0.556265          0.246773          0.394669         -0.288271         -0.710681          0.538996           1.16457          0.559446          0.463614        -0.0119504         -0.210171         -0.372791         0.0090039          0.148646          0.328467          0.173285          0.764285           1.08118          0.440286          0.487423          0.153962          0.775756         -0.468292          0.260886         -0.450335         -0.592078          0.657964          -1.19329          0.759842           0.83331         -0.800281          0.627431          0.518969         -0.726691         -0.490627        -0.0810181           0.43542          0.860503          -0.17052        -0.0333857         0.0872804          0.653261        -0.0808464         -0.742166          0.107686           1.14099         -0.406517          -0.36928         -0.212999         -0.240874          0.638906          0.235896           1.25129          0.377977          0.802362         -0.198566          -0.51145           1.00694         0.0374315        -0.0396615          -0.35894         -0.745186           0.65873          0.181212         -0.217983         0.0919865         -0.403181          0.113858          0.153917          0.593797         -0.694969         -0.544713           0.29199          0.478474          -0.16601          0.398458          -1.36339          0.742913           1.12297         -0.219991         -0.170879         -0.152683         -0.619109         -0.994489          0.913729         -0.889871          -0.70425         -0.335146          0.433357         -0.478353         0.0651931          -1.22841         -0.776995         -0.416823         0.0250328         -0.903547          0.041822          0.313974          0.581891         0.0864066         -0.209987         -0.830756          0.736213          0.927452        -0.0922359          0.639082          0.258924         -0.427216         -0.486532          0.827948          0.179934        -0.0589372         -0.726267          0.221287         -0.222749          0.452757         -0.252628         -0.980953         -0.329845          -0.85226         -0.778414          0.869498         -0.200565            0.5144         -0.616236          0.140259          0.158419           1.08672          0.415452            0.9413
          -1.22857         -0.897685         -0.905989          -0.98434         -0.604827          -1.46548         -0.987877          -1.10179          -1.23882          -1.37693          0.449143         -0.852264          -1.49565          -1.64288         -0.713155          -1.02626         -0.864042         0.0702174         -0.401799          0.594143          -1.57273           0.62384         -0.708388          0.474286         0.0239013           -1.5603         -0.492936          -1.15952         -0.912365         -0.645861         -0.896231         -0.969016          -1.40114         -0.644088         -0.622252        -0.0485047          0.674866         -0.831731          0.582533          0.105134        -0.0118798         0.0557526         -0.641491         -0.651665          0.365673          -1.16245         -0.994242          0.185175         0.0540734          0.328582         -0.675997          0.468452          -0.68865          0.392318          0.534034         -0.908017          -1.02386          0.336431          0.478702          0.599602           -1.0115         -0.655101          0.464031          0.350183          -1.07299          0.314218          0.602768         -0.830563         -0.159759          0.379764          0.685301          0.467242            -1.178         -0.452581         -0.834408          -1.50023          0.118857         -0.515017          0.441289         -0.544383        -0.0665676          0.451169          0.203071         -0.094585         -0.262678         -0.578369          -1.24185         -0.132702         -0.622094          -1.68552          0.453103          0.591878        -0.0304672          -0.88179         -0.496148         -0.514554          0.199308         -0.467819          0.316641         -0.233325         -0.549386         -0.934718          -1.79586         -0.933971          -1.03853         -0.973766         0.0763173         -0.698562          -1.06122          0.359026          0.274481         -0.481657         -0.871486          -1.08112          0.599891         0.0681351          -1.38419           0.33272          0.206345         0.0683618         -0.688989          -1.16136         -0.183082         -0.834097         -0.730025         -0.739364          -1.13036          -0.58896         -0.530536          -0.91804         -0.318408         -0.855204          0.387342          -1.12799         -0.126391        -0.0814006          -1.09468          -1.27367         -0.973974         -0.916365          -1.11123         -0.548555          0.330141         -0.971567          0.425878          0.143552          0.275326         -0.902046         -0.105171          0.670238         -0.673288           -1.3414          -1.53885          0.592271         -0.411824         -0.254833        -0.0563639         0.0935701          0.357725         -0.705172         0.0407798          -1.29323          -1.18621         0.0334224           -1.0421          -1.27234         -0.701066         -0.362973          0.562409          0.200745          0.536526          0.378864         -0.198992         -0.697548         -0.256738         -0.554363         -0.386283          0.595786         -0.521795          -1.13519         -0.497737          0.317588         -0.349851         -0.602614          -1.10967         -0.197133          -0.34183          0.120301         -0.928681           -1.2091         -0.133276          -1.05205          -1.09709          0.192587         -0.616913         -0.887159         -0.993355          0.339525         -0.486481         -0.945888         -0.777158          0.450052          0.556334         -0.966977         -0.618038          0.182355          -1.14105         -0.730678         0.0831254          -1.34054         -0.774213         -0.727133         -0.846073        -0.0787843         -0.545382         -0.932855          -1.21672          0.438967          -1.22889          -1.07171         -0.753182         -0.581764         -0.470191          0.175297          0.141933          -1.20226          -0.84002          -1.29173         -0.395517          0.198445         -0.749987         -0.424646         -0.532331         -0.914568          -1.19374         -0.474809         -0.573166          -1.01927          0.383772          -1.53682         -0.612816          0.658527          -0.42916         -0.273788          -1.14678         -0.878307          0.701836         0.0384051         -0.808857         0.0553577         -0.777867          0.529783          -1.61496         -0.810655         -0.971865         -0.900166          -1.34039         -0.550747         -0.852866          0.744311         -0.706004        -0.0411052         -0.663728          -1.25379         -0.404161         -0.632463         -0.905721          -1.23914         -0.698338          -1.37949         -0.571827         -0.642311          0.719215         -0.969895          0.673265         -0.566726          -1.35064        -0.0450821         -0.774665         -0.999471          -0.77575          0.487851         -0.380856         -0.687673          -1.05173         -0.713083         0.0518034          -0.75154         0.0207743          0.445442         -0.856044          -0.44549          -1.47169          0.583377          -1.36722         -0.142043          0.314233          -1.32684          -1.04455          -1.30257         0.0917771          0.108056          -1.30091         -0.966247          -1.60834         -0.800659          -1.23145         -0.333355          -1.00223         -0.662658         -0.496196         -0.912728         -0.881959         -0.431394         -0.534233         -0.785009         -0.983172          0.365985          0.555195         0.0627306         -0.470111          -1.32248          0.938884          0.324285         -0.392227          -1.11652          0.192321         -0.802412           -1.0863         -0.137293          0.304806         -0.990952          -1.27552          -1.26425         -0.899908          -0.60982           0.14209         -0.971697
          0.281473         -0.271411          0.194014         0.0187921        -0.0560042           -1.4545         -0.412492         -0.420985         -0.159918           -1.7168          0.884958          0.463165          -1.31133          -1.41756        -0.0290871         0.0104466         -0.139145          0.339329          0.852341          0.718028          0.161929          0.002262         -0.305729          0.187821           -1.3478          -1.58383         -0.405175         -0.627395         -0.948418          -0.85049         -0.931266         -0.548906         -0.752169         -0.780369          -1.58066          -1.76526         -0.585297         -0.195748          0.337459          0.100284          -0.42841          -1.45769         -0.191739         0.0849099         -0.995154          -1.15206            -1.529         -0.703002         0.0791778         -0.682456          -1.18011        -0.0194576           0.89883         -0.708641         -0.747649         -0.254762         -0.608394          -1.16993          0.582357         -0.892677          0.660138          0.557409            0.8689          0.206779          0.794623         -0.448546          0.152523           -1.1506         -0.840219          0.542228         -0.725256         -0.298302          -1.23118          0.308173         -0.499464          0.575092         -0.768049         -0.859203          -1.59773         -0.501953         -0.355966          0.129073         -0.670404          0.334317          -1.75433         -0.766897         0.0940799         -0.515832         -0.319447          0.288102         -0.832785         -0.423069         -0.265371          -1.38721         -0.913426         -0.431535          0.200802         -0.706738          0.353271         -0.838772         0.0023955         -0.735836         -0.945261         -0.897179         0.0583695           -1.0086          -1.48195          0.642798         -0.103332         -0.575485         0.0392535          -1.29441         0.0809086         -0.507767         -0.138293         0.0209047           -1.3877         -0.672465         -0.710515        -0.0905913          -0.89206         -0.179257         -0.805465          0.588316          -1.02815          0.191867         -0.879135         -0.527232           0.25713           1.46411          -1.10831         -0.163816         -0.528647          -1.68083          -1.07003          0.129791          0.249573         -0.853985         -0.860102         -0.516054          -1.52113          -1.39996          -1.36138         -0.265412         -0.736791           -1.1096          -1.43206          0.262437         -0.143027          0.859481          0.406559         -0.632391          -1.51893          0.915053          0.502111         -0.645149         -0.475573          0.419348         0.0917899          -0.16852         -0.212928          -1.11753         -0.532507         -0.605648          -1.23211           0.45627         0.0932561         -0.569985          0.402788          0.404768          0.439514          0.344763         -0.829473        -0.0558414          -1.03961          -1.10884          0.204294           0.43121          -1.07226           0.34827         -0.836088        -0.0756478         -0.468099          -1.20245          -1.27567         -0.258251          0.419819           1.23292         -0.253029         -0.686333         -0.399701         -0.218662           -1.0066         -0.415569         -0.770311         -0.884007          -1.58568         -0.733545         -0.215772          0.450216          0.407074          0.246697          0.595436          0.836272         -0.691149         -0.910144          -0.59222         -0.987539          -1.23803          0.643338         -0.624509         -0.933073          -1.03208         0.0699831          0.410229           0.04096          0.144543          -1.35374          -1.28515          0.426279          -1.23192          0.415312         -0.235435      -0.000868663         -0.955563         -0.362239          -1.33344        -0.0389949          0.362028         -0.786633          -1.51891          -1.02931          -0.60693         -0.476649          0.820533          0.472681          0.569502          -1.03692         0.0740413         -0.974344         -0.198176         0.0180808          0.726989          -0.93651         -0.753129          -0.23967          -1.08606          -1.09171         -0.724685         -0.723567        -0.0975083         0.0220871         -0.412945          -1.22084         -0.343097          0.322761          0.570653         -0.508146          0.172745           0.45121          -0.89831          -1.19205           1.28188        -0.0316846         -0.059973         -0.342892         -0.486141         -0.756033            0.9647         -0.947078         -0.323743           1.44904         -0.625362          0.512177         -0.315231          0.552376         -0.502066         0.0819411          -1.32305         -0.679744         -0.099644         -0.547974           -1.2818         -0.821378          0.042761           0.63561         -0.426146         -0.808304           -0.7878         -0.400113         -0.713886         -0.355635         -0.526624          -0.43523         -0.782208         -0.591316         -0.795772          0.242854          0.803335       -0.00409179          0.357573         -0.721779         -0.764713          0.658085          -1.24622         -0.390798          -0.62262          -1.20991         -0.391809          -1.47046         -0.815596          0.453327         -0.926754          0.082143         -0.696798          0.150175         -0.802889         -0.194808         -0.755044         -0.813046             0.958         -0.470883         -0.327822          0.798571         -0.982908         -0.477275         -0.200001         -0.598514          -1.05747        0.00870564          -0.96943          0.305403         -0.869035          -1.18116         -0.756334          -1.41614         -0.144184          0.302312
