weight 0:
         -0.575252          -0.52661       -0.00605799         0.0652271         -0.178545          0.209752        -0.0259252         -0.132879        0.00327625        -0.0571227        -0.0622266          0.135665          0.263075         -0.161556          0.197748          0.175618         0.0929547        -0.0333332          0.144276         -0.136597          0.105329        -0.0734905         0.0799224        -0.0895934        -0.0134874          0.109383         -0.484536          -1.04694         -0.449818         -0.900923         0.0954114          -0.77237         -0.908192          -1.12119          -1.14819         -0.764749         -0.773781          -0.87594          -1.15648          -1.09987          -1.05271          -1.00718         -0.454977         -0.828771          -1.04469          -0.70852         -0.563405         -0.998592          -0.60413         -0.892062         0.0353813          -0.21478          -0.23073         -0.334384         -0.263386         -0.376234          -0.15733         -0.304808          -0.35908         -0.517107         -0.125212         -0.128379          -0.31262         -0.130246         -0.401071         -0.120595         -0.328567       -0.00415327         -0.115081         -0.410069         -0.151992           -0.3223         -0.492166         -0.348711         -0.333653
           1.52173          0.397172        -0.0382749         -0.145954         -0.128623          -0.64911         -0.251979         -0.105313        -0.0866969           0.18216        -0.0541175         0.0963455          0.196228         -0.551108        -0.0814659          0.112018       -0.00650659         0.0137858          0.265183        -0.0647584         -0.192823        -0.0623817           0.20284         -0.206051         0.0569072          0.674991          0.787418           2.26102           1.99275           1.66082            0.1876            1.7846            2.0227           2.23099           2.47559           1.75175           2.01851           2.08975           2.03648           2.27299           2.26164           1.84104           2.08212           2.12776           2.01026           2.24439           1.87208           1.66164           1.91146           2.24837          0.194064          0.647807            1.5164            1.1235           1.49238           1.49054           1.31152           1.46516           1.52517            1.4237           1.36633           1.38915           1.41288           1.34825           1.65627           1.41067           1.62654            1.1206           1.77282           1.29344           1.56915           1.64745           1.31866           1.55074           1.30753
         0.0169267         -0.452971         0.0231839          0.356809          0.112326          0.224873        -0.0885858          0.223733        -0.0194131         -0.237111        -0.0620102         0.0483602        -0.0857483           0.10679         0.0252912         -0.212611           0.15365          0.496293        -0.0560556          0.268898         -0.046677          0.154722          0.109981         -0.238975        -0.0623534          -0.18311         -0.209757           1.65062           1.58092           1.41918         -0.048804           1.81288           1.76188           1.32258           1.49776           1.83463           1.55733           1.74051           1.47017           1.18706           1.47977            1.4923           1.54513           1.50697           1.74251           1.33012           1.27243           1.63915           1.58994           1.44836          0.248777          0.584164           0.98517          0.760074           0.98064          0.724443          0.717663          0.592475          0.996043          0.890409          0.538795          0.829938          0.515895          0.630102          0.891003          0.428941           1.02653          0.864264          0.593365          0.988923          0.766626          0.507308           1.00419          0.518749          0.730542
           1.36012          0.117213         -0.101026           0.11481        -0.0229958         -0.382309          -0.19624          0.159195          0.183129         0.0917435        -0.0565084          -0.15329         -0.155972         -0.158882          0.100618         0.0309577        -0.0973121          0.128931        -0.0342926          0.126448         -0.168096         0.0502319         0.0137467         -0.448411          0.112106          0.344948          0.521939           1.82091           1.66021           1.42649         -0.130856           1.55994           1.74498           1.52287           1.66687           1.74513           1.67118           1.64375           2.05593           1.85392           1.40075           1.65125           1.82247           1.58749           1.85026           1.80374           1.82715           2.01507           1.43826           1.96513          0.275422           1.00918           1.30041           1.40498            1.5069           1.64061           1.68859           1.55534           1.45951            1.6029            1.5736           1.50043           1.67238           1.64881           1.48259           1.63105            1.2442           1.38227           1.48037           1.47969           1.58722           1.18893           1.62319           1.46855            1.6793
        0.00276939         -0.372675        -0.0358397          0.161489        -0.0144163         -0.370169         0.0800955          0.121839        -0.0299821         -0.123262       -0.00142617        -0.0312112         0.0207634         -0.110397       -0.00187448         0.0507704          0.117255           0.14316         -0.107962          0.183107         -0.329126          0.079706          -0.06931        0.00378291         -0.108535         -0.537097          0.266017           1.36707           1.79228           1.70027        -0.0087397           1.83888           1.79665           1.80075           1.85832           1.82799           1.70143           1.62302           1.96805           1.72516           1.71742           1.73567           1.62715           2.01082           1.76522           1.95107            1.5406           1.73764           1.65336           1.89847        -0.0501507          0.618072          0.807644           0.74585           1.32064          0.875316           1.06472          0.747268           1.03529          0.926265          0.591439          0.992103          0.908811           1.03423          0.960907           1.00802          0.993096          0.892936          0.846164          0.780708          0.889585          0.975242          0.793656           1.11859           1.07621
        -0.0151239         -0.176887          0.255423         -0.056444         -0.169349         -0.332906         -0.289857         0.0532282         0.0242749          0.143704          0.118897          0.134424         -0.175116        0.00685148         -0.116442         -0.080267         0.0705309         0.0620353             0.164         0.0871063        -0.0961222         0.0462587         0.0564295         0.0397482         0.0128823          0.146254          0.171705           1.45884           1.30197           1.35209         0.0989861              1.35           1.32696           1.60884           1.55417           1.58857           1.00244           1.29907           1.29571           1.48371           1.43211            1.2704           1.35516           1.25506           1.58923           1.08865           1.60379           1.39348          0.997979           1.13345         -0.823874         0.0881871          0.423295          0.680513          0.674946          0.752607          0.307121          0.650099          0.695497          0.522833          0.438546          0.955849          0.355192          0.673561           0.71146          0.865847          0.647116          0.586078          0.901993          0.650675          0.717314          0.695545          0.712674          0.808612          0.764363
        -0.0013823         -0.316812          0.117531         0.0154205         -0.154424         -0.413865          0.152582          0.202254         -0.168163         0.0839468         0.0262319          -0.15865        -0.0136355         0.0550871          -0.16453           0.20383          0.114939         -0.010922        -0.0133419         -0.125406        0.00353627        -0.0552668             0.139          0.101112          0.212148          0.521334          0.398837          0.374714          0.458532          0.466844         -0.113561          0.501018          0.316536          0.512343          0.233643          0.402725          0.331373          0.764442           0.42195          0.554584          0.329091          0.499705          0.210682          0.674059          0.407353          0.602385          0.445775          0.784529          0.431831         0.0437013         -0.296172         0.0664797          0.995248            1.0024          0.815187          0.781567          0.862007          0.862551          0.675095          0.981929           1.03122          0.744467          0.759294           1.11764          0.853735          0.637272          0.724018          0.745001           1.00778           1.11992          0.912924             0.681          0.824771          0.807614          0.886232

bias 0:
                 0
                 0
                 0
                 0
                 0
                 0
                 0

