weight 0:
         -0.580128         -0.525912       -0.00605799         0.0652271         -0.178545           0.21013        -0.0259252         -0.132879        0.00327625        -0.0571227        -0.0622266          0.135665          0.263075         -0.161556          0.197748          0.175618         0.0929547        -0.0333332          0.144276         -0.136597          0.105329        -0.0734905         0.0799224        -0.0895934        -0.0134874          0.111063         -0.485677          -1.10021         -0.503083         -0.954188         0.0922851         -0.825634         -0.961457          -1.17446          -1.20146         -0.818014         -0.827045         -0.929204          -1.20974          -1.15314          -1.10597          -1.06045         -0.508242         -0.882035          -1.09796         -0.761785          -0.61667          -1.05186         -0.657395         -0.945327         0.0353772         -0.215048         -0.251419         -0.355073         -0.284076         -0.394363          -0.17802         -0.325498         -0.379769         -0.537797         -0.145902         -0.149069          -0.33331         -0.150935         -0.421761         -0.141285         -0.349257         -0.024843          -0.13577         -0.430758         -0.172682          -0.34299         -0.512856         -0.369401         -0.354343
           1.51037          0.377119        -0.0382749         -0.145954         -0.128623         -0.644563         -0.251979         -0.105313        -0.0866969           0.18216        -0.0541175         0.0963455          0.196228         -0.551108        -0.0814659          0.112018       -0.00650659         0.0137858          0.265183        -0.0647584         -0.192823        -0.0623817           0.20284         -0.206051         0.0569072          0.675897          0.790527           2.23051           1.96225           1.63032          0.185079            1.7541            1.9922           2.20048           2.44509           1.72125             1.988           2.05925           2.00597           2.24248           2.23114           1.81054           2.05162           2.09726           1.97976           2.21389           1.84158           1.63114           1.88095           2.21787          0.194075          0.646815           1.50594           1.11304           1.48192            1.4801           1.30107            1.4547           1.51471           1.41324           1.35588           1.37869           1.40242            1.3378           1.64581           1.40022           1.61608           1.11015           1.76237           1.28298           1.55869           1.63699            1.3082           1.54028           1.29707
      -0.000725863         -0.459473         0.0231839          0.356809          0.112326          0.249642        -0.0885858          0.223733        -0.0194131         -0.237111        -0.0620102         0.0483602        -0.0857483           0.10679         0.0252912         -0.212611           0.15365          0.496293        -0.0560556          0.268898         -0.046677          0.154722          0.109981         -0.238975        -0.0623534         -0.183586         -0.212595           1.61284           1.54314           1.38139        -0.0591045           1.77509           1.72409            1.2848           1.45997           1.79685           1.51955           1.70272           1.43239           1.14927           1.44199           1.45451           1.50734           1.46919           1.70472           1.29234           1.23464           1.60136           1.55216           1.41058          0.248789          0.569308          0.969839          0.744742          0.965309          0.709134          0.702331          0.577143          0.980711          0.875077          0.523463          0.814606          0.500564           0.61477          0.875671          0.413609            1.0112          0.848933          0.578034          0.973592          0.751295          0.491976          0.988854          0.503417          0.715211
           1.34601         0.0898548         -0.101026           0.11481        -0.0229958         -0.378456          -0.19624          0.159195          0.183129         0.0917435        -0.0565084          -0.15329         -0.155972         -0.158882          0.100618         0.0309577        -0.0973121          0.128931        -0.0342926          0.126448         -0.168096         0.0502319         0.0137467         -0.448411          0.112106          0.345414          0.521226           1.79342           1.63273             1.399         -0.133407           1.53246           1.71749           1.49538           1.63938           1.71764            1.6437           1.61626           2.02844           1.82643           1.37326           1.62376           1.79499              1.56           1.82277           1.77626           1.79966           1.98758           1.41078           1.93764          0.275429           0.99761           1.28797           1.39254           1.49447           1.62821           1.67616            1.5429           1.44707           1.59046           1.56117             1.488           1.65994           1.63637           1.47015           1.61861           1.23176           1.36984           1.46794           1.46726           1.57479            1.1765           1.61076           1.45611           1.66686
        -0.0486133         -0.471026        -0.0358397          0.161489        -0.0144163         -0.369802         0.0800955          0.121839        -0.0299821         -0.123262       -0.00142617        -0.0312112         0.0207634         -0.110397       -0.00187448         0.0507704          0.117255           0.14316         -0.107962          0.183107         -0.329126          0.079706          -0.06931        0.00378291         -0.108535         -0.536683          0.248531           1.31062           1.73583           1.64382        -0.0221569           1.78243            1.7402            1.7443           1.80187           1.77154           1.64498           1.56657            1.9116           1.66871           1.66097           1.67922            1.5707           1.95437           1.70877           1.89462           1.48415           1.68119           1.59691           1.84202        -0.0501466          0.600052          0.763433          0.701639           1.27643          0.831825           1.02051          0.703057          0.991079          0.882054          0.547228          0.947892            0.8646          0.990024          0.916696          0.963813          0.948885          0.848725          0.801952          0.736497          0.845374          0.931031          0.749445           1.07438           1.03199
         0.0225552         -0.210178          0.255423         -0.056444         -0.169349         -0.228036         -0.289857         0.0532282         0.0242749          0.143704          0.118897          0.134424         -0.175116        0.00685148         -0.116442         -0.080267         0.0705309         0.0620353             0.164         0.0871063        -0.0961222         0.0462587         0.0564295         0.0397482         0.0128823          0.145783          0.184957           1.67808           1.52121           1.57133          0.246413           1.56924           1.54621           1.82808           1.77341           1.80781           1.22168           1.51831           1.51495           1.70295           1.65135           1.48964            1.5744            1.4743           1.80847           1.30789           1.82304           1.61272           1.21722            1.3527         -0.823859          0.099235          0.474212           0.73143          0.725863           0.80346          0.358038          0.701015          0.746414           0.57375          0.489462           1.00677          0.406109          0.724477          0.762377          0.916763          0.698033          0.636995          0.952909          0.701592          0.768231          0.746462          0.763591          0.859529           0.81528
          -0.03808         -0.341762          0.117531         0.0154205         -0.154424         -0.413676          0.152582          0.202254         -0.168163         0.0839468         0.0262319          -0.15865        -0.0136355         0.0550871          -0.16453           0.20383          0.114939         -0.010922        -0.0133419         -0.125406        0.00353627        -0.0552668             0.139          0.101112          0.212148          0.521224          0.393673           0.32724          0.411058           0.41937         -0.138595          0.453544          0.269062          0.464869          0.186169          0.355251          0.283899          0.716967          0.374475           0.50711          0.281617          0.452231          0.163208          0.626585          0.359879          0.554911            0.3983          0.737054          0.384357       -0.00377292         -0.296153         0.0654442          0.974691          0.981841           0.79463            0.7612           0.84145          0.841994          0.654538          0.961372           1.01066           0.72391          0.738737           1.09708          0.833178          0.616715          0.703461          0.724444          0.987222           1.09936          0.892367          0.660443          0.804214          0.787057          0.865675

bias 0:
                 0
                 0
                 0
                 0
                 0
                 0
                 0

