weight 0:
         -0.785562         0.0502184          0.933585           1.09345         -0.481203        -0.0381244          0.345568         -0.763406         -0.545486         -0.701856          0.951347         -0.277109         0.0729922         -0.512379         -0.376883         -0.508164          0.678444          -1.57041         -0.551107          0.630948          0.995184         -0.174962         0.0498804           -1.0923          0.829502           1.03422          0.922927         -0.314643           -1.3042          -1.20661          -1.54164           1.01269           1.09532          0.701207           0.98411         0.0117082         -0.274048        -0.0113254           0.95191         -0.578893         -0.436872          -0.60746          -1.40881         -0.645254          0.686611         -0.801108          -1.25329          0.129436        -0.0141078          0.166153         -0.470002           1.30162           1.01763          0.621673         -0.991066          -0.34993         -0.971644          0.124524         -0.795613          0.587719          -1.37907         -0.759848          -1.42894         0.0733319          0.946927         -0.426033        -0.0686163         0.0287364         0.0570492         0.0274232           1.32643         -0.859293          -1.27727           1.11957           0.95885           0.61298          0.263352          -1.77033         -0.614464          -1.22632          -1.06455          -1.41698          0.552612           0.11372         0.0781023         -0.192517          0.150415         -0.262267          0.438946         -0.881355          0.121371          0.607083         -0.499042        -0.0465815         0.0190166         -0.275353          0.999869          -1.66116          0.904124         -0.544185         -0.950839         -0.642872          -1.70205          0.753316          -1.63136          -1.03181         0.0682792         -0.240269       -0.00779949          0.824765          -1.05783          -0.98968          -1.33974         -0.398712           1.18567        -0.0134528            1.3101          0.981763         -0.502532        -0.0725646         -0.879277         -0.133734          0.911859          -1.43648         -0.732376          0.117844        -0.0815536          0.493625           1.04849           0.37914            1.0404         -0.820953          0.796119         -0.497229        -0.0308778         -0.212196          0.659779          0.843938         -0.137243         -0.112667          0.169811          0.916969          -1.23822         -0.593415          0.714462         -0.473984          -0.24099          -0.57188          0.269731          0.804895          0.953201           1.07264          0.405188         -0.484847         -0.699454         -0.667246          0.420058           1.15632         -0.220686         -0.892358          0.840674          0.648499        -0.0989287         -0.944224          0.209068          -0.67767          -1.43892         -0.570157         -0.245551          0.582554          -1.61848          0.565745          0.826937          0.394812         -0.431302         -0.156408         -0.142813        -0.0250624          0.184982          0.591788         -0.609574           1.05474          0.992958          0.828472         -0.681893         -0.505648          0.492801           1.13292         -0.308832          -1.07275          0.073169          0.427552           1.07747          0.912587          -0.70009          0.209893           0.75193         -0.111101        -0.0331573          -1.40081
         -0.287524          -1.21126         -0.626798         -0.295929         -0.184654         -0.682286          0.364066         -0.431423          -1.25335         -0.630826          -1.49445         -0.288337           0.47942         -0.135742           0.23495         -0.946682         -0.129598          0.976741           1.22063         -0.807608          0.233446         -0.315998          -0.41157          0.198572         -0.676309         -0.675853          -0.90608          -0.80994       -0.00439786           0.60983          0.152076         -0.119414         -0.915068         -0.781186          -0.77037         -0.819586         -0.176907         -0.701677         0.0943538         -0.340635          0.424012           1.28511        -0.0484643         -0.155039         -0.641841          0.688756          0.112306         -0.659452         -0.609381         -0.816704        0.00659338         -0.796435          0.783378         -0.148751         0.0651812          -0.66882         -0.807177        -0.0545535         -0.330814         -0.564518          0.780321         -0.632919       -0.00155424          -0.11232         -0.875036         -0.211726         0.0716809         -0.231299           1.38681          0.942438         -0.528812         -0.491616         -0.318623          -1.04779           1.36782         -0.778465          0.608773          0.987775           1.14761         -0.863917         -0.113579         0.0266351          0.215254          0.515678          -0.16302         -0.857986         -0.209724         -0.372959          0.471412          0.075192          0.244767         -0.725685         -0.799329           1.63206         -0.134921          0.272594           -1.0845         -0.172292          -1.31649         -0.315786          0.411588         -0.357107         -0.407103         -0.015999         -0.385975         -0.777488          0.112576        -0.0992259         -0.374386          0.278447         -0.326951         -0.749992         -0.406175         -0.504578          0.380998         -0.535933         -0.570712           0.24974        -0.0580139         -0.345319         -0.113624         -0.655959           0.39127           1.26993         -0.226205         -0.329714          -1.15109         -0.347252         -0.864159         -0.399268           0.13297          0.313642         -0.845083         -0.867439          -1.10523         -0.409461         0.0924998         -0.141407         -0.279103         0.0437976          -1.10948         -0.879522         -0.220849         -0.091601         -0.271672         -0.452891         0.0727221         -0.204165          0.433151           0.91426         -0.053532        -0.0605148          0.462389          0.105265         -0.289287          -0.33717          0.861636         -0.857414         -0.620624           1.39104         -0.815063           1.30335          -1.16022         -0.338448          -0.18978         -0.643434          0.115448         -0.853163          -1.32779         -0.881886          0.155375          0.677335         -0.182187        -0.0555463           1.98973         -0.525079          -1.05981         -0.742143         -0.498213          -1.01994         -0.562973         -0.779101          0.288901         0.0179441         -0.978798         0.0841718         -0.601269         -0.533107         -0.447374         -0.286163         -0.582209         -0.653466         -0.626363         -0.881418         -0.140243         -0.573031         -0.642934          -1.07261         -0.929135         0.0314706
         -0.721612          0.462563         -0.775948         -0.783505          0.564547          0.225648         -0.041474          -1.11034          0.793994          0.884991         -0.478782         -0.677606         -0.908777         -0.158131         -0.577972          0.274434          0.822137         -0.580655          -1.29568        -0.0102432          0.208018         -0.425592         -0.814667         -0.207801          0.335211         -0.370546         -0.854718         -0.266408        -0.0108683          0.125872         -0.844079         -0.606473          0.732041         -0.458192          -1.08314          0.121443          0.718761            0.5712         -0.236274          0.186913           -1.2126          -1.72604         -0.625959         0.0823683          0.107932          -1.21183          0.229026         -0.622989          0.357229         -0.471091          0.984524         -0.932561          -0.38065         -0.485253          0.138173          0.903882          0.360686           1.27524          0.307707          0.950477         -0.180844         -0.931237          -1.26406           1.00303         -0.296125         -0.251329         0.0850389         -0.688405          -1.32337         -0.739382         -0.698084            1.9627        -0.0443074         -0.191426          -0.29004         -0.223517         -0.475428         -0.910951          -1.39422         0.0833715          0.518474          -1.15513         -0.650678         -0.436836          0.744869         0.0981664          0.909678         -0.738449         -0.353133        -0.0966851        -0.0636653          0.080891          0.483959         -0.711574         -0.498995          -0.28105        -0.0300378          -0.21152       -0.00377208          0.198515          -1.20354          0.527776          -1.11393         -0.638882         -0.462721          0.242764         -0.997586          -1.00316          0.309291        -0.0800052          0.286436           1.43942          -0.45193          -1.24403          -1.35693         -0.176732          -1.07721          0.448809          -1.01162         -0.316345          -0.10866          0.346327          -0.78296         -0.757351          -0.37736           0.60532          0.390749         -0.324787          -0.58808         -0.993601         -0.295432           -1.2568            1.3322          0.369079          0.791337          0.319589         -0.622943         -0.294332          0.350001         -0.630235           1.33831          0.756028         0.0701952         -0.899426          0.638429            0.6868         -0.717131         -0.549636         -0.953904         -0.295561         -0.592344         -0.445325          0.535318         0.0556905         0.0387832         -0.131809         -0.245278          0.571912          0.695338         -0.549191          0.647168         -0.298736          0.735683          0.744487          0.478463          0.660703         -0.883518          0.300588            -1.536          0.567245         -0.315257            1.0673         -0.069285          0.241422        -0.0467688          -1.48707          0.527461          -0.14973           1.06198          0.909039          0.468539          0.417105         -0.441532          0.525428          0.869756          0.440416          0.229572           1.03881        -0.0864283          0.687176          0.450562         0.0321888          0.533397          0.203135          0.226943         -0.375925         -0.133157          0.816654          -0.29024         -0.958366
         -0.406392           0.24445          0.701164           1.09519          0.645945          0.152903           1.64056          0.344427          0.294205          0.531485          0.665162          0.666434          0.271663          0.958836          0.299112         -0.157101         -0.418044          0.620934           1.08266          0.460992           1.33388         -0.509698         -0.631082           1.11011          0.390144         0.0585194           1.04773          0.267855          0.374085          0.168322          0.558131           1.28161          0.531042          0.495375          0.905569           0.55093          0.550228          0.482528          0.673753          0.813904          0.195584           0.94524          0.536486          0.886618          0.990659           0.26349         0.0556789          0.449248          0.219555           1.07902          0.728869          0.513316           1.36502          0.890385         -0.389032          0.956691          -1.26982          0.467928          0.195276          0.211819         0.0778611          0.262841          0.563534           0.18289          0.761161          0.520687         -0.888755         -0.463708          0.768103          0.033124          0.821185         -0.151173         -0.170412           1.48356           1.13432          0.776092         -0.221493           1.20036          0.147574         -0.230552        -0.0563986          0.441904          0.580301         -0.343178          0.685922          0.144829          0.235985          -0.13582          0.184967          0.905386          0.893103          0.623374          0.894565          -0.54111          0.541349          0.552507          0.890597          0.316027         -0.907652          0.979686            1.0672          0.833236          0.292888          0.629019          0.342295          0.208017         -0.207708          0.288978          0.404014          0.463465          0.165001          0.418474         -0.317657          0.491915           0.91416          0.557581           1.36888          0.418137          0.607273          0.115761          0.638273          0.638379          0.613692          0.440187          0.527828          0.399983          0.815821          0.395531          0.907237          0.254065          0.350045          0.659475         -0.102271          0.255629          0.148505        -0.0549815           1.39391         -0.944951           1.10493          0.288786          0.343562          0.807941          0.257281         -0.296717          0.910175          0.396613          0.134817          0.151312          0.453737          0.650379          0.509989          0.833789          0.908479           0.88362          -1.31186           1.22866          0.275841          0.384158          0.964776         -0.103814          0.386502           1.03542          0.448859          0.769444          0.488407           1.13588           1.00996          0.728454        -0.0135052          0.969414          0.276447          0.292338          0.396458         -0.105139          0.760108          0.550432         -0.353192         0.0161499          0.894386          0.097553           0.88523         0.0375765            1.0575           1.84345          0.167666          0.798309          0.124374          0.684505           0.99938          0.435281         0.0110974          0.899777          0.120236          0.860628          0.851533          0.834727          0.583657          0.425195          0.344706         0.0142656
          0.149629         -0.220078           1.04941          0.844168         -0.515006         -0.219326           1.12263         -0.412418          -0.32991          0.621568           1.01531          -0.33834          0.625172         -0.427335          -0.45419         -0.402108          0.180856          0.654362         -0.880288         -0.956382          0.453404         0.0155424          0.689186          0.195835         -0.402681         -0.374355           1.28434         -0.715766         -0.153604           1.38507            1.2458          0.430928         0.0341298          0.196039          0.569819         0.0420359          -0.71206          0.487363           1.34543          0.788157          0.867001         -0.909532         -0.254934           1.17741          0.212373          0.673477          -0.29956          0.395834         -0.490658           1.34154         -0.427487            1.6523          0.957003           0.32293         -0.210569         0.0379812         -0.492687         -0.172933         -0.625984          0.599495         -0.227287          0.906099         -0.713725          0.602939          0.672967         -0.278243            1.2584          0.915832          0.974499            1.1058           1.37208         -0.993113           1.06448            1.2778           1.22452          0.442304          0.989357           -1.0998           1.24312         -0.717838         -0.500833         -0.550222          0.416061           1.12648         -0.540437         -0.135657         -0.507025        -0.0396413           1.00794         -0.743775         -0.787193           1.07505         -0.180077         -0.196751           0.24872          0.248532           1.02079           1.31342          0.374932         -0.142994          0.321014          -0.39683           1.10971          0.725368         -0.120012         -0.122266           1.37687          0.247071          0.269592          0.883955         -0.243717         0.0600833           1.19505          0.587601           1.20919         -0.373267           1.82653         0.0282161           1.07186         -0.353743         -0.335834            1.0798          0.675355         -0.970898          -0.46814         -0.310569         0.0578503          0.596003            1.5468         -0.561468           1.53051           1.01227         -0.238793         -0.614066         0.0429623         -0.880191           0.22652         -0.803821        -0.0489252         -0.480522           0.12418          0.768228         -0.582019          0.468746          0.346776         0.0213035         -0.849769          0.106359           1.09657          0.532352          0.895624           1.07164         0.0306372          0.183931         -0.319411          0.480849         -0.308036          0.888034         -0.116791          0.948793          0.914888         -0.232073         0.0115379         -0.656348         -0.619002         -0.375852         -0.163133          0.965308           1.15652          0.350329         -0.550321         -0.280811          0.486469          0.731883          0.507845           1.02175         -0.943033          0.267943         -0.296628         -0.081121         0.0507058         -0.476423          0.806488         -0.243853         0.0778227          -1.09623          0.335797           1.11045         -0.724845         -0.585588         -0.690743           0.35379          0.420436          0.914208        -0.0245448           1.56359          0.693559         -0.437632          0.638608         -0.413725
          0.135644           0.50118         0.0966104          -1.22457         -0.191649         -0.481927          -0.98864         -0.637006         -0.445558         -0.719045         -0.318005         -0.851091         -0.457008         -0.470452          0.125104          -0.82216          0.492684          -1.16869         -0.262552         -0.587319          -1.21688          0.181696         -0.828355           0.14537          0.541278          0.350114         -0.561657         -0.558168          -1.10942          -1.16141          0.120467         -0.814151          0.468938          0.635408         -0.220876          0.258767           0.43246          0.499831         -0.915847          0.350118        -0.0705574         -0.553187          -1.25234          -1.06174          -1.30212          -1.37573          0.122746          0.180494         -0.848383          0.100781          -1.25011          -0.25534         -0.396339          -1.39356          0.312461          -1.55094          0.504876           -1.0718         -0.320273          0.290235         -0.326141         -0.537004          0.150117          -1.35956          0.291665         -0.855662         -0.831655          0.184735          -1.82663          0.134805         -0.270038           0.42207         -0.884021          -1.00699          -1.27841          0.327001          -1.50508          -1.40325         -0.926457          0.657306           1.05081         -0.142868         -0.608875          0.202058         -0.487244         -0.432338          0.281477        0.00240797         0.0136244          -1.03153        -0.0937656        -0.0791362         -0.444551          0.681439         -0.419771          0.624698          -1.84142          -1.13721        -0.0862884         -0.296194          -1.20782         -0.782772          -1.74815         -0.597748         -0.671824         -0.913901         -0.155258          0.531278         -0.206775          -0.89723           0.77232         -0.532169          -1.41017         -0.262744         -0.931105          0.617414          -1.38531          0.242468          -1.08499        -0.0731562         -0.423663        -0.0911613         0.0080707          0.393475           0.54504          0.227271         -0.213092          -1.06307         -0.947415          -0.65601           -0.8755         -0.137647         -0.258668         -0.040876         -0.109871         -0.356416         -0.257253          0.542274        -0.0805675          -1.00183         -0.872583         -0.403778          0.728964          -1.05874         -0.027801         -0.482344          -0.13536          0.915285          -1.12797         -0.332094          -0.33363          -1.03095         -0.371489         -0.735528          0.336375         -0.393724         -0.549865         -0.406143         -0.175185          0.164911          0.853267          0.652832          0.239982         -0.810138         -0.500426          -1.30791         0.0391789         -0.196191         -0.306553         -0.674005         -0.348185         -0.540174          0.578155          -1.26736           -1.0526          0.522489          0.516729         -0.387334         -0.700754          -1.02618         -0.574754           1.09786         -0.544251          0.370201         -0.979377         -0.762662         0.0409648         -0.407983         -0.997122          0.201361           0.68619          0.138979          0.801312          -1.25809          -1.15397         -0.869543         -0.795174           -0.5788          0.608872         -0.240855
         -0.452464         -0.629924          -0.23729         0.0469816          0.247477          -1.00882          0.247297          0.258475         0.0803894          0.944266           1.08726         -0.231244          0.592877          0.945649         -0.702901          0.501139        -0.0878486         -0.498544         -0.426351          0.327574          0.669027          0.336804           1.11513          0.372574          0.599268          0.358137          0.403383          0.548649         -0.442473          0.902291         -0.382469           1.47106          0.638614          -0.58053          0.981973         -0.928606         -0.753586         -0.316737          0.648775          0.641799         -0.060028         -0.523211         -0.343881          0.708441          0.812375         -0.277677         -0.401671         -0.734785          0.103962         -0.195145          0.255679           0.68932          0.353529          0.949099          0.338287          0.813434         -0.879798          0.225053         -0.925369          0.561615          0.199365        -0.0516747         -0.580133           1.03064          0.775367          0.389835         0.0840332          0.763285         -0.376908         -0.196212          0.630402          0.523328          0.911575          0.163461          0.528388          0.737265           0.88616          0.328539         -0.197013          0.108268          0.348922          0.854643          0.324186         -0.439669          0.490142          0.451673          0.882224          0.540657          0.276195          0.595523          0.578619         -0.684326           1.28375         -0.586669         0.0506067          0.272479          0.771994          0.580968         -0.540111           1.02511           1.17688          0.970962         -0.160161          0.957678          0.208882         -0.561151        -0.0120873         -0.912641         -0.410894          0.357554          0.596617          0.160922         -0.140224          0.439843          0.743808          0.382847          0.167021          0.787149          0.377035          -0.10584           1.02911          0.964487         -0.637023         -0.735416          0.294518        -0.0841923           1.03425          0.332894         -0.653583          0.494336          0.312714          0.563681         -0.495809          0.529797          0.543395         -0.526534          0.555076         0.0575924          0.563542          0.749375          0.328917           1.02601          0.546037         -0.138405           1.03934          -0.73983          0.450626          0.412129         -0.559625          0.992608         -0.748554         0.0694627          0.737103          0.133598         -0.928504           1.13312         0.0492792           1.00345           1.10234         -0.629778          0.514026          0.321185         -0.999533          0.947595          0.402147           1.06409          -0.44733          0.283128         -0.391311           0.69922         0.0238771         -0.476307          0.269988          0.455252           1.12144         -0.429022           0.56531        -0.0141452          0.942724           1.14429           1.05454         -0.180722          0.953372         -0.319519          0.320407         -0.275134          0.463338         -0.269299           1.12901        -0.0971737          0.269917          0.636959         -0.445454          0.351193          0.888842         -0.801812          0.674548          0.468581          0.375544          0.657726
         0.0831952         -0.221162         -0.983302         -0.528454          0.488205           -1.0723         -0.928025         -0.308803          0.446106          -1.44281          0.599213         -0.518689         -0.718203          -1.10825          0.757949          0.787247          0.266553          -1.07802          -1.15199          0.866236          0.111059         -0.712957         -0.765074         -0.883168          0.421413         -0.119353          0.226982         -0.544263         -0.520121         -0.542931          0.425213         -0.974536         -0.330609        0.00276473         -0.635429        0.00842237          0.314137          0.135994         -0.276076          0.321317         -0.506594          -0.82265          0.312506         -0.742708         -0.721438         -0.948013           0.65249          0.614603        0.00878682         -0.698558         -0.324079          0.856176          -1.09676        -0.0768799         -0.767253          -1.39435          0.364833         -0.607329          0.669552          0.322192          0.403642         -0.573008          0.622663          -1.34507         -0.671149          -0.98994         -0.737005         -0.441369          -1.09223          -0.72017          0.302356         -0.424109         -0.820561         -0.752866         -0.723383         -0.192565         -0.400162         -0.792696         -0.323252          0.328092         -0.316136         -0.366309          0.526203         0.0371774         -0.454207          0.600627         -0.012315          0.240345         -0.298309          -1.17604         -0.411126         -0.769965          -1.77254         -0.298129         -0.861641         -0.325467          -1.19274          -1.00136          0.299003          -1.48088         -0.835303          -1.32115         -0.582811         -0.202775         -0.987046         -0.891631         -0.819766         -0.662837           1.11671          -1.07848          0.192658         -0.389559         -0.657945         -0.508933         -0.958053          -0.31362          -1.09754          0.993778         -0.645219         -0.635872         -0.439163         -0.873613         -0.214458          0.323953         -0.315093         -0.440134         -0.648735          -1.00758         -0.936632         -0.207098         -0.712229        -0.0470116        -0.0354198          0.113067          -1.68697         -0.137181          0.455348          0.325072         -0.397715         -0.778055          -1.66832           -1.1718           0.55474         -0.786959          -1.74508          0.469008         -0.381388         -0.193119          -0.17586          -1.18117         0.0691216         -0.644694         -0.397018         -0.837897          0.613343          0.203704         -0.552481         -0.458915          -1.20504          -1.02185          0.807218         -0.164692        -0.0969947         -0.747425         -0.371304          -1.22772         0.0443384         -0.571626          -1.21895         -0.759662          0.374671         -0.361028          0.753028          0.688379         0.0769359         -0.669799         -0.491367          0.197475          -1.47729           -1.5476         -0.244204         -0.573703          0.544817           0.14942         -0.900651          0.683825          -0.31885         -0.301965          -1.46224          0.720215          0.380538         -0.321463          0.399142         -0.260232         -0.583524         0.0407519          0.292655           0.43521          0.572097          0.290236
          -1.21054          0.624529          0.869157          0.443772         -0.261236         -0.956255          0.240849         -0.400866          0.220116           1.21893          0.316876         -0.461206          0.314429           1.10439         -0.933867          0.606561         -0.399441          -1.68886          -1.45741          0.797129           1.28861          -1.50508          0.258429          0.366085          0.681665          0.207282          0.160902         -0.546305         -0.881874          0.282698          0.319563          0.950795         -0.104679         -0.498224          0.726539         -0.471263         -0.414574          0.521778         0.0124643           1.13534          0.315487         -0.916985         -0.543773          0.817693           1.11436         -0.140038          -1.13388          0.566922          0.681074           0.54836         -0.360016           0.68122          0.426454          0.618924         -0.408842            1.0379          -0.73556         0.0103205          0.129314          0.767875          0.225945         -0.853513          -1.03814          0.371784          0.427847          -1.33161         -0.516124           -1.0297          0.324482          0.254089          0.251472         -0.491857          0.206543          0.172608         0.0140869          0.779244         -0.557428         -0.327144          -0.17204          -1.70363          0.592383         -0.465628          0.478029         -0.821573         0.0970201         -0.875604         -0.522083          0.287746          0.358738          0.108198          0.416103         -0.453229         0.0766625           0.86927         -0.309088         -0.012659          0.386695           0.42533         -0.692093          0.604484         -0.116081           1.08725          0.275848           0.75836         -0.732823          -1.23335         -0.052601        -0.0251048         -0.934831          0.978265         -0.083142          0.520643         -0.222761         -0.644195           0.94134          0.734361         -0.059491           0.69812          0.412762         -0.558078           1.08513           1.04999          0.616841          0.466079         -0.341106         -0.197535          0.923606             1.017         0.0203736         -0.378873           1.17773         -0.542003         -0.498728          0.513661          0.443709        -0.0398807          0.146566         -0.160916         -0.779191          0.193735           1.15368           1.12188          0.204276         -0.715527          0.066854          -0.47192           -0.6659           -1.0389         0.0718004          0.527679          0.616024          0.537041          0.381375        -0.0167584          -1.03546       -0.00900765         -0.673301          0.177209          0.920977         -0.144762          0.536723          0.510393         -0.754543           1.05595        -0.0492703           0.49363        -0.0719208           1.20375          0.509325          0.411042         -0.495181          0.785778          0.580286          0.509043            -1.348          0.305495          0.633822         -0.878097          0.799464           1.11615           1.25302         -0.395612        -0.0080221         -0.132693          0.974694          0.313733         -0.395724          0.335577           0.48343          0.353034          0.900494          0.381583          0.650044         -0.485601        -0.0533483          0.769269         -0.939411         -0.422292          0.643313         -0.254959
          0.456315          0.852914          -0.40877          0.292932          0.540376          0.346995           0.50022          0.020954          0.830429         -0.289654           0.44663          0.753362         0.0862055         -0.344306          -0.77556         0.0783482          -1.03568          0.558987          0.530685           1.03199         -0.039563          0.860335          0.640228          0.167993         -0.287683           1.17978         -0.844014          0.991926          0.637922         -0.727169         -0.126787         -0.398031          0.641358          0.942396          0.358635          0.242636          0.997179           0.85597          0.943868         -0.967498        -0.0767497         -0.668644          0.679369          -0.10086          0.231653          -1.01601           0.66556           1.08365          0.565628           1.22852         -0.350603          0.851346        -0.0486837         -0.822935          0.521819         0.0853822         -0.373944         -0.479705          0.501366          0.425007          0.605968        -0.0555889          0.655314          0.382514           1.08603          -0.19277          0.760151            1.0516           0.21932         -0.509564         -0.860452          0.290938          0.647261         -0.807405         -0.519647           0.25355             1.056          0.461609         -0.248791         0.0945125          0.197742          0.343719         -0.216406        -0.0436594         -0.821886          0.383029         0.0387456          0.877015          0.207745         -0.862642          0.215588           0.89718        0.00541773           0.37971          0.861326         -0.293486         -0.485722         -0.278073         -0.746495         -0.428358        0.00336382          0.084291         -0.533737          0.298184        -0.0628524          0.632448         0.0445628          0.360147          0.654378         -0.579475          0.838092         -0.562696          0.209786         -0.229411           0.61271          0.845662           1.07812         -0.349005         -0.894195          0.739489         -0.204593        -0.0569556          0.247499         -0.830079          0.473227          0.825714         -0.384168         -0.891377         -0.568339          0.216025           1.01832         -0.122937           0.70181         -0.203845         -0.705843         -0.587161         -0.843622        0.00615189          0.164568          0.359462         -0.839682         0.0833596           0.34224         -0.207327         -0.601143           1.41602         -0.125914         -0.270874         0.0102685         -0.141936          -1.02913         -0.579699          0.401855         -0.479171           0.54331         -0.102235          0.678559         -0.756662         -0.812818         0.0263018        -0.0944572          -0.51832           0.50154         -0.885357         -0.380688         -0.103022          0.539038          0.101228          0.859605          0.137573          0.227651        -0.0363067           1.02192         -0.475177          0.225927           0.63515          0.164866            0.1954          -0.37581         -0.943492          0.186297         0.0976613         -0.668645         -0.384966          0.137951          0.224343          0.434902         -0.424616         -0.179456         0.0494423            0.2962          0.371795          0.670641         -0.106217         -0.175542           1.08594         -0.258345          0.645177         0.0615389          0.484951
          -0.47775         0.0142242         -0.169581        -0.0809025         -0.776153         -0.835722         -0.390926         -0.679854          -1.16984        -0.0106982         -0.290506          -1.09564         -0.077618         -0.732992         -0.337076         -0.751579          -0.65999          -1.80352         -0.884766         -0.976359         -0.867392         -0.717299          0.139438          -1.30117         -0.595775         -0.679417         -0.829827         -0.783828         -0.933387          -1.15366         -0.466446         -0.773051         -0.956806         -0.246893           -1.2272         -0.599058          -1.07695          -1.00062          0.240908         -0.578393          -1.52176          -1.38553          -1.37819            0.2471         -0.875964         -0.527855          -1.51082         -0.367778          -0.88265         -0.321882          -1.33364         -0.249714          0.290683         -0.657562         0.0996443         -0.931536          -1.22249         -0.704529          -1.07251          0.102247          -1.09549         -0.993075          -1.08255           -1.3803         -0.988806         -0.683124         -0.492035         -0.108736          -0.19666          -1.53485          0.337396         -0.876282         -0.240475          0.127086          -1.26484          0.377705         -0.364492          -1.60897          -1.52957         -0.768089         -0.615366         -0.857804         -0.782759          -1.31012         -0.706527          -1.11368         -0.957941         -0.827457          0.208194         -0.505805         -0.113317          -1.27382         -0.640552         -0.137553          0.109471          -1.35804         -0.523477         -0.553276         -0.891258         -0.803302          -1.63256         -0.634612        -0.0838942          -1.12681          -1.07371         -0.857351         -0.420686         -0.680822           -1.1029          0.426613         -0.725515          -1.39337           -1.3081          0.359817         -0.863502         -0.904755        -0.0757538          0.036649          -1.03695          -0.94601         -0.898925           0.27058         -0.332722          -1.13437         -0.932892          -1.14462          -1.07502          0.368325          -1.20509         -0.904782        -0.0466084           -1.8717         -0.304131         -0.773653          -1.05804         -0.765779          -0.63922         -0.586105          -1.49586          -1.17143          -2.34478         -0.662694          -1.64978          -1.39404         -0.845835         -0.808501         -0.802383           -1.1949         -0.472816         -0.686773          -1.20722          -1.80774          -1.19171          -1.28572          -1.29436          -1.61397          -0.94894          0.562138          0.367097          0.163918           -1.1084         -0.132694         -0.897337          0.138354         -0.819889         -0.870833          -1.17544         -0.461093         -0.456146         -0.657579         -0.970537        -0.0213707         -0.705558          0.411794          -1.84299         -0.652298         -0.898146         -0.806361         -0.617274          -0.81946         -0.608744         -0.522003          0.249305          -1.19448          -0.83545          0.410024        -0.0722733         -0.675213         -0.652887         -0.839237          -0.23171          0.157386         -0.723826         -0.101692         -0.772803         -0.084278        -0.0824616          -1.19445        -0.0241543          -1.05416
         -0.278554          0.802831          0.425663         0.0914159        0.00602009         -0.206406          0.244249         0.0164977          0.721811           1.29929         -0.270255          0.744581         -0.513197           2.06337          -1.08852           1.53556           1.29526         -0.626037          0.193052           1.55397          0.725285          -1.36748          -0.39336           1.40708          0.979999          0.888635          0.819149          0.731158         0.0155065          0.310761         -0.248767            1.9328          0.864243          0.949161          0.844052          0.943745          0.963652         0.0804934          0.345975            1.9233         -0.552233          0.827874          0.352292           1.80622          0.978671         -0.527639         -0.747524         -0.392029        -0.0817671         -0.295348          0.795571           1.44854          0.515788           1.85911         -0.824193           1.89436          -0.78812           1.01936         -0.767278          0.200316         -0.535338          0.612572          0.352355           1.12972          0.631084          -1.37884          0.604048          0.197661          0.719341          0.759604           0.30452          0.888928         -0.726532         -0.267748          0.890716          0.422328         -0.653747           1.18634          0.813958          -1.28712          0.574329          0.470583           0.24616          0.415992           1.72994         -0.815673          0.632193         -0.370507          0.763101        -0.0450845         0.0276731           1.38283           1.69336          0.296952         -0.178414         -0.634077           1.27205         -0.338845          0.366289          0.775272         -0.255976           1.83276         -0.423649          0.370361          0.463152         0.0810161        -0.0458597          0.123541          0.278282           1.89798          0.404396          0.958865          0.194685         -0.512148           1.52034          0.856371          0.998491         -0.151594           1.34698          0.360276           1.78938          0.764651           1.21469          0.818391          0.709264          0.195246           1.78311           1.08036          0.637413         0.0606742          0.384182           0.91425           -0.6031          0.837019            1.2524           1.25479           1.79018         -0.233728         -0.640509          0.579334           1.94945           1.43541         -0.707387          0.758884            1.9061           1.00422        -0.0514355          0.176731         -0.245838           1.77677           1.05863          0.841464          -0.46786          0.689928         -0.997372           1.02113           1.35937           1.56593           1.01432         -0.657629        -0.0502681          0.815932          0.777439            2.0426           1.97531           1.14378         -0.575523           1.70172         -0.139389            1.3308          0.522764        -0.0833706           1.17252          0.292239          -1.06121         0.0750285          0.116626         -0.322343          0.956405            1.9357           1.72281          0.514235            1.5837          0.307968           1.86246          0.747499         -0.184439          0.722114           2.05744         -0.659807          0.553229          0.804566         -0.280372         -0.576593           1.61409          0.544536          0.321416           1.00518          0.458737         -0.413474
         -0.106712        -0.0762637          0.622394           1.03017         -0.309843         -0.669439         -0.720132         -0.819772         -0.992802         -0.690299          0.407292          0.323826         -0.122475           0.71632         -0.247667          0.211589          0.143907          -1.39803          -1.88978         -0.863888           0.89169         -0.369296          0.307779         -0.361554          0.799388           0.72258           1.53741          0.179787          -1.40384          -1.14791         -0.335024          0.900465           1.14628         -0.602202          0.521725          0.230159           -1.0666          -0.43578           0.53417         -0.716005          -1.43729          -1.22829          -1.41637           -1.0801          0.654883         -0.636176          -1.32668         -0.617018         -0.352925          0.135793         -0.889631          0.324556          0.822409          -0.89298          -1.13253         -0.446054           -1.5348          -1.13243          -1.40571          0.255686          -1.13664         -0.240509          -1.40048         -0.779259         -0.791122         -0.320871          -0.83186         -0.140432          -1.18044          -1.17675           1.21467           -0.1998          -1.32244          0.839329          0.344993           1.00237          0.136396         -0.874483          -1.06149         -0.209141         -0.882957          -1.17575         -0.880939          -1.16045         -0.379157          -1.00134         0.0477014           0.54965           -0.4115           -1.4311          -0.10002         -0.200728         -0.178301         -0.205277          -1.39586         -0.509944          0.887341          -1.08417         -0.158618         -0.110719          -1.34579         0.0992254          -1.18362          0.579453          -0.19527         -0.778276         -0.972502          -1.21554         -0.876072         -0.315035         -0.975073         -0.820593          -1.19929         -0.602586          0.849109         -0.646025           1.23341         -0.326638         -0.166173         -0.583529          -1.03844         -0.279363           1.19037          -1.17415          -1.30398           0.63029        -0.0702714         -0.814916          0.396312          0.374656           1.09662           -1.2959          0.468227         -0.658526         -0.460404         -0.896971         -0.925251          0.353347         -0.669842          0.108355         -0.856912          0.661021          -1.31469          -1.00847          0.439572         -0.833411         -0.631534          -0.77194         -0.752347            1.1707         0.0891008          0.999178         -0.770279         -0.372744         -0.928349          -1.00175          0.408464           1.22188         -0.192841         -0.797009          0.280362         -0.159211          0.775209          0.447664           0.13658          0.208067          -1.09167         -0.328947         -0.262315         -0.462135          -1.43369          0.117402          -0.55603         -0.707107         -0.947732         -0.176897          0.642616         -0.336569         -0.431086          0.646767          0.451979          0.468555          0.423795          -0.18387          -0.47274          -1.14202         0.0438114          0.901738          0.575969          -1.09564         -0.158056         -0.677694         -0.546702           1.45911         -0.362912         -0.420003         -0.220275         -0.277664          0.493708          -1.17957
          0.173622         -0.741885         -0.831929         -0.754657         -0.834745         -0.839494         -0.214834         -0.463894          -1.50686         -0.921322         -0.970926         -0.514009         -0.136743         0.0540911         -0.424177          -1.53035           -1.2645         -0.307796         -0.144413         -0.983571         -0.119945         -0.317778          0.373887          0.342202         -0.878586         -0.702468         0.0748909          -1.66236         -0.294486         -0.265848          0.617957          0.128087         -0.155276         -0.969064        -0.0205108         -0.908517         -0.599224         -0.869775        -0.0170091        -0.0696469         0.0184366         -0.173181        -0.0978663        -0.0216365         -0.991754        -0.0326276         -0.237818         -0.835773            -0.838         -0.576706        -0.0872267         -0.104841         -0.972249         -0.136656          0.343981         -0.766314          -1.05671         -0.370915           -0.3035         -0.653443         0.0128288        -0.0440365         -0.140234         0.0596386          -1.19216          0.376469          0.248114          0.708943          0.828626          0.308519         -0.326984          -0.74944         -0.792503         -0.345527           1.01833          0.224501          0.810089         0.0485639        -0.0583434          -1.15365         -0.594869         -0.578561          0.282851         -0.264236         -0.399994         -0.747895         -0.311824         -0.422987         -0.365772         -0.990836         -0.462365          -1.02915          -1.01174         -0.358127         -0.671326          0.323676         -0.109889         -0.482351          -1.27287         -0.391668        -0.0228859         -0.361549         -0.528931         -0.589599        -0.0849907         -0.488281         -0.352558          -1.08142          0.270711         -0.266758          -0.12343          -1.30811          -0.64853         -0.505692         -0.493713         -0.651452          -0.19669          -1.03464          0.311218         -0.582692         -0.428465         -0.449847         -0.110021         -0.661961         -0.873672         -0.488902         -0.819186         -0.232219          0.350029         -0.554011         -0.551367          0.139089         -0.365728          -1.02523         -0.809731         -0.456956          0.112761          0.166759         -0.560041         -0.299054          -1.16261          -1.24007         -0.896134         -0.414225         -0.160885         -0.829195         -0.660116         -0.486981         -0.160436          0.120978         -0.664136         -0.504577         -0.201285         -0.501712         -0.768086         -0.312851         -0.765852         -0.872541         -0.837102        -0.0607627          -1.29335         -0.875692          -1.07163         -0.346992         -0.338741           -1.0287          -0.42384          0.441054           -1.1249         -0.854121         -0.076006          -1.01762         -0.493368         -0.181961          0.460695         -0.700582          -1.04747         -0.855885         -0.693402         -0.707285          -0.74313         -0.370812           1.53832          -0.43672         -0.866801         -0.924342         -0.998377          -1.02216         -0.472312          -0.43621         -0.186868         -0.865988         -0.914672        -0.0693464         0.0901305         -0.362744          -1.50514          -1.04345           -1.1037          0.160118
         -0.519632         -0.136457          -1.44553         -0.613204         -0.117641         -0.815177         -0.441354          0.591282          0.950281          -1.23283         -0.425735         -0.534048         -0.297387         -0.148835           1.16835         -0.391149            0.4853          0.121435           1.51581         -0.453633         -0.198293         -0.969116         -0.834765          0.278657           -0.7003         -0.710572         -0.119393         -0.810435         -0.564526          0.239632           1.04463          0.216342         -0.761654         -0.251345         -0.719828         -0.538172         -0.384518         -0.727442          0.272397          0.100028          0.646708          0.974527          0.684292          0.466251         -0.717589           1.18051          -0.27481          0.153649         -0.555451         -0.615366          0.202173          -0.28017         -0.723728            1.0129          -0.37087         -0.867093         -0.620726          0.327228         -0.180708         -0.633877         0.0122415         -0.228377          0.467644         -0.791623         -0.943415         -0.689731         -0.377821         -0.452026          0.298467         0.0241794         -0.533682         -0.584242         -0.435202         -0.950055         -0.013615         -0.452759         -0.613917          0.412637          0.457767         -0.409812          -0.13563          0.778212          0.150675         -0.426167         -0.574615          0.532829         -0.307804         -0.479825         -0.660094         -0.517702          0.576115         -0.499051         -0.698503          0.279557         -0.331234        -0.0180337          -0.81981         -0.251875         0.0692352         -0.235502          0.530818         -0.524361           1.33331           1.09033       -0.00453154         -0.455593          0.391665         -0.096688       -0.00068157         -0.340428         -0.351066         -0.810064         -0.248193         -0.481524         -0.313819          0.595488         -0.974036        -0.0134775          0.196084         -0.668008          0.557052          -0.11021        0.00863659           1.36099         0.0530288         -0.350721           -0.9457         -0.591037         -0.761632         -0.306597         -0.463609          0.263252         -0.402923          -0.52982          -1.06624         -0.588226            1.5984         -0.738997          0.135435         0.0732546         -0.736076         -0.952087          0.259572         -0.113024         -0.301999         -0.685855         -0.642295         -0.350665         -0.123491         -0.225942          0.430225           0.47542          0.375354           1.83786         -0.272095         0.0461762          0.604383          0.372989          -1.10086          0.612407         0.0353385          0.878269        -0.0320216         -0.513812         -0.236905         -0.580555          0.757979         -0.911392         -0.892808         -0.823675          0.074961          0.260616         -0.616495         -0.140053           1.16121         -0.282146         -0.700892         -0.614804         -0.767756         -0.718423          -1.27662         -0.776089          0.545284          0.550295          -1.06678          0.553499          -1.02362         -0.222228         -0.294269          0.356936          -0.20034        -0.0126568         -0.396661         -0.839824         -0.116168         -0.784039          0.533767         -0.301081         -0.881653         -0.190908
          0.532209          -0.62799          0.917141         -0.272764           1.29046         -0.101327         -0.823005            1.2742         -0.358296          0.410618          -1.04043          0.397537           1.78308          0.131915        -0.0972883           1.30642          -0.32363         -0.244986         -0.650453         -0.444661          0.946453          0.410035           1.62756          0.105855         -0.739675          0.629885           0.78021         0.0938572           1.09129          0.460088          0.183865        -0.0399055         -0.843182         -0.670712         -0.784722          0.260673         -0.613057         -0.760134         0.0817685          0.140542          0.544788          -1.18282         -0.334865           1.07835          0.885638          0.553963          0.984023       -0.00630551          0.655359          0.179244         -0.311802         -0.960232          0.716051          0.649956         0.0933783          0.919354          0.758263          0.812734         -0.258735         -0.683951           1.18129          0.735673         -0.338118        -0.0530659        0.00911548           1.39284           1.15106         0.0176837           1.16256          0.570003          0.742348         -0.273173          0.180494          0.535933           1.25152         -0.544276          0.696561         -0.584765          0.701524          0.517431         0.0477726          0.752336           1.34779          0.577633          0.550418            1.0679          0.876199          0.647429          0.281798         -0.187922          0.391983          0.266465          0.993709           1.04622          0.327807           -0.3642           0.52482          0.582453          0.830208         -0.432756           0.18218         0.0299393          0.937441         -0.151642          0.884854          0.384042           1.43013           1.02414          0.207971          0.138339            0.4788          0.461207             1.264          0.352198          0.381867          -0.38745          0.888423          0.440521          0.161431            1.0943          0.205796          0.338763         -0.224685          0.495891           1.16318          0.677881          0.632112           1.05179         -0.643521          0.711867         0.0988281           1.05123         -0.421152         -0.522876           0.75292           0.55111          0.950578          0.568284         -0.423103          0.599352           1.22187          0.322466         -0.320509           1.28755          0.703522           0.63931          0.813676           1.26558           1.31777          0.560368        -0.0154069         -0.119865           0.39137         -0.683898          0.222796          0.130049          -1.04426          0.179243          0.974087          0.840208         -0.478632         -0.801396         -0.860264          0.127947          0.196285           1.21481         -0.110819          0.120983          0.929001          0.832549           0.97936          0.358628         -0.254043          0.122478         -0.359147          0.795637         -0.194787           1.43038        -0.0597337           1.01192          0.103321          0.427016           1.24171         -0.896055          0.522962          -1.02177          -0.47379          -1.15894          0.465152         -0.332481         -0.650881          -1.23559          0.156625           0.17596           1.21885          0.438602         -0.489342         -0.695765         -0.577997          0.243657
        -0.0451985         -0.118439          0.513699        -0.0921286         -0.866156          -1.02136          0.150919          0.194244          0.387877           1.05221         -0.211583           1.42336         -0.307594           1.20389        -0.0412403          0.924551             1.207          0.159904          -1.34288           1.13728           1.13961          0.119603         -0.515444           0.56646          0.944449         0.0270356          0.113633         -0.797257          0.438513         -0.459481          0.247279          0.610701           1.07447          -0.24155           1.14728          0.320173           1.25061         0.0292356           1.57406          0.482254          0.607934          0.717598         -0.616909         -0.228366          0.491429         -0.426048          0.202638          0.391369         -0.130458           2.03557          0.500599           1.37146          0.773573          0.508685         0.0570405           1.33032         -0.606869          0.786218         0.0888894           1.08148          0.399421         0.0824687         0.0931306          0.189297           1.03654          -0.73313         -0.566607          0.466496         -0.520844          -0.15037          0.407743          0.504031         0.0416984           1.44759          0.609747          0.882934         -0.580369          0.850296          0.243053          -1.50958          0.233015           0.18037         -0.178342         0.0806054          0.980441         -0.129088          -1.45334         -0.474687        -0.0690684          0.547467          -1.39683        -0.0209617           1.06469          -1.14977           1.63309        -0.0370712         -0.148361         -0.203364          0.140531          0.266377         -0.443348          0.861604           0.68708          0.643837         -0.640434         -0.146549        -0.0263813          0.168807         -0.833394        -0.0678003          0.168589          0.951847         -0.687737         -0.803772          0.442025          0.950748           1.41712            1.0813          0.109868         -0.865376          0.624752           1.09511           1.06183          0.112824         -0.745661          0.791925          0.666664         -0.181803           1.44004          0.133038           1.31819          0.349009           1.06766           1.38691           1.08271           0.12399          0.241579         0.0556003         -0.225282         0.0254947           1.25922           0.70597          0.189286         -0.758983          0.995387          0.866163          0.181897           -1.0896         -0.573839          0.361786         -0.135384         -0.114447         -0.115834           -1.0309         -0.948216          0.319684           1.52527          0.787407         0.0528644         -0.952924           1.07634         -0.602465           0.76994          0.850269          0.790908          0.286483          0.205386           1.14743          0.891537          0.617151          0.141751         -0.338448          0.673887        -0.0725473          -1.24271         -0.579003          0.123828          -1.27318          0.248702           1.19486           1.09628          0.333542         -0.517704           1.18908           1.06115          0.272685          0.791324            1.0903          0.755536        -0.0334264         -0.182635         -0.245523          0.910802           1.09938          0.269131           0.31034        -0.0556136          0.708356            1.3187          0.644006
          -1.65917          -1.49577          0.170679         -0.209083          -0.98591          -1.90438         -0.189415         -0.767589         -0.602591         -0.576405         -0.698023          0.270143          -1.21554         -0.592392         -0.987441          -1.60035          -1.89188           0.55212           1.15311         -0.808733        -0.0137356         -0.779277           -1.0873         -0.306739           -1.5713          -1.42544          -1.13699          -1.92483         -0.574454          0.249044          0.269373           0.29581          -1.64899             -1.95          -1.35945          -1.07698         -0.975422         -0.842927          0.704375         -0.720073          0.918809          0.698184          0.941877         -0.352397         -0.303039          0.516908         -0.866841          -0.22586         -0.319801         -0.626069           1.44931         -0.410559         -0.365754          0.107198        -0.0187335          0.349296          -1.41513         -0.313666          -1.05965          -1.77629         -0.452205         -0.754765          0.678503         -0.370442         -0.941644          -1.21685         0.0887893         -0.155914          0.685834         -0.654608          -1.37756         -0.425423          -1.27428         -0.506924        -0.0905491          -1.06273          0.362067          0.976043          0.471694           -1.0874          -1.22086         0.0852925         -0.297125           -1.1474          -0.01089           -1.5189          -1.16381         -0.679641         -0.541319          0.314388           0.14328         -0.342554         0.0617439          -1.00427           -0.1649           1.12514          -1.37083          -1.36934          -1.60779          0.332024           1.59052          -0.13688          0.505117         0.0674035          0.413727         -0.934112         -0.348293          0.317943         -0.593905          0.753616         -0.284285           -1.1147           -1.4893         0.0736997         -0.192863         -0.767397         -0.714141          -1.17906          0.270775         -0.804498         -0.786386         -0.457967         -0.491853         -0.636992          0.151153          0.383438           -1.6026         -0.765158          -1.14871        -0.0194401         -0.490983          0.591414        -0.0262192         -0.798019          -1.26098          -1.53442          0.177046         -0.606084          0.219506          0.397213          -1.68084          -1.17149          -1.48699          -1.18259         -0.691231         -0.332772         -0.416358          -1.12063         -0.172046        -0.0175282          -1.29061          -1.51685          0.724983         -0.293823          -1.35057           0.56378          0.683324        -0.0332532         -0.592123         -0.035753          -1.65314         -0.346253          -1.78365         -0.780582           0.26925         -0.430076          0.724579          -1.28703          -1.64865          -1.17341         -0.279709          -1.19479           -1.1581          -1.15254          0.994088         -0.287776          -1.59522          -1.49152          -1.22881          -1.81608         -0.897085        -0.0961427          0.545432         -0.654084         -0.268066          0.127412         -0.691971          -1.08041            -0.532          0.131476           -1.0206         -0.743389          -1.67918          -1.23863          0.304108         -0.280005          -1.62405          -1.68051         -0.745808          0.865446
         -0.636646         -0.674969          -1.58886         -0.769912           1.17136          -1.30592         -0.957729         -0.443659          0.292914          -1.10697         -0.634595         -0.107229          -1.05998           1.25592           1.10141         -0.621124          0.923593         -0.193545           1.20511          0.394934           1.22551         -0.140371          -1.19993           1.17355           0.46816         -0.745352          0.293032          0.295359         -0.195399          0.536404        -0.0729444          0.192895         -0.727177         -0.746238         -0.435933          0.649887        -0.0516851          0.274982          0.527353          -0.56953         -0.426801           1.82242          0.409754          -0.43564         -0.761115          0.440982         -0.216711         -0.564012          0.535782         -0.655929           0.87789         -0.491705          0.543776         -0.352896         -0.422617         -0.500543          -1.01064         -0.500408          0.364209          0.386405         -0.362947          0.306801          0.900652         -0.849183          -0.87346          0.177035         -0.621606          0.190746         0.0578424         -0.541552          -0.78862         -0.394047         -0.622417         -0.211578         -0.220031         -0.998935         -0.954483           1.65038         -0.241796        -0.0710497         -0.392332         -0.388172           1.15554         -0.575282         -0.573012          0.351513          0.790312          -1.19217         -0.591453          0.407959          0.263742         -0.322164          -1.06218         -0.262911           -0.1868           1.36361         -0.914272         0.0336522         -0.377713         -0.450683          0.663815          0.162461         -0.262024          0.886737         -0.237359          0.711762          -1.08674         -0.337128         -0.425798          -0.65742          0.633314        -0.0492825           0.23861         -0.349006         -0.857243         -0.323196          -1.38787         -0.654649          0.765274         -0.217625         -0.608944         -0.920462         -0.564853          0.913741        -0.0191143          0.150377           -1.2302         -0.419168         -0.130295          0.291155         0.0467766          0.118806         -0.683399        -0.0576138          -1.47866           0.58405           1.26031         -0.181502           1.28315          0.190511          0.187149           0.26916           1.10451         -0.559335         -0.489875         -0.406912          0.605922        -0.0631751         -0.683278         -0.255142         -0.612355           -1.0441        -0.0305168          0.409353          0.627966          0.657919          0.888287         -0.998836          -1.07018          -0.10801         -0.495127          0.205347         -0.691191         -0.674909         -0.889955          0.601849           1.14843         -0.631508          -1.81886          -1.38777         -0.739786         -0.123775         -0.397844         -0.869834           1.69192         -0.630016         -0.718222         -0.560734          0.204971           -1.3209       -0.00410419         -0.992418          0.162883          0.832526          -0.78425         0.0104642         -0.790458          0.590869          0.646214           1.09385          -0.59147         -0.448779          -0.68051          0.786694         -0.439389         -0.926147          0.395883          0.474988         -0.874867          0.536556
         -0.887168        -0.0243046         0.0255939           1.40963          0.454813         -0.372106            1.0901         -0.842564         -0.155873          0.615772           1.25598          0.726116         -0.793777          0.615358          0.171174          0.115411           -1.1427         -0.647117          -1.43259         0.0916518           1.10397         -0.379588         -0.691746          0.736625         -0.296176          0.453637          0.786013          0.196824         -0.602655          0.770302          -0.49918          0.655246          0.912977          0.808172           1.14364          0.968399         -0.420065          0.621323          0.161761          0.399298         -0.613504          -1.69656          -0.73561          0.691179           1.14617           0.41591         -0.346626          -1.01096          0.625712          0.403466          0.704929          0.776955          0.917245          0.821893          -1.38661          0.821782         -0.310275          0.726364          0.247591         -0.156088         -0.316367          0.289442          -0.73052          0.215911          0.198745          -1.34229          0.553048          -0.53559         0.0783642         -0.186305           1.62504         0.0701908         -0.102654          0.736325          0.915279           1.58738          0.406497       -0.00371509        -0.0078075        -0.0262032          -1.74612         -0.180436          0.513773         0.0388296           1.04973         -0.100924           0.11983         -0.490967        -0.0818663          0.286565          -0.79975          0.962794          0.981483          0.328598         -0.329554         -0.438737          0.465552         -0.460845          0.836563          0.685858           0.78213           1.05962         -0.303945          0.728773          0.103189         -0.241172         -0.410486           0.25212         -0.363093          0.664072          0.201116          0.944078          0.340815          -1.15578            1.1665          0.590949          0.695894          0.891794          0.470388         -0.217416          0.774717          0.384313           1.39008         -0.441086          0.376207          0.962232          0.792539          0.824259           0.92136        0.00236613          0.846488          0.683665          0.678939            0.2169          0.366273          0.331013           1.13289          0.225582          0.121892         -0.417536          0.713754          0.708365          -1.28706          0.400305          0.914367          0.259317          0.446013         -0.580698            0.6183          0.933363           1.30709          0.655514         -0.566852         0.0105525         -0.300377          0.764796          0.252731            1.2287          0.344521          -1.31893          0.675241         0.0523969          0.992297          0.742287          0.906163          0.988787          -1.39037          0.888133        -0.0358028           0.94973       -0.00678015         -0.754844          0.719411          0.791906          -0.34922         -0.138707       -0.00921656         -0.827602          0.826263          0.775853          0.669528          0.529572          0.816674          0.227492          0.793752         -0.616862          0.289457       -0.00860545          0.660818          -1.26901          0.982215          -0.65038          0.658997           1.01083          0.780764          0.464954          0.127761          0.773126          0.695923          0.104307
           -0.5659        -0.0634707         -0.376198          -0.25618            0.3647          0.404644           1.22146          0.547558          0.372312         -0.863708         -0.456434          -0.78217          0.192893         -0.200468        -0.0983187           0.30538          0.431816         -0.937731         -0.489456          0.217524        -0.0235912         -0.018172          0.479128          -1.46451          -0.19853          0.274533         -0.302568         -0.200549          0.260596         -0.014661         0.0713144         -0.277993             0.533          0.327951          0.391696         -0.212439          0.191428          0.246358        0.00681649        -0.0996346          0.155011         -0.209455         -0.772716          0.367149         -0.628155         -0.696096          0.516332         -0.156102         -0.194077         -0.508284          0.186259          -0.31338         -0.961992         -0.817007          0.553176          0.823183        -0.0885767           0.62395           0.64052         -0.322118          0.702434          0.350099         0.0655815         0.0790926          0.428543         0.0862741         -0.279739         -0.834492          -1.55302         -0.620075         -0.235724          0.939292          0.270006          -1.14344         -0.463668         -0.625183        -0.0294988         -0.422254          -0.62291          0.120973          0.813394          0.483223          0.385001          -0.15905         0.0676481          0.564591          0.719366         -0.271403          0.255311          0.533638          0.192954        -0.0841077         -0.294959         -0.623413         -0.296403        -0.0866369         -0.380119          0.132846        -0.0437482          -1.04926         -0.249399      -0.000861517         -0.311876         -0.494168        -0.0266794        -0.0255107         -0.666041         -0.379268          0.454408         -0.773975         -0.430041        -0.0775743         -0.506107        -0.0917888          0.133757         0.0722524         -0.188267          0.319597        -0.0928754         0.0571024         -0.391706        -0.0130292         -0.540068         -0.378098          0.149857          0.333696          0.278256          0.426662         0.0140941         -0.134339         0.0217501          -1.56678          0.166373         -0.785296         -0.978135          0.350589         -0.140922          0.132523       -0.00409647         -0.202815          0.846666         -0.954073          0.683969          -1.05699          -1.47995          0.326044         -0.767682         -0.218809          -1.33346          -1.28376          0.293808          0.427404         -0.389057        -0.0796296         -0.708416         -0.450871          0.248826          0.583742         -0.123846          0.303698         0.0279123          0.124067        -0.0975023         -0.564714         -0.729855         -0.396249         -0.637338           0.15625         -0.236995         -0.959097          0.481501          0.294338         0.0364111         -0.626606         -0.387283         -0.290807          0.475142          0.151977          -1.20942          -1.20563         -0.279286            0.2471         -0.211566          -0.22222          0.116392          0.188021          0.425372          0.677357         -0.311531          0.821893          -0.76828          0.175126       -0.00569806         -0.806028         -0.223509          0.897818         -0.248161         -0.331802        -0.0165936          -1.23161
          0.142374          0.291481          0.633033           1.54897        -0.0260879         -0.250444          0.719504         -0.318029          0.760743         -0.444584            1.3426        0.00532747          0.569277            1.2659          0.204712          0.063169          0.930082         -0.592347         -0.270681           1.39245         -0.152366          0.364544         -0.807307         -0.948649         0.0496944          0.635724           1.73021          0.840881          -1.43053          -1.21987         -0.924441         -0.182759           1.09364           1.07433         0.0893573          0.392592       0.000277922           1.30233           1.03427          -1.37101         -0.803738          -0.41973           0.07245         -0.585228           0.44114            0.2207         -0.558017         0.0704487            0.3783           1.13807          0.292656           1.21986           1.05512         -0.943008         -0.490641         -0.211342         -0.537806           1.50898         -0.473414          0.315009          -0.85553         -0.705889         -0.610166         0.0373522          0.285859         -0.229694         -0.750173          0.544052          0.382124          -1.13464           1.62879         0.0882292          -1.07588           1.27643          0.394064           1.05957        -0.0373587         -0.202722         -0.814426          0.184201         -0.199233           1.15636          0.647385         -0.844249          0.298663          0.282013           1.22933        0.00526663           1.06557         0.0615442            1.2052           1.00971          0.107252           1.11787           0.79506          0.995358           1.53637          0.545486          0.971624         -0.339188            1.3648         -0.501682          0.415905         0.0175072         -0.397752          0.314698         -0.522808         -0.183136        -0.0553368          0.941979         -0.744377         -0.571811          0.142885          0.688141          0.752586          0.218086          0.777739          0.476545          0.563252          0.123332          -0.65132          0.681489           1.12257         0.0388567         -0.160192         0.0592891        -0.0199269         -0.673111           1.35651          0.184749           1.08356           0.74564          0.450595           1.06802         0.0194048          0.241044         -0.481147           1.20045          0.680141         -0.574417          0.912011           1.49349         -0.104882           0.58343         -0.437656          0.397703          0.279943          0.442729          0.423367          0.846481           1.03497           1.30978            1.3502         -0.457203          0.528372         -0.327156         -0.168359          0.989833           1.05472          0.301532          0.247365          0.773732          0.645726         -0.478313         -0.385878         -0.234788        -0.0498578         -0.143201          0.146502           1.13684          0.205668          0.961328          0.400668            1.0273          0.754203          0.456363         -0.205517        -0.0206374         -0.231324          0.264051         -0.412991          0.251007           0.94863          0.667026         -0.169203            0.2533          -0.25832           1.25579        -0.0107742         -0.502266          0.290696          0.718063           1.09267          0.953118         -0.832685           1.81655           0.94828        0.00316259          0.287328         -0.322851
         -0.998961           1.06394           1.10384         0.0540949          0.776843          0.308861          0.891654          0.511621           1.04129         -0.448473           1.24652         -0.647218         -0.700017          -0.15479          0.338547          0.580753          0.854648          -1.10352         -0.951217        -0.0565886         -0.391337       -0.00770285          0.436312         -0.393442           1.43102           1.20686           0.49117          -0.32393         -0.770971         -0.926829         -0.498002         -0.801571          0.296106           1.28944          0.774115            1.1449           1.04007         0.0563535          0.167657         0.0636251          -1.15346         -0.303629          0.118539         -0.384958         -0.433918        -0.0981943          0.218789        -0.0625657           1.10651          0.138841         -0.369234          0.486619          -1.14306         0.0413867          0.354559         -0.240917          0.276991          0.284211          0.486301          0.735498         -0.294951         -0.139122         0.0757143          0.379403         -0.118755          -0.29307         -0.135594           -0.7883         -0.205998         -0.812069         0.0275796          0.965685         -0.874841           0.62623         -0.119892          0.628577          0.250077          -1.44327         -0.611931          0.539671          0.367619         -0.205714        -0.0258451         -0.545382        -0.0102555        0.00647783         -0.356866          0.688577         -0.782832         -0.641814          -0.59298           1.20756          -0.49624           1.07219         -0.615991          -0.84906          -1.15114         0.0717904          0.633429        -0.0543825         -0.660869         -0.165095          -1.05284         -0.557295         -0.177951          0.340203         -0.715619          -0.80239          0.640613          -1.17313         -0.107571         -0.874442         -0.634328         -0.381599         -0.596867          0.973464          0.143563           1.42377         0.0137452          0.593684         -0.153752         -0.225461          0.364119          -0.52357          0.562081           1.47906         0.0388772          -0.41818          0.430846         -0.498904            0.4216         -0.487956           1.22804         -0.178831         0.0202728          0.928456          0.215841           0.70865         -0.695891          0.242739         -0.194508          -1.13158         -0.436755         -0.749588         -0.634751          0.878757           0.88152         -0.592975         -0.878498          0.317303           1.29982           1.03255         0.0735934         0.0441332          0.667351          -0.24099          0.632358        -0.0397995         -0.994914          0.262783           1.52935          0.866062            1.4625        -0.0993525         0.0579596         -0.196102         -0.629341          -0.50615          0.179471          -1.12294        -0.0180339          0.999724           1.26071         -0.407641         -0.226381          0.791966          0.512233          0.449043         -0.503138         -0.937242          -1.06748           1.37232         -0.195969           1.65914         -0.217747          0.410946         -0.305771          0.931713         0.0538251          0.337662           1.15573         -0.255395           1.49927         -0.183669         -0.313433            1.4271           1.26006           1.40099         -0.072661         -0.516749
         0.0019605           1.06257          0.703883           1.03759          0.446726         -0.585004         0.0254996          0.278146          0.217736          0.949817           0.73902          0.598729        -0.0679437           1.54849          -1.63898           1.06314          -1.11821        -0.0535182           0.28571         0.0797614           1.18337         -0.184316          -1.27751           1.15821          0.542731          0.582996           1.18687           0.30078         -0.284565           1.04799         -0.594111            1.6411          0.626238            0.6757          0.874956         -0.216683          0.437514           0.46873          0.745763          0.666877          0.055026        -0.0196813          0.438552            1.2772           1.24753         -0.032355         0.0331924          -1.49901          0.554543          0.807368           1.14575           1.21942          0.942381            1.4565         -0.371615           1.46855         0.0881092           1.10756         -0.246482          0.391965        -0.0116439         -0.396046         0.0793679          0.581175         -0.962559          0.106202           0.65564         -0.103669          0.662548        -0.0337208           1.27982          0.255485          0.301122          0.235527           1.29281          0.261091          0.440466          0.692774       0.000666666         0.0804505          0.012239          0.224571          0.881127         -0.191669           1.54856          0.179637          -1.08636         -0.149082          0.201243          0.150349          0.547642          0.968563           1.38257         -0.100256          0.374785          0.192278           1.25204        -0.0533565          0.364258          0.924061           1.10426            1.2501        -0.0615362           1.25948          0.294794          0.150443          -0.58241          0.406148          0.347609          0.764289          0.391096           1.26358          0.010993         0.0729617             1.506          0.506103           1.16921          0.905307          0.920403          0.454168           1.17787           1.68425           1.03149         -0.819693         -0.622956          0.487439           1.30419           1.09363        -0.0311014          0.435433           1.26906            0.3037          0.694913          0.587715           0.85938          0.364888           1.56224          0.428627         -0.221603            0.2981          0.846091           1.45907          -1.17705          0.319467           1.52183          0.470022            0.4498         -0.295042          0.664013           1.22508          0.130027         -0.237751          0.493792          -0.13048          0.213664           1.38181          0.647189           1.17515            1.3569         0.0240185         0.0341484          -1.38193          -1.00106           1.20825           1.39137           1.24957          -1.00317           1.02113          0.230878           1.27402         -0.312701         0.0421633          0.703113           1.01813         -0.303522       -0.00335423          0.390715         -0.463019           1.58259           1.56961          0.828161          0.229933           0.77955        -0.0527875           1.48911         -0.884614          0.671628          0.497375           1.35886         -0.768901          0.666305         -0.745655          0.541661          0.779461           1.17125          0.602256          0.875964          0.549275         -0.264545          0.373098
          0.343478           0.74081          0.973992          0.653755         -0.678499         -0.878953          0.403249         -0.851096           0.23461          0.388666          0.880309         -0.422986        -0.0609943         -0.260899          -1.15288         -0.502742          0.706785          0.135631         -0.470501          0.515683          0.214611         -0.681732          -0.30374          -1.29611         0.0920336         0.0124633        -0.0572493          0.505964         0.0812631         -0.235084         -0.442997          0.170916           1.19405          0.801888          0.878611         -0.405519         -0.273581          0.914994         -0.183873         -0.969426         -0.465586         -0.169167         -0.898828         0.0384912         -0.584654         -0.672853          -0.98494          0.480024           1.13131         -0.964733         -0.751113           1.07546          0.365012        -0.0396562         -0.789524        -0.0817894         -0.807128        -0.0196677         -0.899457          0.848278          -1.37886          -0.61962         -0.925837          0.902496         0.0219822         -0.518961         -0.597021         -0.837169         -0.408722         -0.483249           1.01252         -0.047554         -0.197949           0.64627          0.341021           0.38244         -0.224016         -0.573768         -0.215344          -1.42137          0.351824         -0.770771         -0.975485         -0.602001         -0.632265          -1.09635          0.506553         -0.687164          0.166313         -0.418368         -0.735541          0.178986          0.458357          0.556947         0.0886657          -1.00373          0.405749          -1.26765          0.629039         -0.908054          -1.03525         -0.851748         -0.485358           0.46503          -0.73444         -0.891804         -0.472909          -1.82667         -0.392854         -0.177613         -0.023624         -0.754681         -0.465181        -0.0360341          -0.24291          0.831217          0.848465        -0.0273957         -0.885066        -0.0515768         -0.940427        -0.0393808          0.902907          -1.02534         -0.878417         -0.137035         -0.849331         -0.478101          0.603302         -0.462802          0.297521         -0.660189        -0.0783766         -0.163718         0.0704158          0.717433           -1.2764           0.17936          0.493228         -0.854382          -1.01522         -0.118633          -0.78577         -0.694795         -0.338289          0.509299       -0.00407191         -0.354066         -0.283657          0.313439           0.85657          0.940811          0.593362        -0.0818406         -0.548948         -0.893916          0.495163         -0.215489           0.58706         -0.316353           1.04464          0.721894          0.777503         -0.919485         -0.354745         -0.816199          -1.51098         -0.190954        -0.0485298          0.220207         -0.595454          0.806501         -0.148812          0.196775         0.0242144         -0.355366         -0.181761          -0.55143         -0.755672         -0.597309         -0.830806         -0.136386         0.0471311          0.677881          -0.71495          0.528827         -0.538467          0.834985          -0.88635         -0.699607          0.797578          0.457174          0.839064          0.291294          -0.45188         -0.310148          0.563381        -0.0544024        -0.0714854         -0.580015
          0.633935          0.168107          0.278154        -0.0768227          0.345177          0.832158          0.585462          0.515727          0.443034         -0.139793          0.313922        -0.0310124          0.878027         -0.265726          0.770013         -0.321863          0.200149          0.620168          0.106785          0.168288          0.126181          0.423224           0.83845         -0.471758          0.320378        -0.0279219          0.277866           0.10731          0.635911        -0.0593292        -0.0175294         0.0217217           0.45386          0.402109         0.0572574         -0.269693          0.255935         0.0877974         -0.480654        -0.0910758       -0.00799955         -0.127651          0.303484         -0.319175         -0.267736         -0.438752          0.953746          0.293524          0.123755          0.494304         -0.430705          0.197365         -0.345147         -0.162405          0.773259         -0.114908           1.08905         -0.130501           1.34325          0.147948          0.316086        -0.0852779          0.781303          0.491984          0.380076           0.84712         -0.674977         -0.284237          -1.07259         -0.610251          0.130018          0.912105         0.0657783        -0.0990577         -0.244834          0.366315        -0.0507312         -0.257878         -0.120746          0.659233           1.15383          0.777495        -0.0446783         -0.354126         -0.468726          0.725482          0.846016          0.645559          -1.22668         -0.262496         -0.757759         -0.869358         -0.306444         -0.369754         -0.179248          0.221263         -0.980433         -0.202267          -0.78774        0.00749398         -0.529226         -0.853286         -0.303467         -0.154017        -0.0956477          0.738409         -0.401827          0.622589          0.630827         -0.554294          0.195282         -0.191903         -0.196545          0.241357         -0.655575          0.361662          0.159363          0.372632          -0.37993          0.395208         -0.430655         -0.280572         -0.682672           0.41565          0.163633          0.481138          -0.19095         -0.263422         -0.451905           0.80586         -0.111109         -0.575209          0.459649          -0.22317        -0.0654098         0.0568892          0.190984        -0.0129143          -0.94681          0.854745         -0.194243         -0.444871          0.948247         -0.278063         -0.124321          0.358114         -0.114922          0.675457         -0.638553           -0.2775           0.38493         -0.319287          0.567623          0.487694          0.897242         -0.153289         0.0343944          0.028593         -0.260755          0.160062          0.391485        -0.0564525          0.277861         -0.132871         -0.144261          -0.42482          0.106464         0.0156225         -0.672606         -0.968613           1.04334          0.320236        0.00248247         -0.789782          0.353836           0.75645           0.49613           1.16049         -0.240021         -0.154456         -0.422845          0.489335        -0.0802261           1.03104         -0.293264         -0.148723          0.170729         -0.345655         -0.243371          0.832332          0.274005      -0.000639698         -0.361634         -0.161673        -0.0501966          0.514036         0.0470071          0.336351          0.296153         -0.356426
         -0.492183          0.553943          0.527738          0.419707           0.20536         -0.142731          0.780226          0.130836          0.102704          -1.33548          -0.32749          0.180558         -0.289262          -1.18258         -0.801088         0.0740277           -1.0179         -0.650311         -0.578488          0.108005         -0.951314         -0.437004          0.669265         -0.536174         0.0654858          0.479246          0.717781        -0.0440959         -0.306859         -0.992478         -0.574601          -1.07363          0.459963          0.148378          0.510426          0.451249         -0.198033        -0.0109718           1.37763          -1.02584          -1.28246         -0.241342          -1.11045          -1.06353         -0.799726         -0.083596         -0.714765          0.114886          0.202747          -0.46309          -1.18896          0.891768        -0.0828571         0.0849516          0.439644         -0.797574          -1.18616         -0.633476         -0.376212          0.380614           1.05928           1.29336          0.951408         -0.649773          0.148691           0.46068        -0.0627162         -0.404709         -0.205914          0.458208          0.686734         -0.389654          -0.40373          0.632796         -0.119837         0.0308387          0.973961          -0.75144          0.279528          -0.25194          -0.62988         -0.620618           0.24008          -0.78397         -0.613282         -0.696757          0.428846          -0.53118         -0.189987         -0.205265          0.368388          0.153856         -0.970781         -0.036032        -0.0973691          -1.12429          0.135116           1.16149          0.379541         -0.725302          -1.12065           -1.0126         -0.167037          0.215959          0.100099         -0.612272         -0.901883         -0.858571         -0.167459          -1.12889        0.00311318          -1.26607         -0.664634          0.965209         -0.307126         -0.742351         -0.807894          0.344908         0.0273659          0.207731         -0.595918           -0.3268          0.561042          -1.13555         0.0746879          0.536963         -0.171943        -0.0577461          0.538982          0.684857           1.11321         -0.735275         -0.657278         0.0134699          -1.10776         -0.726643          0.269474          0.188255         -0.847281          0.607867         -0.938405        -0.0681515         -0.822924         0.0663836         -0.921761          -1.02467        0.00407335          0.417485         -0.590462          0.437964           0.46082          0.457265         -0.944971         -0.864794          -0.15839           -1.1404           0.53325         0.0155985         -0.930863         -0.624658         -0.116285           -0.1965        -0.0851996          0.299506          0.116279          -1.01971         -0.917102          -1.22008         -0.582848         -0.913849          0.204496         -0.642932         -0.574454         -0.228686         -0.224269         -0.273791            0.2138          0.193869         -0.548303        0.00220329         -0.950136          0.242926          0.601283          0.465087          -1.37642          0.303743         -0.972084          0.298116         0.0569213         -0.674352          -0.70599           0.31543         -0.231262         -0.283376         -0.963996         -0.530804         -0.142622          0.240834            0.5593         -0.887839
