weight 0:
          0.523141          0.443601          0.615668          0.522358          0.581823          0.337272          0.370661          0.444163          0.439074          0.546652         -0.107791        -0.0665632         0.0416541         0.0297138        0.00189315        -0.0424673        0.00824415        0.00914268        -0.0251689         0.0365532         0.0080568        -0.0208241         0.0801693         0.0434653        -0.0613582        -0.0178957        -0.0349674        -0.0205547        -0.0200529         0.0649576          0.608887          0.550234          0.495272           0.58035          0.461011           0.55421          0.561722          0.503265           0.55291          0.623347        -0.0123988           0.02531          0.071863         0.0920083         0.0224863        0.00561194        -0.0403204        -0.0358289         0.0300619        0.00223481          0.146468        -0.0250378         0.0162503        -0.0200088         -0.105273         0.0825436        -0.0124231         0.0397951         0.0981239         0.0247565          0.598905          0.500427          0.543624          0.597473         0.0892447         -0.200165          0.362567           0.59557          0.694375          0.703856        -0.0375791      -0.000166725         0.0241036       -0.00789328         0.0633084        -0.0289421        -0.0349396         0.0477721        -0.0261049         0.0205141       -0.00689775         0.0011047        -0.0121461         0.0864822       -0.00912192           0.07402         0.0355915        -0.0247868        -0.0354283        0.00422954          0.646237           0.55851          0.565627           0.56005         -0.378394         -0.891664          -0.58992          0.537729          0.533442          0.702562        -0.0449114        0.00110739        -0.0456254        -0.0359372        -0.0124679       -0.00813125        -0.0885674         0.0756106         0.0538553        -0.0227395         0.0479352        -0.0463582        -0.0585412         0.0904653        -0.0208288         0.0726748        -0.0902102        -0.0467838        -0.0191877        0.00481053          0.608584          0.584171          0.357031          0.474802         -0.775012         -0.722604         -0.691939          -0.64494          0.689858          0.756531        -0.0449901        -0.0306364         0.0338223         0.0580449          -0.01253         0.0735741        -0.0462497        0.00376785        0.00137132        -0.0552298        -0.0514092        -0.0052911        -0.0344454         0.0316846        -0.0204506         -0.048128        0.00599854         0.0337596         0.0182888         0.0503821          0.741555          0.616661          0.731375          0.428804         -0.667448         -0.697973         -0.565575         -0.661886          0.843355          0.814735         -0.039619        -0.0244446       -0.00198731         -0.019704        -0.0233434          0.054684        -0.0195115        0.00458085        -0.0300956        -0.0103838         0.0259447       -0.00227519        -0.0162995        -0.0968131       0.000356628        -0.0457518        0.00422133         0.0473604        -0.0418243        -0.0628515          0.619306          0.710917          0.625229         0.0699034         -0.762604         -0.645057         -0.645088         -0.609831          0.863255           0.73951         0.0317712        -0.0266926         -0.063975        0.00909609        -0.0264674         0.0052037         0.0669432        -0.0875568         0.0153823         0.0197554        -0.0144198       -0.00846721        -0.0199795        -0.0235377        -0.0851002        -0.0461608         0.0501779         0.0507812        0.00827606        0.00597982          0.641069          0.641462          0.627915          0.495604         -0.775724         -0.640109         -0.554229         -0.677824         -0.549653          0.804741         0.0176015         -0.086971        -0.0130773          0.014946        -0.0168699       -0.00197211         0.0591518         0.0295467        -0.0471603         0.0370529        -0.0497087         0.0254937         0.0432332        0.00238566         0.0564909       -0.00404483       -0.00696579         0.0065421          -0.08948           0.10957        -0.0144014        -0.0684681          0.729482          0.872989          0.859536         -0.753291         -0.748807         -0.733786         0.0159377         -0.051924         0.0330601         -0.015304        -0.0300827          0.030921          0.028975        -0.0481403        0.00173291        -0.0574989        -0.0463222         0.0525883        -0.0346536       -0.00884987        -0.0570749         0.0237324        -0.0701688         0.0491684        -0.0246656         0.0682487         0.0327147         0.0783132         -0.049941        -0.0340034         0.0519732         0.0321121          0.113009           0.38014          0.364425            0.3399       -0.00409957         0.0136617         -0.100684         0.0613701       -0.00866867         0.0640226        0.00411703         0.0469896         0.0373903          0.006921         0.0531643        -0.0436934       -0.00429689         0.0657853         0.0580008       -0.00211094        -0.0790528         0.0190754        -0.0839978       -0.00496794         0.0305062        -0.0570839       -0.00438746         0.0487417        -0.0444232         0.0506995        -0.0679308       -0.00252001         0.0699353       0.000728711       -0.00703222         0.0101193        -0.0417006         0.0410005        -0.0501182        0.00875486         -0.033188        -0.0101767         0.0913454        0.00269056        -0.0998715        -0.0309726        -0.0390099           -0.1055         0.0193428         0.0111311         0.0387949        -0.0271756         0.0308745         0.0702106         0.0381931         0.0818902        -0.0894145         0.0472998         0.0522575        -0.0175442        0.00237228         0.0134005        -0.0289025         0.0119407         0.0429837         0.0743103        -0.0147365        -0.0264599         0.0162663         0.0115156         0.0860634        0.00422893        0.00903936        -0.0331003         0.0234597         0.0404314         0.0520739        0.00793809        -0.0404369         0.0421321       -0.00785047          0.105984         0.0194578           0.04581        -0.0761754         0.0298465         0.0733077       0.000440475        -0.0226839         0.0399577          0.102386        -0.0106979        -0.0206019        -0.0377723        -0.0819102        0.00535137      -0.000260789         0.0491842         0.0340628        -0.0143744         0.0257067        -0.0237693         0.0039263         0.0583602        -0.0898961         0.0551637         -0.042018         0.0159072        -0.0816336        -0.0530412        0.00334448        -0.0032729         -0.010504        -0.0577566         -0.115555        -0.0246927         0.0173792         -0.022534         0.0150655        -0.0581301        -0.0562529       -0.00774371         0.0489178        -0.0362617         0.0678181         0.0407759        -0.0168082         0.0354221         0.0239341        0.00549336        -0.0614907        -0.0170268         0.0191452        -0.0512308       -0.00756942        -0.0195897         0.0187433         -0.063883         0.0968404        -0.0513495        -0.0336853        -0.0156257       -0.00653127        -0.0588706         -0.017115        0.00501042         0.0267424        -0.0178223         0.0357325         0.0182683        -0.0556163        -0.0778684         0.0200557       -0.00207913          0.049231         0.0384237        -0.0496614         0.0105705         0.0349574        -0.0893366        -0.0353471          0.103419        -0.0276062         0.0343084         0.0619304        -0.0156511        -0.0753615         0.0143644         0.0304839        -0.0658667        0.00818972        -0.0803141        -0.0188094        -0.0048551       -0.00818282         0.0561956        -0.0179121        -0.0190128        -0.0813062         0.0147705         0.0819054       -0.00235684         0.0601517         0.0506539         0.0240194        -0.0429191          0.078287          0.051432        -0.0362448        0.00148965        -0.0793275         -0.136039        -0.0386002         0.0113978         0.0612349        -0.0278568         0.0314697       -0.00671925         -0.115669         0.0705315        -0.0555658        -0.0609986       -0.00324205        -0.0285479         0.0213448       -0.00964149       -0.00611724        -0.0199031         0.0523836        -0.0291598        -0.0105951         0.0772464        -0.0192483         0.0813055        -0.0633802         0.0162305         0.0350573         0.0222568          0.092663         0.0596799         0.0631181         0.0223072         0.0249715         0.0110937        0.00262506        -0.0359321        -0.0849433         0.0630138        -0.0165399        -0.0779081         0.0558243         0.0076802        -0.0274051         0.0362509          0.058873        -0.0472935        -0.0545132         0.0279174        -0.0392214       -0.00810428        -0.0402451        -0.0354296        0.00484344         0.0598683        -0.0585641        -0.0138938         0.0368093         0.0758978        -0.0104366       -0.00534539        -0.0446667         0.0645354         0.0100852         0.0834637        -0.0122242        -0.0344943        -0.0256913         -0.026455         0.0144627        -0.0421426        -0.0358957       -0.00298371         0.0776998         0.0739666        -0.0604323         -0.037971         0.0289097        -0.0133283         0.0758722        -0.0349317         -0.092281         0.0935342        -0.0446232       -0.00416238       -0.00754718         0.0280769          0.096937        -0.0101295         0.0294729        0.00442417         0.0206407         0.0362024         0.0203032        -0.0544241        -0.0329368        0.00437249         0.0520026       -0.00879515         0.0889693        -0.0724769         0.0151486          0.047531         0.0585761        0.00564412        -0.0389104         0.0551698         0.0349848        -0.0577944        -0.0310059        0.00780887         0.0344139         -0.107261         0.0149369        -0.0680993         0.0193002        -0.0338139        -0.0358764        -0.0209919        -0.0437626         0.0186139         0.0106738       -0.00443661        -0.0433341        0.00271592        -0.0123829        -0.0515865        -0.0848092        0.00967774         -0.014278        -0.0789142         0.0708523        -0.0320425         0.0270203        -0.0712751        -0.0100241        -0.0250302         0.0160859        -0.0745996        -0.0473673           0.12591         0.0337765       -0.00388772        -0.0241545       -0.00585982        -0.0206321        -0.0747282         0.0173396        -0.0858595         0.0146722        0.00940063         0.0166668         0.0698021        -0.0130414        -0.0576438          0.123107         -0.101442         -0.058287         0.0064916        -0.0599887         0.0313991        -0.0165826        -0.0510936        -0.0596511       0.000473955         0.0627419         0.0115072         0.0172016        -0.0227181         0.0599533        -0.0499187         0.0471131         0.0232941        0.00878253         0.0552834      -0.000792061         0.0968162        -0.0650916        0.00178289         0.0129782         0.0149372        -0.0105425        0.00530459          0.115219        -0.0856947         0.0370989        0.00538992        -0.0250529        0.00866164       -0.00387149        -0.0911391         -0.080433        -0.0390619         -0.034371       -0.00092102        -0.0192559         0.0121685         0.0394091         0.0082136         0.0645829         0.0562429         0.0126068         0.0729969         -0.041261       -1.8917e-05         0.0144061        -0.0507448         0.0726418        -0.0269273         0.0312565         0.0101385        -0.0523975         0.0336037         0.0229341         -0.132484         0.0507475         0.0243455        -0.0325861        -0.0138498         0.0500114         0.0223114        -0.0562746        -0.0287265        -0.0718727       -0.00637038         0.0639026        -0.0354641        -0.0362325       -0.00331793          0.050231        -0.0752342         0.0340728         0.0186506          0.027599         0.0189259         -0.010362         0.0407774        -0.0961198        -0.0525404        -0.0248464        -0.0193878         0.0269442        -0.0322568        -0.0257353        -0.0500606         0.0742352         0.0424749        -0.0691621        -0.0335617       -0.00652386         0.0148209        -0.0763012         0.0854891        -0.0445559         -0.084568         0.0256481         0.0184528        -0.0875262        0.00660745         0.0400213         0.0419414         0.0364158        -0.0203118         0.0527882        -0.0284005        -0.0790922       -0.00847465         -0.030556        -0.0699594        -0.0403579          0.053305          0.054925      -0.000686998       -0.00929208        -0.0135502        -0.0446972        -0.0176847        -0.0263891         0.0589323        0.00539937          -0.01056       -0.00765496         -0.102711         0.0176829         0.0854424         0.0390064        -0.0386033         0.0310468       -0.00512338        -0.0394317       -0.00201746        -0.0530225        -0.0118581         0.0913008         0.0316334       -0.00679795         0.0187382         0.0503818        0.00112959         0.0355596         -0.059722        -0.0211141        -0.0480407         0.0607371         0.0307461       -0.00918876         0.0623206        -0.0378428         0.0236582         0.0448216         0.0141645       -0.00855113         0.0464591         0.0339684        -0.0220669        -0.0148983        -0.0088618         0.0348304         -0.132865       -0.00340296        -0.0341219        0.00427992        -0.0872806         0.0213015       -0.00431064        -0.0610569        0.00501608        -0.0666991        -0.0614691         0.0233717       -0.00498203         0.0326849       -0.00693518          0.023254         0.0476091        0.00170486         -0.080439         0.0462046         0.0747969        -0.0146997      -9.78321e-05        -0.0809137        -0.0100932         0.0192943          0.088247         0.0172848         0.0657112         0.0400411         0.0236985         0.0296749        0.00193604         0.0515496        -0.0385765        -0.0389177         0.0016976         0.0432767        -0.0692022        -0.0280001        0.00963378        -0.0284217       -0.00663822        -0.0637152        0.00234171        -0.0250092         0.0722256         0.0506618        -0.0644677         0.0616984         0.0407114        -0.0118495         0.0393677         0.0563408       -0.00459264        -0.0164884         0.0212954        -0.0589397         0.0834807         0.0552032          0.104345         0.0451251        -0.0311358        -0.0811836        0.00507478          0.063803         0.0576104        -0.0865025        -0.0860464         0.0234342        -0.0499713        -0.0410044         0.0558689        0.00186396        -0.0319786         0.0267803        -0.0202728         0.0588941         0.0635552        -0.0297405       -0.00411626        -0.0660215         0.0105263          0.021284         0.0339737       -0.00123987         0.0361446        -0.0100289        -0.0498257       -0.00676473         0.0530783        -0.0182961        -0.0355095         0.0901494        -0.0136276        -0.0652026         0.0444262        -0.0413415        -0.0169927          0.115075         0.0158261         0.0205676        -0.0336413         0.0537337         0.0264965          0.069316         0.0348522         0.0996566         0.0245416        -0.0125753        -0.0945073       -0.00297952        -0.0189664       -0.00890338         0.0201973         0.0460301         0.0749689        -0.0237692        -0.0210167
         -0.753391         -0.857296         -0.779546          -0.86941         -0.756422         -0.655369         -0.722714         -0.641245         -0.581188         -0.607226         0.0593914        -0.0108993         0.0319773       -0.00811783      -0.000665351        -0.0307725        0.00108634         0.0680074       -0.00267439         0.0625409         0.0215717         0.0299005         -0.048001       -0.00926978         -0.038762       -0.00233439        -0.0193802         0.0492237          0.015711         0.0188431         -0.569744         -0.615274         -0.658134         -0.655295         -0.630485         -0.718389         -0.736718         -0.660497         -0.641467         -0.761273        -0.0450472       -0.00728816        -0.0859866         0.0351136          0.012917        -0.0374157         0.0409448         0.0805545         0.0198837       -0.00412673        0.00112803        -0.0675123          0.037294        -0.0253985        -0.0407381        -0.0852402        -0.0334801         0.0185465        -0.0336229         0.0396135         -0.743895         -0.636254         -0.636436          -0.64883         -0.741455         -0.734482         -0.768174         -0.713402         -0.676742         -0.711651        -0.0506718         0.0372736         0.0505361        -0.0257727         0.0106366         0.0639692         0.0807924        -0.0310577       -0.00935601       -0.00721634          0.132345         -0.027459        -0.0192443        -0.0335427        -0.0325136        0.00757238         0.0626612        -0.0408633       -0.00600621        -0.0362401         -0.774724         -0.817686           -0.5906         -0.597217          0.269399          0.355616         0.0951582         -0.773956          -0.79024          -0.80248        -0.0729382         0.0209882        -0.0651725         0.0364225        -0.0104176         -0.023781        -0.0305693         0.0118173         0.0292744          0.129016        -0.0291605        -0.0772928          0.140857        0.00687596         0.0735829        -0.0368796         0.0181558         0.0361278         0.0665611        -0.0575763         -0.543439         -0.630599         -0.629861          -0.67548          0.666416          0.675865          0.732062          0.474299         -0.150877         -0.827595        -0.0568198       -0.00603931       8.26339e-05        -0.0298477          0.059309         0.0453849         0.0327773         0.0834587        -0.0585663         0.0250368        -0.0246871        -0.0148568          0.014256         0.0854112        -0.0185708          0.065663        -0.0154597          0.010681        0.00174431         0.0760067         -0.591612         -0.627625         -0.557501          0.119514          0.789998          0.700295          0.599517          0.591931         -0.249121         -0.659801        -0.0126332        -0.0172873        -0.0248322         -0.061012       -0.00823546         0.0169113        -0.0030706         -0.086353        0.00707866        -0.0316227          0.037104         0.0205435        -0.0585098        -0.0144479       -0.00811608         0.0887482         0.0426202        -0.0116512        -0.0917029        -0.0288514         -0.803103          -0.62284         -0.620813          0.489492          0.805035          0.730143          0.633817           0.62769         -0.690691         -0.833364         0.0325007        -0.0108526        -0.0883182       1.57397e-05        -0.0116082         0.0355733        -0.0504878        -0.0131396         0.0155178         0.0361852         0.0157211        -0.0591663         0.0334721       -0.00367977        -0.0738744        -0.0939538          0.037971       -0.00935899        0.00478762        -0.0423465         -0.510747         -0.673522         -0.551925          0.196276          0.804275          0.754344          0.673882          0.533785         -0.629682         -0.590822         0.0176159        -0.0591939        -0.0204527         0.0682948       -0.00115996         0.0538139        -0.0673314       -0.00416767        -0.0412276         0.0157089        -0.0315029         0.0501868        -0.0350428        -0.0242093       -0.00947658        -0.0161204          0.064623        -0.0626718        -0.0432435        -0.0578656        -0.0827448       -0.00221529         -0.473862         -0.664617         -0.601229         -0.576406         -0.577683          -0.83287        0.00808591        0.00876248        0.00375818         -0.104903         0.0503148        -0.0138056        -0.0684277         0.0754496         0.0200718        -0.0785741        -0.0521822         0.0522598       -0.00492394        -0.0042752        0.00238671         0.0135348        -0.0128098        -0.0288247         0.0163806        -0.0479886        0.00675601         0.0188813         -0.101725       0.000144807          0.108407        0.00317386         0.0335269          0.528727          0.541949          0.593515        -0.0365047         0.0286099         -0.061646        -0.0205028        -0.0222084       -0.00935605         0.0137366       -0.00433063        -0.0594693        -0.0563782         0.0391793         0.0146891        -0.0208902         0.0789913        -0.0352532        -0.0115006         0.0684011        -0.0221454         0.0236547        -0.0564961         0.0424634        -0.0198911        -0.0687796       -0.00524265        0.00379905        -0.0301102        -0.0151825        -0.0152061         0.0267401       -0.00734809        -0.0718862        -0.0848269           -0.1165        -0.0206052        -0.0447825         0.0248136         0.0464063       -0.00332174         0.0265648         0.0479041         0.0270878       0.000759408          0.104325         0.0119552        -0.0459042        0.00614366        -0.0216118         0.0321353        -0.0545473         0.0589082        -0.0610675         0.0297885         0.0771285         0.0395417            0.0172         0.0264243         0.0242222        -0.0334323         0.0729761        -0.0299545        0.00571629         0.0512121       -0.00745733         0.0668008        0.00590304         0.0140259        -0.0277618         0.0746625         0.0268383        -0.0492066         0.0501704       -0.00295771         0.0132775         0.0547139        0.00993085        -0.0279516         0.0641879          0.041289         0.0707294        -0.0689348         0.0537946        -0.0209628        -0.0330628        -0.0950768        -0.0936274         0.0309897         0.0183815         0.0694435         0.0477941         0.0216765         0.0355441         0.0136573        -0.0262342        -0.0128587         0.0579701        0.00706141        -0.0447576         0.0170704         0.0505942        -0.0313301         -0.100582        -0.0506979        -0.0323641      -0.000890767         0.0261624        -0.0199014         0.0723164         0.0579425          0.109511         0.0569375        -0.0024342        -0.0833496      -0.000978246        -0.0128745         0.0608743        0.00606939         -0.010674        -0.0376075        -0.0428702        -0.0376762       -0.00332828         0.0205624        -0.0484441        -0.0667161         0.0431515         0.0962493         0.0248567        -0.0427917        -0.0133337         0.0136904         0.0222132        0.00598063         0.0206007        -0.0430982         0.0450884        -0.0179459         0.0268164        -0.0250082       -0.00982108         0.0312128        -0.0288166       0.000970512         0.0297181       -0.00419115          0.112461         0.0746892         -0.106903         0.0185965          0.054579        0.00516454         0.0681894         0.0290614        -0.0329675          0.037372         0.0361982        0.00348465        -0.0757183        0.00559431        -0.0727993        -0.0439531         0.0514674       -0.00174529         0.0475748        -0.0416629       0.000226905        0.00823882        -0.0859177        -0.0568718        -0.0617456         0.0922841         -0.016601          0.107313         -0.066022        -0.0213605         0.0316648         0.0733541        -0.0733874         0.0690689         -0.027288        -0.0643249      -0.000797391         0.0228859         0.0672872         -0.095052        -0.0203435         0.0247303        -0.0893552       -0.00192678         0.0389806         0.0291575         -0.099345        -0.0117275        -0.0374287        0.00148353         0.0637059         -0.043129        0.00329825        -0.0645762       -0.00755644         -0.077827        -0.0599541       -0.00487049        -0.0447104          0.020925        -0.0325059         0.0148273        0.00914454         0.0148462        -0.0641186         0.0536221          0.123452        -0.0384179         0.0490183         0.0447763         0.0259893        0.00416005        -0.0618903         0.0562007         0.0504799         0.0200382         -0.061305        -0.0702697        -0.0124393         0.0255047          0.029428         0.0345448        -0.0666111         0.0388912        -0.0158152         0.0232683        -0.0495059      -0.000878391        -0.0235673        -0.0541292         -0.106025         0.0312616         0.0180362        -0.0139328        -0.0524919         0.0811881         0.0373922        -0.0522817        -0.0178238        0.00855088          0.126443        -0.0401395        -0.0646357        -0.0327892        -0.0130855        -0.0734579       -0.00816465        -0.0461484        0.00423714        -0.0308134        -0.0364477         0.0159447        0.00129315        -0.0201455        -0.0683045        -0.0387544        -0.0720577        -0.0731897        -0.0472626        0.00352439       -0.00866134       -0.00848343        -0.0577861        -0.0804089        -0.0154176        -0.0324897        -0.0691105        -0.0872092        0.00865208         0.0570587        0.00525731        0.00517819         -0.013409        -0.0407584         -0.003655        -0.0830608         0.0308621        -0.0148875         0.0180379        0.00100538         0.0198689         0.0174899         0.0813621         0.0343355         0.0272629         0.0109567        -0.0571646        -0.0216975         0.0050798       -0.00837416         0.0234056        0.00322453        -0.0407867         0.0935598         0.0905614         0.0536816        0.00506108      -6.71742e-05       0.000730617         0.0351884        -0.0467732         0.0435738         0.0975656         0.0367558          0.110643           0.06036        -0.0280251          0.123219        -0.0372534         0.0332956        -0.0575897        -0.0535178        -0.0171248        -0.0167586        -0.0268857        -0.0212484         0.0024627         0.0502629        -0.0534415        -0.0376618          0.100932          0.013875         0.0122406         0.0178882        -0.0679372        -0.0593672        -0.0138067       -0.00206861        0.00294293          -0.07168        -0.0275584         0.0252252         0.0660686         0.0101538        -0.0460332        -0.0247583         0.0830756         0.0167854         0.0398218        -0.0480549         -0.048744         -0.053016        -0.0477614         0.0844415        -0.0238191         0.0480748        0.00307891        -0.0179528         0.0572761         0.0650088        -0.0267044       -0.00388883         0.0122809         0.0899029         0.0615402        -0.0651559         0.0250548        0.00828842        -0.0164602         0.0152896         0.0037738        -0.0468821          0.034539         0.0344707         0.0138626        -0.0136744         0.0471268         0.0170301         0.0905783        0.00947811       -0.00326093        -0.0179307         0.0351078        0.00167215         0.0171692        -0.0365507        -0.0150397        -0.0762259        -0.0329982         0.0662953         0.0465048         0.0814735          0.038608        -0.0709301        -0.0371551        0.00212699        -0.0161171         0.0152708        -0.0610969         0.0116859        0.00573056         0.0113252        -0.0137598        -0.0103334        -0.0629601         -0.038937      -0.000213179         0.0423675       -0.00437454       -0.00169445        -0.0526187        -0.0600832        -0.0100108        -0.0732556        -0.0376845         0.0630364        0.00981776         0.0392088        -0.0607939        -0.0104223        -0.0174942         0.0137619         0.0836321        -0.0393382         0.0573296           0.02652        -0.0287397        -0.0136939         0.0483104         0.0120398         0.0379936         0.0155902        -0.0467052         0.0089319         -0.071593         0.0547982         0.0539289         0.0442862        -0.0399397        -0.0752281        -0.0166162        -0.0781303        -0.0398734        0.00386911      -0.000751549        -0.0324831        -0.0730822        0.00788733         0.0642912        -0.0580744        0.00504352        -0.0165398        0.00667049       -0.00162629        -0.0221915        0.00617916         0.0693276         0.0569727         0.0372016        -0.0590016          0.023061       -0.00748433         0.0236158        -0.0131752         0.0798497         0.0338639       -0.00932914        -0.0170598        0.00319821         0.0352164        -0.0458907         0.0272796         0.0110659       0.000513079        0.00674159          0.063523        -0.0452374       -0.00740712        0.00186756         0.0385215        -0.0303359        -0.0390055         -0.036446        -0.0351866         0.0197315        -0.0142785        -0.0612554        -0.0201509        -0.0436134        -0.0105422            0.0554         0.0381074       -0.00736427       -0.00869122        -0.0425634        -0.0153747        -0.0413451         0.0139371       -0.00273927        -0.0187106        0.00957357        -0.0375711         0.0827198         0.0151247        0.00248932        -0.0151816        0.00237391          0.022264        -0.0925611          -0.02404         0.0294923         0.0127352        -0.0470588        -0.0372263        -0.0611623        -0.0187843        -0.0146824         0.0514065         0.0194979        0.00301284         0.0270684        -0.0384664         -0.023189         0.0802875        -0.0206977         -0.026279        0.00704091       -0.00262122         0.0334065         0.0819291         0.0308075         -0.101799        0.00505195         0.0160481          0.056264        -0.0742808         0.0685761         0.0605591        -0.0290791        -0.0206321         0.0200796         0.0427724        -0.0102793        -0.0271844        -0.0188166         0.0448143        -0.0262994        -0.0593493        0.00391451        -0.0748433         0.0576421        0.00904517         -0.024612        -0.0787581       0.000243013         0.0223941         0.0057461       -0.00726326         -0.012715         0.0668059        -0.0411495       -0.00654771        -0.0138383         0.0295784        -0.0312535        -0.0444069         0.0528012         0.0364418         -0.060522        -0.0230314        -0.0907445        -0.0468972       -0.00934199         0.0232646         0.0330391        -0.0601587        -0.0520618        -0.0425383         0.0547938         0.0437803       -0.00645065        -0.0833434       -0.00135593        -0.0268925         0.0266075         0.0735629         0.0385275           0.02359       -0.00516311        -0.0283708       -0.00417606        -0.0537382         0.0476654        -0.0250762          0.015946         0.0616499         0.0226961         0.0139971        0.00463039         0.0587978         0.0858791        0.00744824         0.0507298         -0.120608         0.0531975       -0.00646811        -0.0129801         0.0543217        0.00242023         0.0319396         0.0222469       -0.00442408         0.0452173        -0.0501465         0.0387492         0.0130918        0.00481124        -0.0351323        -0.0155797        0.00654537        -0.0506724        -0.0889928        -0.0272818        -0.0296667          0.111652         0.0654094         0.0638596          0.107473
         -0.826795         -0.648672         -0.748199         -0.676176         -0.737455          -0.70618         -0.644945         -0.805412         -0.870146         -0.894884         0.0212195         0.0440396          0.114668         0.0189661         0.0583746         0.0502829        0.00802909        -0.0256743         0.0186892        -0.0566678        -0.0112064         0.0122441        -0.0231839         0.0460738         0.0479243         0.0143754         0.0308018        -0.0264749        -0.0404401         0.0675953         -0.837907         -0.831105         -0.820993         -0.731227         -0.663479         -0.719464          -0.69569          -0.64233         -0.631994         -0.630104         0.0175407         0.0281623        -0.0453331         0.0451609        -0.0614852        -0.0189787        -0.0260094          0.024133         0.0223002        -0.0543311        -0.0545084          0.090908         0.0226171        -0.0524929         0.0341082        -0.0197912        -0.0390541          0.107681         0.0618275         0.0147354         -0.666855         -0.745863         -0.710782         -0.838824         -0.863747         -0.834343         -0.771895         -0.767331          -0.66758         -0.748972        -0.0171959        0.00575623         0.0520209         0.0865646       -0.00317866         0.0338417         0.0721385         0.0261586        -0.0263026         -0.119894        -0.0252892         0.0148059        -0.0141533         0.0807411         0.0167001         0.0363459         0.0543672         0.0906328      -0.000345376      -0.000286452         -0.866076         -0.731295         -0.782661         -0.795253         0.0580307          0.308692        -0.0229222         -0.730843         -0.662754         -0.836101        0.00344594         -0.111693       -0.00402079       -0.00960536        0.00197064       -0.00954388         0.0397631        -0.0411161        -0.0208509         -0.071855         0.0568665        -0.0068084         0.0117472         0.0348647        0.00712087        -0.0526358       -0.00587794        0.00436413         -0.120569         0.0771151         -0.871824         -0.816746         -0.883877         -0.735086          0.806482          0.756262          0.769264          0.560959          0.321336         -0.845943        -0.0443901         0.0158762         0.0266858       -0.00649437        -0.0254049        -0.0131509           0.03089           0.09733         0.0157371         0.0307558       -0.00819774         0.0708068        -0.0629884        -0.0470832         0.0807435          0.014775        -0.0133518      -0.000108314          0.058245         0.0168311         -0.881521         -0.818228         -0.844676         -0.889607          0.821072          0.778527          0.768012          0.671308          0.476344         -0.864054        0.00602943        -0.0566735        -0.0671181         0.0151104         0.0147057        -0.0634971        0.00593577       -0.00275333          0.107645        -0.0464599        -0.0665666          0.062938       -0.00461856         0.0595426        -0.0472559       -0.00727061         0.0528653          0.103942        -0.0145347        -0.0377615         -0.771035         -0.780804         -0.868004         -0.609874          0.767095           0.83633          0.755842          0.898441         -0.824053         -0.644628         0.0851369        -0.0412307        -0.0510063        -0.0451137         0.0910304        0.00869667        -0.0682497         -0.014941          0.014231      -0.000264807      -0.000233611         0.0496337         0.0429956        0.00307078         -0.047457        -0.0603443         0.0708259        -0.0752261         0.0367429        -0.0526927         -0.856927         -0.776024         -0.768883         -0.755344          0.763356          0.817529          0.797745         -0.162051          0.251129         -0.613551         0.0510468        -0.0119479        -0.0308983       -0.00391465         0.0727042        -0.0345408         0.0415932       -0.00903415         0.0190876         0.0741059        -0.0255718         0.0232171         0.0193948        0.00645367        -0.0438308        -0.0120609        -0.0175251        0.00762473        -0.0425215        -0.0955549         0.0830199        0.00922726         -0.588988         -0.716091          0.250312          0.885999          0.778188         -0.887045        0.00721651          0.026858        -0.0583571         0.0176541       -0.00492191         0.0940954         0.0906268          0.022149       -0.00602636        -0.0753376         0.0117951        -0.0115473        -0.0785213        -0.0968812        -0.0664127         0.0284317         0.0492812        0.00555703          0.132937         0.0190504         0.0283295         0.0564391         -0.023481        0.00955442        -0.0134679         0.0381319        -0.0212556           0.39819          0.336406          0.311826        0.00601409         0.0764728         0.0426113         0.0224965         -0.118232       -0.00233437        -0.0487613          0.015316        -0.0352597       -0.00255906        -0.0599298        -0.0324787        0.00484452       -0.00403009        -0.0498169        -0.0339875         -0.065435         0.0123279        -0.0174236        -0.0511402       0.000132801         0.0211191         0.0118601          0.121831         0.0410265        -0.0599896          0.110847         0.0146355         0.0230397        -0.0671738        -0.0404814        -0.0168857          0.049637        -0.0397301        -0.0521739        -0.0302235        -0.0224993         0.0585169         0.0277244         0.0628063        -0.0396072      -0.000771741        -0.0484646         0.0371294         0.0460536        -0.0405344         0.0351041        -0.0642005      -0.000332352        -0.0485995        -0.0102191         0.0174506         0.0501544         0.0543575       -0.00716592         0.0296157        -0.0436343        -0.0400741         0.0503645        -0.0274912        -0.0615941         0.0779995         0.0269876        -0.0529071        0.00338679        -0.0318215          0.046199        -0.0779396         0.0384626         0.0124879         0.0124235          0.037382          0.040951          0.015612         0.0137282         0.0624472        -0.0110109         0.0718629         0.0484917        -0.0468286        -0.0469911        -0.0138258         0.0372119         0.0492156        -0.0314656       -0.00384516         0.0108641         0.0265552       -0.00101109        -0.0701107        -0.0213939        0.00989176        0.00891231         0.0205309        0.00410147        0.00391859         0.0204517         0.0712789         -0.094168         0.0456539         0.0304562        -0.0101243          0.122215          0.103557         -0.151123        -0.0489319        -0.0085044         0.0208941        0.00176605        -0.0150928        -0.0308281         0.0442013        -0.0185899        -0.0429728        0.00155739        0.00569699         0.0334749        -0.0245022        -0.0100273         0.0309858         0.0628958        -0.0572907        -0.0313059         0.0456388         0.0361276        -0.0349082        -0.0159011        -0.0207561        -0.0362962         -0.149488        -0.0124246         0.0691684       -0.00348279        -0.0609622       -0.00835117       -0.00836619        -0.0600648        -0.0195554        -0.0681252         0.0128219        -0.0779966        -0.0643206        -0.0107647        -0.0590689        -0.0810062          0.053523         0.0308662         0.0143729         0.0960714         0.0605097         0.0199988        0.00939734        0.00171365        -0.0223477       -0.00765217        -0.0295921          0.076147        -0.0188444         -0.070302        -0.0516308        -0.0233725        -0.0430228        -0.0509287         -0.069015        -0.0795283        -0.0151907        -0.0385205         0.0277824        -0.0899306         0.0101046        -0.0304748         -0.025312         0.0388643        -0.0226222         -0.106224         -0.052483        -0.0165821        -0.0243851          0.039944        -0.0149637         0.0608533        -0.0114619         0.0562319          0.017884        -0.0669318         0.0396307         0.0309733        -0.0249733         0.0364418        -0.0111275         0.0368814        0.00914519         0.0225178        -0.0451356        -0.0581895         0.0136599       -0.00137545        -0.0293296        -0.0275111        0.00507094         0.0127095       -0.00434205         0.0418461        -0.0215946        0.00503844        -0.0925229          0.021948       -0.00694783         -0.055979         0.0429466        -0.0264333         0.0153832         0.0144604         0.0260844        0.00398028        -0.0443201        -0.0280744         0.0263567         0.0496236        -0.0274492        -0.0284366         0.0702012         0.0289196         0.0226974        -0.0326168        -0.0134631        -0.0276957        -0.0373258        -0.0407462        -0.0208701         0.0336461         0.0578857       -0.00866253        -0.0153735         0.0310024         0.0252281        -0.0175309         0.0244438         0.0623551        -0.0821521        0.00627638        -0.0286723         0.0692097          0.027159       -0.00255242         -0.015812        -0.0373368        -0.0586196         0.0868167          -0.07448         0.0129343         0.0259135          0.008989        0.00755471         0.0473244         0.0604061        -0.0639015        -0.0466935         0.0114869        -0.0106398         0.0421641       -0.00179506        -0.0391624         0.0273205         0.0602465        -0.0275401       -0.00367448       -0.00434094         0.0500917         -0.046953         0.0282709         0.0158613        0.00389582         -0.043097         0.0154729        -0.0265066        -0.0499345         0.0397919         0.0608248        0.00435554        -0.0284101         0.0701357        -0.0138433         0.0234313        -0.0869082        -0.0346424       -0.00882537         0.0131275         0.0684921         0.0194478         0.0468746        -0.0312439         0.0495243       -0.00908542        -0.0150927         0.0170952          -0.11586         0.0421447        -0.0391103         0.0975845        -0.0206158         -0.101164         0.0115793         0.0597145        -0.0364562           0.04088        -0.0548826         -0.019278        -0.0102643        -0.0526465       -0.00846758        0.00846202         -0.137298        -0.0606962         0.0420495       -0.00496026        -0.0140885         0.0145764         0.0940023         0.0102735        -0.0760043        -0.0345028        -0.0907901         0.0316491         0.0344643         0.0584901         -0.028215        -0.0450262         0.0647858        0.00554074       -0.00720267        -0.0207358        -0.0334807        -0.0337137         0.0833636        -0.0252938        -0.0366657        -0.0047946        -0.0112143        -0.0390084          0.120182        -0.0200074        -0.0287824         0.0167399        -0.0110558        -0.0506554       -0.00257901         0.0781013        0.00298673         0.0228707         0.0559712        -0.0296332          0.083354       -0.00339245         0.0795228        0.00759342         -0.132273         0.0309062        -0.0290273        -0.0120189         0.0362064         0.0162899         0.0396752        -0.0340979        0.00737557        -0.0854969        0.00764519         0.0116083        -0.0757492         0.0504864       -0.00853319        -0.0283148        -0.0407561         0.0261181         0.0675167       0.000133842          0.069709        -0.0444566       -0.00394854        0.00614111          0.014115        -0.0897217         -0.032559         0.0552695        -0.0131501        -0.0787896       0.000515289        0.00330773        -0.0719069         0.0839463        -0.0395886        -0.0245714        -0.0594312        -0.0119904        -0.0524199        -0.0196708         0.0774042          0.016766         0.0285516        -0.0770537       -0.00310734        -0.0108302           0.10786        -0.0370699       -0.00665831         -0.014953         0.0185783         0.0183132         0.0202736         0.0804995         0.0559056        -0.0363317        0.00194019         0.0386504         0.0847624        -0.0357444         0.0585645       -0.00626565        0.00611461        -0.0969103        -0.0594217        -0.0770936         0.0116247          0.070487         0.0292514        -0.0134274         0.0593629        -0.0183027        0.00999066          -0.13758        0.00436255        -0.0613539         0.0767329         0.0430282        -0.0782318        -0.0271073        -0.0139855        -0.0766636      -0.000142738         0.0288783         0.0668543       -0.00920029        -0.0330062        -0.0738935         -0.021894        -0.0333196        -0.0315012          0.018749         0.0563183        -0.0012987         0.0338213         0.0263359         0.0132942       -0.00184828         0.0458739        -0.0154957         0.0393137       -0.00824882        -0.0164755          0.026954        -0.0158164         0.0312837        -0.0232216         0.0367548        -0.0368447       -0.00132718        -0.0232196         0.0745293         -0.010422         0.0617776        -0.0230153         0.0008303         0.0385776         0.0309418        -0.0254439         0.0344622      -0.000610671         0.0484959         0.0566485         0.0421648        -0.0605069         0.0349214         0.0230619         0.0109825        -0.0230593         0.0635047       -0.00489851        -0.0736521         0.0318205        -0.0303939         -0.094846        0.00753315        0.00835634        -0.0212494         0.0194428         0.0511826        -0.0641634        -0.0316224         0.0618945         0.0125606        -0.0405054        -0.0866526        -0.0893685        -0.0222787         0.0167951        -0.0619597        -0.0376377        -0.0711453        -0.0009875         0.0395738        -0.0735467        -0.0723903        -0.0174582        -0.0530165       0.000957304        -0.0484982         0.0997323         0.0963736         0.0175333         0.0498623        -0.0083057        0.00924843        -0.0481444        -0.0288096         0.0552304         0.0115616         0.0163693        -0.0403286         0.0219389       -0.00297275         0.0169567        -0.0199023         0.0146773        -0.0162811         0.0537256       -0.00437813       -0.00814254          0.100557         -0.042773         0.0215741         0.0209943        -0.0228969         0.0146533        -0.0438337         0.0020728        -0.0991708          0.118913         0.0371799         0.0193972        -0.0179602        -0.0124063         0.0294695        -0.0594732       -0.00873241         0.0836698       -0.00838512        0.00509047         -0.029031      -0.000434074       -0.00106179         0.0217367         0.0249111        -0.0392164         -0.058353         0.0615078         0.0706152        -0.0907674        -0.0565203         0.0376804        -0.0413675        0.00904764         0.0568116         0.0621205        -0.0339932         0.0344998       -0.00584117         -0.043538         -0.165441         0.0438931         0.0711841         0.0232192         0.0916177        -0.0590789        -0.0249093         0.0201215         0.0340113          0.038039         0.0560487         0.0540054         0.0865506        -0.0283258         0.0327328         -0.038642         0.0309774       -0.00254778         0.0856647        -0.0116651      -0.000888278         0.0900012         0.0687672        0.00532718       -0.00749744         0.0113809          0.014298         0.0983658        -0.0300511          0.031775       -0.00815558        -0.0420326        -0.0432021       -0.00530674        -0.0260113        -0.0210354         0.0309609        -0.0391501         -0.026019        -0.0842923         0.0200721         0.0386086        -0.0767389       0.000455077         0.0364827
          0.560829          0.538294           0.49361          0.468305          0.447533          0.547862          0.519356          0.371146          0.564631          -0.87302         0.0561568         0.0367586       -0.00215537        -0.0399995        -0.0628817         0.0384607         0.0162994         -0.048884        0.00946334        -0.0398776        -0.0303298        -0.0235461           0.01288         0.0290381         0.0476907       -0.00444411         0.0654119         0.0468569        -0.0409356        -0.0233364          0.559834          0.621672          0.568009          0.567852          0.523107          0.440756          0.484885          0.537672          0.428592         -0.234301         0.0225376        -0.0496235        0.00261092       -0.00718763         -0.052257       -0.00578643        -0.0777683         0.0234998        -0.0234729        -0.0133114         0.0473566         0.0485705        -0.0133974         0.0114809         0.0380551        -0.0934051       -0.00464872         0.0426608         0.0969549        -0.0630611          0.538586          0.574864          0.727415          0.518228           0.23489         -0.872251         -0.362616         -0.785585          -0.86111          0.466367       -0.00391616         0.0145761       -0.00667041       -0.00970842         0.0435325          0.015239          0.037646        0.00496933         0.0150975          0.108584         0.0635082        0.00939419         0.0155645        0.00707628          0.138697        -0.0398108         0.0033843        -0.0218755      -0.000144427        -0.0340889          0.399946          0.559316          0.540149          0.610914         -0.708412          -0.62785         -0.754357          0.569111          0.685707          0.776828        -0.0519809       -0.00337699        -0.0780176        -0.0726869        -0.0779446        0.00178901         0.0127164       -0.00934654         0.0420995         0.0293975       -0.00106879        -0.0131142         0.0106937        -0.0382069         0.0217171         -0.030597         0.0420572         0.0785367         0.0362867       0.000346511          -1.00534          0.612931          0.552986           0.55589         -0.707718         -0.683987         -0.624639         -0.604803          0.315761          0.965401         -0.126485        -0.0409326        0.00615307        -0.0115472         0.0369641         0.0341139        -0.0432706         0.0209914        -0.0134578        -0.0216228        -0.0364463        -0.0730533       -0.00295411        -0.0114301        0.00573785         0.0580829        0.00578983         0.0773794        -0.0444259        -0.0431872         -0.575334         -0.792252          0.152752          0.205513         -0.700643         -0.684503         -0.661876         -0.644932         -0.398379          0.829325         0.0523804       -0.00657474          0.101512         0.0760493        -0.0409164        -0.0455033         0.0415711         -0.101342        -0.0267079          0.105722         0.0908852        -0.0202852        -0.0883233        0.00800604         -0.103023         0.0235249         0.0219357        -0.0421277       -0.00941013        -0.0494031          0.659898          0.736287          0.779301         -0.585474         -0.891505         -0.842837         -0.760079          -0.70699          0.897239          0.886773         0.0299158       -0.00101132           0.10747       -0.00102117         0.0618297         0.0653609       0.000901953         0.0382036         -0.047603        -0.0581588        -0.0543502        -0.0184628        -0.0571694       -0.00867972         0.0397261         0.0309862         0.0748429           0.05138        -0.0302379         0.0172912          0.699375          0.607426          0.710312          0.590017         -0.867702         -0.824484         -0.804169         -0.885464         -0.932348         -0.859404         0.0135568        -0.0418071         0.0304929        -0.0680192        -0.0413156        -0.0298338        -0.0113753        -0.0739429        -0.0213028        -0.0732589        -0.0219113        0.00558181        -0.0291891        -0.0221625         0.0441929         0.0305712         0.0332292         0.0718798        -0.0345669         0.0127233         0.0294893         0.0352408          0.736031           0.92622          0.434656          -0.62572         -0.806491         -0.933667         0.0349855         0.0314912        -0.0282384         0.0689548       0.000863666        -0.0192913       -0.00593079        -0.0175652         0.0364258         0.0763632          0.045325         0.0682276         0.0197775         0.0741437         0.0794068       -0.00965675         0.0672385         0.0186835        -0.0396189         0.0496229         -0.061506        0.00235706         0.0126898         0.0898278         0.0681061         -0.120906         0.0019893         -0.915332         -0.917519          -0.88285        -0.0224488          0.113712         0.0295804         0.0236747        -0.0140751         0.0763811         0.0115777        0.00794371        -0.0435638        -0.0286941        -0.0128845        -0.0268595        -0.0453088        -0.0477587        -0.0224467         0.0478809         0.0362058         -0.103048        0.00773665        -0.0382644        -0.0706083         0.0037906       -0.00211326        -0.0292138         0.0957387          -0.13245         0.0149557       -0.00279351          0.052748        0.00816658         0.0181373         0.0219207      -0.000595656       -0.00056101        -0.0035075         -0.038022         0.0095479        -0.0854183          0.011632        -0.0204787         0.0501441          0.059148        0.00986849        -0.0195852        -0.0142511         0.0207479        -0.0595716         0.0629311          0.131562        -0.0582692        -0.0277475         0.0361739        0.00813946         0.0640342         -0.013705        0.00433714        -0.0900398        -0.0179856         0.0754607         0.0283972        -0.0744575        -0.0534849        -0.0593159         -0.030856         0.0425968        -0.0228742         0.0418025         0.0479749        -0.0890082       0.000141051         0.0189172         0.0130875        0.00158747         0.0134021         0.0853205        0.00758586         -0.143024       -0.00345796        0.00289355        -0.0649668         -0.010637         -0.039863         -0.138625       -0.00676992          -0.05086         0.0249222         0.0511023       -0.00555246         0.0195541         -0.040532         0.0275388         0.0700142         0.0159794         0.0326165        -0.0066981         0.0847221         -0.060044        0.00451473         0.0295628         0.0420055        -0.0178579         0.0151957         0.0394253        -0.0383755          0.028506       -0.00963624       -0.00101613         0.0582306        -0.0606851         0.0425083         0.0264379         0.0150907        0.00529442       -0.00226431        -0.0188415        0.00296358        -0.0552725        -0.0115089        -0.0583116        -0.0854997         0.0416033        -0.0122523        -0.0213497        -0.0617854         0.0774497        -0.0169996         0.0549604         0.0203388        0.00924911       -0.00561096         0.0306263        -0.0452052         0.0314358         -0.010621         0.0110156        -0.0551742        0.00034042         0.0237991         0.0435523        -0.0650092        -0.0597935        -0.0526703         0.0553069        0.00199018         0.0341621         0.0879297        0.00902158         0.0166257         0.0441295         0.0420688        0.00854533          0.127357        -0.0528154         0.0656031         0.0842355         0.0842531          0.018612         -0.088847         0.0163466         -0.141317         0.0816829         0.0667432          0.040964         0.0302205          0.037422         -0.030041         0.0732465        0.00942083        -0.0307181        -0.0332866         0.0431458        -0.0528742        0.00234182         0.0370105        0.00911939        -0.0611024         0.0124731        -0.0239755          0.003516        0.00911522       -0.00641438         0.0102672        -0.0786038         -0.079056        -0.0101365        -0.0206232        -0.0287068         0.0414316          -0.03129         0.0256512        -0.0272182         0.0287139         0.0201064        -0.0732256         -0.126177        -0.0880361         0.0504615         0.0142093         0.0020577         0.0455609          0.032032         0.0122701         0.0115578          0.016021         -0.012279         0.0254137           0.10048        -0.0219841         -0.023442        -0.0550068        -0.0503545        -0.0718556        0.00889688        0.00812814        -0.0146329        -0.0261715       -0.00418818         0.0107215         0.0170606         0.0631439        -0.0814819         0.0644383         0.0244818        0.00272113         0.0592618         0.0253889         0.0719281        -0.0235578         0.0102153        -0.0104389        -0.0501089        -0.0447555         0.0412662         -0.106965        -0.0421395       -0.00901079         0.0376805         -0.036459         0.0643883          0.122618        0.00145802         0.0139035         -0.063539         0.0018582         0.0353259         0.0423243        -0.0869961        -0.0178691         0.0718862        -0.0535206         -0.018569        0.00420305        0.00382903         -0.012771         0.0870064         -0.027121         -0.064213        -0.0393596        -0.0553197        -0.0245693           0.10236        0.00381719         0.0269799         0.0337349         0.0797662        0.00864169         -0.098914        -0.0332943         0.0200007         0.0313145         0.0348326       -0.00507733      -0.000295118        -0.0158514       -0.00219011         0.0510437        -0.0053987        -0.0702992         0.0197403         -0.128222        -0.0089007        -0.0143267         0.0646718         0.0917036        -0.0154915       0.000257332        -0.0377322         0.0645474        -0.0189133        -0.0395829        0.00367143         0.0215279         0.0705695         0.0787684      -0.000220385         0.0208479         0.0220444      -0.000649377        -0.0241202        -0.0111531         0.0406805         0.0382329        0.00794111         0.0213543        -0.0213157          0.111404       -0.00881169          0.023974        -0.0415948          0.116257          -0.12368         0.0111504         0.0621083        -0.0302953         -0.059545         -0.021237        -0.0277538       -0.00839197        -0.0366205         0.0251281        -0.0226828         0.0209927         0.0563278        -0.0653813        -0.0720133        -0.0586637         0.0304326        -0.0111757         0.0943261         0.0100243         0.0387532        -0.0250869         0.0440731        0.00359946        -0.0428524        -0.0150065        0.00640657        -0.0217176        -0.0497705         0.0458577        0.00530295        -0.0725002         0.0317958        0.00758465       -0.00615016        -0.0227138          0.104777        -0.0141012          0.023985         -0.021616        0.00440193         0.0253745        -0.0127528        0.00604928        -0.0145476         0.0359894        -0.0594228        -0.0724361        -0.0256698         0.0147114         -0.113572        -0.0211689       -0.00883892        -0.0213177         0.0544603        -0.0241797        -0.0444157        -0.0358038        -0.0277693        -0.0930611        -0.0609307       -0.00325159        -0.0776977         0.0979996         0.0178817          0.069238         0.0885577         0.0234621         0.0819896        0.00130405        -0.0144618         0.0929138        0.00484778        -0.0561848         0.0112013         0.0962867        -0.0369758         0.0161739         0.0168655          0.087553          0.112416         0.0358862         0.0357021         0.0423696        -0.0416982        -0.0465372         0.0392164        -0.0352395         -0.194493        -0.0672537       -0.00925536        -0.0197309        -0.0486893        -0.0762496        -0.0466017          0.060569         0.0250407         0.0454088        -0.0980863       -0.00299723        -0.0404263        0.00853335         0.0150503        -0.0187838       -0.00494274        -0.0590351           0.04611        -0.0914646         0.0358659         0.0395699        -0.0178118        -0.0020552         0.0617809        -0.0639112      -0.000216995       -0.00498643        -0.0436808         0.0514259         0.0413251         -0.074154        -0.0674509         0.0488689        -0.0879299         0.0314412       -0.00222561        -0.0255532        -0.0473771          0.182522        -0.0990804        -0.0486021       -0.00496268        -0.0594261         0.0719615         0.0502685        -0.0282017       -0.00269102        -0.0478562        -0.0212263         0.0313238        -0.0169378         0.0153763         0.0209453        -0.0569165         0.0319508         0.0275883         0.0476227          0.050996         0.0141376        -0.0456109        -0.0234461         0.0536469         0.0534091          0.027748        -0.0388113          0.051535         -0.111661         0.0641338         -0.105434         0.0811774         0.0276894         -0.044942       -0.00311065         0.0265216      -0.000809698        -0.0402416         0.0435872        -0.0552959       -0.00231062       -0.00926228         0.0386432       0.000460248         0.0654989        -0.0380658        -0.0656699        -0.0622371         0.0643564         0.0415875         0.0274802         0.0651092        -0.0078577         0.0775561         0.0228881        -0.0296788         0.0264813        -0.0245612         0.0291659         -0.110988       -0.00299847       -0.00682931          0.079159         0.0401483         0.0418322         0.0582435         0.0787972        -0.0886465         0.0107139        0.00138564         0.0272542         0.0717446        0.00114215        0.00915199         0.0167189        -0.0475749        -0.0112229        -0.0700414         -0.025042         0.0074628        -0.0348012          -0.06341         0.0122085         0.0114366        -0.0889375        0.00484525         0.0399723          0.062433         0.0221294        -0.0329834         0.0451573         -0.043037         0.0384767       -0.00872371         0.0422369        -0.0221931         0.0153668        -0.0376994        -0.0744674         0.0740521         0.0312145         0.0238184        -0.0334935         0.0133308         0.0114014          0.015277        -0.0367089         0.0080804         0.0618683        -0.0981822        -0.0137141        -0.0867893        0.00486568       -0.00702384         0.0174563          0.100167      -0.000854089         0.0204256         0.0594778        -0.0254566         0.0428534         0.0946631        -0.0111133        -0.0059943         0.0151222         0.0354719        0.00133225         0.0313577         0.0191366         0.0988248          0.123789        0.00101431        0.00942111           0.07288        0.00833988         0.0433699        -0.0190732        -0.0542543        -0.0266109         0.0150898       -0.00941679        -0.0141422          0.030042       -0.00424853         0.0184788         0.0355679        -0.0217549         0.0294718         0.0044735        -0.0183669       -0.00475795        -0.0356247         0.0342473         0.0381029        -0.0134261        0.00128166        -0.0965917         0.0134269         0.0730386         -0.021961        -0.0109782        -0.0173511        -0.0224579         0.0591741         0.0621404         0.0584645        0.00365535        -0.0800686         0.0634145        -0.0194214        -0.0299809        -0.0429566         0.0316015        -0.0321583         0.0286807        -0.0134545         0.0627398       -0.00675247       -0.00977509        -0.0477361        -0.0446978        -0.0213799         0.0362313         0.0144686        -0.0663858
         -0.523066          -0.56461         -0.658125         -0.606659         -0.574978         -0.556034         -0.605486         -0.591024         -0.623648         -0.587853        -0.0118534        -0.0544677        -0.0491787       -0.00201397        -0.0902648        -0.0404372        -0.0859369         0.0296804         0.0365829        -0.0394687         0.0075241        0.00707071        -0.0095954         0.0432521        0.00551706         0.0403802        0.00423636       -0.00250705        -0.0650808       -0.00924941         -0.632902         -0.575839         -0.569267         -0.522864         -0.569719         -0.618389         -0.544677         -0.634179          0.490906         -0.597885        -0.0202436        0.00367412           0.02737       0.000419279        0.00683363       -0.00638593         -0.020019        -0.0317542         0.0228188        -0.0338888         0.0558939       -0.00850461        -0.0634381        -0.0365368         -0.123994         0.0661933        -0.0712986        0.00569617       -0.00300446         0.0370271         -0.589022         -0.611316         -0.635621         -0.688145          0.845332          0.902983        -0.0940776         -0.617093         -0.569716         -0.600175        -0.0216863        -0.0820551        -0.0447015        -0.0700755          -0.01992        -0.0150496        -0.0349489        0.00473245         0.0177706        0.00788352         0.0426428        0.00348647        -0.0801763        -0.0148613       -0.00318652          0.037664         0.0699445         0.0050544           0.01754         0.0251249         -0.543767         -0.625462         -0.645145         -0.606922          0.886871          0.912145          0.833479         -0.610784         -0.543311          -0.50331        -0.0686549         0.0788336         0.0111898         0.0352394        -0.0674086         0.0562002         0.0197728           0.08468        -0.0379226         -0.025182        -0.0306185          -0.13219         0.0467336         0.0114779        -0.0225918        -0.0150336        -0.0460307       -0.00822145        -0.0440361        -0.0889994          0.349233          0.501923         -0.569845          -0.58793          0.722314          0.730079          0.647268          0.573448         -0.613206         -0.550187        -0.0167112        -0.0145041       -0.00966645         0.0262229         0.0434055         0.0433084       -0.00272573        -0.0323713        -0.0424233         0.0314022         0.0495958         0.0591146         0.0212117        0.00668351        -0.0631473        0.00711193       -0.00737377         -0.034541        0.00387572         -0.132438         -0.563871         -0.606756          -0.57909         -0.568896          0.621714          0.651942          0.653593          0.576022         -0.783109         -0.674965        -0.0260577        -0.0495533         0.0241364        -0.0212606         0.0582866        -0.0710318         0.0364665        -0.0570404        -0.0464144         0.0367633        -0.0492459         0.0231879         0.0563337        -0.0429998         0.0394385        -0.0791084         0.0407865        -0.0684507        -0.0371646        -0.0782514           -0.5949          -0.58507         -0.574936         -0.619597          0.604431           0.64015          0.584826          0.604778          0.223439          0.283793         0.0177391        -0.0285005         0.0547043        0.00899078          0.108335       -0.00797254         0.0403915         0.0663243          0.121583        -0.0677152        -0.0535309        0.00973267         0.0739347          0.117437        -0.0557781        -0.0113814         0.0170261           0.07531        0.00864641        0.00217868          0.260328          0.376075          0.327074         -0.912292          0.651715           0.61856          0.617726          0.552064           0.29568         -0.227658        -0.0535508        -0.0401986         0.0450345        -0.0536153        -0.0415313         0.0396936         0.0089923         0.0612132        -0.0237339         0.0461806        -0.0279546         0.0634606        -0.0312979         0.0179606       -0.00812195         0.0274104         0.0356052         0.0285253         0.0140274        0.00894254        -0.0187147        -0.0385177         -0.219751         -0.222134          0.521644          0.615455          0.547035           0.69527          0.089365         0.0123009          0.052639        -0.0329864         0.0532383        -0.0080696         0.0124323        -0.0546004         -0.061383         0.0682259        -0.0450877         0.0508483        -0.0124423        -0.0173022        -0.0205326          0.105473         0.0188898         0.0312974         0.0678029          0.012589        -0.0384386        -0.0132051        0.00385606          0.025281       0.000901713          0.068918         0.0151744           0.60647          0.636501          0.528547        -0.0435925         0.0400271         -0.109118         0.0112819       -0.00500244         0.0732564        -0.0506984         0.0157919        -0.0421695        0.00561171        0.00539813        -0.0225659        -0.0266823         0.0694473        -0.0600033      -0.000684801        -0.0330919        -0.0442985           0.06468        -0.0231062         0.0130297        -0.0717624         0.0574305          0.032786          0.149911         0.0156403        -0.0525477        -0.0185228        -0.0398754        -0.0772712         -0.067847       -0.00636841        -0.0130686         0.0287734        -0.0197413          0.037063        -0.0253912         0.0202408        -0.0840514         0.0213123         -0.031969        0.00299498        -0.0100845        0.00713601         0.0342732         0.0222535         0.0452699        -0.0512845         0.0127472        -0.0618195         -0.046661        -0.0410163         -0.129077       -0.00831073        0.00998473         0.0152356          0.007301         0.0322077       -0.00813182        -0.0157607         0.0655122          0.100941         0.0144418       -0.00310894         -0.085513         0.0718194         0.0270821        0.00756102        -0.0210517        0.00971268         0.0271157        -0.0400665         0.0299825        -0.0156619         0.0156582        0.00594784       -0.00134654        -0.0238808         0.0702382          0.035294         0.0522234        0.00148028         0.0255557         0.0108452        -0.0197798        -0.0705641        -0.0586377         0.0450465        -0.0159567         0.0128056        -0.0428595         0.0286336        -0.0105222        -0.0564506        -0.0798272         0.0372306          0.101854        -0.0458641        -0.0593309         0.0211589         -0.024113         0.0169001         0.0674943         0.0694239        -0.0692496        0.00253275         -0.050322        -0.0435161        -0.0272146         0.0100107        0.00708052        -0.0161573        -0.0933899         0.0728092        0.00566986        -0.0866259        -0.0672581        -0.0575024          0.033653         0.0293445         -0.015941         0.0101978        -0.0695679        0.00207917         0.0532756         0.0217055         -0.024907         0.0169702         0.0441566        0.00668035         0.0211041        -0.0346991         0.0697148         0.0099768         -0.062009         0.0323067         0.0295361       -0.00880919        -0.0441293         0.0203601         0.0316089         0.0492452        -0.0539525        -0.0698015         -0.017864         0.0222849        -0.0667041        0.00445172          0.042402        -0.0997278          0.023626        -0.0678749        0.00920033        -0.0305391        -0.0265051       -0.00528885        -0.0195246         0.0298807        -0.0671807        0.00119379        -0.0406901      -3.10782e-05       -0.00837416         0.0434128         0.0162775        -0.0524417        0.00199728         0.0394186        -0.0343698        -0.0287861         0.0351598         0.0418795        -0.0124798        -0.0359334         0.0703205        -0.0032857         0.0474896         0.0641212         0.0319171        -0.0324166          0.018391        -0.0340053         0.0417388        0.00102462         0.0849338          -0.11836        -0.0278583         -0.067135        -0.0511234        -0.0590134         0.0330756      -1.81032e-06        0.00263315        -0.0151232        0.00406999        -0.0662034        0.00136977         0.0487573         0.0471228        -0.0186303         0.0577541         0.0113548         0.0034913        -0.0504508        0.00333111         0.0174114        -0.0326692        -0.0156653         -0.069472         0.0435322         0.0295727       -0.00757194       0.000491159        -0.0381881        -0.0390808        -0.0458692        -0.0379289         0.0316244         0.0331995        -0.0455108        -0.0136178        0.00647624       -0.00804566          0.100198        -0.0183003        -0.0188745        0.00937972          -0.10418         0.0810658        -0.0166323         0.0402416      -0.000159331         0.0765925         -0.123072         0.0558194        -0.0296659         0.0639935        -0.0202068         0.0478698         0.0310587        -0.0273737        -0.0665707        -0.0567845         0.0773836         0.0201972       -0.00696965        0.00757078        -0.0337286        -0.0260134        0.00730805        -0.0520625         0.0639033         -0.117545          0.106317          0.016687         0.0768402        0.00271782       -0.00754083         -0.022916        0.00102059        -0.0849863         0.0192013           0.04783          -0.12809         -0.104461       0.000681022        -0.0218997        -0.0719784        -0.0123946         0.0223705        -0.0621327         0.0819613        -0.0158586        -0.0324899       -0.00364457        -0.0556279         0.0895143        -0.0161888         0.0596151       -0.00747326        -0.0161673        0.00987799         0.0392093        -0.0511129          0.053017        -0.0395317        -0.0513147         0.0624892          0.030132         0.0905179         0.0450299         0.0222463        -0.0443233          0.138471        -0.0499084         0.0417424         0.0184525        -0.0129827        -0.0731683         0.0167372         0.0651281           0.01367        -0.0561943        -0.0345881       -0.00399797        -0.0282624        -0.0236885      -0.000837118         0.0526458         0.0214246        -0.0241372         0.0109312         0.0403039         0.0180041       -0.00963028        -0.0198799        0.00915386        -0.0577627        -0.0464827         0.0149364        -0.0497073        0.00645884        -0.0205441         0.0762581         -0.034768         0.0183111        -0.0866675         -0.035417        -0.0217492        -0.0172436         0.0032598        -0.0207747         0.0291727         -0.054894        -0.0133862       -0.00410595        -0.0505049         0.0110351        -0.0167955        -0.0842334         0.0123191        -0.0225087        -0.0379915       -0.00604866        -0.0391792        0.00494551         0.0348964         0.0379523        -0.0373558        -0.0501477        -0.0202258          0.146045          0.051298         0.0051777        -0.0031068         0.0409289         0.0209256        0.00613964         0.0984501         0.0494707         0.0335824        -0.0476775       0.000374914         0.0232402       -0.00577215        -0.0989727        -0.0749507         0.0211601        -0.0031112         0.0583319       -0.00999968         0.0514243        -0.0360049       -0.00827186        0.00577156        0.00137452        -0.0502472         0.0626305         0.0229458         0.0237459         0.0306884        -0.0334584       -0.00278099        -0.0258385         0.0368544        -0.0700765         0.0762919        -0.0170832        -0.0408321        -0.0806963         -0.013817        -0.0392674        -0.0656061        -0.0471879      -0.000458629        -0.0644611         0.0170252        -0.0213448         0.0553793         0.0152435         0.0534514         0.0670686         0.0205312         0.0521125        -0.0460515        -0.0192135         0.0724488          -0.05809        -0.0163103       -0.00667054        -0.0309187         0.0211252         0.0480866        -0.0663973        -0.0368174         0.0223223         0.0209707         0.0071466         0.0532109        -0.0821158         -0.039596         0.0016125         0.0410423         0.0124035        0.00614983         -0.107099         0.0395859        -0.0194873        0.00682516        -0.0838071        -0.0329103        0.00847952         0.0237225         0.0113749        -0.0644045         0.0316589        -0.0270902        -0.0243821           0.05986        0.00499567        -0.0374169         0.0185332         0.0352879         0.0350052         0.0616552        -0.0280067         0.0247369       -0.00796734         -0.139985         0.0735494       -0.00700966        -0.0519718       -0.00242401       -0.00249654        -0.0303043          0.072375          0.043063         0.0674367         0.0169993         0.0213356        -0.0593103        -0.0149026         0.0396046        -0.0376315        0.00885364         0.0788343          0.025035        -0.0119913        -0.0102822         -0.161465        -0.0567815        -0.0300892         0.0153301        0.00779468         0.0323472        -0.0168319        0.00315998         0.0300815         0.0596989        -0.0674195        -0.0660309         0.0143733       -0.00918937         0.0767494       -0.00556198         0.0218522        -0.0036311         0.0771608         0.0297261         0.0121544       -0.00819802         0.0333396        -0.0418341          0.039128          0.027601        -0.0952865          0.013495        -0.0377497        -0.0645661        -0.0959899        -0.0465295        -0.0372072         0.0708133         -0.100282        -0.0553926         -0.012589        -0.0841078        -0.0032069          0.058172         -0.024389         0.0280237         -0.075168         -0.057368         0.0231012         0.0332719        -0.0613161      -0.000987765          0.102997         0.0322961         0.0214066        -0.0257556       -0.00268366          0.030279         0.0620656         0.0273766        -0.0755276         0.0774047         0.0147672        -0.0221129        -0.0448418        -0.0199902         0.0261077        -0.0156334        -0.0181555         0.0338118         0.0363084         0.0280081        -0.0326897         0.0262331         0.0353776       -0.00795653         -0.068366         0.0218643         0.0915236         0.0367676        -0.0384687        -0.0209423         0.0395667        -0.0120697         0.0119477       -0.00289929        -0.0148186         0.0590581         0.0581867        -0.0518137         -0.029369         0.0205136          -0.03932          -0.10268        0.00184258         0.0115973         0.0432197         -0.066814         0.0183129        -0.0593594        -0.0690597        -0.0563808         0.0121134         0.0508573        -0.0254825         0.0445586        -0.0230284          0.108074        0.00547043         -0.107891        -0.0471753        -0.0581655        -0.0291163        -0.0126579        0.00911263        -0.0657471         0.0390102        -0.0635385       -0.00902406         0.0366297        -0.0613488         0.0361803          0.103753         0.0868523         0.0351114        -0.0193429        -0.0166809        0.00111813         0.0053549         0.0532905         0.0204103        -0.0711613         0.0138895        -0.0112862          0.104522        -0.0177521         0.0420719         -0.053361        -0.0236072       -0.00554104         0.0414448         0.0325118        0.00180701         0.0367881        -0.0145551         0.0721901        -0.0753366         0.0293964         0.0228911          0.087594          0.096909        -0.0375843         -0.054504        -0.0328889        -0.0822633         0.0966549       0.000190639
         -0.101065          0.168191          0.448744          0.518305          0.554373          0.543754          0.580068          0.393502          0.448008          0.586908         0.0262759        -0.0589382         0.0342463        -0.0606026         0.0137526         0.0112855          0.103064        -0.0471594        -0.0210299         0.0278004        0.00758239         0.0292817        -0.0586289          -0.05733        -0.0442214         0.0100328         0.0137064          0.042026         0.0105134      -0.000183433           0.67734          0.251323          0.472153          0.378763          0.428393          0.464723          0.475657          0.490882          0.475278          0.746622         0.0664039         0.0499091        -0.0625425         0.0384695        -0.0499217        -0.0847264        0.00744983         0.0483263        -0.0107189        -0.0454465        -0.0488196        0.00652237        -0.0139295       -0.00616418         0.0240196           0.02967          0.021587        -0.0696387        -0.0765804        -0.0231612          0.609923          0.654389          0.654447          0.616115         -0.472377          -0.49641          -0.17667          0.782976          0.717755          0.692439        -0.0340043         -0.116741        0.00544634        -0.0491592         0.0370355         0.0758767         0.0467704         0.0567778         0.0326974        -0.0575291        -0.0307738        -0.0205135       -0.00830583         0.0113589        -0.0428086         0.0307664        -0.0307383         0.0651327        -0.0423402        -0.0745778           0.33172          0.489985          0.623527          0.691558         -0.236762          -0.45997         -0.336546          0.544796          0.623485          0.852068         0.0430842        0.00466297         -0.056219        0.00950109        -0.0383299        -0.0347538         -0.042925        -0.0228968         0.0425162          0.077147        0.00837813        -0.0223864         0.0534368         0.0127078        0.00933166        -0.0205783        -0.0125193         0.0810183         0.0356989       -0.00404232          0.833395          0.609138          0.564451          0.665781         -0.492769         -0.565423         -0.467746        -0.0398666          0.938785           1.00943         0.0706454        -0.0104181        -0.0665819        -0.0662477        -0.0120717         0.0783977         -0.011783        0.00270139         -0.065741        -0.0274526         0.0598217        -0.0280221         -0.011374        -0.0548884        -0.0563061          -0.10299        -0.0272411        0.00159171        -0.0230483         0.0113746          0.818223          0.865325          0.883199          0.313662         -0.740718         -0.794547         -0.689703         -0.709203         -0.187025          0.884455        -0.0389052         0.0165092          0.093852         0.0138945         0.0388278        -0.0462566         -0.022207         0.0211526         0.0422462          0.025941        0.00780276         0.0254591         0.0067584        -0.0192412          0.103759          0.089987           0.10308        -0.0381496      -2.48919e-05        -0.0283077          0.639059          0.687585          0.800838        -0.0698878         -0.748742         -0.598781         -0.721312         -0.686454          0.312715          0.806434        -0.0174589        -0.0312316         -0.031134         -0.045577        0.00355085         -0.123341        -0.0128227         -0.030606          0.126223         0.0484637        -0.0582778       8.59857e-06         0.0342925        -0.0197245        -0.0215889         0.0508826         -0.143941        -0.0306683         0.0432951        -0.0626565          0.638948          0.758452          0.730639          0.352522         -0.670259         -0.646117         -0.610941         -0.635494         -0.360749          0.673163          0.059623        -0.0409238         0.0350274         0.0135384         0.0204955         0.0311572        -0.0102097         0.0280854         0.0277424         0.0398372         0.0339852         -0.064365         0.0210886         -0.113722        -0.0506223        -0.0890594         0.0621185         0.0381289          0.051109         0.0806247         0.0193184         0.0348811          0.685943          0.841548         -0.413488          -0.73156         -0.820948         -0.934412        -0.0299652       -0.00379218         0.0468268          0.165608      -0.000446318        -0.0424195         0.0332791        -0.0946755        0.00659003          0.018814         0.0141805        -0.0256884         0.0226926        -0.0452222         0.0146126         0.0383149         0.0237474       -0.00199287         0.0128352         0.0639856        -0.0188084        -0.0159921         0.0032151        -0.0640468        -0.0150186         0.0239892         0.0891617         -0.193564         -0.124711         -0.191251        -0.0033039          0.110933          0.031918         -0.042333         0.0147319         0.0070203        0.00831425        0.00432613        -0.0314373        -0.0744726         0.0262544         0.0588604          0.102497         0.0502766         0.0355564        -0.0109672        -0.0637331        0.00411623        -0.0279071        -0.0314678         0.0626679         -0.029914        0.00533232         0.0686775        -0.0333663        -0.0568439        -0.0465016        -0.0317587          0.029749         0.0670556         0.0131049        -0.0779609         0.0561302          -0.08949         0.0662866         0.0235565         0.0224893         0.0335067         0.0647858         0.0151186        -0.0606273        -0.0161184         0.0612622        -0.0457607        -0.0257234        -0.0215656         0.0411339         0.0306502       -0.00295079        0.00456737         0.0899038        -0.0144403         0.0444945       -0.00789263         0.0397966        0.00741431        -0.0631808         0.0157311        0.00495807         0.0226365        -0.0463693        -0.0155734         0.0544063        -0.0286484         0.0500148        -0.0100609        -0.0678454        -0.0414134        -0.0353418        -0.0308558       0.000766036         0.0546251         0.0322798        0.00514788        0.00799862         -0.026156        -0.0263082        -0.0596757         0.0727246         0.0400199        -0.0133742         0.0381116        -0.0171245         0.0591479          0.133526         0.0648591          0.020369        -0.0817395         0.0742099         -0.011187       -0.00450714          0.061898        -0.0474046        -0.0124605        -0.0813551        -0.0385385         0.0184082         0.0328141        -0.0874965        -0.0116779        -0.0115781        -0.0303578         0.0256204        -0.0700384        -0.0247096         0.0618693        -0.0432448         0.0332764         0.0442725        -0.0311135         0.0170421         0.0561834       -0.00764314       -0.00871578         0.0533226       0.000923625         0.0628915        -0.0384309         0.0835971         0.0501717        -0.0147795       -0.00116676         0.0215333         0.0601122         0.0864363        0.00771359        -0.0472759        -0.0113143         0.0159696        -0.0604095       -0.00239015         0.0466466       -0.00237128        -0.0170345        -0.0533464       -0.00424152         0.0132192        0.00178749        -0.0392428        -0.0108934         0.0504321        -0.0275694         0.0230263         -0.105368         0.0567878          0.042731        -0.0470861         0.0496349        0.00496409        -0.0552919        -0.0189234        -0.0204709         0.0140008         0.0799551         0.0153672        -0.0425006         0.0787953        -0.0246219          0.065266         0.0775938        -0.0130082        -0.0233796        -0.0314808        0.00155474        -0.0504939        -0.0989825         0.0224191          0.047963         0.0558974         0.0116034         0.0524957         0.0293427        -0.0684874        -0.0986417         0.0340456        -0.0329114       -0.00433506        0.00147337        -0.0507729         -0.031549         0.0533665       -0.00846375          0.023251       -0.00570143         0.0421467         0.0242963         0.0783028         0.0131644        -0.0703825        -0.0038988        0.00724592        -0.0244815        -0.0537602        -0.0611917         0.0082091        -0.0128671        -0.0108064         -0.034038         -0.090715         0.0294749         0.0273064        -0.0958257          -0.02591        -0.0235623         -0.108522          0.032622        -0.0125171        -0.0698981          0.039367        -0.0546981         -0.068273         0.0349472        -0.0604405       -0.00600627        -0.0148374        -0.0682003        -0.0740672        -0.0412037         0.0643067         0.0689878        -0.0578845         -0.106758        -0.0626892          0.036917        -0.0156908        -0.0478462         0.0338207        -0.0162589          0.127326         0.0146567        -0.0471682        -0.0501416         0.0338044        0.00248383       -0.00350291        -0.0324111         0.0198311        -0.0143107        -0.0290714         0.0697422         0.0461162         0.0402373         0.0298588         -0.053612        0.00173878         0.0275341        -0.0339455        0.00490317       -0.00891973         0.0461991        -0.0686745        -0.0680175        -0.0609007        -0.0490395         0.0331956         0.0163444       -0.00148846      -0.000808472         0.0561875        -0.0364043           0.01229        0.00194076        -0.0604924        -0.0581562         0.0190653        -0.0124575         -0.022203        -0.0483557          0.041683         0.0595628         0.0625338         0.0258665         0.0351765         0.0488632        -0.0509095          0.023708       0.000706386         0.0243517         0.0391717         0.0895544         0.0331418        0.00816598        0.00975554         0.0347807        0.00874971        -0.0206398        -0.0244628        -0.0278567         0.0151971        -0.0115481         0.0412701        -0.0149502         0.0183049         0.0206576         0.0154891        0.00797057         0.0630568        0.00314849       0.000888284         0.0263847         0.0436645         -0.037145         -0.016267       -0.00552333         0.0053449         -0.110524        -0.0185493         0.0120325         -0.010292         0.0508263        0.00567495         0.0164234         0.0328485        -0.0316793         0.0120373         0.0291169       -0.00279566          0.023474        -0.0711951          0.023564        -0.0339073        -0.0298442       -0.00774406         0.0374098         0.0278564      -0.000201927         -0.013135        -0.0547408        0.00577172         0.0352172         0.0208417         -0.110719         0.0359333        -0.0747371        -0.0347509         0.0902331         0.0299775       -0.00935498         0.0498473       -0.00956433        -0.0192972         0.0371897         0.0133683         0.0208986         0.0609667         -0.111316        0.00947925         0.0502528        -0.0378617         0.0921806         0.0402993        -0.0853815        -0.0781158        -0.0119011          0.033757        -0.0104056        -0.0368101         0.0499351         0.0284741         0.0886056         0.0883374         -0.013688        -0.0718983         0.0141238        -0.0904442        0.00166369         0.0376795         0.0837231         0.0968334         0.0504728       -0.00411875          0.110432         0.0397219        -0.0141888         0.0019863         -0.106582        -0.0177764        0.00962464        -0.0139443       -0.00287706         0.0337069         -0.023377        -0.0708535         0.0248908       -0.00504641          0.081474        -0.0158084        -0.0393177         0.0441311        -0.0149302        0.00408288         0.0304889       -0.00627862        -0.0324464        0.00745847        0.00172938         0.0468923        -0.0929676         0.0491028        0.00714054        -0.0841936         -0.034139        0.00150109        -0.0522592        -0.0170099         0.0787527        -0.0127069          -0.16805       -0.00307175        -0.0049271        -0.0142334        0.00235187         0.0909017         0.0103916       -0.00349849         0.0271732        -0.0740964         0.0304971        -0.0180702       -0.00451725         0.0272508         0.0234323        -0.0108992         0.0305445        -0.0304832        -0.0518668        -0.0778042        -0.0176232       -0.00837369         0.0343766         0.0190531         0.0791154        0.00751242         0.0586878        0.00166883         0.0184047         0.0295946        -0.0332043        -0.0780801      -0.000159747       -0.00602785       -0.00781044        0.00967981       -0.00946551       -0.00709402       -0.00901452        -0.0480261        -0.0380515        -0.0528852          0.037209         0.0482491        -0.0542512       -0.00310344        -0.0230734        -0.0220699        -0.0323246        -0.0986514         -0.044393         0.0188706        0.00234997          0.040632        0.00631144         0.0775085         0.0835235        -0.0190605        -0.0582859         0.0228999        0.00600755        -0.0382864        -0.0347234        -0.0124465        -0.0195862      -0.000553298         -0.017951         0.0208878         0.0329915         0.0432325         -0.053159         0.0488358         0.0445144        -0.0519815         0.0621438         0.0413593        -0.0803793        -0.0144382        -0.0240459      -0.000767853         0.0571214          -0.06516       -0.00430076       -0.00912844         0.0385932         0.0922167        0.00148596         0.0349314         -0.020106         0.0290175         0.0186058          0.031417        -0.0620492         0.0203974         0.0336229         0.0169985         0.0356978       -0.00536223          0.116678         0.0159534        -0.0975999        -0.0442807         0.0208418       -0.00810898        -0.0255362         -0.031514        0.00276861         -0.014049        -0.0604492         0.0463692        -0.0131202         0.0175165        0.00752035         0.0152843        -0.0559742         0.0272983         0.0379425          0.072282          0.097893         0.0241962        0.00329402        -0.0164461          -0.01191        -0.0461788         0.0524946      -6.01104e-05         0.0337489        -0.0471799         0.0333995         0.0414237         0.0976377        -0.0438323        -0.0337061         -0.107284        -0.0748752          0.105179         0.0162873         0.0259347         -0.089364         0.0535251         0.0505804        -0.0436097         0.0169962        -0.0902306        0.00217407        -0.0144579        -0.0279313         0.0475144        -0.0384636        -0.0289021        -0.0299583        -0.0207554         0.0253335         -0.105607         0.0557226          0.012078        0.00389969          0.020929         0.0189406         0.0599259         0.0335209        -0.0507363        -0.0828801         0.0185372        -0.0266656         0.0275904          -0.10587        0.00544598        -0.0518948        0.00118468         0.0716934         0.0355817         0.0486276        -0.0467735         0.0580374       -0.00806585         0.0282717        -0.0427844         0.0572154        -0.0387851         0.0810088         0.0778357        -0.0648322        -0.0228562        -0.0414609        -0.0632619         0.0147185         -0.102521          0.049263        -0.0157229         0.0394655        -0.0100423         0.0458577         0.0859241         -0.025417        -0.0111259        -0.0700736        -0.0951667       -0.00804757         0.0200475        -0.0291608          0.101745         -0.075538         0.0321376         0.0104704         0.0799419        0.00721421         -0.017754         0.0452859        -0.0200278           -0.0321        0.00713908       -0.00824072      -9.46677e-05         0.0274435
