weight 0:
         -0.962918         -0.809089         -0.974376          -1.26524         0.0787491         -0.889035         -0.641383         -0.407032        -0.0395843          -1.05595         -0.759835         -0.192296           0.13849          -1.21101          -1.22289          -1.10972         -0.109759         -0.121501          0.180658         -0.274737         -0.667713          -1.09305         0.0117175       -0.00817802          -1.00861         -0.607057        -0.0588999         -0.172816         -0.893101         -0.452256        -0.0144858         -0.229781          -0.91161         -0.825407          0.246579         -0.901692          -1.15513         -0.512175          -1.00036          -1.21642          -0.61309         -0.625656          -1.11997         -0.337395          -0.87056         -0.868809          -1.19303         -0.327205          -0.37301         -0.132605         0.0178842          0.365453         -0.795608         -0.842842         -0.554307         -0.609983          -1.22381          -1.03514          0.135316         -0.548718          0.546965         -0.477053        -0.0498961         -0.425327          0.338654          0.312479         -0.659558          -1.14254          -1.24231         -0.860951          0.179691         -0.409095          0.422295          -0.80794         -0.973848         -0.770105         -0.521995          -1.19435          -0.27015          0.249656          0.108136           0.51682          0.355837         -0.616962          -1.39124         -0.998018         -0.850815           -1.2232          0.734131         -0.272076         -0.766217        -0.0556029         -0.128976         -0.442533          -1.21285         -0.607644         -0.109417        0.00724237        -0.0385369         -0.909333          0.108684         -0.202776         -0.751975         -0.984797         -0.163422         -0.957762         -0.868157         0.0708176         -0.804264          -1.25765         -0.849743          0.181521         -0.619961         -0.370848        -0.0586256          -1.18583         -0.850645          0.310704         -0.443238          -1.01976       -0.00638298         -0.704229        -0.0967522          -1.28445         0.0130496          0.344149          -1.12652         -0.696648         -0.889434          -1.14752         0.0718468          0.408651          -0.18783         -0.855932         -0.941055          -1.35302          -1.03777          -1.00529         0.0208945           -1.0497         -0.926447         -0.478767         -0.172146        -0.0194267         -0.680028          0.182179         -0.349243          0.512316           0.17602         -0.144844          0.730063        -0.0847576          -1.24602         -0.308921         -0.089764         -0.217402         -0.530783         -0.981539          -1.06933         -0.593894        -0.0493916         -0.195412         -0.147056         -0.137291        -0.0899925          -1.19334         -0.694181          -1.31383          -1.15943          -0.63331         -0.746935         0.0675449          0.669736         -0.401498         -0.863439         -0.734401         -0.696263         -0.777889          0.313046           -1.2106         -0.726407          0.287039          -1.20923          0.149571          -1.02387         -0.949432         -0.924882         0.0994995         -0.741451          -1.16984         -0.903745         -0.258971         -0.617888         0.0715725          0.264098          0.245196         -0.103993          0.217553          -1.11848          -1.30354        -0.0409982          -1.43255         -0.462273         -0.907917         -0.707453         -0.584329          0.225739        0.00709553          -1.10016          0.138104         -0.547381            -1.084         -0.213528          0.390683         -0.491252         -0.295639         0.0563058          -1.20812         -0.277247          -1.36059           -1.1273         0.0794672          -1.32399         -0.458294          0.527595         -0.745418           0.13903         -0.591789         -0.287148         -0.057934         0.0203077         -0.198441          0.337154           0.19655           0.11098          -1.19037          -0.14576         -0.744088         -0.901459         -0.582411         -0.885453        -0.0899933        -0.0647674          0.327204            0.8324         -0.103102         -0.535228          -0.63566         -0.278011          -1.28114         -0.317111        -0.0478018        -0.0769271         -0.562907         -0.291311         -0.866001          0.169284         0.0921433         -0.896402        -0.0469566          0.351453         -0.261448          -1.03881         -0.119344         -0.796408          -1.10375         -0.725827          -0.23585          -1.03281          0.115598          -1.29108          -1.12884          -1.03552         -0.844188          -1.16779         -0.491462         -0.889498         -0.651745         -0.504652            -0.189          -0.32061         -0.890753         -0.217741         -0.605922         -0.487284         -0.616202         -0.674527          0.241395          -1.08448          0.354425         -0.220722           0.10605
          0.682289          -0.35072           0.87825          0.756095          0.381695           0.57525         -0.281821           0.86405          0.497538          0.981983          0.645836        -0.0388429           0.87107         0.0606214          0.412808          0.181899        -0.0466515         -0.487704         -0.513805          0.480726             1.271          0.626826          0.138371           1.28421          0.399484         0.0246877          0.178457          0.671352          0.861549          0.541016          0.305007          0.231548         -0.360676          0.385049         -0.297466          0.312228           1.05772          0.716654          0.624419          0.679907          0.333563         -0.363305          0.472554          0.316163           0.27943         -0.887872         -0.172825           0.88873          0.634602          0.903142         -0.383134          0.586635         -0.848231           0.91403          0.704876         -0.609834         -0.344868          0.519854          0.330536          0.583532         -0.392476          0.749833         -0.140519          0.367407           0.57391          0.386853          0.875152          0.135332          0.610886          0.400762          0.482939          0.886462         -0.608217          0.478966          0.663621          0.572397          0.665705          0.458815           1.17941         0.0806111         -0.653761         -0.335612          0.400426           1.00596          0.366956          0.721964          0.360992         -0.349276          0.257332          0.605004          0.325833         0.0132243        -0.0908412         -0.343199         -0.221874         -0.729537        -0.0253611          0.215404         -0.921915           1.04253         -0.208696          0.950921          0.656638          0.424161          0.640379          0.693799          0.439317           0.36439          0.492804           1.12279          -0.36737          0.120322          0.392343         -0.371258           1.01445          0.682089         -0.107511         -0.838141          0.367058          0.768865          0.192213          0.532708          0.616881           0.69782         -0.627456         -0.575722         -0.638617          0.811611          0.694992          0.814424          0.632738           0.52872          0.468725          0.535823          0.771686          0.743059          0.708318           1.33724           1.07763         -0.791669          0.979895         -0.483125           1.13153         -0.240352         -0.277658         0.0898903           1.11307          0.255639         -0.293153          0.521187         -0.618744         -0.236094          0.748082          0.598771         -0.330882          0.271129          0.564133          0.866097          0.305386         0.0547034          0.171177         -0.813744          0.749901           0.37525          0.224779         -0.406352          0.457405           1.40919          0.259462          0.865954           1.03069         -0.353359         -0.391305         -0.212146           1.26706          0.806414          -0.34687        -0.0780253          0.848773         -0.196058          0.318963           0.62393         0.0165111          0.144759          0.398807          0.798837          0.540087           1.52546          0.469743          0.228957          0.699847         -0.146452          0.285545          0.334706          0.782721          0.651892        -0.0862622        -0.0229621           0.13943          0.640142          0.760339         0.0715308         -0.518115           1.11285          0.535738          0.160311          0.351633          0.766309           1.03489         -0.606823            0.0665          0.100255           0.66838          -0.45517           0.56391        -0.0209395         -0.390961         -0.156325          0.638131             0.139         -0.331428          0.744486            1.1148          0.123181          0.110938         -0.359505          0.249534          0.821672          0.424971         -0.406852         -0.160196          0.380087        -0.0529427         -0.322723         -0.578154          -1.09616         -0.342806         -0.593165        -0.0504267        -0.0232172          0.527962          0.578415          0.647028         0.0935149          0.419004         -0.829007         -0.597641          0.922672          0.880479         -0.392957          -0.20465         0.0377099          0.400426           1.08794          0.841312         0.0300761          0.684402         -0.476093          0.368227         -0.469108          0.398577          0.447734         -0.269063          0.680492          0.409225         -0.102589          0.546849         -0.341645          0.252702          0.714389         -0.316092           0.34346           0.77076         0.0713503       -0.00886485         -0.732698        -0.0570199          0.624411          0.238256         -0.312214           0.43817         -0.337532           1.33711         -0.329928          0.472258         -0.408518        -0.0181358          0.794381          0.885779         -0.206781        -0.0382936          0.804306
         -0.673279          0.285562         -0.308945          0.966124       -0.00830536          0.702992         -0.412495          0.258767          0.411099          0.718549         -0.539749         -0.274643          0.594122          0.066916         -0.344598          0.329006          0.816242          0.838959           0.70188          0.815237         -0.597343           0.83479        -0.0583342         -0.603381         -0.127926         0.0354414         -0.520483          0.635233         -0.059297          0.420378          0.988886         -0.172672         0.0274964         -0.482357           1.03786         -0.874661         -0.345482         -0.131444          0.165193          0.664494          0.784083           0.67118         0.0302936          0.787668          0.116796        -0.0717279         -0.577649          0.510457           -0.1869          0.365769          0.274934          0.157599          0.162143          0.940568        -0.0473593          0.206848          0.632512         -0.557095         -0.528011          -1.02793             0.738        -0.0319066          0.533879          -1.32282         -0.485565           1.03346          0.241708          0.564754          0.471887         -0.177419          0.851911          0.883094          0.266957          0.507481         -0.206674         -0.669359          0.623396         -0.748727          0.121664           -1.0176           1.11638          0.124203            1.1558         -0.248883          -1.07748          0.915281         -0.494154         -0.827425          0.778764         0.0740782          0.375474         -0.988346           0.51689          0.315351         0.0419667          0.428103          -1.02635         -0.523781          0.987703         -0.763603          0.610092          -0.24949         -0.587247        -0.0532566          -0.10876         -0.297106          0.463704          0.235373          -1.03926         -0.625639          0.663832          0.684088           0.22421          0.370966         -0.577617          -0.66731        -0.0376586            1.0629         -0.207167         -0.956849          -1.01704           0.30693          0.745805         -0.756788           0.79038           1.04775          0.743677          0.559162          0.387257          0.784193           0.11383          0.854662         -0.264881         0.0230926          0.768798         -0.902432         -0.409078         -0.502472          -1.00315         -0.248453         -0.217735           1.15373         -0.661087          0.199852           1.00142           1.34868         -0.669707          0.154618          0.873822           1.09905          0.964051          -1.45039         -0.818212         -0.305758         -0.906329         -0.335159         -0.638331          0.479181         0.0542366           1.03097           0.91775          0.952107          0.791338         -0.513185         -0.226885          -1.05072         -0.438494          -0.50609         -0.459601           0.60648         -0.534523          0.150403          0.890415          -1.35733         -0.177019         -0.273307          0.861847       -0.00422366         -0.427628         -0.635163        -0.0196369         -0.219752         0.0992836          0.598611           1.11422        -0.0124825         0.0169915          0.389176          -1.01847         -0.517465           0.52662         -0.187057          -1.18384          0.908985           0.63465         -0.449525          -1.18446         -0.143487          0.434205         -0.314294           1.10595          0.629096            0.2437         -0.369828          0.225445          -1.53419          0.631378          0.533955           0.72198          0.749018          0.271813         -0.920798         -0.710683           1.31265         -0.151167          0.570222          0.886604          0.389442         -0.162531        -0.0808745          0.208923           1.12947         -0.553522          0.782565           0.77486          0.990974          0.869856          0.597679          -0.16793         0.0534627         -0.249923         -0.566943          0.120094         -0.160771          -0.36932        -0.0884193          0.864689          0.360382           0.96234         -0.118669          0.726302         -0.368617           0.31588          0.190625           1.10345          0.772328          0.858717          0.560589          0.695586           1.06974          0.112336          0.576522         -0.481222           1.20067          0.223888          0.698456           1.22194           1.05095           1.15315          0.403729           1.23955         -0.923792          0.314244           0.50097          0.030832          0.574423        -0.0035567        -0.0453857          0.343641          0.438741           0.22145          0.660939          -0.22756          0.342102         0.0578224           1.09264           0.89654          0.194579          -1.03241         -0.149305          0.961953          -0.53732         -0.210268         -0.172241         -0.673435         -0.210643          0.168654           1.10804          0.925152          0.613589         -0.349651         -0.471176
          0.330408         -0.723439          0.128424          -1.45796         -0.667604          -0.68954         0.0220786          -1.35847          0.205196         -0.616502           1.11108          -0.33179        -0.0688039         -0.545657         -0.881491          0.131119         -0.565216          0.614559          0.695338         -0.445655          0.434781          0.280381          0.689463           0.11121          0.780427          -1.04131         0.0575793         -0.246193         -0.662174         0.0521127          0.709397            0.3867           0.31462         0.0395707          -1.42413          0.343886          0.643407         -0.811935          -1.38444          -1.41094         -0.560328          0.524468           0.85755          -1.69004          0.293396        0.00973341           -0.7859          -0.42273         -0.136102      -0.000640028        -0.0204579          -1.08098          0.183987         -0.565545          0.211206         0.0794772          0.260645          0.339959         -0.478415          0.571162         -0.492914         -0.656089        -0.0776207          0.263232          -1.14241          0.556859          -1.12956         -0.907444         -0.125214          0.362319          0.559844            0.4384            1.0095          -1.33042         -0.277132          0.533793          0.320771          0.366976           1.18539          0.167122         -0.742929          -0.16816         -0.105247        0.00343945         -0.300032         -0.530355          0.330554         -0.503284           0.11401          -1.30959          0.205947        -0.0512901         0.0863888         -0.344814         -0.861865         -0.804708         -0.490536           1.37744          0.630751          0.637094          0.950307          0.545043          -0.34351         -0.598044         -0.112911         -0.412786          -1.07404          0.396452         -0.326768          0.525164         -0.706925          0.461035          0.268768          0.171606           0.91989           0.36438         -0.635522           0.46266          0.270325         -0.636903          0.217062         -0.232429            1.0079          0.122325         -0.567326          0.919317          0.649215          -0.15883          0.531887          0.475117         0.0835496         -0.386448         -0.330317        -0.0921394         -0.536714         -0.343953          -0.24765          0.307665          0.824813         -0.118167          0.588254          0.906353           0.99974         -0.526329          0.110615          0.471649            1.1056          0.249729         -0.126627         -0.995262         -0.148385           0.50967         -0.583027        -0.0103138          0.997566          0.491051           1.04397         -0.585893         -0.156241         -0.605748         0.0386255          -1.03752          -1.99294          0.289889          0.378064          0.297099          0.121867         -0.160491          0.510722         -0.464234          0.511945         0.0158994           -1.9018          0.449741          0.668429          -1.08099          -0.64881       0.000957811          -1.08396         -0.938285        0.00038327         -0.240198          0.516179          0.594239          -1.58725          0.695223          0.117926          0.277946          0.805837          0.715112         0.0666423         -0.995188          0.478144          -1.36062           1.06282         -0.390729          0.465002          0.933868           1.03676           0.11622           -1.1949         -0.638006          0.864458           -1.3991         -0.313278          0.530766          0.575644          0.808507          0.414361          0.925085         0.0471706          0.124251           0.48016          0.221377           0.24114          0.621051         -0.523799          0.841035          0.202211         -0.100389          0.666306         -0.961492        -0.0687136         -0.673311          0.126973         -0.726467         -0.392225         -0.107154          0.178753           0.88483         -0.290406         -0.609083         -0.829418         -0.386594           1.41349         -0.866877         -0.248043         -0.315997         -0.711679          -1.06073         -0.566682          0.445999        -0.0446606         -0.617388          -0.11425           -1.2397         -0.165662          0.200913          -0.84624          0.500943         -0.169054       0.000970087          0.189122         -0.115273          0.981767           1.23066         -0.451865          0.325058           -1.2054         0.0915928        -0.0293425         -0.336964         -0.899763        -0.0623615          0.400017         -0.151955          0.266544          0.444743            -1.184           1.34527        -0.0332467           1.21898          0.311705          -0.48335        -0.0564139         -0.140441          -1.21443          0.201391          0.436299          0.367537         -0.636015         0.0515051          0.525173          -1.30555          0.243943         -0.951747         -0.516389          0.465162        -0.0547521           0.47389          -0.79902        -0.0204791
           1.35847         -0.340925         0.0303659           1.20963          0.274385         -0.379497          0.720627          0.141935           1.50975          0.155889         -0.453912         -0.228236          0.732938           2.12333          0.538915           0.70573         -0.552392          -1.05001          -1.61934           -1.0718          -1.23945          -1.61798         -0.490318          -0.20268          0.905554         -0.172327         -0.868302          -0.63088          -1.18006          0.316865         -0.768437          0.281808           1.59251          -1.07345           -1.3401          0.137116          -1.08497            1.1363         -0.696993           1.39069         -0.225057          -1.48027          0.239308           1.71209           1.65834         -0.176395          0.719853       -0.00361884        0.00200925          0.210087         -0.436392         -0.807732          0.686513         -0.845166         -0.212778          0.129576         -0.974844           1.40905          0.380562           1.26831           -1.1043           1.35403          -1.13322         -0.304595          -1.02744          -1.41124          0.770588         -0.821237           1.26965         -0.145617          -1.31499          -1.19967         -0.691698          -0.13694           0.61222         -0.498895         -0.671136          0.615414          -1.24255         -0.153225         -0.575831         -0.398275         -0.588517           1.07363          0.467874          -0.69107          0.219437          0.891398         -0.395132         -0.335167          -1.00725           1.15317         -0.936223          -1.36883           2.18962           1.19522          0.470879          0.382282          -1.13505         -0.651969      -0.000611723        -0.0398692         -0.168664         -0.139529          -1.20688          -1.27328          0.239527          0.024886           2.02902            0.9216         -0.175684         -0.084945          0.382887          0.989666         -0.454692          0.241955          0.952044          -1.25517          0.176117           1.52501           1.56865           1.37912         -0.816896           1.86665          -0.32326           0.93003         -0.545772           -1.0787         -0.311406         -0.520843         -0.385173           -1.1372          0.279335          0.831578          -1.24865          0.676311          0.391302          -1.17867          -0.13743           1.52517          -1.00556          0.105406         -0.927776           1.49718          -1.27184         -0.072775          0.870701         -0.791905          -1.13995          -1.45694          -1.05532          0.466994           1.71503          0.361838         -0.566519          0.708189         -0.713931         -0.627135           1.91527         -0.116629          -1.41799         -0.279189         -0.421122          0.719634         -0.376566          0.417324          0.903166        -0.0883104         -0.596415         0.0186541          0.418559         -0.609615         -0.347438          0.221683         -0.865806          -1.21781         -0.348898           1.79919          0.262529           1.29761           1.06281           0.75653          0.341391           1.33134           1.32869         -0.288276          0.436806          0.318747         -0.503375           1.09193          0.735607         -0.110863            1.0078         -0.311686          0.254427          -1.19541          0.416049         -0.370717          0.401052          0.760685         -0.232459         -0.487495           0.21679          -1.03195           1.51109         0.0710982           -1.2816         -0.678354          -1.33825         -0.610971         -0.175807          0.479607         0.0909233          -1.62861        -0.0381005         -0.653623           -0.9547         -0.948505           0.72907          -1.38656         0.0621659         -0.132975         -0.777651          -1.60402          -1.72413        -0.0660365          0.428283           0.46598           1.70559          -1.44489         -0.294208          0.335822          0.984868        -0.0434356         -0.669252           1.35854          0.752212          -1.13075         -0.193821          0.474331          -1.13258         -0.220776         -0.928123          0.568682          -1.93702          -1.34858         -0.816944          -1.07884         -0.845164          -1.25521         -0.787337         -0.102384           1.00418          -1.29206         0.0564302         -0.745902         -0.140167          -1.56235         -0.134729           1.49216         -0.908672           1.79996          0.532233          -1.23237          -1.34105         -0.449079           1.37897          0.064569           1.16142         -0.928407          0.771799         -0.828882          0.237734          0.976916           1.70872         -0.776556         -0.987607        -0.0468495          0.191608           1.91714         -0.966159          -0.74752         -0.645717         -0.637584        -0.0288496           1.64049            1.9099          -1.45904         -0.591808         -0.479347         -0.622993          -1.01545
           1.21622         -0.889028         -0.210393          0.372113           1.16443           0.13999           1.01261         -0.706097          0.993132           -0.7968          0.628676          0.339643         -0.147089          0.846713          0.159481          0.220875         -0.696653         -0.330424         0.0665226          -1.58235          0.518363         0.0291427           1.01458         -0.608682           0.72551          0.342236       -0.00306663         -0.569874          0.258272          0.523862        -0.0680188           1.10469           1.36762          0.625514       -0.00132051          0.269028          0.418713          0.940329          0.293365          0.219307         -0.202204          -1.42936         -0.174907        -0.0230232          0.869169          0.792661             1.058         -0.502488           1.29272           1.21482          0.561985         -0.564645          0.561856          0.575522          0.504488        -0.0369554        -0.0736333           1.36496          0.693619           1.02071          -1.55243          0.894002           -0.1953          0.849348         0.0705318         -0.852832          0.191452          -0.23313          0.840226          0.484689           0.42339          -0.14931         -0.447953          0.248074          0.900333          0.176117          -1.70736             0.994         -0.252502           0.39639        -0.0294398          -1.53075         -0.854011          0.185226          0.802808          -1.26573           1.15281         0.0209838         -0.274922          -1.59004          0.038212          0.921721          0.204867          0.363729          0.354687          0.383969          0.077532          0.758068          0.299505          0.158427          0.555137           0.27416          0.433062       -0.00824868          0.124136          -1.41423         -0.180163          -0.47453           1.06616          0.626549         -0.549406          -0.23516           1.02426          0.772438        -0.0208084          0.509211          0.557263          0.204938            1.0992           1.17007            1.0465          0.713197          0.532403          0.225088          0.276061          0.351921         -0.506889        -0.0247944          0.557627          0.359571         -0.231084        -0.0451274           1.20783        -0.0363077         0.0151199          0.242694       -0.00481086          -0.15377         -0.768661          0.165263         -0.195179         -0.873844          0.328397           1.11203          -1.39447         -0.418116          0.396537          0.684327          -0.08793          -1.03025          0.220382           1.35887           1.02311           1.16459          0.623487           1.15209         -0.644299         -0.329688            0.3773         0.0980409         -0.245578           -1.1205         -0.893961           1.24464          0.980691          0.570564           1.09135          0.770133          0.727568          0.197517        -0.0813668          0.182163          -1.62455          0.743146         0.0399316          0.374157         -0.568678          0.565728          -1.32358         -0.278901         -0.141412          0.587254          0.796579          0.778086          -1.38182          0.473214        -0.0492191          0.519798          0.701708          0.980635         -0.529019          0.518054           1.20093         -0.228323         -0.861838          0.596094           1.02316         -0.255415          0.583513          0.469407          -1.35295          0.372392           1.05835          -0.62489          0.363227          0.820442          0.392999          0.475871          0.153485         -0.650245         -0.320698           1.07739           1.16583           0.14946           1.19172          0.431813         -0.987039           0.25433           1.23731          0.535744          0.735826         -0.361901           0.26569          0.388624          0.625299         -0.134379          -0.22822          -1.38352           1.23493          0.508716         -0.191164         -0.302918          0.908819         -0.294255          0.580085          0.382748         -0.864955          -1.55127        -0.0791634          -1.13597         -0.343959            1.2434          0.352513         0.0225772         0.0794315          0.234008          0.355188         0.0307555         -0.444935          0.269325           0.82122           1.18306          0.378186          0.118184          0.883667          0.614533         -0.182691          -1.06745          -1.40718           0.20689         0.0341396           0.44774          0.616907          0.155899          0.353744          0.116417          0.936124           0.96425           0.22209           0.19173         -0.356998          0.358592           1.27607           0.20117          0.936272         0.0173184          -0.16902          0.752151           1.09567        0.00413205         -0.843693          0.679315         0.0092825         -0.791271          0.494411          0.192709          0.812986        -0.0480277         -0.136667         0.0914492         -0.569609           -1.1366
          0.382554         -0.367469          0.808402         -0.559325         -0.176236          0.402396          0.651736         -0.956045         -0.626147         -0.578446          0.716464          0.579469          0.797343          0.295384          0.459065         -0.116513         -0.934573           1.04161        -0.0519673          0.429977           0.52286          -0.87725          0.308699         -0.883623           0.82832           -1.2543           0.05872         -0.439133         -0.549452          0.333219         -0.475795         -0.470342         -0.403336         -0.776195         -0.691835          0.554719          0.573773         -0.757529           0.59147         -0.938756          0.536208        -0.0426342        -0.0980853         -0.497216          0.386436          0.374817         -0.389592         -0.433839         -0.615159          -0.24545          0.948689          -0.84379         -0.493523          0.563451          -0.29177          0.244499         -0.601872          0.134844          0.326984          0.499372         -0.489218         0.0905243          -1.30405         -0.729474         -0.861158         -0.161888         -0.478448          -0.40449           1.29484         0.0325543          0.565917          0.307942         -0.209909          -1.38627         -0.250314          0.378789         -0.612335          0.668795          0.628033         -0.707769         -0.668773          -1.11484          -1.03546         -0.772364          0.681154         -0.176237          0.432738          -1.11356          0.297234         -0.776998         -0.124171          -0.62444         -0.230599          0.453138          0.104455          -0.42444          0.523434           1.37007          0.577342          0.640386           1.07835          -0.66017         -0.366717          0.549447         0.0199105         -0.386399         -0.537006         -0.293581           0.53756         -0.416425          0.227862          0.594656         -0.772702         -0.613114         -0.293391         -0.813244         -0.653123           1.14691          0.208179          0.616085         -0.398781         -0.647372          0.873033         -0.410251          0.961359           1.03354         -0.373404          0.303809           0.95822           1.04005          0.308506         -0.760562          0.681999         -0.670068          0.529738         -0.442011          0.534979        -0.0306153          0.264774        -0.0734952         -0.315869          0.118965         -0.906595          0.194938          -0.59032         0.0635362         -0.366793         -0.550411         -0.464156         -0.688216         -0.695268          0.882532         -0.895478          -1.25071           1.04581         -0.895094           1.05954          0.519934         -0.761594          -0.19808         0.0328429         -0.354322          -1.41449            0.2735          0.174904          0.563417          0.790921         -0.957583          0.212695        -0.0163162         -0.768337         -0.373511         -0.858841           0.87387         -0.872827         -0.181682         -0.500863         -0.473314          -0.13345        -0.0648423         0.0646283         -0.433733          0.235847          0.084542         -0.583179          0.618862          0.738645         -0.936804           1.04885         -0.586127           1.09857          -1.36195         -0.881721          0.761901           0.93192          -1.15412          -0.54721          0.541851          0.727991          0.356925          -1.04623         -0.771688           1.04509          -1.12885          0.517323          0.848365         -0.185716         -0.328786         -0.147107          0.107362          -1.64686          0.625679           0.26067         -0.592027           0.50785         -0.618751        -0.0459943          0.333476         -0.946457         -0.192467        -0.0424557         -0.743646          0.119816          0.117566          -1.26613          0.324763          -1.66957         -0.705289          0.126631          0.852578          -1.54972         -0.902246          -1.30639          -1.34809          0.930859         -0.853869         -0.980132         -0.987521         -0.441741         -0.915811          -0.35942         0.0726902         -0.834883         -0.497091         -0.770292           1.47176         -0.339092          -1.66392          -1.18257          -0.59202           -1.4594         -0.667768         -0.499364           -1.0983          0.972458           1.12428          0.597198         -0.457212           0.49441          0.726253           1.01015           0.26913         0.0873151          0.266004          0.528122         -0.457271          0.570697           1.10104         -0.991225            1.0926         -0.698405          0.803199         -0.867369       -0.00988815          0.539896         -0.762269         -0.164915          0.217585         -0.810057          0.788378           0.18645          0.372977         -0.662404          -1.25787         -0.331164          -1.05985         -0.686925          0.541858          0.621033         -0.404574         -0.807472          -0.33368
          -0.44816          -1.15018           0.44103          0.734344          0.980873         -0.925044          0.785318          0.274386         -0.245242         -0.856616          0.118036         0.0351803         -0.602817        -0.0364073           1.19044        -0.0147483         -0.269957         -0.850243         -0.228024          -1.32481         -0.208914           -1.0048         -0.289397         -0.620891        -0.0423793          0.805009         -0.379922        -0.0707739         -0.308126         -0.914436          -1.14912           1.04365          -0.53151          0.349826         -0.840624          0.859628         0.0219007        -0.0307122          -1.21296         -0.260551          -1.78023         -0.401407         -0.833834          0.163322          0.352141          0.309877          0.946999          -1.03672          0.547235         -0.609626         -0.939104          -1.30756           1.06148         -0.782151          -1.30147           1.22369          0.196861         -0.666204          0.569547        -0.0932039          0.448433         -0.160238         0.0777616          0.999426          0.700246         -0.259707          0.598418          0.277115         -0.284435         -0.988281          -1.14219         -0.518598         -0.728081          -1.12567           0.92129          0.103162         -0.633388           1.01727         -0.739019          0.213651         -0.297753          -1.00095         -0.913375         0.0349518         0.0015802          -1.44437         -0.544209          0.404202         -0.561399          0.476805         -0.630997         -0.218135         -0.113461           -0.8927          0.143964          0.255031          0.506158         -0.680994         -0.720395         -0.544685         -0.333158          -1.19391          -1.00067           -1.0016          -1.52296          0.138703         -0.292799          0.435675         -0.339994         -0.586001         -0.849253         -0.682484          0.704043         -0.507591         -0.938103         -0.479978          0.112742         -0.861269          0.265207          0.822285          0.209179         -0.151823          -1.59302       -0.00312351          -1.31564         -0.347596          -1.60228          0.559347          -1.65995         -0.294431         -0.810118         -0.663835         -0.565148          0.836281          -1.31112           1.31595         -0.644769         -0.286187          0.235449         -0.365714          -1.02208           0.30996         -0.236086          0.189783         -0.494105           -1.1337          -0.50605         -0.321939          -1.00587          -1.05796         -0.797484         -0.612313           1.00805          0.910883          0.401024        -0.0631955          -1.00395         -0.441532          0.265376          -1.60769          -1.42464          -1.17446          0.299647           0.52749         -0.572192          0.267112         -0.488335          0.475134        -0.0188935          -0.40789          -1.13492          0.539378         -0.439487         -0.190354         -0.978446         0.0414412         -0.557718          0.264656         -0.321798          0.179395          0.381756          0.210689          -0.19831         0.0721829          0.124588           -1.1415          0.457885         -0.965198          0.119239         0.0191405          -1.00743         -0.549524         -0.540256          0.618291         -0.658415         -0.622191          0.756213         -0.517213          -1.06477         -0.524894          0.197937          -1.16212          0.535414         -0.586581          0.285364         -0.531888        -0.0660816         -0.203928         -0.936461         0.0472647          0.493088         -0.215404           1.10756         -0.106946          0.678544         -0.592205         -0.762397         -0.918193         -0.595185          -1.57563        0.00178298          -1.14832         -0.410902          -1.47424          -0.84951          -1.66386          0.889763          0.629601         -0.107832          -0.33562          0.497682         -0.347471          -0.54604         -0.327262         -0.726796            1.0327          0.787667          0.598374         -0.244667           1.01447         -0.721305          0.445605          0.465569         -0.218844        -0.0114624         -0.421943          -0.27204        -0.0533774          -1.36589          -1.13536           1.04191          0.607187          0.823053         0.0103166         -0.942973         -0.919794         -0.926023          -1.79121         -0.878777         -0.319781           0.20592         -0.353093         -0.551883          -1.13796         -0.995587          -1.21508         0.0687452          0.652291          0.504026          0.231451         0.0383851          -0.90411          0.611281         0.0614053         -0.168207         -0.715315          -1.23607         -0.881545          0.673859         0.0502738          0.183492        -0.0431078          -0.63086         -0.843898         -0.972988          0.271682         -0.046163          -1.22935         -0.947078          -1.08564        -0.0489216           0.54243
          0.408466          0.105716        -0.0282266         0.0832901          0.803069          0.623129         -0.565791          -0.21021         -0.170113         -0.558251         -0.567336         -0.830251          0.262148          0.852091         -0.415413         -0.163907           0.86253          0.255603          0.272986         -0.106873         -0.128524          0.587099         -0.615426          0.678296         -0.571583         -0.870969          0.159691          0.275272         -0.774758         -0.719089          0.384344           1.02719         0.0714995           0.69569           0.40308         -0.107673          0.395637         -0.148642         0.0378229         0.0714705          -0.71794           0.55754         -0.421365           1.69239          0.985096         -0.354201           1.07949          0.256217          0.561795         -0.590844          -0.83461          0.531383         -0.224801         -0.691672          -1.07034          0.296783          0.412896          0.741918           1.53024        -0.0874054         -0.456268         -0.249829         -0.834281          0.742314         -0.384589         -0.163595         -0.214318         -0.788437          0.319802         -0.777708         -0.188226          -0.57056         -0.699576          0.195104          0.994454          0.110548          0.390653           1.82142         -0.838199          -0.84299          0.318458          0.512271          0.659424          0.464628           1.59867         -0.823902         -0.371969           1.30298          0.240689          0.229282         -0.731915        -0.0252415         -0.725354         -0.824613         0.0282748          0.260998           1.29772          0.391321         -0.444185         0.0791938          -0.54785         -0.544689          0.515566         -0.535246         -0.777347         -0.609866         -0.887593          -0.12939         -0.718011         -0.546738          0.338089         -0.662427         -0.641257         -0.397141         -0.211336         -0.245482           1.32668         -0.751127         -0.367582         -0.330113           1.99378         0.0342853         -0.649491           1.69947         -0.119463          0.202422          0.604879          0.349258          0.205886         -0.668564         -0.621822         -0.130005         -0.649349         -0.542205          0.247056           1.86738       -0.00890209         -0.565968         -0.312267          0.700816           0.47804          0.714513         -0.858177           -0.2464          0.173411         -0.555812          0.167857          0.185038          0.337543          0.402486         -0.277632         -0.447394           1.56896        -0.0527848         -0.552619         -0.423571         -0.407034        -0.0633904           1.34308         -0.301317          0.621273         0.0450454          0.640214           1.14247         -0.582869          0.675866        -0.0218042           0.60811         -0.555987          0.232175          -0.66005         -0.639501         -0.733615         -0.350726         -0.608149         -0.772799          0.542135           1.85262         -0.711488           1.29473          0.688738          0.884993           1.48416          0.588608          0.876625         -0.247581         0.0803978          0.160348          0.708325           1.03848         -0.715215         0.0907407         -0.498712          0.346911         -0.751294          0.397554          0.875632         0.0900669          0.345418         -0.577356          0.337027         -0.780678          0.861098        -0.0544156         -0.398784          0.142267         -0.495641         -0.468373          0.576789         -0.385922          0.713544           1.70827           1.04034         0.0296998           1.05257          0.262256         -0.707806         -0.824132         -0.384909         -0.587731         -0.104668          -0.41357         -0.702241         -0.670452          -0.74118          0.408791         -0.253346        -0.0992171           1.66561          0.451247          0.441809          0.609908         -0.480234        -0.0435321          0.542475         -0.352808           1.09858         -0.714226          0.664801           1.01578          0.447801            0.7959         -0.948617         -0.340209         -0.746159          0.589215         -0.577423            0.2544          0.617434           0.39252         -0.680194           1.09145          0.262329          0.387701         -0.263453         -0.885748         -0.711082         -0.618733         -0.457595          0.788018         -0.622762           1.36833          0.259657          -0.64446         -0.578474           -0.8477          0.785067           1.04503        -0.0761621         -0.688774          0.922592         -0.611325          0.949452          0.759078            1.0029          0.599487           0.38197          0.439171           1.29557         -0.131345          -0.49989          0.132988          0.887025         -0.398111          0.416181           1.80411           1.82574         -0.693424           0.51249          0.498096           1.14769         -0.706966
         -0.158531         -0.603348        -0.0569691         -0.833621            0.5339         -0.509142         0.0162593         -0.645391          0.208091         -0.975382         -0.565095         -0.470453         -0.157339         -0.881054         -0.875392         -0.111217            1.0067          -1.06411         -0.463251         -0.790477          -1.22389         -0.626291          0.477794         -0.904226         -0.921968        -0.0616161          -1.21401         -0.331522         -0.709905          0.131379          0.169402         -0.401137          -1.14731         -0.789347         -0.604699        -0.0627861         0.0806582         -0.535878         -0.665191          -1.00774         -0.386006           0.45805          0.203625         -0.832779          -1.25759         -0.351025          -0.22389          -1.13042         -0.228366          0.129733         -0.163541        -0.0127149         -0.658424          0.257751         -0.332511          -0.21538           0.26374         -0.410698         -0.160862         -0.626158         -0.283895          -1.15377         -0.641216            0.6049         -0.574072         -0.372443         -0.319716          0.079862         0.0994785           -0.1438          0.221253         0.0306802          0.637198         -0.954751         0.0811044         -0.667106         -0.131254          -1.07961          -1.12992          -0.19175         0.0421971         -0.871573          0.720124         -0.340196          -0.66642         -0.538109          0.359674         -0.830114         -0.436536          0.114252          -0.56759          0.660661         -0.468579         -0.590077         -0.970122         -0.921988          0.263032         -0.776359          -1.08745         -0.158503         0.0166919         -0.448145          -0.59203          0.301731         -0.761444          0.196362         0.0593299         -0.238234         -0.958385         -0.272436         -0.571564          -1.37788         -0.942626          0.116866         -0.117054         -0.823566          -1.34022           1.07496         0.0480321         -0.789065           -1.0356         -0.950557          -0.78528          -1.36326         -0.335537          0.571795          0.211425         -0.845738           0.41503         -0.679817         -0.371568        -0.0485725         0.0115182          0.104147         -0.998755         -0.234002          -0.83064        -0.0908249        -0.0615795         -0.599262         -0.113837         -0.343995         -0.384993         -0.202856         -0.527833          -0.30539         -0.825046          0.134182         -0.568853          -0.81951         0.0421748         0.0136957          -1.32312          0.194127         -0.217138          0.184109         -0.787162         -0.177073          -1.10833          0.649222          0.442234         -0.476012         -0.548279          0.302078          0.136585         -0.948298          0.138173         -0.273332          0.293696          -1.22814          -1.03703         -0.141856         -0.270736         -0.788716          -1.46976          0.270275         -0.807944         -0.275545         0.0201371         -0.746973         -0.133764         -0.524205          -1.04733          -1.22241         -0.217805          -1.57363         -0.872612         -0.985653         -0.050578          -1.06584          0.180513         -0.294679         -0.904962          0.445801         -0.518754         -0.845915         0.0562226        -0.0233006         -0.934428          -1.00659           -0.2423          -0.24309         -0.931496         -0.420826         -0.604369         -0.312989          0.462159         -0.296238         -0.589342        -0.0576798         -0.682666        -0.0153411          0.609551         -0.388027          0.455483         -0.852814          0.422206          -1.66722          0.275798        0.00519583         0.0397527         0.0165465         -0.257594          0.262467         -0.726438         -0.609998          0.601583         -0.665469          0.226358          0.584291         0.0959319         -0.907206          0.450788         -0.199773          0.144077         -0.860365         -0.575097            -1.156          -0.79078         -0.554167          -1.12643         0.0660352          -0.24967          0.835076       0.000395532          0.906495        -0.0464192         0.0990199        -0.0617531         -0.674213         -0.140269         -0.594175          -0.31399         -0.235903         -0.146587          0.280658         -0.649216          0.135395          0.225346         -0.856804         -0.493191         -0.919248         0.0228846         -0.266566          0.233982         -0.318223         -0.156886           -1.0104         -0.320168         0.0590427          -1.12599          0.226209         -0.730373           -1.3083        -0.0688835         -0.866336          0.278923         -0.530273          0.178617        -0.0929127          -0.59849         -0.979123          -1.32632         -0.219742         -0.856732          -1.07769          -1.24856          -0.97563         -0.701387         -0.831398         -0.946576          -1.31818
           1.15433          0.926567           0.41978         -0.811756          0.954248          0.977337           1.24823          0.694551           1.01551          0.893771           1.00037          0.856423          0.386995          0.346383         -0.598061          0.667414          0.345882         -0.101886          0.780516       -0.00426772         0.0645887         -0.138217           1.03341          -0.29175          0.886973         -0.293972           1.05038          0.726478         -0.411108         -0.585603          0.954715           1.19191          0.967823            1.3083          0.752844          0.682472          0.526114          0.739023         -0.136593         -0.533329         -0.322961          0.886294          0.485177          0.164605           1.15804          0.651674        -0.0775032          0.821121            1.2322           1.10868          -0.27638          0.312105           0.83656          -0.37106         -0.283872            1.0044        0.00863662          0.871814           1.06051          0.976893           0.47312          0.469456          0.918049            0.4155          -0.47167          0.813283         -0.970181          -1.04517          0.905118          0.660259          0.910425        -0.0441543          0.581455          0.527765          0.108239          0.840504          0.951297           1.13103         0.0885305         -0.236739          0.861601          0.715123          0.836129          0.674385           1.06141          0.849635            1.4498          0.408188          0.789644          0.137889          0.698607           1.15971         0.0698833          0.645076          0.996204          0.483278          0.607848          0.715998           1.06575          0.778787          0.755531          0.869777          0.171748          0.119379          0.325205          -0.20307          0.115227          0.885917          0.294645          0.723668           0.26704           0.81812           1.13231           1.08884           0.12652           1.38697          0.860523          0.868107           1.02773          0.333472           1.11177           1.13557          0.524856           1.33326           1.02675          0.326024          0.328339        -0.0174634         -0.123379         -0.202967         -0.164732          0.796896          0.318597          0.117956           0.76553          0.128909           0.86398           0.53151          0.814695          0.458691        -0.0468715          0.198186           1.35583            1.2355          0.640159          0.924691         -0.635482          0.769458          0.666182          0.855007          0.797118           0.80484          0.871006          0.221124          0.912304          0.251317         -0.338047         -0.363121         -0.110615        -0.0389629        -0.0461711          0.150054           0.43192           1.14524           1.22208          0.787195          0.585848          0.668748           0.48713          0.136863           1.19929           1.05237         -0.188265          0.823603          0.914416         -0.257685         0.0148086            1.1713         -0.468549         -0.263046          0.183901          0.330009           1.30164          0.569134         -0.338407          0.906029          0.381951          0.926074             1.004            0.9384          0.651143          0.587746           1.21643          0.872993          0.938291          0.516098           1.14935          0.429641          0.465361          0.616654           1.02374          0.122974           1.34379          0.618789          0.977864           1.29674          0.741575          0.665618          0.617609          0.592778          0.541616           1.25785           1.07592         -0.154282           1.36794           1.02758         -0.171377          0.616431          0.157821          0.703557          0.908995         -0.231605        -0.0381333          0.669027          0.887668          0.220422          0.188591          0.496495           1.22121          0.703521          0.319815          0.552981           1.08995          0.646648          0.737679           0.09284          0.377692           0.88867         -0.227227          0.337169          0.877299          0.990903            0.7525          0.444757          0.752873          0.700571          0.589236          0.928677          0.707592           1.14775          0.163262           1.40046         -0.444739          0.770824          0.850724         -0.305787         -0.101467          0.800769         0.0948921          0.963309          0.817688           1.20878         -0.492324          0.370296           1.00356          0.626337           1.25429           1.26103          0.430061          0.640976          0.440083          0.134632          0.509309           1.05559          0.534205          0.612402          0.828189          0.408253           1.38852            1.0753          -0.18319           1.25942          0.718335          0.749505          0.811167          0.650712          0.395249          0.794787          0.698242          0.892419          0.954091           0.87896
         -0.341569         -0.854816         -0.357132         -0.118301         -0.635272         -0.980162         -0.446479         -0.333422          -0.25155          -0.67863         -0.825173         -0.227595          -1.28686           0.83091          -1.00821          -1.07056         -0.161154          -1.01719         -0.789141         -0.326294          -1.01911          -1.02348          -1.08109         -0.830276         -0.804679          -0.20178         -0.728178         -0.723279         -0.110386         -0.657607          -0.83538         -0.615409         -0.957316         -0.833212         -0.880981         -0.309411         -0.753092         -0.570878          0.148555         -0.155462         -0.613379          -1.28253          0.124617        -0.0676862         -0.242213         -0.157179          -0.54226         -0.602459         -0.530119         -0.613136          -1.22572          -1.43903          -0.34006         -0.820738          -1.21148           -0.2637          -1.18329           -1.0387         -0.812491          0.528974         -0.535517         -0.175361         -0.213063           -0.4837         -0.772622          -1.20831          0.499074         -0.615384          0.232305         -0.934904         -0.703856         -0.820405         -0.587355          0.402073         -0.360568         -0.593558         -0.811388         -0.201738         -0.649899         -0.651417         -0.331659         -0.717252         -0.740503          0.797243           1.16327          -1.17607         -0.788573         -0.199732         -0.538903         -0.932073         -0.180635         -0.157404          -0.53501         -0.826206         -0.189358           0.12179            0.1973         -0.986315         -0.891225          -1.20341          -1.00024         0.0740022          0.261037         0.0648301          0.240414         -0.873088          -0.51308         -0.802936          0.449515           0.11742           -1.0356          -1.11515         -0.676482         -0.598668         -0.712151         -0.811006           1.36923         -0.640814         -0.771898          0.595431          -0.56664         0.0723304         -0.875838          0.813152         -0.893776           0.66087          -1.39336         -0.458152           -1.0365         -0.757616         -0.813638          0.358072         -0.554428           0.28819          -1.02741        -0.0683783         -0.581132         -0.720308         -0.921913          0.406275         -0.800079         -0.489579        -0.0890535         -0.253757          -0.54921          -1.07497         -0.526129         -0.695168           -1.1248         -0.832522         -0.420335         -0.665742         -0.407869         -0.661386         -0.903025         -0.878753         -0.838936         -0.973318         0.0433069         -0.937174         0.0376255         -0.764914         -0.663218         -0.769646         -0.609711         -0.807709         -0.583551         -0.537527         -0.870849          0.553765       -0.00748971         -0.761565         -0.791875         -0.361143         -0.918785          0.516875         -0.658229         -0.123174          0.545487          0.208955         -0.470106         -0.613374          0.832995         -0.358148         -0.192253         -0.884574         -0.516049         -0.291849         -0.591057            0.9398          -1.08857          0.260058         -0.559049         -0.899618         -0.674681         -0.726039          -0.59365         -0.650338          -1.08627         -0.564521         -0.699439          -0.89116         -0.643357         -0.470451           0.52693         -0.781358         -0.851682          -1.08908          -0.92945         -0.519126         -0.441089          0.542979         -0.598341         -0.954106         -0.577362         -0.705503         -0.726606         -0.897871         -0.834864         -0.911384         -0.442075          -1.09448         -0.706062         -0.774933         -0.803779         -0.470265           -0.1084         -0.105173         -0.727353          -1.03627         -0.698868        -0.0709542         -0.777332          0.406019         -0.492409         -0.181808          0.123925          -1.08198         -0.942484         -0.221131          -1.34874         -0.478934         -0.574935         -0.541766         -0.805581          -1.11625         -0.498053           -0.7448         -0.722004           -1.2787         -0.594732         -0.693462         -0.223758         -0.631052         -0.833596          -0.89154         -0.840042          -1.24169         0.0920232         -0.588878          -0.94064           -0.8221          0.562537          -1.13915         -0.955546         -0.351292         -0.326398        -0.0880049         -0.890285         -0.825663          0.200788         -0.751689         -0.752752         -0.200261          0.908807         -0.525379          0.115797         -0.563011         -0.569517         -0.064755         -0.548209         -0.757433         -0.645124         -0.573586          -0.75254         -0.317959         -0.120511         -0.744004          -1.27561         -0.919327         -0.911294         -0.687164
           1.40103         -0.197206          -0.26293         -0.265761           1.82324         -0.383794          0.173437         -0.597122           1.64441          -1.73215         0.0299765         -0.368758           1.09453         -0.338291         -0.809676         -0.686462         -0.430693         -0.900235           -1.0462         -0.467936          -0.94728         -0.751609         -0.560056          -1.19326          0.447581         -0.196316         -0.436558           0.40131          -1.06681         -0.480001           -1.5244         0.0591909            1.0171         0.0640468         -0.992478           1.06681           -1.2705         -0.390432         -0.872774         -0.265644          0.147977          -1.06881         -0.405885           1.54961            1.4186          0.031602          0.735722          -1.49711          0.678323          0.984728         -0.360947          -1.35809            1.2721          -1.08102           -1.0121            1.1039          -1.21327           1.34876           1.10544         0.0917817         -0.583891          0.514114         -0.879817          0.831256          0.283316          0.186725         -0.550969         -0.564948         -0.345033           0.11998          -1.57062         -0.658431          0.574633         -0.929811          0.100714          0.713747        0.00733696           1.21585          -0.28582          0.779315           1.13365          -1.40701          -1.04563           1.08551           1.08275         -0.851988          0.327527          0.962749         -0.909786         -0.423237         -0.312183         -0.131022         -0.523563          -0.88506         0.0521771          0.259126         0.0288334        -0.0651014         -0.614705          -1.39874         -0.568305          -1.77544         -0.620277        -0.0982807          -1.56818          -1.04734        -0.0551551         -0.151803           1.28343          0.570051         -0.809045          -1.32026         -0.195566         -0.253858         -0.132145          -1.40364           0.54503         0.0417855          0.885006           1.28365          0.205632        -0.0329154        -0.0196997           1.23652         -0.617525        0.00178238          -1.47941          -0.68475            -0.883          -1.14049         0.0724374         -0.217551            1.3146         -0.666582         -0.210294           1.47872         0.0686661          -1.54086        -0.0656565           1.01423         -0.848058          0.544481          -1.56029         0.0712835         -0.374983          0.212919         -0.442936          0.126856          -1.38102         -0.430004         -0.762846           1.11371            1.0655           1.09771         -0.356622        -0.0984916          0.536158        0.00140186          0.350083          -1.08546           -1.1388        -0.0203403           0.32739           1.31886         -0.080757         -0.236104          0.250413          0.633914         -0.183106          -1.20622          -1.21727           -0.3224          -1.03561          0.183328         -0.949858         -0.930659         -0.802553           1.36381         -0.702459           1.02537         -0.180239          0.113301         -0.170843          0.606343           1.33675          -1.12946          0.314117          -1.85578           0.92946         0.0186489         -0.368313          0.200694          0.254095         -0.843419          -1.14497         0.0103185         0.0757368          0.172242          -1.22282          0.460323          -0.36177           -1.5002          -0.12526         -0.552382          0.781375          0.470148          0.223851         -0.957121         -0.246165          0.498613            0.1745          0.231915          0.254763          -1.11966           1.52456        -0.0481753          -1.19755          -1.80815         0.0310783          -1.11221          0.110171          -1.38383         -0.117428          -1.35643         -0.898919         -0.523512           1.32833            1.1329          0.307744         -0.169488          0.497894         -0.360889          0.236787           0.41737          0.328326          0.148469          0.739031          0.112155          -1.06832           1.16358        -0.0349915          0.829584         0.0252981           1.08294          -1.09708        -0.0896955          0.145851          -1.12824         -0.261597          -1.37478         -0.815676          0.415521         0.0498999          -1.05481         -0.449564          0.702512         -0.740576         -0.280844          -1.31315         -0.315142          -1.17938           1.18214           0.07759          -1.03153          -1.42478         0.0550048          0.616962          0.768492         -0.794303         0.0293638           1.44303         -0.534286        -0.0384847           1.36765        -0.0465476         0.0702523         -0.499376         -0.902106          0.050566          0.215008          -0.92752          0.333911         -0.295762         -0.259258         -0.626428           0.88449          0.421015          -1.63586           -0.3437         -0.385793          0.226243         -0.437487
         -0.305221          0.347399          0.273713         -0.687842        -0.0518522          0.209711          0.421645         -0.154463         -0.336777            0.2182         -0.285501         -0.791897           -1.3506         0.0266472          0.181304          0.524054          -1.27739         -0.888876           0.11066         0.0979755            0.6429        -0.0700443         -0.819243          0.173663         -0.262678          -1.15077         -0.593622           0.64274          0.424419          0.217049         -0.951783         -0.977625         -0.723353         -0.736992        -0.0345056          -1.09979          -0.54369         -0.133058          0.453883         -0.505047          0.516581          -1.04612         -0.754541          0.282811         -0.243945         -0.037575         -0.429621        -0.0288862         -0.559026         -0.662534         -0.778991         -0.213915         -0.981675         -0.014013           -1.0309          0.349874         -0.816757         -0.549227         -0.666022          0.328578         -0.239405         -0.139092         -0.569664         -0.701685           0.28655           -1.0342         -0.105641          0.714114          0.434833         -0.871505          -0.67462        -0.0132451         -0.593104          -0.11107        -0.0794206          -1.07631           -1.6242         -0.738119          -1.39662          -1.33747         -0.179536          -1.30688          -0.18342          0.926937        -0.0487343       -0.00760011         -0.862587         -0.484761         0.0187676         -0.031324         0.0830442         -0.219855         -0.917486          -1.08588           0.25402         0.0361117         -0.251991         -0.601287         -0.945931          -1.36645         -0.788414         -0.992864         -0.508481         -0.984036         -0.739243          -1.24037         -0.516153         -0.626767         -0.178434          0.738368        -0.0342162         -0.325575        -0.0799113         0.0648048          -0.13093          0.184022         -0.241233          -1.35226         0.0722772         -0.144097         -0.304639         -0.690329         -0.746508          0.141875          0.238578         -0.854046         -0.115651         -0.520382         -0.964333         -0.507062         -0.391889        0.00802638         -0.355091         -0.157418         0.0253679         -0.173771         -0.671096          0.308173         -0.520452          0.593477         -0.315517         -0.508683          0.333466         0.0686507          -1.03215          -1.09343          0.358949         -0.981935         -0.154796          -1.34151          -1.28462         -0.890849         0.0595415          -0.61257          0.454555         -0.394028         0.0744454          0.107399          -0.23196          -1.25104        -0.0489727          0.172979         -0.758016         -0.557213         -0.773796         0.0786146         -0.594064         0.0601241         -0.456262          0.256813         -0.502941         -0.247831         -0.413385          -0.75604         0.0796355           0.32061         -0.537279          -0.67652          0.346935          0.306694          -0.26921         0.0173565         -0.218775        -0.0820918         -0.644858         -0.217778          0.243588         -0.604987         0.0562233         -0.134467          0.568769         0.0993632         -0.264969          0.263044         -0.912522         -0.261982          -1.01691           0.48073         -0.804568        -0.0533486         -0.209914        -0.0829089         -0.192261        -0.0824201         -0.218881         -0.835758          -1.15308         -0.695273          -0.27382          0.442351         -0.158948         -0.806046           -0.4597          -0.81881         -0.845899         -0.833497          -1.33685         -0.697993         -0.761391         -0.348391         -0.253162         0.0741716          0.632198         -0.838075           -0.4581          0.103389          -1.29345          0.187189         -0.965262        -0.0820154         -0.746464          0.412147          -0.40034          -0.32929          0.604214        -0.0305168          0.546416          -1.72884         -0.126162          0.381739          -1.12079        -0.0586632       3.20044e-05         -0.446392         -0.981287         -0.604723         -0.221413          -0.79899          0.133681          0.247382          0.108077         -0.181107         -0.506418        -0.0778478         -0.319171         -0.883419         -0.180374         -0.149923          0.201935        -0.0094488          -1.06788          -1.06353          -0.12987         -0.397324         -0.994292           0.86749          -0.10759         -0.230313         -0.188307           -1.0982         -0.246541           0.56842          0.270079         -0.178556         -0.144673          -1.01976          0.107899         0.0334423         -0.667681         -0.947551         0.0218313         -0.466705          -1.32164           0.10409          0.443956         0.0412243          0.104832          -1.03803         -0.137437         -0.905407         -0.899381         -0.651064
         0.0770397         -0.220585        0.00928356         -0.696187          0.241324          0.689476         -0.055415          -1.06077        -0.0549033          -1.14415           1.03257          -1.25041          0.546873         -0.245507          0.131108         -0.193224         -0.368398          0.822007          0.271275         -0.024258         -0.297215          -1.15318          0.749047           -1.1208          0.652533         -0.475097        -0.0773623         -0.405405         -0.468267          0.929196           0.45162        -0.0959654         -0.316117          -1.04641         -0.651433         -0.282549          0.552336         -0.196519          0.599859         -0.926242         -0.302264         -0.399938         -0.239499         -0.596561         -0.703142          0.184936           -1.0117           -1.2103          0.103989          0.383102           0.63403         -0.569904         -0.917935          0.546687          -0.40101          -0.55287         -0.020225          0.497395         -0.344745         -0.725111          -0.25932        -0.0160613         -0.369735         0.0316623          -0.51066          0.181533         -0.757372          -0.78993          -0.12936            1.1313          0.426142         0.0365588           1.06672          -1.47583         -0.189301          0.332085           0.13426         -0.812406         -0.664554          0.518373         -0.485538         -0.143124         -0.711026         -0.464676          -0.46976          0.798195          0.329274          -1.22987          0.279947         -0.551552          -1.43784          -1.13212          0.339978          0.154009          -1.07977          -1.05776          -1.17977           1.31405          0.627318        -0.0492618           1.01994          0.170741          0.624547          0.343497          0.788616           0.44504         -0.213036         -0.276042         0.0594853         -0.255913         -0.402784         -0.500477         0.0971939         -0.723602          0.440859          -1.63951         -0.401065          0.851565        -0.0201828         -0.713961          -0.22677        -0.0932216          0.668055          -1.24903         -0.304436           1.32543         -0.759676         0.0865941          0.735721          0.765633          0.402142         -0.878845          0.349051         -0.955266         -0.710089          -0.94276          0.473379         -0.163938        -0.0550297          -0.64786         -0.832137        -0.0140478           -1.4734         -0.354902         -0.565575          0.673429          0.603575         -0.391065         -0.316794         -0.357553         -0.528109          0.431504          -1.15298         -0.125675          0.453488          0.274841             1.144          0.332904          0.191059          0.612371         -0.128822         -0.440995           -1.0513          0.369836          0.148851         -0.263346          0.497807         -0.824741           0.16842         -0.725331         -0.137781           0.59716         -0.596638          0.269585         -0.156967          0.133568          0.487024          -1.24018        -0.0546066          -1.05371         -0.464452           -2.4888          -1.06581         -0.213697          -0.15629         -0.682433          0.176578          -1.05756         -0.807902         -0.442293           1.23307          -1.53229          0.511962         -0.106793          0.611658           -2.1661          0.295271          0.803898          0.183186          0.289556         -0.469737          0.243441         0.0912972          -1.62801         -0.264212          0.264065          0.764269          0.460197        -0.0244417         -0.295356          -1.16479         -0.027735          0.140308         -0.534733          0.342496         0.0551501         -0.452215         0.0281505          0.277629         -0.845439         -0.812501          0.044054         -0.423027         -0.182673          0.118199         -0.824715        -0.0458017         -0.316457          0.364484          0.844851          -2.07965         -0.844691         -0.566386          -1.35602         -0.149452          -1.44967         -0.186262           0.46625          -1.10004          -1.14008          -0.67235         0.0240141         -0.772148        -0.0482174          0.467611         -0.432511          0.456137         -0.265681          -1.96017          0.647833         -0.313471         -0.569834        -0.0203984         -0.771458          0.688861          0.855869          0.640819          0.234297         -0.160261          -1.10394          0.618235         -0.756539           1.19824          0.195035          0.642825          -0.34525          0.104042          0.051888          -1.10819          0.754384         -0.618548          0.742692         0.0468881          -1.14518        0.00151677          -1.39748        -0.0528586        -0.0507037          0.158896          0.219352           0.39254          0.331376           -1.6722          -0.81509          -0.69636          -1.18094         -0.904826          0.292961         -0.506105         -0.573793          -1.26008         -0.428869
         -0.647578         -0.675431          0.328897          -1.25516         -0.465164         -0.620369         0.0194622          -1.41592         -0.379205          0.858892         -0.614713          0.998826         -0.604015         -0.659079          -1.63066         -0.821219          0.284102         -0.804806         -0.386352         -0.769152        -0.0232926         -0.689677           1.16012          0.510295          -1.11778          0.671116          -1.17424          -0.64831         -0.798415         -0.131401          0.343089         -0.404016          -1.28667          0.548614         -0.516178         -0.764693          -1.76782         -0.719981         -0.391313         -0.947445         -0.123928         -0.696842         -0.672782          -1.20608         -0.606953         -0.229032         -0.554638          0.279144          -1.33232          0.439751          -1.79246          0.807939         -0.117258         -0.640103         -0.364782          0.118788         0.0119071        -0.0961127         -0.795829          -0.15062         -0.149165          -1.51835          0.107083         -0.882743        -0.0299972         -0.665676         -0.390579         -0.710665         -0.434057          0.663641          0.304951          0.103485         -0.570795           1.15104         -0.233919          -1.04552          -1.65153         -0.777765           -1.1459         -0.270559          -0.21248          0.108065          0.903735         -0.844891         -0.345121          0.327631        -0.0088455         -0.284692          0.555083          0.769194          0.910173          0.202037          0.947599          0.691607         -0.625658         -0.598532          -1.09041         -0.309046        0.00524695         -0.588759         0.0947517         -0.571016         -0.356047         -0.194283         -0.175528            0.3685          0.166863         -0.385558          -1.58644          -1.38505         -0.189944          -0.78963         -0.619567          0.470325         -0.134381         -0.607008         -0.877493         -0.180696         -0.336473        0.00109118          -1.44583          -1.05839          0.327439          -1.18804          0.029218         -0.748904          0.553664         0.0680703         -0.390366         -0.171223         -0.560062           1.03434         -0.544775          0.503169          0.484545         -0.823548          -1.09302         -0.345556         -0.104266          -1.48155          -1.46555         -0.952595          0.723124         -0.178623          0.254895          0.643502         -0.285279          0.226904         -0.337096          0.934149         0.0168404         -0.889236          -1.37168          -1.13393          -1.31625          0.362144         -0.143249          -1.38305        -0.0230941            0.7159         0.0850306           -0.1367          -0.16086          0.280687          0.248667          -1.40253         -0.457505         -0.332379         0.0741905         -0.589257          0.450675         -0.579857        -0.0436366         0.0568258          0.824468          -1.20973         -0.526207           -1.2107         -0.131237         0.0415629          -1.32662          0.666722         -0.795031         -0.242964         -0.135966         0.0229496          -1.33788        -0.0807916         -0.488858          -1.31408         -0.649993          0.977937          -1.04655          0.645908          -1.01864           1.19333          -1.00208         -0.370591          -1.15633          -1.59352          0.460127          0.642927         0.0120104          0.248333           -1.3412          -1.77619           0.62596          -1.18245         -0.468037         -0.975973         -0.493306          -1.43764         -0.167679          0.545833        -0.0195875         -0.539044          0.624386          0.283691         -0.980526         -0.116387          -0.19037          0.872196           0.03282           0.46071           1.53302          0.100553         -0.759226          0.237853            -1.393          0.132643         -0.593485         -0.421765         -0.788561         0.0879885         -0.330953         -0.270395         -0.802304         -0.348573         -0.906681         -0.741503          0.204821          0.173564          0.176907          0.119849           1.13725           1.14354         -0.729615           0.79095          0.740849          -1.07356         -0.510782         -0.503886          0.291059          0.848528         -0.779517         -0.235312         -0.105104         -0.639024         -0.392929         -0.454982         -0.258951          -1.64655         -0.246472          0.429666           0.46408          0.308002          -1.56469         -0.773743         -0.203231          -1.95123         -0.888775          -1.21371          -1.37681          -1.10284         -0.540078          0.758417         -0.373449          0.670063          -0.72346       -0.00634876         -0.638451          0.905346         -0.110755         -0.181243          0.895267          -1.16863          -1.40288          0.567558         -0.671367          0.148213           0.19569         -0.571918
         -0.217529          0.865402           1.22657           0.73915          0.664459          0.844689          0.478991          0.641684          0.578486            1.0524          0.323497          0.857044           1.04159         -0.177988          0.734622          0.799339          0.789295          0.888824           1.01309          0.943961         -0.246897          0.987224         -0.458042          0.819196          0.309016       -0.00252063          0.538907          0.708446           0.91229          -0.14584          0.936009         -0.129524          0.148668         -0.619101           1.07792         -0.345188          0.806212          0.721731          0.801346          0.633126          0.502677          0.245735          0.622762         -0.597921          0.215558        -0.0252644         -0.424313           1.21156          0.536038         -0.291392         -0.505879           0.13485          0.396094           1.13448          0.643342           1.40656        -0.0181391         -0.316701       -0.00495516          0.567001         -0.341024          0.764815           1.77042         -0.422724        -0.0887659          0.336306            1.3918          0.968633         -0.556015         -0.418024         0.0452737           1.06893         -0.197442           1.11562        -0.0986167         -0.351609         -0.195963        0.00650206           1.17026         -0.810704        -0.0616083          0.917603          0.740854          0.692272          0.438028         -0.125922          0.540719         -0.685347          0.536669           1.00121          0.549116          0.734591        0.00330089          0.535875            0.1709          -0.34455           0.43593          0.210643          0.748294          0.673756           0.25464          0.788601          0.786859          0.747782          0.315269         -0.173985          0.707954           1.67535           0.51339         -0.245415         0.0234608           1.05419          0.302083         -0.110435         -0.633019           1.59654         -0.223377           1.00613          0.436533          0.634146        -0.0227418          0.434311         -0.168212        -0.0455219          0.714763          0.326777          0.659441          0.450034          0.671413           1.07744          0.772878           1.08291          0.503132           1.42165        -0.0846267         -0.147371          0.208061          0.955585         -0.456217          0.764232         -0.211445          0.894941           1.40456          0.545997        -0.0236735          0.639786         -0.457016           1.75335          0.968847           1.01461           1.06214          0.355489         -0.293593         -0.511607        -0.0843019           0.47907          0.604031          0.894563          0.502445          0.682605          0.794544          0.787998           1.04299         -0.475297          -0.52002          0.941248          0.467556         -0.598303         -0.588606           1.19048          0.996588          0.474519          0.515978         -0.343921           1.20905           1.40961          0.858658          0.663693          0.900766         -0.805734         -0.523292          0.891303          0.608701          0.145118          0.550894           1.00032         -0.149534            1.1006         -0.274336          0.527471          0.596529          0.810188          0.443201           1.01065           1.14416           1.47192         -0.162867         -0.283273           1.13189          0.787196          0.868389          0.766283          0.302821           1.03377         -0.470168         -0.758997         -0.262678          0.614244           1.04485         0.0824649          0.609405          0.128728          0.492099         -0.188937        -0.0521901           1.25991        -0.0325391        -0.0811913          0.565922          0.918741         -0.525136           1.13321            1.2883          0.716344          0.814335          0.951328         -0.202646         -0.147068          0.797127         -0.402773         0.0304452           1.18289          0.766862          0.804586         -0.224823         -0.334231         -0.448255          0.388317          0.932367         -0.624509          0.288464           0.19338           1.72769         -0.298735          0.973778         -0.276042         -0.119985          0.311273           1.10385          0.831767           1.42455          0.620229          0.287095           1.37327          0.189036         -0.752026          0.909124          0.808056          0.713801          0.654917          0.967657          0.555765          0.316737            1.1426          0.643264         -0.538488          0.596543         -0.603915         -0.189368          -0.50818         -0.510771          0.892114        -0.0357731          0.479463          0.647146          0.301914          0.796514            1.5288          0.281347           0.71672          0.956306         -0.518057         -0.259001           0.97469         -0.576619          0.475889         -0.370406          0.135645          0.110319          0.830583           1.61848          0.258903
         -0.873422         -0.131013         0.0673508          0.175499         -0.919333          0.673552         -0.415712          0.120476          0.442957          0.472453           0.26439         -0.250754         0.0205236         0.0776751           0.46776          0.660733         0.0901082          0.519086          0.729873          0.377957          0.874177          0.504324          -0.25218        -0.0607961           1.02319           0.30935         -0.459063          0.517774           1.13196           0.86985          0.349992         -0.165427         -0.762783          0.557895          0.297739         -0.566627           1.22901         -0.582224          0.784588         -0.456356          0.295329         -0.412492          -1.46284        -0.0534226          -0.19595         0.0255863         0.0810789         0.0908423         0.0462176          0.328725         -0.123523          -1.59767         -0.390116          0.748969         -0.489707          0.216697          0.637528         -0.763895         -0.061971         -0.172421          0.633465          0.195201        -0.0371133         -0.143935         -0.492254           0.53829         -0.180368           1.02722        -0.0904235          0.714364        0.00102681          0.739396         -0.349591          0.154639         -0.454911          0.205541          0.421514        -0.0655133           0.70918          0.519246         -0.649076          -1.17214         -0.212483         -0.108846          -1.17751          0.640969         -0.491506         -0.323088         -0.923223         -0.793412          0.626186         -0.859393         0.0525062          0.308603         -0.470107          -0.71628         -0.591773          0.825879         -0.236494          0.700479          0.218892          0.576376           0.44461         0.0149313          0.545561         -0.423374         -0.912548          0.431552         -0.306225         -0.122199          0.137204          0.746118         -0.403235         0.0577369            1.3844          0.533538         -0.989937          -1.30929          0.521614          0.168341           -0.9201          0.336343            1.4994        -0.0468312          0.159356          0.363197          0.403916          -1.17119          0.936203         -0.238195           1.32802        -0.0894747          0.055486         -0.129721          0.644135          0.156119          0.602873          0.953238         -0.139148         -0.804114          0.772291         -0.268763          0.600871          -1.10796          0.620971         -0.819045          0.572489          0.474675        -0.0778491          0.341108         -0.102307          -0.23204         -0.201674         0.0558822          -0.27792         -0.196095           0.87544           1.11962         -0.976426          -1.55366         0.0795677         -0.818091         -0.723906          0.117072          0.395395          0.121113          0.349257        -0.0228865          0.480594           0.42324          0.916369          0.462662         -0.991231          0.301643           0.32624          0.227007          0.140422        -0.0651762          0.168815           -0.7202         -0.587412         -0.195431         -0.108827         -0.147428        -0.0994849          0.579921        -0.0740111          0.750557          0.534756         -0.628734            1.1161         -0.336252         -0.536275         -0.140728           1.19509           0.51065         -0.564309          0.899808           1.30673        -0.0162267        -0.0711456          0.719256          0.569618          0.532519          0.258377          0.833159          0.530061            1.0633         -0.110345          0.459835          0.408974         -0.901596         -0.563538          0.508142          -0.25341           -0.8953          0.500781          -0.64534          0.587039          0.736106          0.639519          0.391666          0.506524          0.416372         -0.950053         -0.267312         -0.421203         -0.441464         -0.778448         -0.205192         -0.182668          0.497754         -0.124281         -0.187629            1.2606         -0.803389         -0.303684          0.535477          0.323937         -0.393177         -0.544319          0.375814           0.10219         -0.911201          0.361215          -1.25045          0.495272          0.181146          0.286168         -0.444274           0.51057          0.114623        -0.0313544          0.310282           0.82745         0.0630345        -0.0321867          0.542114         0.0531178          0.115523         -0.438703         -0.844929          -1.07091          0.743306          0.034217          0.944359         -0.163611         0.0844854         0.0990446          0.868084         -0.633415          0.656637         -0.545781          0.116455         -0.545157          -1.07214          0.426355           0.95559         -0.115446       -0.00571424         -0.149505           0.42348         -0.760976          0.405974           0.64428         -0.541291         -0.120799           -0.2603          0.633641          0.535036          0.531283         0.0997199
         -0.842401         -0.874762           0.35042          0.710463        -0.0407161         0.0646398         -0.179483         0.0712818         -0.914466          0.561868          0.686401         -0.347262         -0.726717        0.00340357          0.704032          0.459244          0.657142          0.814608         -0.517642         -0.267717          0.360795           0.62938         0.0225401          0.434807         -0.647825          0.433312          0.339304           1.15783         -0.377322          0.912947        -0.0621778        -0.0215658           0.32963         -0.213492          0.438674         -0.217578          0.973394          0.018502          -1.05826         -0.224804          0.349456          0.865889          0.809261         -0.795998         -0.931283         -0.349914         -0.250401         -0.376281         0.0399692          -1.06246          0.717755          0.110601          0.208775         -0.187763          0.558457        -0.0878275          0.816976         -0.242309         -0.455978          -0.99568          0.750107          -0.24252           0.10639        -0.0766502           1.13577          0.431031         -0.380581          0.184476         -0.853374          0.471947            0.7939          0.821511          0.755485         -0.623674         -0.500356        -0.0392095          0.868634         -0.825572          0.973438         -0.169166          0.174165          0.659232          0.996377          0.175475        -0.0466966          0.689229          0.152605         -0.192618         -0.341191          0.402243         -0.475623         -0.284387          -1.14559         -0.159059         -0.188103         0.0921917         0.0777836          0.533506          0.187287         -0.265519          0.819202          0.781709           0.94258          0.505178         -0.589239          0.770836          0.394805         -0.514865         -0.115024         -0.828908          0.407464          0.940838         -0.779543          -1.01257          0.667322          0.150401          0.233906          0.668215          -1.08774         -0.904346         -0.411807         -0.131949           0.77292        -0.0820462         -0.332781          0.443506           0.77021          0.657086         -0.497877         -0.237082          0.570081         -0.948272          -1.02479         0.0360733          0.395908         -0.715721         -0.228046          0.406665          0.367011         -0.165369          0.776392          0.366783         -0.930952         -0.841057          0.538885          -1.20246         -0.410717          0.264453          0.256607           0.45317          -0.69865         0.0724596           0.12835          0.263472          0.679985         -0.778122          0.675819          0.665276         -0.889836         -0.269519          0.494787          0.170005          0.765208         -0.909162         -0.628273          0.163505          0.204151         -0.404108        -0.0655018         -0.152815          0.169658         -0.594419          0.984883         -0.577075         -0.233335          0.221374         -0.103919          0.149218          -0.33724         -0.915267          0.162906          -1.00732         -0.156145         -0.339094         0.0274248          0.445743         -0.377562         -0.158805         -0.595059         -0.767969         -0.442624         -0.449145        -0.0523817          0.787039          0.920705         -0.557948         0.0844139         -0.519178          0.897203          0.152212          0.143782         -0.165022         -0.259176          0.810923         -0.855603          -0.33002          0.775101          0.274391            0.2791          0.987058         0.0789284         -0.143459        -0.0154823          0.359323          0.063877          0.970645          0.390881          0.319302         -0.262304          0.183537         -0.208687          -1.02727          0.351936         -0.223147          0.105275          0.711337         -0.419012         -0.405651         0.0713289          0.755635        -0.0562797         0.0452524         -0.487094         0.0811477          0.147934         0.0291349          0.142539         -0.129118        0.00991455          -0.83639          0.447228         -0.132281         -0.148976         -0.211627         -0.641831          0.337133           1.13196          0.182167          0.233301          0.610994        -0.0736283         -0.763671          -0.60655           1.12782         0.0186241          0.479072          -1.21742         -0.455386          -1.00138         -0.825034         -0.569734          0.275699         -0.214827          0.391566           0.84838          0.654102         -0.922041         -0.714349         -0.119438          0.755419         -0.174985          0.831081         -0.814607         -0.749876          -0.66008          0.698032          0.413436         0.0392427           0.16602          0.220371          -1.05186         -0.521691          0.826094         -0.416908          -1.06854         -0.240125         -0.261728         -0.680433          0.586288          0.580872          0.152499         -0.177217
