weight 0:
         -0.188415         -0.174962       -0.00605799         0.0652271         -0.178545          0.420258        -0.0259252         -0.132879        0.00327625        -0.0571227        -0.0622266          0.135665          0.263075         -0.161556          0.197748          0.175618         0.0929547        -0.0333332          0.144276         -0.136597          0.105329        -0.0734905         0.0799224        -0.0895934        -0.0134874          0.253664         0.0956687         0.0553878           0.65251          0.201405          0.886794          0.329959          0.194136        -0.0188662        -0.0458639          0.337579          0.328548          0.226389        -0.0541494        0.00245686          0.049623         0.0951459          0.647351          0.273558         0.0576342          0.393808          0.538923          0.103737          0.498198          0.210266         -0.233143         -0.207314           1.35166           1.24801             1.319          0.471973           1.42506           1.27758           1.22331           1.06528           1.45718           1.45401           1.26977           1.45214           1.18132           1.46179           1.25382           1.57824           1.46731           1.17232            1.4304           1.26009           1.09022           1.23368           1.24874
           1.93932            1.6025        -0.0382749         -0.145954         -0.128623          0.761436         -0.251979         -0.105313        -0.0866969           0.18216        -0.0541175         0.0963455          0.196228         -0.551108        -0.0814659          0.112018       -0.00650659         0.0137858          0.265183        -0.0647584         -0.192823        -0.0623817           0.20284         -0.206051         0.0569072           1.08331           1.64336           1.72023           1.45197           1.12004           1.54426           1.24381           1.48192            1.6902           1.93481           1.21096           1.47772           1.54896           1.49569            1.7322           1.72085           1.30026           1.54133           1.58698           1.46947           1.70361            1.3313           1.12086           1.37067           1.70759          0.914539          0.789491           1.66974           1.27684           1.64572           1.34051           1.46487            1.6185           1.67851           1.57704           1.51968           1.54249           1.56622            1.5016           1.80961           1.56402           1.77988           1.27395           1.92617           1.44678           1.72249           1.80079             1.472           1.70408           1.46087
        -0.0650454           0.95084         0.0231839          0.356809          0.112326           1.29361        -0.0885858          0.223733        -0.0194131         -0.237111        -0.0620102         0.0483602        -0.0857483           0.10679         0.0252912         -0.212611           0.15365          0.496293        -0.0560556          0.268898         -0.046677          0.154722          0.109981         -0.238975        -0.0623534          0.314467          0.578674           1.33603           1.26633           1.10458           1.12072           1.49828           1.44728           1.00799           1.18316           1.52004           1.24274           1.42591           1.15558          0.872461           1.16518            1.1777           1.23053           1.19238           1.42791           1.01553          0.957831           1.32455           1.27535           1.13377          0.302734          0.812942           1.37391           1.14881           1.36938          0.859883            1.1064          0.981212           1.38478           1.27915          0.927531           1.21868          0.904632           1.01884           1.27974          0.817678           1.41527             1.253          0.982102           1.37766           1.15536          0.896045           1.39292          0.907486           1.11928
           1.68622           1.57645         -0.101026           0.11481        -0.0229958          0.852702          -0.19624          0.159195          0.183129         0.0917435        -0.0565084          -0.15329         -0.155972         -0.158882          0.100618         0.0309577        -0.0973121          0.128931        -0.0342926          0.126448         -0.168096         0.0502319         0.0137467         -0.448411          0.112106            1.0561           1.52747           1.52608           1.36538           1.13166           1.24762           1.26511           1.45015           1.22804           1.37203            1.4503           1.37635           1.34892            1.7611           1.55909           1.10592           1.35642           1.52764           1.29266           1.55542           1.50891           1.53232           1.72024           1.14343            1.6703          0.998059           1.31359           1.42158           1.52615           1.62808           1.47869           1.80976           1.67651           1.58068           1.72407           1.69478           1.62161           1.79355           1.76998           1.60376           1.75222           1.36537           1.50345           1.60154           1.60087            1.7084           1.31011           1.74437           1.58972           1.80047
         -0.101859          0.829242        -0.0358397          0.161489        -0.0144163          0.116393         0.0800955          0.121839        -0.0299821         -0.123262       -0.00142617        -0.0312112         0.0207634         -0.110397       -0.00187448         0.0507704          0.117255           0.14316         -0.107962          0.183107         -0.329126          0.079706          -0.06931        0.00378291         -0.108535         -0.483573          0.340996          0.390792          0.815994          0.723992          0.661016          0.862596          0.820365          0.824466          0.882039          0.851704          0.725147          0.646739           0.99177          0.748881          0.741137          0.759384          0.650867           1.03454          0.788943          0.974787          0.564314           0.76136          0.677077          0.922191         -0.104734           0.81891          0.692062          0.630268           1.20506         0.0596114          0.949142          0.631686          0.919708          0.810683          0.475857          0.876522          0.793229          0.918653          0.845325          0.892443          0.877514          0.777354          0.730582          0.665126          0.774004           0.85966          0.678074           1.00301          0.960624
         -0.183531          0.243708          0.255423         -0.056444         -0.169349           0.79729         -0.289857         0.0532282         0.0242749          0.143704          0.118897          0.134424         -0.175116        0.00685148         -0.116442         -0.080267         0.0705309         0.0620353             0.164         0.0871063        -0.0961222         0.0462587         0.0564295         0.0397482         0.0128823          0.271101          0.389621          0.230176         0.0733086          0.123429          0.015665          0.121333         0.0983008          0.380175          0.325508          0.359909         -0.226223         0.0704097         0.0670453          0.255047          0.203444         0.0417397          0.126495         0.0263994          0.360567          -0.14001          0.375132          0.164816         -0.230684        -0.0952087          0.199856         0.0166477          0.284522           0.54174          0.536173          0.886529          0.168347          0.511325          0.556724           0.38406          0.299772          0.817075          0.216419          0.534787          0.572686          0.727073          0.508343          0.447305          0.763219          0.511902          0.578541          0.556772          0.573901          0.669839           0.62559
         -0.246941         0.0580168          0.117531         0.0154205         -0.154424          0.816483          0.152582          0.202254         -0.168163         0.0839468         0.0262319          -0.15865        -0.0136355         0.0550871          -0.16453           0.20383          0.114939         -0.010922        -0.0133419         -0.125406        0.00353627        -0.0552668             0.139          0.101112          0.212148          0.620276          0.851151         -0.190458          -0.10664        -0.0983274          0.664472        -0.0641534         -0.248636        -0.0528284         -0.331529         -0.162446         -0.233798           0.19927         -0.143222        -0.0105878         -0.236081        -0.0654668          -0.35449          0.108887         -0.157818         0.0372132         -0.119397          0.219357         -0.133341          -0.52147        0.00103949         0.0329514           1.03153           1.03868          0.851471          0.767624          0.898291          0.898835          0.711379           1.01821            1.0675          0.780751          0.795578           1.15393          0.890019          0.673556          0.760302          0.781285           1.04406            1.1562          0.949208          0.717284          0.861055          0.843898          0.922516

bias 0:
                 0
                 0
                 0
                 0
                 0
                 0
                 0

