weight 0:
          -0.42555         -0.552157         -0.025329         0.0459606         -0.197827         0.0177366        -0.0451974         -0.152158        -0.0159941        -0.0763969        -0.0815011          0.116403          0.243821         -0.180837           0.17849          0.156358         0.0736899        -0.0526059          0.125014         -0.155876         0.0860651        -0.0927656         0.0606568          -0.10887        -0.0327588        -0.0854249         -0.631928         -0.244519           0.35264        -0.0984927          0.166332         0.0300688         -0.105762         -0.318778         -0.345777         0.0376897         0.0286577        -0.0735076         -0.354064         -0.297454         -0.250285         -0.204759          0.347481        -0.0263356         -0.242273         0.0939221          0.239046         -0.196167          0.198319        -0.0896312        -0.0464629           0.24759           0.38379          0.280129          0.351131          0.128301          0.457193          0.309706          0.255431         0.0973943          0.489314          0.486146          0.301894           0.48428          0.213438          0.493931          0.285946           0.61038          0.499446          0.204439          0.462532          0.292214          0.122336          0.265801           0.28086
          0.555406          0.414209         0.0273895        -0.0802962        -0.0629644         -0.504622         -0.186328        -0.0396525        -0.0210356          0.247838         0.0115458          0.162018          0.261907         -0.485476        -0.0158042          0.177692         0.0591598         0.0794535          0.330867       0.000904337         -0.127169        0.00328116           0.26852         -0.140397          0.122577          0.296641          0.575334          0.271582        0.00330399          -0.32865         -0.124942         -0.204865         0.0332536          0.241552          0.486171         -0.237716         0.0290576          0.100305         0.0470274          0.283553          0.272205          -0.14842         0.0926743          0.138321         0.0208098           0.25496         -0.117375         -0.327831         -0.077999           0.25894          0.342976          0.297229         -0.135658         -0.528583         -0.159679          -0.21066         -0.340543         -0.186902         -0.126888         -0.228362          -0.28573         -0.262914         -0.239183         -0.303812         0.0042191         -0.241387        -0.0255102         -0.531476          0.120783         -0.358631        -0.0829053       -0.00459928         -0.333412         -0.101313         -0.344542
         -0.413513         -0.249691         0.0176514          0.351298          0.106799          0.582888        -0.0941253          0.218213        -0.0249483          -0.24266         -0.067548         0.0428293        -0.0912876          0.101263         0.0197589         -0.218159          0.148125           0.49079        -0.0615931          0.263381        -0.0522138          0.149198          0.104454         -0.244524        -0.0678912          -0.16573         -0.463434          0.113029         0.0433256         -0.118434          0.181937          0.275295          0.224288          -0.21503        -0.0398455           0.29705         0.0197312          0.202918        -0.0674347         -0.350567        -0.0578311        -0.0453047         0.0075272        -0.0306285          0.204919         -0.207492         -0.265191          0.101554         0.0523427        -0.0892437        -0.0584133          0.105632          0.604604          0.379493          0.600074          0.351843           0.33708          0.211884          0.615477          0.509837          0.158201          0.449362            0.1353          0.249513          0.510431         0.0483401           0.64597          0.483691          0.212775          0.608357          0.386047          0.126712          0.623621          0.138154           0.34996
           0.45616          0.255931        -0.0427753          0.173074         0.0352597         -0.155716         -0.137996          0.217461          0.241397          0.150006        0.00174494        -0.0950422        -0.0977247         -0.100635          0.158881         0.0892165        -0.0390613          0.187196         0.0239621          0.184713         -0.109849          0.108492         0.0720044         -0.390182           0.17037          0.301446           0.45157         0.0972093        -0.0634935         -0.297233         -0.388636         -0.163771         0.0212793         -0.200844        -0.0568406         0.0214295        -0.0525215        -0.0799606          0.332249          0.130225         -0.322977         -0.072457         0.0987777         -0.136225          0.126561         0.0800446           0.10345          0.291386         -0.285458          0.241441          0.431509         -0.320446         -0.382427         -0.277849         -0.175915         -0.131568         0.0057834         -0.127477         -0.223314        -0.0799174         -0.109211         -0.182387        -0.0104326        -0.0340001         -0.200231        -0.0517616         -0.438637         -0.300552          -0.20245         -0.203128        -0.0955899         -0.493905        -0.0596195         -0.214272       -0.00350959
       -0.00707739          0.366887         0.0270939          0.224435         0.0485187         -0.156063          0.143036          0.184782         0.0329519        -0.0603337         0.0615096         0.0317227         0.0837005        -0.0474679         0.0610612          0.113709          0.180198          0.206105        -0.0450333          0.246054         -0.266211          0.142647       -0.00637855          0.066719        -0.0456055          0.161041          0.392344          -0.35037         0.0748583        -0.0171496         -0.203716          0.121464           0.07923         0.0833304          0.140907           0.11057        -0.0159942        -0.0944073          0.250645        0.00774105      -3.38076e-06         0.0182446         -0.090279          0.293419         0.0478054          0.233662         -0.176837         0.0202211        -0.0640676          0.181062          0.447126         0.0262867         -0.230264         -0.292061          0.282762         -0.164013         0.0268324         -0.290644       -0.00260386         -0.111636         -0.446482        -0.0457928          -0.12909       -0.00365894         -0.076991        -0.0298707           -0.0448         -0.144966         -0.191742         -0.257202         -0.148317        -0.0626555         -0.244253         0.0806998         0.0383146
         -0.242695         -0.241033          0.255439        -0.0564476          -0.16936          0.118278         -0.289875         0.0532315         0.0242764          0.143713          0.118904          0.134432         -0.175127        0.00685191         -0.116449         -0.080272         0.0705353         0.0620392           0.16401         0.0871117        -0.0961282         0.0462616          0.056433         0.0397507         0.0128831         -0.135198        -0.0465475          0.123399        -0.0334785         0.0166455         -0.126194         0.0145484       -0.00848474          0.273407          0.218737           0.25314         -0.333028        -0.0363775        -0.0397422          0.148272          0.096665        -0.0650494         0.0197115        -0.0803906          0.253798          -0.24681          0.268363         0.0580347         -0.337491         -0.202006         -0.404045          0.315026          -0.25112        0.00611469       0.000546849          0.112721         -0.367301         -0.024302         0.0210995         -0.151575         -0.235868          0.281467         -0.319227      -0.000838552         0.0370631           0.19146        -0.0272843        -0.0883261          0.227608        -0.0237254         0.0429179         0.0211472         0.0382778          0.134221         0.0899699
         -0.380715         -0.100267         0.0545702        -0.0475464         -0.217402         -0.150657         0.0896231          0.139299         -0.231142         0.0209841        -0.0367344         -0.221628        -0.0766043       -0.00787735         -0.227508          0.140875         0.0519778        -0.0738906        -0.0763106         -0.188382        -0.0594314         -0.118238          0.076041         0.0381503          0.149193         -0.242879         0.0475786         -0.146446        -0.0626233        -0.0543103         -0.140287        -0.0201342         -0.204628       -0.00880846         -0.287526         -0.118433          -0.18979          0.243305        -0.0992079         0.0334348         -0.192072        -0.0214477         -0.310489          0.152918         -0.113805         0.0812388        -0.0753814          0.263394        -0.0893259          -0.47748         0.0294616          0.320174         0.0623958         0.0695459         -0.117677         -0.188039         -0.070854          -0.07031         -0.257777         0.0490761          0.098371         -0.188401         -0.173573          0.184796        -0.0791261         -0.295603         -0.208851         -0.187867         0.0749277          0.187075        -0.0199332         -0.251872         -0.108092          -0.12525        -0.0466267

bias 0:
        0.00832842
       -0.00334634
         0.0139736
       -0.00600284
       -0.00121893
                 0
       -0.00048684

