weight 0:
        -0.0439762        -0.0161551          0.374936         -0.407215         -0.132499          0.700856         0.0881154         -0.879353         -0.462769         -0.344678         -0.730696          0.643297         -0.661402          0.696146          0.519632        -0.0757181         -0.135993          0.414511          0.214678          0.296985         -0.581949          0.364394         0.0441514           0.97553           1.56918          -1.06277          0.103933         -0.327772          0.235452         -0.393359          -0.62933           1.33594         -0.219054           -1.1606          0.151695          0.896964          0.706408         -0.146807           1.71018          0.498521          -0.19358          -0.99051          -0.46312          0.385197          0.704101         -0.494159         -0.168098         -0.281406         -0.251535        -0.0658689          0.267218           2.11948           1.18586          0.288297         -0.354256           1.63688         -0.193309          0.502646        -0.0601716         -0.545925          0.499534           0.81293        -0.0271921         -0.456166         -0.474119         -0.557187          0.680899          0.254346         -0.567689           2.02686           -1.6581          -1.17593         -0.457101         -0.617784         -0.198003         -0.457987         -0.543291          0.155238          0.107917         0.0199664           1.35957         -0.709295         -0.680749         -0.669849          0.290639         -0.556574         -0.359289          0.564999          0.604654        -0.0610512           0.19717         -0.981545          0.227256         -0.612464         -0.858887         -0.043378         -0.890762         -0.626449          -0.88777         -0.767534        -0.0827411         -0.064344           1.86733         -0.625555          0.554334           0.77969           1.05673         -0.496812          0.240791         -0.556159         -0.883985          0.249307         -0.386415          0.595978          0.683607           1.75329         -0.696557         -0.617554           1.19651         -0.691873         0.0422682         -0.358822         -0.722219         -0.379619          0.734816         -0.287685         -0.250928        -0.0731531         -0.906243          0.341926         -0.500603         -0.271393            -1.235         -0.544936          -1.25813         -0.680721            0.4117         -0.946121          0.423705         -0.897744           2.03409           1.27669         -0.596623         -0.397548          0.249645          0.150738         -0.508322          0.466587           1.26942          -0.18608          0.272001         -0.590633           2.20741         -0.358304         -0.309523         -0.715077          0.602863         -0.626823         -0.599692           1.22036         -0.716418         -0.269917         -0.861452         -0.381549         -0.635517          0.412501         -0.585471          0.382661          0.260307          -0.34056         -0.639027           2.06002         -0.928867         -0.178912      -0.000372258          0.544901         -0.198037          0.574303           1.68938         -0.847023         -0.421612         -0.517553         -0.872567           1.90499         -0.147329        -0.0940344          -1.05394           2.10266        -0.0175188          -1.01066         -0.575926          0.903737         -0.939155          -0.31345          0.356746           1.80115         -0.708893            1.0375           1.55596          0.020279         0.0127815         -0.408518         -0.877813           1.81625          0.775849         -0.109342         -0.589522         -0.305854         -0.338576         -0.663829        -0.0255696         -0.352027         -0.587434           0.48312          0.924114         -0.781801         -0.888245          0.734446         0.0659231           1.52655          -1.20094         -0.833687          0.868322          0.488121         0.0638831          0.229815          0.163669          0.966793           1.49338         -0.600409         0.0181081         -0.887577         -0.339276         -0.258072         -0.404145         -0.703975         -0.374577        -0.0866938         -0.116327         -0.407723         -0.701535        -0.0684856           0.68554          -0.74081          0.891429         -0.510554           1.60242          0.116038         -0.340983        -0.0655808          0.916524          0.474875          0.363499          0.913861         -0.918854         -0.804444         -0.365029         -0.469292            1.1002          0.602427         -0.544933          0.088405          0.314534           1.60203         -0.262507          0.187428         -0.673146         -0.424602         -0.727714         -0.790551          0.268967         -0.062855          0.728395          0.950572        -0.0103525         -0.397122          0.757644         -0.826429          0.145598          0.912478         0.0717903         -0.164795          0.267212            1.7554          0.619236           -0.4382         -0.718077          -0.99453         -0.153495          0.809753         -0.532818         -0.392774          0.882056         0.0197444          0.655015         -0.265639         -0.349526          0.634943         -0.151614          -1.00736          0.103845        -0.0828771         0.0412543          0.368023           1.85482         -0.915755           1.02513         -0.811678            1.0756         -0.218221         -0.585952          0.227906         0.0973163         -0.811566          0.728833            1.2754           2.03488         -0.784157         -0.479756          0.178306         -0.295383         -0.455694           0.70795          0.189254         -0.640972           0.14122          0.445326         -0.717594         0.0513562           0.21346          0.475518         -0.679569         -0.195278         -0.597869          0.533946           1.68799         -0.881318          0.563595          0.935077         -0.476957         -0.517833         -0.659881          0.329382           1.76638         0.0478124          0.440975          0.124784         -0.774553         -0.239682         -0.399954         -0.951417          0.480484         -0.565064         -0.588438           1.04148          0.907666           1.59917           1.63736           1.18543         -0.449372          0.504597           1.60373           0.58493          0.105583          0.250773          0.336151          0.167715         -0.270429         -0.954668         -0.562272         -0.644028         -0.507917          0.502847          0.778811          -0.42314            1.1233           2.03043         -0.797912           1.57011         -0.723538           1.04089         -0.638288         -0.711517         -0.989317
         -0.396977           1.69184         -0.566767          0.778955         -0.242242         -0.157274          -1.12806          -0.53708         -0.545156          0.617208          -0.92518         -0.115894          -1.19905         -0.577015          -1.17303          -1.07955         -0.660857        -0.0466367         -0.997225          -1.07135          -1.00489         -0.420062          -1.43198         -0.839816         -0.388883          0.659249         -0.249405          0.409852         -0.936114         -0.234738          0.425925          -1.13725         -0.070155         -0.193421         -0.490985         -0.739268         0.0193428         -0.569108          -1.17034          -1.34303          0.160517         0.0185777         -0.966862          -0.30636          -1.10567        -0.0671332           -1.3642         -0.738306         -0.948802          0.292846         -0.904273          -1.04884        -0.0722201         0.0416434         -0.628686         -0.994965         -0.922196          0.343294         -0.642885         -0.586454         -0.402704          -1.34947         -0.307662         -0.433038          0.456914          0.512985         -0.906862           0.52244          0.279435         -0.896078         -0.534437         -0.843357           -1.1883         -0.356822          0.240157         -0.869345         -0.236442         -0.804008         -0.665974         -0.766617          -1.04793         -0.779141         -0.921972         -0.458109          -1.33156         -0.327934          0.461263          0.268229          -1.06944         -0.475737         -0.619995           1.12495          0.165902         -0.741265         -0.886538          0.202158          0.604946          0.828172         -0.574418         -0.344002         -0.376843          -1.16613         -0.377466         -0.730839           0.14262         -0.959417          0.529741           -0.9959          0.365165         -0.034757          0.644429         -0.754664         -0.498673          0.120723         -0.890675          -1.20133          0.574388         -0.352286         -0.475377          -1.59606       -0.00541038         -0.949079          0.350676         -0.913812          -1.26331          -0.82268          0.689951         -0.131243         -0.492024         -0.508571          -0.34346          0.107867          0.472936         -0.119819          -1.29957          -1.02567           0.13027          -1.14498         -0.958088          -1.15893          -1.17732          0.336154          0.293096         -0.509261         -0.344812          0.306825          0.752153          -1.13217         -0.688847          -0.63599         -0.472355         -0.581712         -0.699198         -0.601759         0.0703184         -0.628123         -0.245286          -1.30755          0.169769          -1.06886         -0.439017         -0.427211         -0.733256         -0.569735         -0.415228          -1.05376         -0.180007          -0.95167          -1.34156         -0.861234        -0.0810229          -1.15086         -0.748117          0.276233         -0.809148         -0.307729         -0.490028         -0.820947         -0.840797         -0.163415           -0.4724        -0.0119419         -0.507168          0.274773         -0.412911          -1.50335          0.662147         -0.825604         -0.766087        -0.0509803         -0.260018          -1.03488          0.556018          0.390592          0.271254           -1.0659          0.805551          -1.06812          -1.37283          0.147792         -0.731663           -1.3725           0.62364          0.146032          -1.27516         -0.714608         -0.373282         -0.762706         -0.884693          0.642641         -0.772475          0.628355          0.622214           -1.0033          -1.45697         -0.295701         -0.635454           0.02352         -0.859406         0.0712605         -0.329665         -0.565453          -1.31964          -1.52066         -0.430673          -1.00944         -0.283853         0.0318021          -1.41826          0.637934         -0.377404         -0.599974         -0.830231          -1.26232         -0.727702         -0.355945           0.24336          -1.29882          0.581634         -0.401036         -0.498165        -0.0292194          -1.03923         -0.607165         -0.935472         -0.348662         0.0801821         -0.503681         -0.159974         -0.610029         -0.949383          -1.21311          0.330732         -0.537221        -0.0916439         -0.874486          0.404279         -0.427068         -0.693211          0.206979         -0.429558         -0.664037          -1.24613         -0.716139           0.27547          -1.22045         -0.413669         -0.605433         -0.523849          0.342676          -0.83866          0.186556          0.525714          -1.26187           0.13573          -0.86684         -0.322372         -0.200736         0.0561355          -1.05586         -0.619366         -0.981976         -0.664205          -0.80122         -0.395247         -0.833978         -0.195353         -0.464451          0.475914         -0.562079         -0.765053          0.474328         -0.972557         -0.695557         -0.854409         -0.754849           1.53012         0.0351165         0.0243157         -0.132741         -0.723976           1.12846          0.371566          -1.29405         -0.657727         -0.653676         -0.931876          0.189229          0.299759         -0.985907           0.12316          0.017593         -0.949438         -0.156355         -0.552347         -0.406404           0.17624         -0.843415          0.450774         -0.871644         0.0211527          0.576248         -0.714591         -0.812732          -1.01828         -0.949778         -0.139723          0.660155          -1.02291         -0.831915          -1.08433         -0.416425          -1.07225         -0.541874          -1.06368         0.0246942          0.398026         0.0913441         -0.434654           0.14915          0.249622          0.111326         -0.736975         -0.955956         -0.308726         -0.475714           1.02644          0.242514         -0.928161         -0.653753          0.610695         -0.867474        0.00178104         -0.252442          -1.21177         -0.686001         -0.776604         -0.705734          -1.28267          0.424862         -0.926989         -0.760946         -0.677227         -0.921336          0.153162           -1.0573         -0.719646         -0.463614         -0.988315         -0.943751          0.821847          0.617804          0.140362          -1.16009         -0.926771           -1.0816          -1.26843         -0.290767          -1.09312          0.264321         -0.757823         -0.243608          0.411112          0.566753
          -0.53367         -0.105427         -0.362506          -1.07215          0.575919         -0.876876         -0.796387          -1.18276         -0.574466         -0.879947          -0.52405          0.440966         -0.734258        -0.0999229          0.536724         -0.450501         -0.593069          0.726846          -1.04947          0.314602         -0.596795          -0.03499         -0.304527          0.253783         0.0280102         -0.652107         -0.674903         -0.944632         -0.647801          -1.44005          0.200831         -0.471627          0.791537          -1.01574         -0.236095          0.135437         -0.715039         -0.176964         -0.180803        -0.0220828         -0.459836         -0.945052          0.551436         -0.101572          0.330434          -1.32124         -0.603931           -0.4973          0.683125          0.343667         -0.747493        -0.0140009          -1.64397         -0.291597         -0.904256          -1.01474         -0.581926          -1.32636         -0.623142         -0.741346          0.293397         0.0416379         -0.960547         -0.776881         -0.723241          0.304997         -0.629494          0.243323          -1.17589         -0.255665           -1.1685         -0.415261         -0.834308          -1.40444        0.00616587         -0.745336         -0.808959         -0.625278          0.461861          0.456566         -0.489213         -0.812873         -0.218032          -1.04956          0.465327         -0.993851         -0.750504         -0.986373          0.942297          0.207232           0.18643          -1.06413        0.00853228         -0.888722          -1.36316         0.0954073         -0.420507          -1.00271         -0.824306         -0.962959         -0.523102         -0.572424          0.352339         -0.152368           1.13764          -0.36884            1.1592         -0.742687         -0.504177         -0.892487          -1.28542          0.438853          0.188632         -0.830589         -0.915648          0.317637         -0.669079         -0.702996           1.25463          -0.56681         -0.909111         -0.497408          0.309436         -0.776582         -0.111025         -0.908097          0.511414         -0.626155         0.0442312         -0.716844          -0.29139          0.540244          -1.11933          -1.15403         -0.709607          -1.14221         -0.930728         -0.844078         -0.702821         -0.723612         -0.849763         -0.879668          -0.12189         -0.684458         -0.393422          -1.07312          -1.15896         -0.640026         -0.484055          0.662404          -0.97636         -0.575446          0.653095          0.535227          0.354364         -0.777556         -0.551909         -0.692487          -1.14901         0.0535866          -1.17718          -1.29225          -1.03088         -0.398856         -0.988516         -0.102671          -1.05837          -0.65264           1.38964         -0.654886         -0.938967           1.16102          -1.07792         -0.881094          -1.26504          0.428232          -1.00451        -0.0875281          -0.52215         -0.951858          -1.42371          -1.05265          -1.28208          0.160887         -0.946505         -0.515876          -1.15606         -0.588621          -1.67155       0.000870225         0.0816738         -0.774531          -1.01917         -0.579211         -0.572688         -0.969193          0.183853           1.30351           1.51831          0.525679          -1.29871         -0.249633          -1.00059         -0.288893          0.023119         -0.591039          -0.77037         -0.586534         -0.430379         -0.696821         -0.479417          -1.14643         -0.891278         -0.863853         -0.027315          -0.88918         -0.462229          -1.06665         -0.726407         -0.658126         -0.246715         -0.762398          0.725268          -0.31728         -0.863547          0.406414          -0.79951         -0.142007          0.278758          -0.99392          -1.15173          -1.18127         -0.703814           0.29204           0.36799          0.129763          0.186677         -0.191861         -0.304074          -1.15771          -1.44157         -0.990464         -0.595781          0.503345         -0.538087           -0.6381         -0.148893         -0.816216          -0.47628          0.395151           1.11921         -0.638085         0.0613095          -1.31554          -1.39391         -0.204122         -0.848215         -0.476883          0.919647          0.401303          -1.32912          0.239846         -0.912058         -0.812695          -0.44661         -0.487834          -1.32143         -0.608373           -1.2541         -0.953187          -1.12785          -0.83266         -0.496546          0.893719          0.579193         -0.703804          -1.76992         0.0632126           1.07915           1.40237         -0.847268         -0.900471         -0.513342          0.504573         -0.386449         0.0603408          -1.00701        -0.0593354          0.924664         0.0470765            0.3941          -0.75151           0.47292         -0.437977          0.386624         -0.638567           -1.0476         0.0199575         -0.813066          -1.03335         -0.762617           -0.4221          0.523806          0.932593         -0.497287          0.638173          0.456784          -0.58819          0.892046           0.54367          0.267523         0.0829433         -0.802939          -1.03438          -1.19147         -0.939816          -1.02622          -1.52524         -0.938898            -1.071         -0.410186         -0.781244          0.297651          0.233037         -0.895969          -0.79916          0.884914           -1.5778         -0.632933           1.11832         -0.828123         -0.653705          -1.07607           0.66871         -0.902051         0.0381068          -1.01027          -1.16248          0.714889         -0.871361          0.311236          -1.16722         -0.636863          -1.04682         -0.952166          -1.12968         -0.644547         -0.616948         -0.172746         -0.749904         -0.795071        -0.0490169         -0.947947         -0.879657          0.175158           1.34411         -0.472079         -0.980216            1.3218         -0.675743         -0.723246         -0.752409         -0.793736         -0.911707          0.338078        -0.0317668          0.031857         -0.683451           0.18389         -0.520004         -0.905025         -0.844649          0.473226         0.0921543          -1.11941         -0.703052          0.758865         -0.938108          0.324662        -0.0143341         -0.767604         -0.650303          0.378717         -0.965951
          0.511777          0.323339          0.577081          0.542731        -0.0136282          0.544918          0.625048          0.599586          0.404587          0.439337          0.393306           1.15957          0.975175          0.237251           1.07832          0.578455          0.885112            0.5974           1.36434           1.21243          0.500921            0.4265          0.424246          0.606557          0.329914          0.553806           1.29867          0.645572           1.28149           1.15401           0.35178          0.874291          0.216651         -0.761162           1.01544        -0.0718902           1.20769           0.49505          0.647307          0.742487          0.746892          0.322648          0.459233          0.595342          0.807324          0.434736          0.375894          0.194176          0.558667          0.578494           1.37529          0.394106            1.0381          0.391372           1.29941           1.00943           1.02909          0.474691          0.816461            0.4684         -0.654094          0.452096           1.38113          0.396053          0.440965           0.56896           1.25467           1.11975          0.678693           1.16307          0.337905          0.378191           1.32271          0.609684          0.696016          -1.06926          0.578429           0.60716          0.616366           1.37845          0.664768         -0.671015          -1.07102           0.37326          0.938625          0.340791          0.395262           1.30421          0.473707          0.775357          0.708179          0.539179          0.687949          0.703105          0.660307           1.41649          0.414106          0.485238          0.490016          0.830797        -0.0084365          0.865086         0.0826683          0.561198           0.68745          0.461739          0.940226          0.273406           1.36326          0.577971         -0.662017           1.33843         -0.567989           1.25299           1.05496          0.486782          0.579731          0.430359          0.162436        -0.0379271           1.32473          0.470813          0.656023          0.334237          0.215196          0.527135          0.400011          0.472606          0.296242          0.748877          0.495594          0.446699          0.327735           1.01574          0.643963           0.82846           1.50174          0.650863          0.955844          0.381931           1.23531           1.03382         -0.862925          0.329406         -0.808705           1.43475          0.549428          0.683313          0.715569          0.349307          0.537232          0.498584            1.2749          0.279838         -0.737663         -0.739052          0.548785          0.331964          0.579804          0.723301          0.815924          0.753116          0.657981          0.390482          0.513436          0.751124          0.508614            1.5431          0.730612          0.534858          0.717254          0.793056          0.770972          0.674411           1.57983           1.28374          0.818055           0.50763           1.38173         -0.895713          0.532045         -0.478051         -0.125452           1.20351            1.2979          0.783328          0.530297           1.42646         -0.812721          -0.46021          0.390233          0.587532         -0.795924          0.360522          0.445686           1.24092           0.14439          0.913441          0.835634          0.277747          0.827954          0.445676         -0.765756          0.709681          0.907552          0.680422         -0.856852         -0.380054          0.671105         -0.794178          0.511878          0.588951          -0.55639          0.991385          0.517001          0.759134           0.92397            1.0976           1.15244           1.06945          0.514837          0.701442          0.580097          0.471951           1.11848           1.52766          0.582091          0.689352          0.602729         -0.681104           1.46426           0.26019          0.649119          0.742453           1.20574          0.583532          0.510656          0.680456            1.1053          0.288082          0.318998           1.39955           1.02997          0.478242          0.667853         -0.066494           1.01461          0.861565          0.263086           1.25779          0.686944          0.913558          0.647293          0.430234          0.407124         -0.159288          0.429343           0.28582           1.20361          0.448252           0.42138           1.30474          0.602122           1.06184          0.325344          0.418376          0.595366          0.722541          0.451998          0.483393           1.22417          0.510816          0.515789          0.653018          0.666695          0.415195           1.92764          0.631976          0.683903          0.919203          0.565949           1.29676          0.836237           1.21907          0.617452          0.954585          0.668117          0.375604         -0.468099           0.64363              0.67         -0.664306          0.657903          0.559637          0.622984          0.421856         -0.933721          0.728079         -0.446329          0.132115           1.17397          0.344352           0.69452          0.718228           1.20306          0.757846          0.641254          0.570494          0.850416           1.20746          0.488767           1.36389            1.2229          0.520096           1.48805           1.06311          0.778662          0.515814          0.544118           1.27642          0.504617           0.49788           1.45986            1.3723          0.445996          0.630827          0.609771          0.755009          0.667296         0.0830822          0.627149          0.584934           1.16237          0.182905           1.27615           1.30711          0.520874           1.36895           1.26398          0.682209          0.551885          0.720333           1.38764           1.13868           1.22806          -0.63013           1.08355         -0.903302          0.535073          0.469265          0.625771         -0.259396          0.622214          0.845575          0.478067          0.836246           1.37667           1.19092          0.855901           0.43202           1.16945           1.12713          0.532037           1.36532         -0.552535           0.92982           0.92015         -0.769004         -0.511293           0.32844          0.830575         -0.973204          0.655618           0.33452          0.557416          0.513971           1.06037          0.258545          0.845706          0.347975          0.573554          0.496307          0.512391          0.497483
         -0.925215           0.71074          -1.22398         0.0250916         -0.987067          -1.31745          -1.46676          -1.53714         0.0856327          -1.19907          -1.00631            1.0715         -0.956901         -0.431345         -0.291063         -0.830704         -0.106804         -0.817845         -0.279863         -0.298598          0.163297         -0.961777          -1.43374         -0.503875          0.325782          -1.04023        -0.0658826          -1.26238         -0.390245         -0.169879         -0.764884          0.499303          0.242354          -1.26237          0.714557         -0.584002         -0.324114         -0.665912          0.175277         -0.763887         -0.796881            -1.336         -0.744758         -0.667778         -0.770137         -0.918532          -1.36605          -1.17366          -1.00033         -0.718842         -0.301792         -0.299589         -0.334967         -0.139628         -0.387586          0.182987          0.280277         0.0504692         -0.862602          -1.14463         -0.314509          -0.69167         -0.408105          -1.01663         -0.605833         -0.736104         0.0236185         -0.366094         -0.590271           0.20916         -0.917312          -1.49788          -0.86627         -0.719249         -0.313551          -1.00836         -0.821519         -0.657506         -0.639592         -0.575009        -0.0603831          -1.06163          -1.25835         -0.789495         -0.560941          -1.17126         -0.828804         -0.233846         -0.535343         -0.394415        -0.0824804         -0.062349         -0.815548          -1.13365          0.413097         -0.335393         -0.805879         -0.426499          -0.74695          -1.20652         -0.700471         -0.809316         -0.663457          -0.97448         -0.398396         -0.257672           1.26508         -0.874028           1.12928          -1.66656        -0.0275854             1.128         -0.772983          0.867508          0.085933         -0.844508         -0.162983          0.349064         -0.846825         -0.684754           -0.1428         -0.954765         -0.229112          -1.40403         -0.492862         -0.738013          -1.24741          -0.71147          -1.14024         -0.828949          -0.68905         -0.549893          -1.02176         -0.694491         0.0695412          -1.16659        -0.0200243         -0.063046           1.03415          -1.10333         -0.428025         -0.847411          -1.27014          -1.00998         -0.458197         -0.275451          -1.29098           -0.2697         -0.899377          -1.01203         -0.247811         -0.789787         0.0431417          -1.36436          -1.24382          -1.25429          -1.21845         -0.477728          -1.12994         -0.594022          -0.18313         -0.727677         -0.110393         -0.180011         -0.648401         -0.653762          -1.32176         -0.445967         -0.747525          -1.17382          0.326406          0.488249          -1.07349          -0.11383         -0.524525          -0.43822         -0.117735          -1.32522          0.176765         -0.974253          -0.62535         -0.463873          -0.75196        -0.0558575         -0.416018         -0.384658          -1.35147         -0.245223           -1.1043         -0.946733         -0.861175          -1.13448          -1.17305         -0.451711         -0.829599         -0.200841         -0.807469          0.642662         0.0892327         -0.999493         -0.395857         -0.937088          -1.19227           -0.5944          0.310088          0.323922         -0.797548         -0.167417          -1.49983          -1.29028          -1.14161          -1.16249          -1.05243         -0.301628         -0.250094         -0.712611         -0.567363          0.213161         -0.249158         -0.170068         -0.331208          -1.20142          0.784995         -0.809383          0.830607         -0.169192           -0.8453          0.177622         0.0464668          -1.63243         -0.406954          -1.04243          0.167383        -0.0384686         -0.797053          -1.13367          -1.05766         -0.552611          0.819271          -1.17778          -1.78324         -0.125768         -0.206579          -0.11787         -0.456738         -0.570567         -0.202482         -0.375131         -0.372231         -0.581527         -0.624597          -1.05704         -0.312863         -0.853668          -1.18561         -0.862961         -0.650247         -0.567717         -0.372094         -0.342013          -1.18807           1.04608      -0.000162383            0.9951         -0.891058         -0.285402         -0.944036          0.101822           -1.1992          -1.08931         -0.203504          -1.33773         0.0846966         -0.410619          -1.02434         -0.377291         -0.548572         -0.716106          0.658087          0.866734          -1.06451           1.03544          0.904834         -0.492069          -0.25042         -0.580774          -1.52761          -1.06615         -0.349886         -0.910053         -0.887752          0.247183         -0.530207          -1.25051         -0.675064          -1.14504         -0.397458         -0.469676         -0.769818         -0.365207         0.0438224        0.00785165         -0.439503         -0.788748          -0.42271         -0.653311         -0.869135         -0.775003           -0.3795         -0.154258         -0.774831        -0.0291488          0.805481         -0.248213        -0.0563377         -0.133954          0.369376         -0.909292           -1.1574          0.830182          0.149773          -1.47032         -0.183639         -0.462963          -1.32269         -0.592371         -0.607664          -1.17256         -0.488315         -0.656527         -0.734322          -1.16347         -0.618807         -0.338283           1.01017         -0.240531         0.0324801         -0.244927         -0.129116         -0.684946          -1.14078         -0.773894          -0.23279           1.30986         -0.217305          0.235614        -0.0512496         -0.622445          -1.50219         -0.631978         -0.970426          0.450168          -1.06691         -0.571953          0.152328         0.0679973         -0.274266         -0.208596         -0.936688          -0.38473         0.0185165        -0.0256714         -0.247238         -0.513566          0.433628         -0.126579         -0.429569          -1.29284          -1.05667          0.323922         -0.147107         -0.135615         -0.676327          -1.45479          0.391075         -0.700576         -0.489716         -0.373811          -0.73104          -1.19074          -1.03201         -0.882348         -0.855804          -1.09943
         -0.773609          0.444826           1.32155          0.556619        -0.0303288           1.06014          0.460997           1.50684         0.0485986          0.563184          0.238179            0.3181          0.140924         -0.491316         -0.563954         -0.829731           1.40903          -1.04185         -0.797754          0.189575         -0.158043          0.810545          0.326329          -1.03579        -0.0197994          0.456697         -0.916949        -0.0468323         -0.875455          0.165098           1.52287          0.791567          0.801457           1.21841         -0.375191         -0.735881         -0.857084          0.657382          -1.29962          -1.06889          0.032358           1.16315          0.956102          0.139644          -1.05379         -0.102842         -0.748751         -0.739934          0.521439           1.17632         -0.480692           0.35577          0.247161          0.729919           1.33733         -0.809021          0.363638           1.19314           1.09817          0.165708        -0.0649799          0.334467        -0.0821261           1.05039          0.247551         -0.176729          0.157254         0.0408021          0.340425          0.531328          0.290916          0.634348        -0.0130088           1.99205          0.207295         -0.311824          0.880994           1.58498          0.974794          -0.67159         -0.316124         0.0305188         -0.199486           1.30835         -0.705295        -0.0276006         0.0173365          0.250793         -0.382307        -0.0382428          0.397143          0.370867          0.410026          0.383846          0.710953          -1.37472          0.192903          0.975538         -0.335934        -0.0845028          0.592519           1.50576         -0.895263           1.14063          -1.17001          0.990388         -0.495234          -1.01776           0.11363        -0.0489199          0.843622          -1.20876           0.83953         -0.899836         -0.847666          0.215746           1.21592           1.23122          -1.11071           1.28483          0.142248          -1.10392          0.676547         -0.566682         -0.623818           1.53032          0.737815          0.695523          0.496462          0.502909         0.0779704        -0.0898008          0.299194          0.949857         0.0374838          0.250314          -1.04654           1.84973         -0.834502          0.164796         -0.967554         -0.206689         -0.126165         -0.377086           1.45697         -0.885472           1.47013           0.37573           1.61798          0.637334           1.13188          0.343061          0.427079         -0.399292          0.888664           1.04721          0.914437         -0.521976           0.48049           -1.0277         -0.362146           0.10194          0.878353          0.630578           1.34381         -0.909495           1.09277         -0.930786          -1.23808         -0.249765          0.128478            0.2665           0.93765          0.836753          -1.81822          -1.06403           1.15195         -0.667834          0.270524          0.674672           1.61862         0.0635915            1.6853          0.287602         -0.932308          0.742863           1.13122          0.147931          0.769606           1.35585         -0.238886         -0.586027          0.746857          0.347535         -0.862365          -1.00271          0.283054           0.14213         -0.576258          0.231005         -0.821473          0.704812          0.146427          -1.01952          0.133103         -0.497712          0.358093          0.604402          0.656347           1.00088        -0.0851611           1.11293        -0.0745461         -0.962893         0.0174967          0.167825          0.243542          0.409063           0.29102          -1.11613           1.46658          0.371296         -0.547443          -0.70136          -0.66897          0.247053           1.01257          0.933075         -0.762951          0.359057         -0.907552          0.427838          0.948536          0.203409           1.22325          0.255631          0.107913         -0.599215         0.0737272         -0.205942          0.653074         -0.860584         0.0980803          0.728717          0.689381           1.58785         -0.677305        -0.0965648         -0.516167         -0.796972         -0.853368         0.0631482         -0.657017        -0.0936479          0.296331           2.14868         0.0341578         0.0382785         -0.962334         -0.355603          0.733495          0.304588          0.776664          -1.02717          0.913729         -0.124656           1.14451          0.385849          0.369474          0.694382         -0.783501           1.17555          0.629789        -0.0372384          0.401336         -0.167088          0.956423           1.48894         -0.410832         -0.886324         -0.242175          0.111811           1.56222         -0.774479          0.973686           1.83556           1.60384           1.09251         -0.180861          0.262661          0.964318           -0.3343          -1.02656         -0.557259          -1.30281         -0.722613          0.900663         -0.121272         0.0763467       -0.00580482          -0.73913          0.886984         -0.701006         -0.898334         -0.804306           0.23771         0.0940577          0.470951         -0.688058         -0.259762            1.4693         -0.869688          0.237274          0.308641          0.462043          0.101527          0.481073            1.1864        -0.0886812          0.588959         -0.402856          0.678932          0.847092          -0.82771          0.613655         -0.831185          0.276438            1.1468         -0.721015         -0.258407           1.17636           1.10244          0.323083          0.873901         -0.978434          0.310117          0.511094         -0.761834         -0.555611         0.0382671         -0.594792           1.68733          -0.73917         -0.959952         -0.927767          0.269696         -0.122158          0.156347           1.00913          0.493468           1.56138         -0.280451         0.0140661          0.278863         0.0626283          0.837542          0.238338          0.144659         -0.785658          0.774414          0.802693          0.141991         -0.294647         -0.486092           1.33368         0.0517363          -1.09611         -0.525351         -0.182043          0.048819          0.663027        -0.0438256           1.05604       -0.00142853           1.09167          0.193905         -0.560337           1.83126          0.656065         -0.192016         -0.772419          0.937248           1.14104         -0.497132
         -0.129333         -0.751402         -0.224101           1.04757         -0.937089          0.699344          0.629865        -0.0189525         -0.279871          0.502761          -0.63263         -0.949767          -0.77443         -0.568869         -0.554718         -0.662648         -0.618697         -0.937079         -0.182293          -0.88137          0.685626       -0.00396024          0.789049         -0.186967        -0.0869116        -0.0204675         -0.134358          -0.59797         -0.570378          -1.08937         -0.203803        -0.0565526        -0.0301843         -0.239024          0.123629         0.0977794         -0.321128            0.1698         -0.166063        -0.0937233         -0.232371         -0.587463          0.428829         -0.595732         -0.775895          0.946709         -0.952886         -0.215486         -0.312022          0.165788         -0.269514          0.548977         -0.414047         -0.475402         -0.104065          -1.06071          0.799807         -0.769019       -0.00210985         -0.188555         -0.751759       0.000984863         -0.400323         -0.465156          0.596468         -0.611213         -0.997899         -0.683993          0.747924         -0.838423          0.429293         -0.789638          -0.21401           1.06926         -0.661627         -0.595625          0.287015          0.851204           0.34415          -1.08517          0.742754           -1.2188         -0.146844          0.369018        -0.0626722          -0.28712         -0.456237         -0.987166          -1.00519          -0.85577           0.64499           0.60805         -0.940567          0.189357          -1.04598          -1.19494          0.466702          0.263604         0.0183907          -1.13374          -1.05578          0.092008         -0.187922         -0.673542         -0.373075         -0.701421         -0.583838          0.262413         -0.780483         -0.516389         -0.206848         -0.293353         -0.362198         -0.930094         -0.351512         0.0432729          0.019515          0.691833         -0.168384          0.354166          -1.07786         -0.533815          0.211526          0.693865         0.0706279         -0.655696          0.306737         -0.474424         0.0706228         -0.146698         -0.503891         -0.692585          0.300194           0.31772          0.019008        -0.0663853         -0.911401         0.0541137       -0.00683684         -0.585648          -0.29351          0.666898         -0.761001          0.749634         -0.264424         -0.416623         -0.304225         -0.389669         -0.483861          0.203076          0.593615          0.557303         -0.862358         -0.506177         -0.282701          0.524126          0.697136         -0.272819        -0.0748029          0.250427         -0.877166         -0.875052          0.482153          -1.08694          0.482417         -0.472724         -0.117547         -0.602435           -0.1432         -0.784807         -0.249555         -0.612111         -0.738375         -0.937176         -0.349894          -1.00801         -0.354511          -1.14239         -0.208822         -0.855864         -0.371823        -0.0136619          -1.02869         -0.902262           -1.0445           0.43372          0.513601          0.158494          0.400474          0.488219         -0.387306           1.02351         -0.458176          0.163388          0.775638         -0.586646         0.0520302         -0.934316          -0.26315         -0.497055         -0.376345         -0.256143          0.657248         -0.658615        -0.0553706          0.143553          0.450175         -0.974192          0.652938          0.698755          -0.35615          0.313011          0.849311          -0.18972         -0.247785          0.172796         -0.892564         -0.613406         -0.209971        -0.0636466          0.174745         -0.372038         -0.544497         0.0396186         -0.245271         -0.830074         -0.501227        -0.0195027        -0.0565444          0.879826         -0.264873          0.128388         -0.142941         -0.705251          -1.08028           0.34954         -0.254663         -0.707534       -0.00762119          0.553136          -1.14141         -0.291704         -0.455956         -0.395102          0.603791          0.188442         -0.719515          0.660078         0.0103043          -1.11098         -0.882014         -0.641276          -1.08682         -0.359466         -0.456545         -0.676677          0.444434        -0.0333154          -0.91695         -0.739095         -0.252707         -0.962157          0.922472         0.0774936          0.272847           1.02921          0.216972         -0.669284         -0.303574         -0.664881          -1.05458         -0.380305          0.507498         -0.842382         -0.215348           0.62017         -0.376922         -0.382014         -0.505664         -0.885961         -0.362697          -1.32695          0.447756         -0.479856          -1.37103         -0.782205        -0.0798345          -1.03815         -0.187612         -0.227619          -0.24503           1.01732         -0.406001         -0.408438         -0.843021          0.835245         -0.621416          0.103938         -0.837578          0.579934           0.16403           0.67402         -0.736197         0.0755896         -0.830687         -0.275413         -0.607659         -0.556402         -0.743724         -0.304633         -0.733252         -0.765085         -0.783213          -0.47654         -0.532321         -0.297866          -1.00432          0.721905          0.376615         -0.746708          0.389567          0.346769         0.0519681         -0.586152          0.784788         0.0609219         -0.352414         -0.941527        -0.0404056         -0.617827           0.20704          0.160601         -0.545679         -0.184929         -0.369209          -1.08082          0.358315         -0.848865         -0.705631          0.263717         -0.858731         -0.649114         -0.227032          -0.24121         -0.982095          0.760834         -0.723266         -0.427342          0.209932           0.52034         -0.407674          0.540377         -0.349143         -0.574322         -0.264886         -0.304231         -0.878011          -0.42894         -0.915257          0.386848         -0.342804          -0.58857          0.562702         -0.868441        -0.0758779         -0.257169          -0.99881          0.751964         -0.206783          0.518943         -0.618808          0.340565         -0.697889         -0.416923           1.19477          0.109846         -0.209234          0.640297         -0.691708         -0.650169           0.15474         -0.446096           0.37578          0.301429
         -0.425024         -0.748676        -0.0168023         -0.746609         -0.136794          -1.07525          -1.02081         -0.705986         -0.897801         -0.671544         0.0865239         -0.235184          -0.35543           1.32018          0.271009          0.769513         -0.574209          0.247636           0.45811         -0.598217         -0.954568          -1.44948          0.348603           1.02863         -0.568629         -0.672841         -0.450456         -0.926017         -0.469374         0.0815811         -0.196327         -0.534179         -0.782172           -1.0317          0.138555          0.207096         -0.694005         -0.913225           1.21323           1.06026          -0.95143         -0.374113          0.679525           1.33918           1.12206         -0.969463          -1.01578         -0.215501         -0.790664         -0.752787           -0.3759        -0.0698491        -0.0996585         -0.423023         -0.475313         -0.762514         -0.277182          0.238917         -0.378677          0.255835        -0.0169904           1.26623         -0.743397         -0.986781          0.439515         -0.465368         0.0980024       -0.00283096          -1.10193          0.380288         -0.365227          -0.21719          -1.01566          0.397006          0.429026         -0.573078         -0.167799         -0.671147        -0.0253416         -0.746001         -0.159818         0.0850273         0.0940388         -0.938636           1.21952         -0.918903          0.198746         -0.714294           1.23032         -0.245051          0.258063         -0.712893           1.01442        -0.0310817          -0.99816          -1.11718         -0.696772         -0.837077         -0.912348         -0.593792         -0.737979         -0.396229         -0.112091          0.311314         -0.100422         -0.250368         -0.315817          0.105755           0.36023         -0.679264         -0.849306           0.41846          0.512074        -0.0894729         -0.574388         0.0927977         -0.974973         -0.612429         -0.219221         -0.811864         -0.767458          0.286715           -1.0929         -0.695396           1.16171          0.489241          -1.00302         -0.503564          0.359095          0.888887          0.103265         -0.573565         -0.747646         -0.644183          0.300636         -0.910372         -0.809754          -0.55356         -0.517383          -0.71751          0.315316          0.449201          0.520925         -0.534302        -0.0723841          0.578101          -1.16187         -0.473712         -0.464774          0.861092         -0.702269           -0.8402          0.016729         -0.650948          0.381739          -1.07378          0.170686         -0.712322          -0.62407          0.683868         -0.804919          0.400558           -1.2327         -0.356076         -0.815969          0.150337         -0.995964         -0.494839          0.796465          -1.03476         -0.525453         -0.101192         -0.530248         -0.379329         -0.778845          0.354358          0.465382         -0.750667         -0.795914          0.506466         -0.829562          -0.84276          0.690594          -0.56388        -0.0525746         -0.127771         -0.559072         -0.301598         -0.104104         -0.672512         -0.785022         -0.909921          0.363923         -0.691833          0.823588         -0.794807          0.520367          0.558569          0.157752         -0.826965         -0.660436         -0.640637          -0.96059          0.812291         0.0917353         -0.369628         -0.897885         -0.954048         -0.638425          0.290035         -0.548325         -0.213961         -0.888194          0.354081        -0.0329053         -0.635072         -0.832586         -0.793722         -0.692791         -0.907119         -0.549141          0.147248         -0.256614         -0.472565          -1.08868          0.424951          0.739783         0.0669416          0.400254          -1.11039         -0.822222          0.131527         -0.743859           1.13581         -0.717164         -0.686602         -0.659215          0.174564           1.45965          -0.85252         -0.854425        0.00465685          0.773235         -0.953281          0.645294         -0.616238         -0.262205         -0.500306          -0.75882          -0.13917          0.126402          0.253821         -0.972996         -0.850787         -0.972984         -0.653544         -0.698734            0.5158         -0.230532           1.32241            0.4123         -0.814017          -1.07368         -0.870379         -0.224325           1.07781          -1.09808          0.110506          -1.24105         -0.842793          0.364152         -0.561325         -0.403097           1.41463          0.638741         -0.701471         -0.785925          0.481846          0.202869          0.548764          -1.16551         0.0578939          -0.73236           0.76301           0.23764         -0.122621         -0.813491          -1.16284         -0.513907           1.15805         -0.933788         -0.639111          0.344996           0.26095          0.972322          -1.13442         -0.363449          0.910412          0.436723         -0.729152         -0.546796          0.694435         -0.655661        -0.0528298          0.785077         -0.513506          0.616018           -0.8636         0.0295513         -0.428633          0.695191         -0.617522          0.177868          -1.22805          -0.59889         -0.205769         -0.489996         -0.830407         -0.938517         -0.743598        -0.0592752           0.16574          0.738586         -0.601738         -0.505851           0.66263         -0.303037         -0.118114          -0.59204           1.13073          0.255979          -0.81756          0.280918         -0.800146         -0.912054          0.502877          -1.27744         -0.652443           0.14843         -0.717405         -0.873979          0.555913          0.377114         -0.733225         -0.643233         -0.619064           -0.5601          -1.32249          0.274481        -0.0366298          -1.00522          0.772406          -1.17831          0.505675          0.103082          0.538453         -0.610979          0.490354           0.36856         0.0626785         -0.616772          0.327699         -0.719204          -1.19279          0.913394         -0.290063         -0.639151         -0.165819         -0.668436         -0.825381          -0.54725         0.0991163         -0.804666          0.430283         -0.451413         -0.553364          0.289136          0.116549         -0.353579         -0.959489         -0.670098         -0.867176         -0.739031         -0.722296
          0.558007           1.32848          0.507717          -0.14619         -0.386035         -0.209934          -1.24196         -0.299005          0.328645          0.807646          -1.29978          -0.73497         -0.858316          0.548633          0.683909          0.377484         -0.506533         -0.247602          0.525632           0.46283          0.291235          0.337683          0.845684         -0.640331        -0.0437719          0.380129         -0.261244          0.709324         -0.792193         -0.119721          0.469317          -1.04282        -0.0256693          0.490128         -0.500572          -0.60773         -0.667921        -0.0831934          0.202188         -0.509417          0.470327           0.10342         0.0552037           0.26512         -0.707812          0.779147         -0.466367          0.614891         -0.830125         -0.579259          0.659606         -0.796036         -0.260392         -0.938739         -0.673914          0.643836         -0.778827         -0.220838          -1.41498           0.54641          -1.98833          0.752839          0.151916          0.463307          0.673662          0.380351         -0.696964          0.173504         -0.389894          0.666101          0.272116          -0.99859          -1.47644          0.704826          0.352267         -0.654813          0.211319         -0.390444          0.151255          0.653017          -0.86645          0.527151         0.0376724         -0.752898          0.679644          0.493706          0.379708          0.336283          0.033039         -0.872169          0.697348         -0.677592          0.873647         -0.861047          0.197697          0.461715          0.379612           0.51124         -0.214802           -0.5551        -0.0829557          -1.33831          0.987754          0.333011          0.615133         0.0933338         -0.470643          0.282963          0.584822          -1.74235         -0.332348          -1.19231         -0.477813       -0.00155516         -0.603531         -0.483941           0.66826          -0.56498          0.605035         -0.927051          0.371371           1.06005          -1.30271         -0.075544         -0.342638          0.275344         0.0719208         -0.375746          -0.39677          0.709217          0.773629          0.806667          0.288556         -0.675501          0.241585          -1.53736         -0.707665         -0.756742         -0.561674         0.0763746         -0.779468          0.518142           0.42645          0.926715          0.250744          0.569492          0.673856          0.474817          -1.10515         -0.886783         -0.331027          0.447213           0.54962          0.365665           0.52269          0.427732         -0.765057          0.673874         -0.529425         -0.397802          -1.14058          0.269185         -0.830743         -0.146407         -0.694323         -0.745983          0.317397         -0.836427          0.550516          0.370104          0.301719          -0.76585         -0.463684          0.923344         -0.819593         -0.852546         -0.188663          0.693783         -0.992668         -0.152614         -0.522909         -0.218103         -0.585194         -0.124616          0.576797         -0.983546         -0.540963         -0.563344         -0.322488         -0.480566          0.523722            0.5085         -0.360031           -0.3146          0.891174          -1.33416          0.219205          0.591096          0.411865          -1.11113          -0.58087          -1.60297         -0.767809          0.492919         -0.554745          -1.57387         -0.335604          0.138481         -0.693586          0.486212          0.728888          0.730056         -0.356267          -1.40498         -0.191766         -0.619423         -0.205083         -0.483325         -0.709665          0.536085          -0.81148          0.487432         -0.684059          -0.60259         -0.319677          -1.57149          -0.43192           1.01755         -0.359118         -0.579778         -0.741334          0.614128         0.0806076          -1.32761          0.444052          0.395271          0.542246         -0.584691         -0.967561         -0.245646          0.550759         -0.862568         -0.630889          0.705086         -0.419929          0.340308          0.481289        -0.0104059         -0.270245          0.217649          0.421424          -1.31896          0.461246        -0.0263282          0.866443         -0.722276          0.419916       -0.00849932          0.469961           1.06696         -0.237817          0.635117          0.311062         -0.722691         -0.375733           1.06047         -0.882111         -0.457281         -0.242432          0.519541          0.352528         0.0549471         -0.222971         0.0761695          0.652592          -0.48898         -0.174944         -0.590339          0.193296          0.586141          -1.73297          0.342987         -0.638957          0.506135         -0.178998          0.444848          0.422752        -0.0572075          0.617147          0.467155         -0.356286         -0.339697         -0.196616          0.644411         -0.604277           1.02473           1.01234          0.914366          0.505609          0.351263         -0.871166           1.15989          0.531321        -0.0442678         -0.580811          -1.57856          0.913426          0.369297         -0.699808          0.193656          0.256799          0.498093           0.47532         -0.477281         -0.560536          0.718092          0.737102         -0.617271          0.408125           -1.3669         -0.170253          0.342853         -0.435567          0.359861          0.539783         -0.281245          0.684334         -0.236738          0.483434          0.731534          -0.73279         -0.380413         -0.744581          0.853945          0.554788          0.607573          0.373205          0.538068          0.634945          0.537616          0.387759         -0.544351         -0.850974         -0.738034          0.595724          0.745913          0.179853          0.219244          -1.05285         -0.568892          0.355412           1.07869          0.703301         0.0439068          0.887595          0.698124          0.424758          0.351058         -0.311154         0.0869903         -0.531309          -1.02537         -0.436027          -1.11234         -0.732523         -0.591298         -0.742941          0.942708         -0.141834          0.242106         -0.301829         -0.188076         0.0133834          0.118966         -0.240472         -0.997995         -0.769675         -0.535945           -1.0259          0.301808         -0.981478          0.197444          0.463807          -0.58749
          -1.01579          0.993533          0.782515          0.962808         -0.309727         -0.160828          0.528193           1.45326          0.146658          -0.43134         0.0309667         -0.427551         -0.362518          0.537867            1.1477         -0.889519         -0.168059         -0.338779         -0.604984         -0.667367         -0.347539          0.200156           -1.0245         -0.710433          -1.21671           1.19154          0.565137          0.953056          0.382938           1.05997         -0.201648          0.753012         -0.198502            1.4386          -1.17606         -0.992486          -0.80385          0.510143         -0.531729          0.188285          0.987014          0.222495         -0.217603          0.397804         -0.436344          0.525486         -0.703026         -0.672719          0.790227          0.405878          0.358806          -0.10948           1.82143           -1.1487           1.62693           0.24054           1.29579           1.35638           1.25109          0.723525          0.140029         -0.724326        0.00686905          0.651986           1.08232       -0.00555272          0.324451         -0.836099          0.411606        0.00480349          0.330483          0.316334           1.14576          0.617567          -0.76268          -0.17032          0.933798          0.314791         -0.500158           0.45617          0.359895          0.397047          0.856748          0.231513         -0.589414         -0.296908        -0.0840158          0.333213         -0.778892           1.40558         -0.658064           1.35954          -1.30294            0.4066           1.44039         -0.661573           1.09861           0.53162           1.07951           1.36011         -0.447715           1.26846         -0.572155        0.00588142         0.0854277           1.43654         -0.488745         -0.374111          0.700495         -0.283922          0.159565         -0.993352          0.865805         -0.436509          0.583428         -0.887204            1.1114          0.970447         -0.721808          0.373166         -0.831293          -0.63868          0.577638          0.441754          0.469623          0.336287          0.502654          0.637428          0.227602          0.327932          0.897822          0.461263          0.516381           1.05306          0.374293          0.696757          -1.13326           1.08937          0.657356         -0.188714          0.686574          0.811627         -0.465003         0.0269164           1.24333         -0.585276        -0.0931113         -0.765546           0.40158         -0.893012           1.01492           1.10463         -0.567816         -0.507221         -0.249432          0.893296         -0.222028         0.0643072          0.123619          0.196906         -0.349734          0.255008          0.583876          0.273513          0.604759          0.468595          0.735217          0.530155           -1.3471         -0.322324           0.98244         -0.587093          0.403905          0.831579         -0.613655          0.331919           2.39559         -0.784176           0.34348          0.670042           1.33503           1.43719          0.553181         -0.645461          0.323919         -0.473477       -0.00595593         -0.354426          0.497642            0.5729           1.02399          0.107285           0.85726         0.0290547         -0.982196         -0.942722          0.895715         -0.807337         0.0944708          0.612503          0.652093         -0.793565           1.08637         -0.831062         0.0363808          0.368087          0.100215          0.678946          0.509875          0.807033         -0.149246           1.54824          0.938957          0.605275          0.332793           1.07703           1.56816          0.160146         -0.212897          0.339213          0.349035           1.39953          -0.76749         -0.642113         -0.337866         -0.573672          0.503719         -0.182321          0.604893         0.0128998          0.617715           1.11648          0.902669         -0.225494           1.18753          0.490637          0.920501         -0.665741         -0.446143          0.682535          0.708795          0.561416         -0.434538         -0.506254         -0.848854          0.460815          0.565097         -0.231959         -0.238218         0.0429587       -0.00634939          0.896335          -0.44538          0.264896           0.84176         0.0525757          0.430543         -0.112664         -0.597898         -0.997029           1.09826         -0.678844          0.356939         -0.992666         -0.516239         -0.857342           1.27059           1.03479          0.152756           1.27185          -0.49237         0.0505537         -0.570414          -0.75493          0.183616         -0.527853           1.17717          0.230736         -0.791856          0.160293         -0.407761         -0.582868           1.12251          0.597292           1.02103           1.31653         0.0812796          0.258684         -0.826462         -0.531547          0.844512         -0.309443          0.435737         -0.817707          0.230174         -0.383037           0.28978          0.050026          0.543716          0.806604         -0.604198          -0.12683         -0.701463         -0.972861         -0.652717          0.786479          0.116446         0.0178241          0.631513          0.840656          0.410582          0.535089         -0.990392          0.970288         -0.477139           1.57731            1.6179          0.767279         0.0827297          0.714306         -0.970574        -0.0419037          0.168624          0.499683         -0.885125         -0.345738          0.776927           1.73801          0.174455         -0.797869          0.331922         0.0818621         -0.573047         -0.739646         -0.761111           0.44063          0.729501          0.635626          0.251792          0.937484         -0.514515           1.57722          0.826394         -0.679985         -0.589051          0.394421          0.480365        -0.0240929          0.796976          0.338529          0.280997          0.147777          0.886792           1.62734         -0.719653         -0.568363         -0.705088          -1.17758          0.405176         -0.305513         -0.237678         -0.864504           1.09226          0.764255           2.12971         -0.560206          -1.12615          0.711191         -0.448093        -0.0419246           1.69911           1.04069          0.874669          0.360755           1.44369           1.20938         -0.592674           1.59966          0.259745        -0.0779074          0.106527           1.12034        -0.0760903           1.25284
         -0.226244         -0.357326          0.027192          0.736714         -0.233667         0.0166762         -0.315156         -0.237784           1.70524        -0.0323585          0.527377          -1.09136          -0.39661            0.7197         -0.630148          0.132056         -0.180894         -0.224629         -0.661771         -0.515894           1.38634         -0.120573         -0.388299          0.253592         -0.296134        -0.0730522         -0.800688          0.724215         -0.664511          0.637528         -0.229183         -0.527818        -0.0407357         -0.169188         -0.870546         -0.328186         -0.555279         -0.665991         -0.363853         -0.642486         0.0412176         -0.179594         -0.201505         -0.257363         -0.359048          -0.27269        -0.0453906         -0.344148        0.00250138         0.0508952         -0.747658         -0.589195         -0.684437         -0.368781        -0.0208339         -0.180723          0.558425          0.174821         -0.276875         -0.179315         -0.589597          -0.57407         -0.642676        -0.0206284         -0.445551           0.13757         -0.524149         -0.789129          0.591602         -0.765238           0.13247         0.0206727          0.320585         -0.239709         -0.581931        -0.0438728          0.132154         -0.427965         -0.339358          -0.52433         -0.301671          0.302497         0.0687238         0.0477545         -0.651041         0.0739431           0.43153         -0.696772         -0.479857         -0.804059          0.688642          0.262151         -0.499292          0.106618         -0.158981         -0.452202          0.863826         -0.413965         -0.176507          0.163595         -0.111407         -0.379215         -0.361113         -0.542376         -0.566901         -0.493039         -0.790119          0.339063         -0.978578         -0.279638           1.61191         -0.794732          -0.10343       0.000233011         -0.553767          0.237925          0.684283         0.0847785         -0.598013         -0.418818         -0.521765          0.400446         -0.332073        -0.0375874         -0.672882          0.391231          0.205342         -0.215413          0.677666         -0.339034         -0.173268           1.02448        -0.0517846         -0.288684         -0.470958         -0.142748         -0.641075         -0.565146         -0.610925         -0.109933         -0.556474         -0.674225          0.620769        -0.0593816         -0.276899         -0.567491         -0.253591         -0.223361         -0.276303         -0.489398         -0.162062         -0.283316         -0.569979         0.0776476        -0.0220629        -0.0726912          0.887119         -0.118904          0.466176         -0.906682         -0.295887        -0.0288797          0.593057          0.947427          0.736883         -0.346211         -0.103931         -0.630406         0.0389438          0.155149          -0.26492         -0.370451        0.00811967         -0.393536         -0.441272          -0.58164         -0.567492         -0.316704         -0.541919         -0.254243         0.0357171         -0.124521        -0.0723207         -0.697254         -0.186159          -0.60903          0.123157         -0.346132          0.366819          0.162302         -0.204665           0.12853        -0.0689528          0.400203         -0.171876         -0.482588         -0.483604         -0.667866         -0.511984          -0.38631         -0.688866         -0.341245         0.0922745         -0.352576         -0.772634         -0.405174          0.373414          0.246909         -0.049214          0.249224         -0.320748         -0.716501         0.0825861         -0.677476         -0.719458          0.487506          0.115168         -0.118818         -0.600298         -0.504622          0.485433        -0.0162675         -0.779041         -0.494266         -0.328713         -0.492837          0.697025          -0.49331         -0.716569          0.341467          0.693191         -0.196989         -0.117151         -0.457355         -0.513967         -0.174264         -0.133796         -0.377263         -0.730224         -0.112746        -0.0662635         -0.613533         -0.668965           1.02368         -0.381791         -0.439686         -0.693429           1.47727         -0.310369         -0.518159          -0.28326         -0.988606         -0.152538         -0.172694            0.5603        -0.0791585         -0.294263           1.31201         -0.559264         -0.158747          0.845928         -0.234243         0.0271914          -0.21258         0.0455689          0.119521          -0.10846        -0.0495165          0.590054          0.167798         -0.655475         0.0654669        -0.0490002         -0.441253         -0.384495         -0.118696         -0.439843           1.36927         -0.374583         -0.554751          0.060884         -0.634049         -0.223787         -0.555498         -0.638135         -0.539218          0.511232         -0.256782            -0.184         -0.833857         -0.768779          0.648831         -0.674233      -0.000440662         -0.565793            1.4278         -0.186839         -0.649881         -0.102169           1.51472          0.555063         -0.539336          -0.58764         -0.351195          0.524784         -0.470616         -0.281032          0.399892         -0.537673         -0.986148          0.189003          0.417625         -0.471787          0.387278          -0.19874          -1.00906         -0.700536         -0.220524         -0.286651          0.448811         -0.334154         -0.130168          0.411078         -0.606096        -0.0497488          0.900315         -0.666551         -0.106134         -0.135598         -0.288152         -0.121678          0.307468         -0.293402         -0.486834          -0.29621         -0.495734          0.123817         -0.710628         -0.742878          0.991509          0.197519          -0.63214         -0.912545          -0.62003         -0.544445           1.28091         -0.219927           1.49115         -0.444865          -0.14476         -0.136458         -0.783824         0.0448752           1.01039         -0.478422         -0.734963          -0.44972         -0.327377         -0.637601           0.22666         -0.571761         -0.752905           1.08895         -0.234131          -1.32424         -0.783016          0.628684         -0.102379         -0.244462           1.45259         -0.189116         -0.519932         -0.164575          -0.53233         -0.429434          -0.30422         -0.609317          -0.39116         -0.313803         0.0511955          0.806578        -0.0519096          -0.31546      -0.000212844
         -0.502945          -0.32724        -0.0779401        -0.0201845          0.301512         0.0965186           -1.0321         -0.407465          0.289781           0.15454         -0.636157         -0.916105         -0.357263         -0.239576         -0.690071         -0.322526         -0.295954         -0.614177          -1.34635         0.0763401         -0.360725         -0.236547        -0.0180082         -0.240268        -0.0633603           1.20089          -1.00628          0.175469          -1.06984         -0.398155           0.11189         -0.240368         -0.618353         -0.320604         -0.266121         -0.681072          -1.24956         -0.504708            -0.607         -0.800674          0.967486          0.257599         -0.326388         -0.610527          -0.18851          0.096679            0.4171          0.171946         -0.595153          0.358577         -0.510059          -0.51064        -0.0661683          0.316216         -0.578287          -1.06444          -1.05138           1.25646          0.613466          0.288161         -0.299866         -0.515613          -1.32511         -0.214994          -1.19031        -0.0561425           -1.2345         -0.823553          0.111271          -0.61503          0.556886         -0.466924          -1.18964         -0.212574          -1.02174          -0.13498          0.198601         -0.994685         -0.704887          -1.14976          0.114631          0.221079         -0.132957          0.866171         -0.809001          0.175029          0.898992          -1.22799          -0.59054         -0.592202          0.563478        -0.0936768          0.434901         -0.294101          -0.54179          -0.17918         0.0425623         -0.261818           1.16396         -0.621155          0.511732          -0.90785        0.00478784          0.217026           -0.5064          -1.27493         -0.369884        -0.0215737         -0.957783          0.235561         -0.139914         -0.763419        -0.0472489          -1.14375         -0.963322        -0.0266971         0.0733272        -0.0284002           0.32518          -1.47505          -1.16462          0.667358         -0.423626         -0.200038         -0.361401           1.06375          0.311501         0.0959787         0.0726752         -0.451341          0.146218         -0.200481         -0.406638          -1.47163         -0.875638         -0.682965          -1.23345          -1.08485         -0.842076          0.508003           -1.0349         -0.730985          0.166394         -0.454203          0.172352          -1.36451           1.12954        0.00889683         -0.503788          0.162285          -0.11739          0.325878          -1.40046        -0.0498326          -0.33613         -0.148909         0.0756273         -0.686602          0.539073         -0.183044         -0.342549           1.17959          0.141189          0.235661          0.153798         -0.242766          0.105976         -0.185287         -0.260362          0.633586          -0.36325          -0.29937          -0.89635          -1.01827          -1.07011         -0.905691         -0.281482          0.817672           -1.1339         -0.155593          0.148027        -0.0665055         -0.501413          -1.53872          -1.06827         -0.700622        -0.0798127          -1.21923         -0.296211         0.0316255            1.1318          0.834031          0.249361           1.00252         -0.278468          -1.35174          0.140619         -0.483411          -0.81735         -0.126536           -1.1639         -0.663892         -0.115829         -0.161507         -0.354203         -0.786171          0.327953          0.320893         -0.545281         0.0102815          0.851166          -0.98767          0.245381          -1.08342          -0.62205         -0.362177         -0.250005          -1.30481         -0.680684          -1.15992          0.483004           1.19461         -0.656992         -0.599139         -0.920168         -0.844608           1.12222          0.407239         -0.676685           0.25415          -1.06376          0.335897         -0.321332         -0.365393          -1.23583           1.23691         -0.336905          0.206212           -1.4222          0.168506         -0.118822          -1.33161         -0.376782        -0.0790521          0.677185          -1.15223         0.0108675          0.548086         -0.267084          -1.31385         -0.354007         -0.759245         -0.736448          0.335203           0.38381            -1.258         -0.277742          -0.43971          -1.49893          0.780144         0.0666144           0.26071          0.696338          -1.21556          -0.19431         -0.639922           1.11168          0.163514           1.28065          0.140163          -1.05246          0.670806          0.131083          0.163848         -0.386818         -0.118481          -0.49075          0.193623          0.551331         -0.488981          0.288015          0.595392           0.79643          -1.05193           -1.1754         -0.211463           1.23442         -0.674853           0.53402         -0.571969          -0.57981         0.0526059         -0.665329          -0.11025         -0.351211        -0.0635315          0.499014         -0.625799          0.643131           0.14389         -0.845207          -0.28379         -0.959053         -0.490373        -0.0956551         -0.545545         -0.484484        -0.0289803          0.255969          -1.16759          0.385053         -0.812706        -0.0807734          0.851724         -0.531065         -0.557426         -0.918576         -0.364749         -0.194316         -0.929718         -0.601118           0.14727         -0.720505         -0.155727         -0.587948         -0.129807          0.261598         -0.396544          0.549655         -0.647804         -0.240929         0.0103465         -0.263565         0.0843245         -0.344859          -1.27328          0.244988         -0.350758          -1.14279          0.278894          0.653835         -0.951802         -0.833189         -0.484638         -0.133896        -0.0729068         -0.037744           0.91707         -0.599356         -0.412537          0.745025        -0.0134778         0.0372218         -0.409997         -0.643561         -0.774855          -1.44365          -0.82096         -0.556345         -0.311559          -1.05062           -1.0623       -0.00865819          -1.21944         -0.457852         -0.972712          -1.31057        -0.0625621          0.653669          0.223696          0.462397         -0.259808           1.16414         -0.825197          -0.31509         -0.284341         -0.930913         -0.376836          -0.17652          0.875489         -0.165642           -0.1336            1.1491          0.460512
          0.689777          0.796236         -0.273829           0.91896         -0.896202           1.04189          0.546219           -1.2276          0.755139           0.11026         -0.592653         -0.907548          0.398198         -0.244716          0.357921         -0.358094         -0.545687          -0.50686         -0.298159           -1.0527           0.66587          0.669981          0.981498         -0.664571          0.577639         -0.457914          0.219646          0.121475         -0.662948         -0.326324          0.976072          0.488234         -0.421503          -0.15835          0.274221         -0.117048        -0.0292985         -0.380128          0.316526          0.143493          0.741622         -0.557445          0.755741         -0.619671           -1.3284          0.941788           0.18506          0.520192          0.531059           0.56115          -1.21597         -0.093338           1.01261          0.530328          0.652065          0.230282          0.993898          0.211626         -0.700909         -0.202644         -0.404281          -0.36522          0.371466          0.720307           1.03809         -0.105057         -0.199048          0.199873         -0.234568         -0.501634         -0.648594          -1.13329        -0.0681128          0.767387          -1.26185         -0.588424         -0.424781          0.547508          0.676194          0.180819          0.445358          -1.03388         -0.702608          0.631932          -1.01589          0.677677          0.688751         0.0679925         -0.563753           0.65853          0.966946         -0.186494          -1.20168           -0.5787        -0.0541137          -1.38785          0.879706          0.955632           0.78389          0.212899         -0.822269         -0.750804          0.568907          -0.28832         -0.576884          0.523591         0.0639278         -0.578233          0.064576         -0.219188          0.895645         -0.870391         -0.819641         -0.226896          0.243366        -0.0608606          0.505289          0.661122        -0.0852979         -0.423869          -1.36034         -0.592355         -0.154664          0.558474         -0.439963         -0.378508          0.921302          0.585951         -0.540218          0.798592          0.530488         -0.737094          0.291236          0.462678         -0.805876          -1.09916         -0.411125          0.393385          0.435983          0.572471         -0.287802          0.344883         -0.686024          0.596914         -0.236854         -0.849688          0.937825          0.666556           1.02508          0.158983           0.72453          0.452963          -1.11493          -0.25248        -0.0797829          0.634819         -0.498488          0.665771          0.680353         -0.481414         -0.550698           0.52912          0.455315         -0.323689         -0.542132         -0.405615          0.595149         -0.760088           -1.2171          0.881846          0.735776          0.191209          0.460582          0.796421         -0.294881         -0.862199           1.15681         -0.630791         -0.975799         0.0629442          0.519414         -0.275739         -0.782197          -0.04907            0.2814          0.362177          0.501239        -0.0591078         -0.641981         -0.622536          0.612366           1.03366         -0.747327        -0.0241163           1.24045          0.265274          0.618505          0.364641         -0.449564         -0.830098          0.525753          0.617104          0.641693          0.634345         -0.506092          0.556583            0.6325         -0.218904          0.701072         -0.630997          0.587829         0.0619491          0.727074          0.380093          0.514117         -0.611393         -0.753587          0.343526           -1.0922         -0.487759         -0.708426          0.442365          -0.15795          0.704506          0.240657         -0.850412          0.559456           1.22144         -0.157125         -0.219624          0.238113         -0.321515          0.849341          0.321851         -0.391212           0.71667          0.574395         -0.467043          -1.27125          0.676803         -0.901315          0.264454         -0.950617          -0.78304          0.014858          0.667385          0.224037           1.35115          0.415121          -1.75943         -0.603149        -0.0108705         -0.861383          0.958314         -0.153201         -0.542039          0.777903         -0.710343          0.269194           1.03727         -0.551021         -0.605894          0.882339          0.237591         -0.274277         -0.353661          0.421133          0.133916         -0.231306          0.495916          -1.50109          0.435689          0.570895         -0.791704          0.709116          0.927733         -0.238488         -0.540054            0.5092        -0.0523674          0.196694         -0.416863          0.454804          -1.09269         -0.509575         -0.535559         -0.890453         -0.844641          0.633294         -0.155132          0.155437         -0.157002          0.210333         -0.322055         0.0135187           1.00376          0.244255         -0.546695          0.641473          0.607595          0.164324         0.0574027         -0.959613          0.945124         -0.948865          0.436586           1.15394          0.660962          0.300706       -0.00497372          -1.05822         -0.782616         -0.255577          0.585616         -0.600626          0.559595          0.945358          0.579001          0.600256          -1.22647           1.06023          0.477358         -0.792725          0.277186          0.995031          -0.38509          0.748839         -0.795872           1.07105        -0.0816093         -0.428014          0.527718         -0.533303         -0.519309         0.0350259          0.137926          0.449563           0.20393          0.143864          0.103349          0.632598         -0.984489          0.402865          -1.01575          0.186982        -0.0541986          0.227553         -0.417278         -0.628599          0.528427         0.0663422           0.47769          0.672557           1.19197         -0.448926          -1.07552         -0.370154          -1.04841         0.0733911          0.617743          -1.17687          -1.00225          0.368798         -0.137974         -0.353111         -0.157143         0.0715766          0.654915          0.714029           0.42665        -0.0141955           1.23506          0.520553           -1.0539           0.71928          0.742913          0.261913          0.557139         -0.676123          0.604793          0.391066          0.642021           0.60579          0.499965
         -0.872483        0.00714817          -1.16445          0.555494         -0.570414        -0.0743753          0.469222          0.413378          0.462882          -1.22876          0.250045         -0.228885         -0.260732          -1.11066         -0.595734         -0.274424          0.421047          -1.34631        -0.0327221         -0.274837          0.562244          0.430929          0.325398         0.0538045        -0.0105965          0.289278         -0.370249         0.0738351          0.783289          0.846659          0.211652           0.49967          0.412561         -0.915621         -0.860495        -0.0850115          0.987934          0.328549          0.402524          0.320044          -0.89943          -1.01529           -1.7044          -1.10574          0.272802         -0.983459         -0.663508          -1.34727         -0.849081         -0.556053          0.956964         -0.165295          0.797488          0.353213           1.20262          0.308819          0.414394          0.253612         0.0385629         -0.666899         -0.611013         -0.666489          0.523328         -0.830525         -0.793709          0.330189          0.683675          0.977483          0.441528          0.877431          0.175125          -0.80912          0.644852          -0.22198           1.13435          -1.23176         -0.460149          0.512571         -0.915677          -0.31208          0.207849         -0.703671          -1.31119          0.414047          0.117836          0.328447          0.237304         -0.375095          0.180257         -0.790156         -0.997932          0.495463           0.37367         -0.890173          0.377715          0.848749          0.304949          -0.71871         0.0125447          0.169116         -0.307295          0.360381          0.158916           -1.0734         -0.283055         -0.108032          0.430374          -1.54613         0.0293169          -1.62372          0.291665            0.8277         -0.802569          0.606257           -0.2748           0.19707          0.539702         -0.765539         -0.812911          -0.61302         0.0966014          0.118074         -0.625762          -0.73738         0.0150032          0.538499         0.0795517          0.495742          0.509053          -1.11701         -0.874563          0.456996         -0.980278          0.640836          0.112429         -0.499782          0.983261          0.210128          0.574742         -0.982862            0.8507         -0.649102          0.278398         -0.923498         0.0219003          0.275273         -0.880526          -1.28354         -0.511219         -0.785593          0.593596          -1.02079          0.830015          -1.17122         0.0915221          0.276996          0.205222         -0.681971         -0.323166          0.463767          0.439456          0.407227          0.445827          -1.08402         -0.772559          0.389604          0.110909          0.305116         -0.946981         -0.693605         -0.784336          -0.65983          0.645565          0.241941         -0.353119        -0.0370607        -0.0636058          0.366684          0.730006         -0.599279           0.76495          0.383798          0.538611           0.94708           0.88103          0.189745          0.233656          0.928367         0.0907302         -0.815374         -0.611411          0.428548         -0.272329        -0.0480054         0.0677179            0.7638         -0.505144          0.337725         -0.135986         -0.595862          0.712256          -1.05281         -0.680107         -0.366989          0.489842         0.0314492          -1.01877         -0.110258          -1.31886        -0.0066655         -0.830212         -0.605678         -0.817929         -0.264202         -0.533688          0.569487         -0.357477          0.515584        -0.0445209         -0.411488         -0.787624          0.582797         -0.682422          0.165347         -0.265535         -0.264689         -0.609442          0.483735          0.334994         -0.844564         -0.142025         -0.820821          0.414256         -0.795496         -0.421852         -0.760723         -0.960087          -1.06978           -0.1912         -0.904016          0.476158          0.980751         0.0174123         -0.675845         -0.930581          0.650153         -0.564792          0.219457          -1.14572          0.754377          0.444023         -0.288667          0.439911       -0.00688531          0.148821          0.358684         -0.378261          0.128671         -0.216546          0.343192          0.379085           1.16853         0.0253201          0.780583         -0.793295         -0.708814          0.371518         -0.974168          0.492785          -1.00894           1.04223          -1.08969          0.356596          0.137574         -0.795935         -0.804654         -0.416317           0.57894         -0.411415         -0.499855         -0.519637          0.985276         0.0369375         -0.152445         -0.352284          0.242441         -0.945806         -0.916111         -0.984298          0.361847         -0.930915         0.0913378          -0.85786          -1.41599         -0.834586         -0.737145          0.556886          0.389677           0.38998          0.349857           0.79921         -0.183708         -0.379858         -0.888227          0.771634          -1.14821          0.405648         -0.706486         -0.616044         -0.216631           0.52882          0.174328          0.992605          0.551316         -0.178048          0.200798         0.0935929           0.58698         -0.729125        -0.0771321         -0.819573         -0.186794          0.890692         -0.331833         -0.602647          0.363896         -0.694148          0.501431          0.244239         -0.992491         -0.849799          0.299961          0.275731          -1.46455           0.87894         -0.281927         -0.944413         -0.245223         -0.273429          0.554612          -1.47301          -0.46358          0.803174        -0.0488049         -0.202689         -0.584638          0.108085          0.190696         -0.661696          -1.27108         -0.736741         -0.322774         -0.832326         -0.221124         -0.838127          0.627593           1.17533          0.967276         -0.364647          0.567389          0.632799          0.135575          0.687129          0.855211         -0.349996          0.996018          0.869988         -0.756932          -1.89226          0.511771          0.280072         -0.689105         -0.731257         -0.604731          0.793715          0.273966          0.549322          0.579071          -0.10416         -0.986872          0.289028         -0.521624           0.45049          0.537902
