weight 0:
         -0.521786          -1.08423          0.686067          -1.15282         0.0650448         -0.751742         -0.829607         -0.963032          0.205542          0.888751          -0.67498        -0.0623221         -0.831307          -1.42919         -0.897018        -0.0922221          0.410475         -0.813523          -1.88582        -0.0643346         -0.386265        -0.0585868          0.128555          0.518571         -0.189391          0.264538           -1.5523         0.0103238         -0.301135          -1.25544          -1.27912          0.327868         -0.821279         -0.304891         -0.224676          -1.72794          -1.37781         -0.275803         -0.176499          -1.33613         -0.991519          -0.86243          0.295263          -1.38593         -0.147861          0.160511         0.0251173         -0.407758          0.295152          0.376988           0.33714         -0.645522          -1.94015          0.259817          -0.61353         -0.720077         -0.749813         -0.667812         -0.818111         -0.705313         -0.663085          -1.96125         -0.444041         -0.959329         -0.334916         -0.739542         0.0139708          0.574602         -0.118248          -1.14324          -1.14976          0.177421          0.107375         -0.689207          0.498496          -1.78341          -1.37596         -0.107022         -0.561819           -1.2462         -0.563814         -0.572409         -0.926893         -0.759532          -0.37779         -0.106256           -1.8067          -1.13764          0.749796         -0.593564         -0.039595           -2.0014          0.330894          -1.59313        -0.0875001         -0.420707         -0.652331          -1.35263         -0.767523        -0.0402331         -0.244013          -1.47017          -1.36096          0.554231          0.726212           0.27381          -1.32215          0.429601         -0.623394          0.397506         0.0540418         -0.160709        -0.0288158          -0.70351          -1.69166          0.330892         -0.437011         -0.104266            -1.226         -0.611701          -1.65305         -0.865656         -0.383639         -0.946675         -0.202707         -0.371366         -0.784612        -0.0314387          -1.63017           -1.7807         0.0775895         -0.325189         -0.465717         -0.272102          -1.52137         -0.677934          0.346936          -1.62143         -0.362784          -1.27666        -0.0743949         -0.268708         -0.795249          0.355144        -0.0837531          -1.85266          -1.33515         -0.843159         -0.506461         -0.482564         -0.985219         -0.801795          0.212529         -0.842173
          -1.37022         -0.208546          -1.02577          0.752596         -0.514556          -0.90695          0.676336         -0.944897          0.379117           -1.1297          -1.18907          0.346738         0.0415529         -0.445357         -0.387484        -0.0215062          0.408781          0.336246          0.272922          0.437824         -0.681572          0.293435          0.131211          0.465633         -0.289054          0.220928         -0.116599          0.400728          -1.00169         -0.425972          0.129507          -1.06279           0.33382          0.385087        -0.0578162          0.194866        -0.0702054          -1.24656          0.428916          0.564311        -0.0822078          0.219854          0.182809         -0.544384          0.490799          0.206085          0.156629         0.0940032          0.442682         -0.252555          -0.22745        -0.0942408          0.448404          0.165907          0.279803          0.488408        0.00618903          0.246391          0.659492          0.020245         0.0342582          -1.25302          -1.51281          -1.48987          0.556258          -1.71302         -0.201293           0.53977         -0.477019          -1.32722        0.00497537          0.131421          0.639311         0.0455925        -0.0457849          0.131352          -1.21031         -0.679249          -1.08791          -1.02763          0.185139         -0.604625          -1.17678          0.241677           0.32454           -0.3441         -0.408933          -1.40791           0.21694          0.836285          0.848261        -0.0685379          0.410974          -1.10101         0.0558122         0.0861983         -0.682313          0.460645        -0.0133079         -0.489696          0.463998         -0.631899           0.37351          0.383451          0.625988         -0.300996          -1.27026          0.316042          -1.58759         -0.705082          0.153799          -1.00194          0.126924        -0.0379614         0.0823024          0.233998         -0.404612          0.524673          0.145409        -0.0270486          0.437239        -0.0645434         -0.678991           -1.0436        -0.0666297         -0.466765          0.357482          -1.15662          0.614434          0.625456       -0.00042363          0.332811          -1.10251         0.0260551          0.312971        -0.0436197          0.323314          0.440599         -0.806936          0.121735         -0.359824         -0.535342          0.866821          0.456792          0.169983         -0.205525          0.507948         -0.731892         -0.590779         -0.565492         0.0187884          0.420224        -0.0390079         0.0969201
           2.17498          -0.50831         0.0200769         -0.243824          0.896815          0.898169         -0.509842          0.657499          0.697847        -0.0595564           1.07062          0.435779           2.52566           1.15137         0.0288853        -0.0502922         -0.254407        -0.0484946         -0.263194         0.0420093         -0.326456           1.54311          0.996388         0.0863223            1.0866            0.7158           0.82087           2.15489          0.482005           1.69453          0.936064           1.89233          0.307007         0.0207132          0.625036           2.27725        0.00836084          0.456526         -0.952906          -1.03706         -0.494222          0.339165         -0.329112            2.1489          -0.33936           2.17973        -0.0816678        -0.0418707           1.61623         -0.628536           1.33072          0.118422          -1.05533            1.4131            0.7703        -0.0391696         -0.800726          0.377814          0.568564          0.336356          0.012126          0.564078           1.75561           1.62864            0.1604           2.03295         -0.168294          0.277776           2.01296            2.1865         0.0891724         -0.195284          0.136861          -1.17754          -1.16864           1.59376           0.27752           2.15054           1.56224           2.07224           1.64812          -1.49234           2.40254          0.850065          -1.04724         -0.108252          -0.51107          0.670287         -0.284642          0.810813        -0.0252548           2.38383           1.01907           2.80344          0.678352          0.270772           1.48798           1.56396          0.412774           1.88664          0.112697        -0.0731659           1.62558         -0.611312          0.781913           1.86697            1.6248         -0.944232           1.52816         -0.482552          0.772501          0.360803          0.152313          -1.15359          -1.13443          0.295213          0.976875          0.507473          0.185134           2.49263         -0.852038         -0.720991          0.692235          0.532921          0.726444         0.0340175           1.80154         -0.722647         -0.109311          0.317896           1.88627         -0.443626           1.62473         -0.833476         0.0768554         -0.535147           2.56998           2.14164           -1.1965           2.01318           1.28546         -0.101439          -0.50412          0.195016         -0.870647          0.321147       -0.00669317          0.938705          0.246647         -0.523403         -0.233335          0.911803             2.279         -0.190111
          0.365905        -0.0767383           0.30439           0.58761          0.540792          0.394855           1.10002         -0.851365          0.900754         -0.911684         -0.657957           1.04673         -0.527136         -0.423131          0.280662           1.44886          0.953651          -1.54252         -0.467258           1.21744          0.657072          0.215585          0.702299           1.29142         0.0761447          0.424101          0.311375          0.189037          -0.85579         -0.608176           0.10099         -0.598744         0.0591411           1.58736          0.581115          0.470241          -0.24409          0.285187           1.10667          0.284543           0.70434          0.236442           1.19417          0.561579           1.20049          0.745093          0.313752         -0.850045           0.85917          0.944266         -0.768885          0.426081          0.306774          0.159015          0.269615          0.247087          0.386968          0.184638          0.219406         -0.554803          0.293406          0.218339         -0.768523          0.638981          0.990904          0.310641          0.300328          0.941261          0.932152         -0.680841         0.0979013          0.148418           1.06308         -0.333853           0.93602          0.453587         -0.874788          -0.22461         -0.468331         -0.782158         0.0555496         -0.787478         -0.751121          0.981035          0.510964          -1.15162         -0.756915         -0.785305          0.233866          0.436816          0.528328         -0.749433          0.409809         -0.635057          0.368828          0.720842         -0.915775        -0.0200059          0.374002          0.451787          0.690097          0.199432          0.507348           1.21392          0.455481         -0.230139         -0.505123           1.38892         -0.549775         0.0944931          0.663498         -0.956637          0.870332           1.05395          0.458385            1.2174          0.297986          0.408096          0.154557          -1.22104          0.230574          0.292583         -0.744665         -0.793363          0.177205          0.595483         -0.770192         -0.547811          0.499599          0.802802         0.0629271           1.17233          0.938827           0.59974          0.173624          0.476999          0.480525           0.40026         -0.554078        0.00972008          0.631006         -0.105192           1.02847          0.988264           1.44181          0.663899         -0.741677          0.462342         -0.450379           1.37628          0.185871          0.195729        -0.0909673          0.417779
         -0.859633          0.310559          -1.96501          0.242785         -0.712038          -0.96781         -0.794806         -0.341447          0.170875          -1.87887         0.0341938          0.178102         -0.618225         -0.322417         0.0349396          -1.11214         -0.472741          0.630618          -1.00076          0.444186          -0.35117           0.15044          -1.54934          0.306477         -0.788153        -0.0684235          -1.03795       -0.00165622          -0.97959         -0.422117         -0.469409         -0.499368         0.0227242          0.528686         -0.800619          0.755557          0.134189         -0.240764         -0.744217          0.864549          -1.34522         -0.823969          0.323398        -0.0301238          0.392224         -0.273669          -1.05746          -1.32451         -0.429793          -1.91256          -1.26646          0.144099          0.795853         -0.223689          -1.46279           1.48832           0.39427          0.542188           0.28244          -1.59596         -0.572333         -0.280367          -1.21866         0.0108676         -0.488472         -0.577754          -1.29444          0.206804          0.676057         -0.936305          -1.44415        -0.0446026         0.0425375          0.893746         -0.780456         -0.254537         -0.272789          -0.87909          0.208362         -0.776098          -0.23244         -0.623118         -0.592062          0.131954          0.289551         -0.389088          -1.09421          -1.03689         -0.345778           1.24637         -0.891096         -0.638615         -0.249013         -0.674132         -0.548453        -0.0989985         -0.796483           0.32766          0.146085         -0.384432          -1.52476         -0.156746         0.0896181          -1.91808          -1.01557          -1.60216         -0.963025         0.0903662          -1.13094          -1.55203         -0.428983          -1.07815         -0.541563          0.288669          0.966743           0.11779           -1.2917          -0.31528         -0.303876         -0.218863          0.737277          0.519998         -0.305786        -0.0248631         -0.658874          -1.24781         -0.148825         -0.809258          -0.19165         -0.431692         -0.629423           0.27034         -0.831223          -1.56921          0.471152          -0.13403          0.250561          0.147263          -1.09941         -0.295752         -0.950889          -1.05786       -0.00741262         -0.700503        -0.0992606          -0.66194          0.287127          -1.09181          -1.14323          -1.36194         -0.728967         -0.517395          0.189216        -0.0371113
           2.24191        -0.0563546          0.474716           1.36362           1.83717          0.796359          0.412592          0.819812           1.04831          0.592626           1.90904           1.93036            2.0825           1.57605           1.34863          0.826421            1.2593         -0.860594         -0.345992           1.32905          0.103004           1.75571           1.06046           1.67797           1.89197           1.06823          0.601838           2.01344          0.220084            1.8413          0.333299           1.09752          0.680188            1.3103           1.19415           3.03323        -0.0622004          0.708409          0.605055         -0.349411        -0.0256251          0.464997           1.44457           2.37884          0.816629           1.73341          0.939059          0.313697           2.45822        -0.0838713           1.41514          0.464282         -0.858282           1.36209          0.535817           2.09613          0.650175          0.650211          0.885398          0.517669          0.232891          0.289362           2.06056           2.53238          0.859926           1.33755          -0.26069           1.60988           2.55451           2.06681         0.0286393        -0.0100952           1.60004          0.188548          0.075811           2.00067       -0.00368652           2.91096           1.14785           2.51002           1.51059          0.143752            1.8466           1.65368         -0.365809        -0.0655017         -0.133543           1.14815          0.995325           1.95407           1.47808           1.40698           1.32716           1.29743           1.04321          0.555545           1.06532           1.40803          0.611995            2.0695           1.22237          -0.36387           2.81175           1.66137          0.517443           1.82867           0.75819          0.800142           1.75101           1.53686           2.05582           1.85692           1.79645           1.40329         -0.510496           2.31955          0.212387           0.30345          0.867193           2.16716          0.210999           0.66065          0.729278           1.23897           1.96809          -0.18225           2.19196         -0.225059          0.650554          0.201233           1.29358           1.60111           1.90713          0.513742          0.557229          -0.32302           2.83385           2.30648         -0.551636           1.72788           1.43741         -0.011322           1.37371           1.87075           1.06425           1.97141         -0.127884           1.37145         -0.416589           1.28666          0.415377          0.262545           2.22511          0.538285
         -0.120858         -0.229441          0.343363          -1.10735         -0.611699          0.243642         -0.628481         -0.486941         0.0900304         -0.237795          0.365846           -1.0426            0.0607         -0.156665          0.358159         -0.987547          0.302582          0.201365         -0.738903         -0.666724         -0.462883          -1.11088         -0.474974         -0.484332       -0.00609462         -0.664558          0.235674         -0.382006          -0.75511        -0.0804033           -0.4741         -0.235018          0.314016          -0.64324         -0.400967          0.192722         -0.391938         -0.477497          -1.51175            1.2587          -1.20353          0.485956        -0.0693555         0.0192091         -0.100171          -0.86099         -0.440654           0.28297          -1.33061         -0.699905         -0.541678         -0.468076          0.640161         -0.365108         -0.832294           1.01428          -1.01254          0.648361          0.631368         -0.523689         -0.448411          0.417527         -0.381221          -0.36447          -1.18567         -0.134019         -0.754657         -0.465244          0.555948         -0.469418          -1.35877        -0.0993968          0.578895          0.322881         -0.741476         -0.316451          0.143393         -0.587558         0.0110538          0.207575         -0.695285             0.368         -0.367979         -0.984776          0.718511          0.400229         -0.549181         -0.566532           1.04441           1.01616         -0.433884         -0.218323         -0.225384         -0.450824         -0.212516       -0.00559148         -0.147336         -0.694598          -0.48586         -0.230961         -0.794686         -0.404526         -0.701519         -0.781011         -0.036522         -0.517875         -0.341764          -0.88787         -0.547697         -0.745094         -0.730867         -0.402939         -0.966652         -0.740246         0.0185133         -0.326818         -0.588866         -0.697072          0.192286         -0.100415         -0.370368         -0.362183          0.645026        -0.0247926           -1.0462          -0.07627         -0.371138        -0.0126571          0.199469         -0.295468          -0.75916          0.338022         -0.593085         -0.386303         -0.886135         -0.345105         -0.142743          -0.36405         -0.194593         -0.735004         -0.761223          0.262421         -0.172519         -0.570652         -0.158952        -0.0398458         -0.319907         -0.794632         -0.836544          -0.85618         -0.669713         -0.524898         -0.109561         -0.252201
          -1.50321           0.50253          -1.26127          -1.21852          -1.16187         -0.830735          -1.13064         -0.871473         -0.832694         -0.656166          0.967764         -0.126743         -0.345084         -0.378499            0.2029         0.0144844         -0.927487         -0.106962          0.101436         -0.335148           -1.3113         -0.768626          -1.21317         -0.756259          -1.11733         -0.355849         -0.265039         -0.255339          -1.44353          -1.78615         -0.563152         -0.963574           0.32182          -0.41011         -0.333309          0.060865          -1.37846         -0.583867          -1.81394          0.962436          -1.35885          0.116715         -0.206749         -0.663679         -0.538495          -0.51307         -0.714549         -0.510642          -1.87391          -1.17048          -1.37662         -0.372149          0.251626         -0.637675          -0.41768         0.0706916          0.146841         -0.946343          0.696583         -0.239093          -1.42062         -0.414888         -0.601563         -0.167261         -0.578111         -0.271731         -0.767683          -1.16212          0.691428          -1.59827         -0.854313         -0.378417         -0.435686        -0.0976187          0.464107         -0.248718          0.888431          -1.08962          0.991652          0.187623         -0.817099          0.843704          -1.05591          -1.30217          0.807195        -0.0131884         -0.483354          0.354552         -0.602612          0.128977          -1.12115         0.0536268        -0.0580811         -0.258339       -0.00214616          -0.31256         -0.495613         -0.787014         -0.534392           -1.1965         -0.982302          0.491237         -0.843061          -1.51763         -0.294579            -1.436          -1.15514          -0.53858           -1.6089         -0.447344         -0.605623           0.16111         -0.666554        -0.0199526           1.10797         -0.604646          -1.19263         -0.786444         -0.504949            0.2419          0.675181          0.444213           1.14273          0.674869          -1.73348         -0.275934          0.103338          0.949052         -0.581547         -0.335299          -1.15299          -1.15821          -0.73349         -0.460066       -0.00033827         -0.934047          0.382856          0.167114          0.334184           -1.1825         0.0612909          -0.11261          -1.00548         -0.129483         -0.521506         -0.587741        -0.0467962         -0.536355         -0.288951          -1.31623         -0.678794         -0.442232        0.00538403         -0.412728
          -0.16591          0.832885         -0.869036          -1.05306         -0.981431        -0.0958175         -0.389441          -1.27891         -0.142046        -0.0494996         -0.370299         -0.393409           -1.2952         0.0955916       -0.00767179         -0.384413         -0.658451          0.280534         0.0410981          -1.61623         -0.980682          -0.94194          -1.68337         -0.894568         -0.518767          -1.06272          -1.15595          -1.43865         -0.815384         -0.633987          0.222566          -1.06877          0.675433         -0.746491          -1.07821         -0.250814           1.65897          -1.11916         -0.231343         -0.244562         -0.423632          0.375972         -0.654563          -0.53407           -1.0639          -1.01252        -0.0103421          -1.15832          -1.27489          -1.31239          -1.24866          0.168136          0.780257         -0.393113         -0.485243          0.993355        -0.0927397         -0.306376          0.469817         -0.166308          -1.53154          0.491174          -1.19077         -0.412631         0.0270176         -0.570914           0.22447           -1.1281         -0.121028         -0.546633           -0.4425          0.988624         -0.476042          0.947687          -1.30985         -0.208068         -0.203681       0.000875314          0.411333          -1.61343         -0.426325          -1.25263         -0.542217         -0.690076           0.61962         -0.343627         -0.565071         -0.358155         -0.763037          0.775244          -1.59575          0.083917          -1.61206         -0.533814         -0.920511         0.0849494         -0.301146         -0.731452          0.568447         -0.560763          -1.73124         -0.203335         0.0583753         0.0788007         -0.614055          -0.55592          -0.52162         -0.859499         -0.658565        0.00504237          -1.12167         -0.392855           -1.2047         -0.576202          0.855555         -0.934153         -0.419059          -1.69095          -0.54599          -1.10377          0.733886          0.185387          -0.26383         -0.707628          -1.27618          -1.17993         0.0575258         -0.837544         -0.267996         0.0883648         -0.597325         -0.777222         -0.677268          -1.55572           1.29176          0.657286           -1.3568         -0.988422          -1.25954          -1.02832        -0.0836846          -1.71134         -0.640543          -1.00142          0.300686          -0.69593          0.579377         0.0794084         -0.236924           -1.2242         -0.999709          0.687142          -1.20425          0.314185
          -1.10131          -1.25479          0.496052         -0.609564         -0.963298         -0.534232          -0.41854         -0.650863          -0.31805        -0.0299015          0.105995         -0.135193         -0.783292         -0.683901           -1.1372          0.274155        -0.0799937         -0.817196          -1.10294          -0.17613        -0.0338445          -1.36891         -0.336191         -0.196564           1.30381          0.805771          0.176413          -1.05545          -1.40671        -0.0330381          -1.09229          0.349431       -0.00863949         -0.258934          0.553609         -0.889777           -1.8013          0.668135          0.119075         -0.269695          0.401772          -1.36376         -0.430265          -0.29892         -0.243162          -1.11751         -0.576929          -0.23048          0.375632           1.30309          0.726922          -1.04373         -0.203406          0.181626         -0.784929          -1.11158         -0.884676         -0.670988          -1.21776        0.00689872         -0.501323         -0.823668         -0.413864          -1.11591         -0.202351          0.406105          0.304987         -0.132707          -1.39019          -1.00239           -1.1587         -0.118932         -0.480805          0.633533            1.2979         -0.828413          -1.40088          -1.40592         -0.802635         -0.205444          -1.21015           1.72027         -0.806813         -0.698553         -0.487363            1.4261         -0.763817         -0.527355          0.198365         -0.988305          0.262254          -1.20706         -0.150671         -0.336075          0.160627         -0.896703         -0.812922         -0.416446          -1.29403         -0.940021          0.407483         -0.940731          -1.12707        -0.0189157          0.443969          0.601852          -1.12603          0.845925           -0.4191          0.545945         -0.795717           0.72562         -0.728601          -0.13865         -0.940917         -0.363176           0.13213        -0.0263703         -0.409122          -0.59166          -1.05976          -1.21792           1.51213        -0.0140107          0.300709          0.578084         -0.986583          0.037491         -0.156968         -0.608902         -0.705299         -0.351597          0.391033           1.00084          -1.32806          0.347463          -0.81411          0.311339          0.409411         -0.993234         -0.523234          0.495722          0.405857          0.822061          -0.50677         -0.645519         -0.858955         -0.531774           1.26802          0.145886         -0.138231          -1.08585         -0.681063          -1.01637
          0.166724          0.100593          0.800138          0.911453          0.437652          0.111194           0.96105          0.366812          0.990514         -0.108547          -1.08507           1.02747        -0.0325082        -0.0177896          0.509175           1.13952          0.817081         -0.105446         0.0255423           1.25504          0.748227          0.377735          0.633457           1.20339         -0.229363          0.324383          0.119914          0.511535          0.591442         -0.695101          0.503403         -0.684839          0.212808           1.27149          0.595454          0.471696         0.0130819          0.300964           1.37315          0.311557          0.288957          0.329556          0.839006          0.166962           1.25105           0.59857          0.695102           0.79362          0.886264          0.495212          0.329228          -1.00513           0.47335           -0.1642          0.437489          0.365301          0.276487        -0.0800409          0.317906           0.25033          0.662783          0.126519         -0.953858          0.438621          0.961751          -1.25306         -0.870766          0.923217          0.731054         -0.610022          0.455211          0.604635          0.994392          0.138879           1.03097         0.0686204           0.10049        -0.0180367         -0.993787          -1.31741          0.224562         -0.375074         -0.222072          0.956832          0.363643          -1.06241          0.169811          -1.10858          0.918535          0.222424          0.933195         -0.353921           1.06865          0.134381           0.68582           1.07194          0.206326          0.226775        -0.0435559          0.281018          0.449796            0.1377          0.266563          0.767045          0.548388           0.52624          0.180015            1.1046         -0.275167          0.915193           1.02853         -0.386005          0.288108          0.929336         0.0406072          0.776278         -0.692389          0.498783          0.515096          0.410815          0.310173           0.26704           1.20296          0.223158          0.184942         -0.754489        -0.0683827           0.01178          0.588027          0.184623          0.500042          0.940799         -0.198046          0.281271          0.160492         -0.511194          0.450128           0.20615         -0.557292           0.57278          0.624437         0.0356119           1.18523          0.993933           1.05972          0.122756          0.542301          0.307946         -0.667742          0.872056          0.280101          0.444107           0.16498        -0.0213333
          -1.02947          0.214388          -1.16825          0.011827         -0.627338          -0.60896          -1.42644         -0.726713         -0.788626          -1.43666          0.495749          0.242626          0.465822         -0.508631          0.588021         0.0802418         -0.882506          0.684886          0.393127         -0.111166         -0.405317          -0.44499          -0.80424         -0.343575         -0.567727          0.331654         -0.288261          0.302876         -0.831605          -1.02643          0.123478         -0.852316          0.759167         -0.258684          0.334869          0.621636         0.0533247          -0.27181         -0.915302           1.35109         -0.701143           -0.3356          0.256864          0.378916         -0.617241         0.0996041         -0.793427         -0.684452         -0.267326          -1.03682          -1.03455          0.734699           1.16221          0.850567          0.392967           1.48327          0.865752          0.414484           1.22029         -0.399368         -0.104448          -0.10485         -0.871056          -0.45254         -0.468969          0.963821          0.770795         -0.493928         0.0944851          -1.06684          -1.08924          0.751368          0.332792           1.08337         -0.285569         -0.663736          0.495153         -0.975948          0.583963         -0.654852         -0.337839          0.123995         -0.572663         -0.220327          0.944133        0.00463393         -0.227564         -0.464326         -0.147367           1.33978         -0.564724         -0.470033          0.637331         -0.939605          0.404455          -0.18035         -0.725546         -0.688199           1.16759         -0.312378         -0.389909          0.537189          0.505038         -0.305051          0.387162         0.0104221         -0.876933         -0.279922          -1.06987         -0.838834           -1.4375         -0.412771           -1.0004        -0.0129354           1.37796         -0.207591       -0.00732513         -0.642158          0.253502          -1.07855          0.994683            1.1131          0.210783         0.0932818          0.298586         -0.169813          0.263396         -0.602019          0.449041          0.131599           0.23284         -0.199217         -0.330596           -1.3577          0.955985        -0.0420153         0.0952542         0.0742066         -0.493568         -0.136305         -0.735325         -0.248768         -0.838962          -0.39069        -0.0163318         -0.677288          0.122989        -0.0173583        -0.0430375         -0.797115         0.0514164         -0.523287         -0.109339          0.384606
           2.23241         -0.477001          0.010469           1.26302           1.35224          0.831432           1.26283          0.898515            1.5008         -0.123033          0.930571            1.5141           1.85945           1.21973          0.463069            1.1081           1.26743         -0.615015          0.591219           1.09869              1.13          0.975584          0.857547           1.24684           1.33655          0.726952           1.02939           2.07134          0.304073           1.18313           1.06389           1.38018         -0.434205           1.09614           1.58621           2.09999          0.558152           1.13023           1.02928          0.616148           0.57865         0.0725314           1.41398           2.08048           1.30222           1.15269           1.43143           1.37914           1.57545          0.626485           2.08832          0.495411          0.347751           1.30352          0.638237          0.674358          0.381415           1.16539          0.737365           1.12106          0.734328         -0.338605            1.6091           2.28609           1.17117           1.66926          0.511003           1.05999           1.74603           1.18696           0.32632           0.89358           1.21063          0.477043          0.831463           1.17376          0.617835           2.02319           1.87472           1.77452           1.16886         -0.309554           2.03056            1.5326          0.386531          0.249793          0.657638           1.72017          0.665809          0.655279           1.13152           1.70694            1.6674            2.0446           1.00061           1.20263            1.7558           1.88855         -0.611091           1.95027           1.01556          0.185525           1.78356            1.1031           1.24586           1.68549           1.89423          0.751114           2.25332          0.488606          0.975556           1.85716           1.34469          0.640471          0.688407           1.75816           1.10551           1.07302           1.23165           1.95935          0.601182          0.791525           2.54732          0.745452            1.6264        -0.0635064           1.78146          -1.19441           0.66418           1.15336           1.09573           1.44467           1.04518           1.04726         -0.151634           1.05432           2.09517           1.80446        -0.0260963           1.81205          0.813461           0.52247           1.34684           1.32358           1.12656            1.4623          0.555819           1.25734         0.0977025           1.34695          0.537411           1.09591            2.1336           0.32378
          -1.04405          0.926925         -0.933889           0.15759         -0.688241         -0.543362          -0.72185         -0.358853         -0.212316           -1.0532          0.893117        -0.0395676          0.496714          0.191415          0.810736         -0.854503        -0.0447757           1.46117           1.13721         -0.597254          0.138934         -0.713152         -0.772722         -0.646014         -0.967178          -0.67637          0.281461          0.233677         -0.453601          -0.48131           0.40946         -0.839522           1.73257         0.0734666          0.163408           1.08535          -0.18354         -0.310977         -0.378548           1.21643         -0.371227          0.698973          0.179321          0.451276         0.0483865           0.19249         0.0653789          0.259858         -0.688186          -1.32676         -0.872125          0.843696           1.32851          0.289907          0.206566            1.5791           1.18176          0.663434          0.621372          0.515347          0.480692           1.16654         -0.722542        -0.0676539         -0.325947          0.335674          0.327605          0.160591         0.0564461         -0.576319         -0.470384           0.65478          0.421926          0.905827          0.101968          0.514105          0.558257         -0.500434       -0.00124951         -0.781125          0.300243         -0.179464         -0.643844         -0.572617          0.724108          0.517232            1.0335         -0.523424        -0.0976024           1.98383         -0.157544          0.665418         -0.829754         -0.690896          0.168397         -0.287864          -0.76569          0.212142          0.677451         -0.317778         -0.431797         -0.108473          0.460337          0.118962          0.135847          0.141172          0.385435        -0.0566453          -0.94674          -0.42848         -0.788551         -0.801423         -0.201394          0.307417            1.5717          -1.21026         -0.782053         0.0355241          0.241704          -1.01469           1.57493           1.05254         0.0530248           0.14426         -0.298739          -0.69906          0.600199         -0.626178          0.640972          0.583339          0.320816         -0.137078         -0.474252          -1.48501           1.62748          0.385696          0.198905          0.745112         -0.669245          0.125482         -0.743557         -0.718084          -0.15645         -0.313176          -0.15946         -0.338439          0.624523         -0.739468         -0.754913         -0.750402         -0.461452          0.359774          -0.99744          0.660686
         -0.113224         -0.410268          0.263379         -0.891005          -1.37234          0.394271         -0.551431          0.608963         -0.565435          -0.24344          0.538985          -1.06643         -0.299556           0.66328         -0.947384          -1.02068         -0.646922           0.41437         -0.558738         -0.359969          0.372461         -0.559594          0.198101         -0.606421         0.0695286          -1.38041         -0.178672           -1.3596       -0.00953908         -0.373592         -0.704566          0.295435         -0.314766          -1.27515         -0.358073         -0.184782         -0.588539          0.120836          -0.72398         -0.660222         -0.624066         -0.606473         -0.777677         -0.679006         -0.605553          -1.41594          -1.24773          0.863738         -0.912393         -0.268667          -1.26747           0.16745          0.355824         -0.576011         -0.561585         -0.694991          -1.15043         -0.227156         -0.527691          0.533046         -0.390474         -0.938874         -0.669268          0.401358         -0.742172         -0.232827          -0.22483         -0.773178         -0.857617         0.0121419          0.213167         -0.894614         -0.745633         -0.340378         -0.753647          -1.08805          0.153096          -1.22676          0.488581         0.0460172         -0.964216         -0.224002       -0.00198539         -0.810776         -0.286042         -0.458927         -0.493494          0.439058          0.416724         -0.509495          -1.14575          -1.07457         -0.782398          0.453022         -0.258904         -0.224744           0.25549         -0.878918         -0.842742         -0.333767         -0.657099          -1.26006          -1.39286         -0.864329          0.122283         -0.625665          0.129844          -0.93025        -0.0300929         -0.390017          -1.47999          0.323996          -1.72602         -0.954706         -0.571017          -1.03638          0.667055         -0.971372         -0.583095         -0.829391         -0.504277          -1.34043          0.717418          0.529822         -0.896692         -0.818495         0.0270431         -0.447042         -0.471683         -0.845725         -0.870663         -0.689359          0.261099        -0.0862198          -0.51491         -0.776803          -1.30526          -1.51949           -1.1591          -1.00635         -0.949937         -0.446241         -0.439443         -0.730767          -0.48959         -0.382523          0.128582         -0.079369          -1.34168          0.141512          -1.41395           -0.6753          -1.01847         -0.695312
          -0.69603         -0.956309          0.936727          0.981608          0.446448           1.25466           1.35385          0.532498           1.39206          0.684778          0.068678            1.1594          0.419801         -0.969637         -0.585581          0.989612           1.35384          0.320041         0.0841815           1.48193           0.50687          0.369263          0.732672           1.23772          0.398038           1.18005          0.385135          0.834382          0.294711         -0.343356          0.893035          0.695851           0.27583          0.670489           1.11882        -0.0369578          0.240062          0.944297          0.915604          0.305191           1.21056         -0.178139          0.507501          0.271363          0.642949          0.759132           1.17179          0.631365          0.385843           1.39357           1.11639           0.24068          -0.59654         -0.353778          0.378335          0.282788          0.165526            1.4352        -0.0700134         0.0567009          0.666133        -0.0160513        -0.0214585          0.457776          0.992214          -0.55908          0.733285           1.15541          0.909821          0.246021         0.0781422        -0.0035335           1.23238          0.332418           1.35065         0.0852177          -0.88901          0.200499          0.115763          -0.61345          0.168491          0.129265         -0.246323           1.24623          0.413594          0.860322          -0.21643         -0.630212          0.716436           0.54541          0.534209         -0.652759           1.20784          0.608522          0.648019          0.710275          0.336542          0.544426         -0.527186          0.114046           1.03352          0.560506          0.729001           1.49099          0.955352           0.91941          0.971537          0.927076          0.526941          0.614682          0.901543          0.392714          0.467986          0.588568          0.405271          0.399554           1.11799           1.02979           1.16483          0.279509            -0.632          0.385121          0.299258           -0.8968        -0.0710942           0.76622          0.663575         -0.192323         0.0113122           1.10432         -0.108553          0.481158          -0.16438           1.36667          0.172196          0.792022          0.435541          0.482666          0.419745           0.10293          0.796763          0.699401           1.35619           1.01948           1.06018         -0.223312           1.01143          0.570372          0.530559           1.25813           1.20427           1.19655          0.517078          0.664203
         -0.735192          -1.04824         -0.647207         -0.652948         -0.722954          0.089341         -0.584785        -0.0186145         -0.951277         -0.241463         -0.306185         -0.838196         -0.968104        -0.0408271          -0.56428          -1.07486         -0.965241         -0.993331         -0.943369          -0.65521         -0.783267         -0.576676         -0.986866          -1.21429          0.475904         -0.990827         -0.433664          -1.09734         -0.274615         -0.736531         -0.953803         -0.815321          -1.10432          -1.28088         -0.654009         -0.820214          -1.83049         -0.655373          -1.02161         -0.985553         -0.483204          0.199644         -0.926134         -0.179229         -0.783862         -0.390209          -1.43974         -0.832573         -0.498113         -0.812439          0.022685         -0.434126         -0.961078         -0.306825         -0.163237          -1.09196         -0.674801          -1.11314         -0.894641         -0.260203         -0.267296          -0.37483        -0.0743927          -1.35805         -0.624644        -0.0388294         -0.216326         -0.889878         -0.800305          0.169921         -0.203247          -0.68919          -1.01098          -1.09444         -0.707109         -0.269734         -0.398958         -0.217374        -0.0838201        -0.0606583           0.24427          -0.55932         -0.683462         -0.817083         -0.600587          -1.39989         -0.622271          0.122146         -0.695473          -1.04626         -0.115518         -0.692004         -0.480141         -0.540571         -0.779118          -2.44214          0.147752          -0.40641         -0.993599        -0.0532524         -0.462793          -1.34123         -0.564484          -1.20285         -0.864526         -0.312521        -0.0827758          -1.04613           0.54296        -0.0752711           -1.6511          0.418718          -1.52031         -0.881263          -1.28234          -1.32523         -0.631038         -0.393551           -0.8942          -0.51531          -1.15048          -1.26623          -1.11511         -0.729554         -0.531024         -0.736803         -0.878764          -1.55649         -0.821627         -0.326435         -0.768869         -0.861734         -0.103731          -1.20012          -1.50344         -0.672268         -0.852325         -0.867445          -1.52573         -0.584162         -0.668507          -1.27015         -0.504009         -0.984247          -1.64618         -0.499221          -1.52916          0.657302          -1.16357         -0.999122         -0.916957         -0.575434         -0.500826          -0.66969
          0.156208         -0.233497          0.860415         -0.425699         -0.146462           1.01104         -0.383963         -0.625256          0.260711         -0.198866         -0.898244         -0.143021         -0.575365         -0.238848          -1.44982           0.97218         -0.297305          -1.54483          -1.25275        -0.0495488          0.917945         -0.693727           1.00147         -0.610888         -0.069836           0.59699          0.316615          -1.57177          0.329397         -0.209236         -0.865854          0.212787         -0.450873         -0.556495          0.718878          -1.36683          -1.14991        -0.0566783          -0.12496          0.224022         -0.111793         -0.562656         -0.390365         -0.560256         -0.393619          -1.05851         -0.711331          -0.16554         -0.654307          0.941698          0.582239          -0.21966          -1.41484         -0.939375          -1.08476         -0.210827          -0.91682         -0.844267         -0.107964         -0.643957         -0.397385          -1.39365         -0.376598          -1.45375          0.045611         -0.420716          0.295065        -0.0450782          -1.16515         -0.864826         -0.625607          0.453424          -0.73091         -0.792829          0.153718         -0.967436         -0.632851         -0.937145         -0.216858           1.01597         -0.946359          0.637781          0.230159        -0.0851377         -0.724042           0.19943         -0.988222          0.484782         -0.332241          -1.38708          0.317608          0.189332           -0.1589         -0.459821           0.57358          -1.20705         -0.341172         -0.884665         -0.533354         -0.615574          -0.25905          -1.06625         -0.733279        -0.0557354          0.377973        -0.0740314         -0.613703         -0.256951         -0.701227           1.13391          0.558027          0.366332         -0.339994         -0.439284          -1.38366         -0.739599        -0.0681051          0.182835         -0.241577         -0.398252          -0.74642          -1.67274          0.268759          -1.06424         -0.161604           1.65946         -0.993114          0.347847          -1.00599          -1.03412          0.188101         -0.430751          0.419039          0.376046         -0.956375         -0.813772          0.238287         -0.821559          0.232642          -1.02183         0.0488026          0.997459         0.0230781         -0.316984         -0.514859          0.146093         -0.708619          -0.37821          0.573308           0.46564           1.47007          -1.01869         -0.658766          -1.45149
         -0.526776         -0.345758        -0.0822606          0.442687          0.612096         -0.129459          0.541133       -0.00615963          0.484144         -0.265611          0.248191          0.183524         -0.618059           1.56372          0.272351         -0.468404          0.942086         -0.201803         -0.342184         -0.128221          0.218283            -1.023        -0.0700527          0.397414         -0.299082         -0.327072          -1.19172         -0.907177          -1.04314          -1.17165         -0.638136         -0.805821          0.228059          0.368417         -0.484062          0.139977         -0.194342          0.201424          0.707207          0.472948        -0.0460184          0.132112          0.729291         -0.378112           0.94876          0.487904          0.439743           0.51087          -0.14928           1.37256         0.0510399          0.691384        -0.0285172         -0.105628         -0.276042         0.0560063          0.589452         -0.221293          0.154718         -0.429095         -0.347338         -0.764247          0.370002          0.257119          0.963899          -0.68847          0.289298          0.734551          0.594218         -0.243655          -0.26987        -0.0783506          0.488698          0.655636          0.587052          -0.76601          0.658854         -0.563863         -0.347566         -0.152044          -1.06312         -0.366292          -1.17083          0.638815           1.04645         -0.327411          0.868089          0.199173          0.123496           1.20843          0.764302          -1.42404           0.71049          -1.04641          0.634689          0.990932         -0.306495        0.00593138        -0.0202124         0.0262997         -0.489249          0.168136         -0.824502          0.992248          0.951761          0.147657         -0.889123          0.423335          -0.39072          0.474122           0.56383          0.565967          0.586272         0.0715829           0.62762          0.736221        -0.0361679         -0.122828        -0.0211535          -0.79256          0.099369           -1.0122          0.226023         -0.312757         -0.150659         -0.132959           1.05292          -1.94964         -0.316541           0.65041           0.69795          0.986474         -0.380445           0.18984         -0.301699           1.31594         -0.850667         -0.453886          -0.30658          -1.09516         -0.253008         -0.711522         0.0429629          0.409447           0.27925           0.26887          0.176517         -0.892481          0.424125          0.631318         -0.409543          0.448226          -0.56197          0.575455
          0.684484         -0.126529         -0.899475          -1.05736         -0.373971         -0.345352         -0.713709          0.217806         -0.569085         -0.900039          0.853124         -0.469413          -0.46111          0.551039          -0.23063         -0.243086         -0.797081         -0.215564        -0.0678884         -0.720409           -0.7336         -0.385489          -1.13633         -0.691624           0.78538         -0.625953         -0.512809         -0.727315        -0.0545576         0.0680947         -0.389039          -1.52451         -0.249681         -0.805238         -0.487197         -0.297349          0.591725         -0.885867          -1.14448         -0.660167         -0.240191         -0.078213         -0.564502         -0.647054         -0.728152         -0.904657         0.0897696          0.368592         -0.548647         -0.921097          -0.62991          0.282493        -0.0206668         -0.454312          0.369735         -0.292905         -0.167246         -0.270035          0.140803          0.532751           -0.3796          0.308287          0.970905         -0.325244         -0.870052          0.464268           0.15044          -0.96118         0.0744599          0.555499          0.840744         -0.754134         -0.631304         -0.462267          0.221435          0.113952          0.835602          0.252144          0.756557          0.380794          0.171917         -0.997067          0.529746          -1.09543         -0.462327          -1.39853          0.489938          0.259403         -0.708493         -0.288342          -1.30232          0.219905          -1.01455         -0.578609         -0.915397         0.0820008         -0.871669        -0.0226546         -0.521811        -0.0466751          -1.10659         -0.477153         -0.665102          -1.31613         -0.960582         -0.451463         -0.553963         -0.798182          0.822956        -0.0641349         -0.923012          -0.27369         0.0653339         -0.218874         -0.291399         -0.844848        0.00468216         -0.916242         -0.458557         -0.650711          -0.22411         -0.338537          0.267414         -0.334627         -0.378735          -1.14702          -1.05188          -1.12597         -0.178855         -0.580689          0.111644         -0.806536          0.719465         -0.615559          0.702452         -0.104427         -0.798223         -0.625092          -1.26936         -0.605446          0.633528         -0.535385         -0.765241         -0.830768         -0.645241           0.19745        -0.0910777         -0.629685         0.0780111          0.295345         -0.348311        -0.0882717         -0.606737         -0.470126
         -0.129964           1.00772         -0.476894         -0.276341          -1.38191          0.386666           -0.5616        -0.0246444         -0.730484          -1.12325          0.753151          -0.67827           0.12163         -0.242234          0.457411         -0.868532         -0.273702          0.619671          0.509127         -0.733106           0.45269         -0.293441         -0.202991         -0.376387         -0.311528         -0.223491           0.18745         -0.265253         -0.028035         -0.110757         0.0587982         -0.899727          0.768555         -0.224104          0.745761          0.197861          0.883157          0.790753         -0.900221          0.517017         -0.260852           0.29648         -0.371636         -0.120645         -0.114036           0.13097         -0.500187          0.378831        -0.0405457          -1.15871         0.0838478          0.438402           1.03907          0.193558         0.0172529           1.06885          0.369504          0.213798          0.889367          0.126408           0.13518          0.164863          -1.05889          0.581751         -0.540777         -0.279811          0.211151          -0.47169         -0.674261         -0.981419          -0.71215         -0.356554         -0.359976         0.0949922         -0.674245         0.0380027          0.228953         0.0622593         -0.177968         -0.984856         -0.251449          -0.70009          -1.27951         -0.492209          0.468815          0.183644         -0.748674          -1.05719         -0.293721          0.993971         -0.441392         -0.526137          0.275898        -0.0121307          0.123806         -0.350875         -0.903852         -0.450902          0.971964        -0.0400747        -0.0833683        -0.0331275         -0.188477         -0.498655         -0.214353         -0.131505          -0.11736         -0.209713         -0.576652          -1.09267          -1.46608        -0.0388992          -1.30999         -0.153568           1.35228         -0.532899          0.416018          -1.03262         -0.149007          -1.02986          0.523139          0.424932         -0.119825         -0.195768          0.153985        -0.0862385         -0.964429         -0.298306         0.0855157          0.943313         -0.193259         -0.359248          -1.26032         -0.417271         -0.320039          0.798397          -0.28645        -0.0755699          -1.10355         -0.229891          -1.16242          0.508994         -0.762433         -0.543881         -0.606925         -0.208161         -0.214584          0.559407         -0.278091          -1.18582         -0.407861          0.317169         -0.234752          0.172723
          0.176156          -1.13302          0.132913       -0.00438183         -0.374264         -0.256946        -0.0964898         -0.895072         -0.401508        -0.0140802         -0.436978         -0.163895         -0.868016         -0.669529         -0.932983            -0.326         -0.362683         -0.915455          -1.13994         -0.374446         -0.545558         -0.854526         -0.182582         -0.386839        -0.0961446         -0.364671          -0.70433          -1.30845          -1.06597          -0.88832         -0.853611         0.0203176          -1.05173         -0.600714         -0.267397          -1.41173          -1.68119        -0.0694845         0.0110645          -1.13709          -1.05562         -0.816185         -0.491716         -0.660952       -0.00692447         -0.787548         -0.905198           -1.0266         -0.410095          0.466318         -0.497058         -0.460679          -1.09447          -0.96368         -0.860574          -1.08578          -1.06027          -1.04666         -0.944111         -0.611471         -0.708849          -1.10889         -0.173993          -1.34225          0.248574        -0.0833666         -0.670998         -0.109734         -0.746144        -0.0477561         -0.634458          -1.09075         -0.535736          -1.08695         -0.180691          -0.24999         -0.177275         -0.912203          -1.12875         -0.647112         -0.500341          -0.92165          -0.01605           0.22249         -0.860216         -0.519246          -1.01242          0.119226         -0.172116          -1.06256         0.0660424         -0.785084         -0.451721         -0.754256          0.309975          -1.12079         -0.835015         -0.102185          -1.23784         -0.329774        -0.0780503          -1.28335         -0.768062        -0.0774069         -0.137863         -0.520124          -0.39875         -0.174467         -0.251963          0.726723         -0.658909          0.011546         -0.487607         -0.353615          -1.34506         -0.233457          -1.00356          0.115972         -0.891933         -0.880557         -0.816698          -1.34955         -0.833527         -0.510832          -1.36524         -0.127126          -1.26536           -1.0278         -0.843282         -0.659458         -0.854747         -0.399435         -0.461155         -0.413915          -1.25345         -0.923413         -0.831813         -0.917591         -0.293932         -0.818793          0.493815         0.0137214        -0.0686896        -0.0463112         -0.829277          -1.19802          -1.28212         -0.891308          0.253654         0.0298309         -0.522531          -1.19561         -0.600554         -0.911676
        -0.0604772          -0.97202           0.67202         -0.373389          -0.26164          0.298623          0.229179          0.569771          -0.90996           1.21853         -0.854257         -0.309725         -0.117169         0.0330064           -1.6522          0.371994          0.415446          -1.14734          -2.02859         -0.696826          0.395383        -0.0479665          0.167677         -0.596797         -0.816705         -0.656518         -0.790159          -1.15472         -0.620474         -0.259472          -0.87524         0.0995963          -1.44007           0.31179          -0.38425         -0.274578          -2.04513         -0.401181         -0.383435          -1.65864         -0.812432          -1.39704         -0.962702        -0.0171182         -0.543212         -0.384088         -0.462447           0.79452         -0.783948          0.125717         -0.705792          -1.39317         -0.957546          0.228085         -0.935959          -1.73766           -1.3672          0.018487          -2.15231          0.682152         -0.460218          -1.65246       -0.00534839          0.268178         -0.657232         -0.488565          0.310222         -0.437177         0.0662098          -0.81015         -0.933143          0.441999          -1.18217          -1.06138          0.416616         -0.779114         -0.345159         -0.241182         -0.694264         -0.218799          -1.23391          0.147362         -0.367908         -0.615568          -1.69675         -0.144283          -1.20934           0.33947           1.17459          -1.37325           1.32687          -1.10286          0.633222          -1.13228          0.210957         -0.825004         -0.322414         -0.956037          -1.79539          0.438769        -0.0641183          -2.11279          -1.25328           1.04172          0.583118        0.00294067         -0.734698         -0.494718         -0.192458          0.880955         -0.828239          0.257319        -0.0259908         -0.852266          -1.34398          -1.12375          0.351688         -0.637322         -0.898188          -1.16569         -0.277961          -1.43912          0.602438         -0.235988         -0.183659         -0.953791          -1.26854         -0.468147         -0.946094         -0.822369         -0.874803         -0.600868          0.327254        -0.0882883          -1.65078         -0.622573           -1.4489          -1.75289        -0.0365092         -0.304079         -0.181013           0.36094         -0.531785          0.101068         -0.400473         -0.974424          -1.18003          0.300515          0.105073          0.800575          -0.67252          0.100637         -0.363552          -1.46176
         -0.514664          -1.12368          0.331299         -0.626686          0.496067         -0.802205       -0.00155253          -1.11448          -1.01231         -0.639671          -1.09892          0.332099          -1.10428          -1.26189          -1.21186          0.395307         0.0137044        -0.0920306         -0.736253           1.26746         -0.105995         -0.413432         -0.115264         0.0941738         -0.737358          0.474906          -1.31326          -1.64758          -1.05425         -0.194627          -1.12449          -1.47563           -1.2065          0.881006          -1.07301         -0.524346          -1.66936         -0.813622          0.010316         -0.870823         -0.372249          -1.29212           1.06859          -1.34414         0.0879144         -0.744797         -0.113446         -0.132466         -0.054522          0.412908         -0.661451          0.602977          -1.06459         -0.995636         -0.360383          0.276773         -0.964658         -0.638323          0.152762         -0.314321          -1.13998         -0.648337          -0.23961          -1.65193           1.52373         -0.649539          -0.41495         -0.135551         -0.304042           -1.0703         -0.188939         -0.826988          0.278857          -0.42301           1.23391         -0.889697         -0.648649         -0.590402          -1.09157          -1.10703         -0.716371         -0.280263          0.269922         -0.181933          0.362143          0.474326         -0.987277         -0.689153         0.0457037          0.155513         -0.124808         -0.749869          0.405355          -1.20198         -0.035136         -0.479305          -1.16824         -0.765143          -1.03696         -0.550448        -0.0892996          -1.47711         -0.768066          0.690068         -0.198421        -0.0798845          -1.22903          0.489422         -0.081544          0.104987          -0.34755          -0.36383          0.156746         -0.129167           -1.0417        -0.0939472         -0.625704         -0.428727         -0.881534         -0.642479          0.164688          -1.38439          -1.07656         -0.984088          -1.18977          0.166493          -1.78239         -0.227206           -1.1265         -0.929679          -0.35991           1.05318         -0.392004         -0.526141         -0.375903         -0.657311         -0.116771         -0.530681         -0.245085         -0.366274         -0.463124         -0.931075         -0.461754          0.819578            1.7187          -1.43287          -1.12011         -0.685013          0.203722        -0.0312798          0.297193         -0.857014           -1.1766          -1.19453
         -0.710067         -0.195882         -0.677824         -0.958606          0.202617          0.587263         -0.352766           0.48847         -0.532391          0.236796          0.529746         -0.275936          -1.16214          0.613286         -0.665288         -0.231533         -0.725626         -0.194064          0.224189          0.137268            0.1386          0.146872         -0.412293          0.579637         -0.843913          -1.99727         -0.766879           -1.3671          0.553705          -1.17708        -0.0236666         -0.790021         -0.563837          -1.09303         -0.438613         -0.888302         -0.194318         -0.594181         -0.680928         -0.427341         0.0111576         0.0375691         -0.808621         -0.698828         -0.508303         -0.427726         -0.376925          0.439727         -0.215847        -0.0593929          0.440945          0.821746         -0.332194         -0.601298         0.0853062           -0.2157         -0.595351         -0.393492         -0.139203         -0.315857         -0.512112         -0.419831          0.427637         -0.393384         -0.787865         -0.226014         -0.416364         -0.696271         -0.516914          0.196479           1.34079         -0.595542         -0.747144          0.146525         -0.214461        0.00435141          0.829103          0.279379          0.145954         0.0560849         -0.186001          -1.25887          0.229003           -1.0351          -0.56758         -0.869733          0.632925          0.380039         -0.291554         -0.207587          -1.04615         -0.110373          -1.16468         -0.216383         -0.668846         0.0150285          0.237009        -0.0503436         -0.570137         -0.132205         -0.492593           -1.0474         -0.967137         -0.604259         -0.305937          0.513938         -0.174984         -0.584931          0.418312        -0.0954228          -0.18909         -0.732878         -0.402912         -0.616418         -0.693732         -0.840209           1.11148          -2.17086          -0.39003         -0.612913          0.384245           -1.1127         -0.388375          0.286838          0.337149         -0.878993         -0.876117           -1.1484         -0.346229         -0.673107          0.347762         -0.485085          0.267467           0.12131       -0.00122244          0.524624          -1.04335          -1.30347         0.0708685         -0.749653          -0.38814         -0.485566         -0.773893         -0.687692           -1.1534         -0.272948          0.103686        -0.0696461          -1.62405          0.116807          -1.47818         -0.117011          -1.15445          -1.07589
         -0.863945           1.85472          -1.76368         -0.203735         -0.831662          -1.04802          -1.13344          -1.09888          -1.33016         -0.793515          0.123825         -0.533412         -0.973024         -0.372575         -0.362318         -0.899004          -0.42583          0.328421           0.83244       -0.00588219          -1.37976          -1.38762          -1.33345         -0.394586         -0.968532         -0.810076          -1.38689          -0.21467          -1.27227         -0.710023          0.253588          -1.21269          0.588676          -1.17788          -1.31351         -0.359712          0.824954           -1.2545         -0.541818           1.30019         -0.875962         -0.273543         -0.154808          -1.09645         -0.395461         -0.126651         -0.472352          -1.40754          -1.30977          -1.52893          -1.01333         -0.677696           1.43753           -1.1819         -0.605909          0.647864          0.749019         -0.544344           1.25061         -0.968917         -0.453005          0.428253          -1.01996         -0.876563         -0.331941         -0.908916         -0.971376         -0.324469         0.0617646         -0.831595          -1.01201          0.245712         -0.304626            1.3549         -0.452147        -0.0902496          0.193327         -0.834079        -0.0749633         -0.892468         -0.601116         -0.647722         -0.730167           -1.5711          0.290009         -0.478003         -0.825284           -1.0811         -0.437988           1.65451         -0.563611         -0.825781          -1.25337          -1.10524           -1.5299          -0.60511           -1.1437         -0.972311          0.852856         -0.814219          -1.52388          0.432752         0.0677502          -1.19877           -1.5273          -1.06761          -1.18465         -0.187287          -1.03845          -1.17495          -1.41298          -1.37465         -0.947414           -0.2678           1.43716        -0.0636178          -1.52219          -0.47004         -0.727466          -1.23283          0.513586          0.601189         -0.630694         -0.202871         -0.747315         -0.911465          -1.16009         -0.288195        -0.0595207          -0.14089          -0.13199         -0.387325         -0.817565          -1.18718           1.33911         -0.581167        -0.0113178          -1.26148         -0.615001         -0.466486         -0.799867          -1.03317         -0.705645         -0.484586          -0.85475         -0.782894         0.0471347         0.0373404         -0.843013          -1.27055          0.285878         -0.668476          -1.53291          0.271764
         -0.247895          -0.88922          0.559704          0.131666          0.591522          0.164263         -0.228918         -0.367793           0.68062         -0.836268         -0.561464          0.234961          -1.10095         -0.387585          0.772517          0.378325          0.191507          -1.06102          0.700289          0.636733           1.14919         0.0978124          0.916414          0.596298          0.159771          0.166329         0.0479272         -0.564651          0.979834         -0.630146          0.806548          0.681155         -0.377248           1.24375        -0.0805178         -0.757888         -0.509455        0.00595302          0.514371          0.284641          0.669927          0.419128          0.778365          0.611294          0.609325           1.14505          0.312081          0.301992          0.902683          0.778633          0.478086          0.257273         -0.685606         -0.664958          0.671771         -0.650404         -0.340134         -0.900507          -0.85868          0.124187          0.819628          0.390922         -0.209122          0.437267          0.809116         -0.295397         -0.344559          0.113371         -0.323424         -0.408431          0.907267          0.220314          0.667417         -0.952122        -0.0799726          0.196936          0.645828          0.171938          -0.78955         -0.213981         -0.183604         -0.304333          -0.57747          0.211882          0.322925          0.158852          0.467446          0.960806         0.0745133          0.526036        -0.0187451           0.53925          0.732856           -0.4196            1.0389          0.883632          0.225775         -0.541192         -0.396247          0.664231          0.148955         -0.912467          0.745761           0.94378          0.339627           0.70103         -0.320483          0.904332        -0.0329804          0.455514           0.79738            0.1514          0.299047          0.303721         -0.843073           1.00774          0.309237         -0.797658          0.895999            0.2681         -0.870435         -0.286245          -1.13001         -0.649406          0.766729          0.243629         -0.495609          -1.62838          0.764236           0.56623          0.509141          0.846089          0.310414          0.149407          0.598778          0.186861          0.206681         -0.548636         -0.289183          0.752934         -0.292698         -0.133458          0.672061          0.357127          0.660677         -0.247601          0.182361          0.636954         0.0468917          0.741337          0.409216          0.824338         -0.389463          0.313709
         -0.706603          -1.19547           1.39065          -1.08575          -1.05078          -1.04212         -0.299232         -0.518748         -0.268742         -0.449282         -0.385406         -0.891557          -1.05299          -1.44913         -0.989763          0.540865         -0.692918          -1.04472         -0.353692           0.70254         -0.637678         0.0973921          -1.25342          0.213289         -0.404723          0.218883         -0.173976         0.0510751         -0.324013         -0.816344          0.107031         -0.849771         -0.341161          -1.48903         -0.130129          -1.19715          -1.63204          0.283928          0.386636          -1.47971          -0.75578         -0.281462          -1.19482         -0.444142         -0.563709          -1.00377         -0.416035          -1.22479          0.642402          0.275815          0.212759         -0.753179          -1.32606          -1.01668         -0.277964          -1.12678          -1.17353         -0.542403        -0.0565083           -0.1623          0.389587         -0.997971        -0.0765749          -1.22353         -0.481389         -0.279272         -0.476982         -0.348876         -0.641058         -0.929719         -0.824012         -0.777477         0.0526121         -0.175864          0.978314          -0.74006         -0.153514         -0.604118          -1.69425         -0.859861          0.480293        -0.0967586         -0.541522         -0.734995         -0.920408         -0.955666         -0.867546          -1.21689         -0.936693          -1.03978        -0.0316517         -0.209183         -0.745983          -0.89595         -0.860638          -1.73166          -1.71782          0.392051         -0.488851         -0.467449          0.600694         -0.310941          -1.07646         -0.589891         -0.553441           0.32116         -0.246708          0.377119         -0.860426         -0.492062          -1.10812         -0.416951          -0.89654         -0.811267          -1.22745         -0.820713         -0.148748         0.0281389          0.289098          0.225884          -1.47674          -1.50469          -1.30841          -1.62785         -0.786608          0.314231          -1.60069         -0.499957          0.255211          -0.44516         -0.877921         -0.920012         0.0746268          0.162561          -1.70311         0.0269565          -1.01481         -0.231031            0.2204          -0.78747         -0.265839          -0.48962          0.744685         -0.716608         -0.313263          -0.87723          -1.06168         -0.634342          0.366846         -0.590427           1.23433         -0.889176          0.123682          -1.78103
          0.465762         -0.725907        -0.0721986         -0.603547         -0.700867        -0.0795117          -1.14864          0.533492         -0.907356          -1.13209         -0.564377         0.0740806         -0.174734          0.259545          0.261333         -0.487417         -0.841056          -1.03011          -1.05052         -0.112818           0.30454         -0.362801          0.282386         -0.677341         -0.334161         -0.230492         -0.559285          0.385255          0.865792          0.181935          -0.71609         -0.197044          0.123984         -0.226626          0.595157          0.262745          0.814982         -0.465678         -0.971871        -0.0572091         -0.513263         -0.587182         -0.243243          0.617438           -0.3207         0.0503978         -0.157231          0.609422          0.169735         -0.556785         -0.655065         0.0325357          -1.03932         -0.454981          0.310369         0.0705408        -0.0484478          -1.10962        -0.0225389          0.364857          0.618925         -0.190111         -0.201734         -0.448068         -0.267276         -0.633261          0.222719         -0.174068         -0.136452        -0.0599698          0.110757          0.239673         -0.426558          -1.31001         -0.342736         -0.493687          0.525829           0.10249         -0.497339         -0.804685          0.376426         -0.281448         0.0280702          -0.10502         -0.848242          -1.02181          0.453965           0.14596         -0.899857         0.0792137         -0.979481         -0.705194          0.389389         -0.624239          0.549667         -0.887191         -0.565914          0.283573         -0.200618         0.0886537          0.106482         -0.888154          0.264031          -1.01165        -0.0594438         0.0300342          0.846001         -0.373694         0.0263433         -0.621375         -0.303262         -0.450263        -0.0105307         -0.543953         -0.765794          -1.07596        -0.0441988         -0.477742          0.418391          0.393556         -0.106248        -0.0220379         -0.764492          0.142361        -0.0232771          0.407432          0.339425          -1.17736         -0.683557         -0.539413          0.376608         -0.124843          0.134204         -0.781267          0.234287         -0.775539           0.51425          0.120264         -0.645835          0.486542          -1.09229          0.764874          -1.04943         -0.316612          0.160635          0.278497          0.167793         -0.197358         -0.844027          0.328703           0.15172          0.372174         -0.790393          0.271858
           2.03235         0.0408269          0.121427          0.082972           1.30419           1.21897          0.102599           1.03675          0.390064           0.46572          0.951092            1.0292           2.42383           0.53344       -0.00441525          0.782619           0.81713        -0.0242792          0.289479           1.69732         -0.222406           1.97437           1.16805          0.955519           1.13047          0.991499           1.08039           2.53008           1.28945            1.7682           1.35977           2.14944         -0.520189          0.873807          0.657461           2.46694          0.680327          0.678574         -0.487673         -0.435068          0.536114          0.731614         0.0725898           1.77502        -0.0270404           2.13186           0.46836           1.26714           1.54242          0.880635           2.04682         -0.126858        -0.0377716           1.74518          0.543495          -0.02741         -0.310413           1.11735          0.476132          0.939586          0.594483         -0.154085           1.80442           2.33003         -0.163987           1.21119         -0.340639         -0.232512           2.20997           2.20663          0.869392          0.934599           1.00738          -0.41005         -0.302874           1.93212       -0.00149641           2.17148           1.03254           2.20418           1.61664          0.136106           2.27934       -0.00368833         -0.631461         0.0965099          0.359396            1.4087          0.992792         -0.440145          0.187517           2.39782            1.7105           2.57531           0.70392         -0.447586           2.32904           2.09019          -0.10136           1.69836          0.563516           0.50366           2.50441          0.413992          0.729936           1.71729           1.76047         -0.370243            2.1836          0.144361           1.33119           1.19484          0.742239          0.511116         -0.715053          0.977771          0.765394        -0.0878819           1.34545           2.65551          0.356309         -0.267658          0.159454          0.798019           1.58218           0.67746           2.14995          0.109851          0.387484         -0.132977           1.00146         -0.245401           1.41256           1.03932          0.581278       -0.00399604           2.57156           1.88221         -0.267053            1.4143           1.08715           0.60954          0.758582           1.30768        -0.0216642           0.53214          0.317201           1.50805          -0.41415          0.850162          0.360992          0.292246           2.76233         -0.514396
           0.52211          -1.03916          0.856352           -0.7647          -0.75886         -0.753412         -0.456823          0.163139         -0.514072          -0.23883         -0.887668         -0.696017          -1.15176          -1.42561          -1.07587          0.771349          -0.51376          -1.35603          -1.29935          0.661972         -0.860373         -0.542846         -0.590449          -1.02275         -0.431939           1.20938         -0.153105          -1.17592          -1.07915         -0.444216          -1.60095          -1.71268          -0.96849         -0.414743          -1.17827          -1.23322          -1.44901         -0.666689          0.477014          -1.23208          0.359306          -1.17529         -0.847207          -1.42578             -0.52         -0.801587         -0.768454         -0.957845          0.508754         -0.260598         -0.457234         -0.880118         -0.509093           -1.2901         -0.508719         -0.820225          -1.10963          -1.34365         -0.437705          -1.68712         -0.976703         -0.876645         -0.238369          -1.60714         -0.406419         -0.910036         -0.745463         -0.587582         -0.827249         -0.912729          -1.19658         -0.802581          -1.05676         -0.186997         -0.110387           0.12599          -1.34001          -0.49175          -1.37581          -1.00347        -0.0644286         -0.378586          0.171019         -0.467815          -1.12826         -0.618717           -1.0691          -1.36991         -0.419584          -1.09035        -0.0374784         -0.655039         -0.669043          -1.18067         -0.969577           -0.9259          -1.29311          0.414932          -1.26639         -0.206762          0.168883          -2.01873         -0.212443         -0.638624         -0.503118          0.627169         -0.572515         -0.591465           0.47558         -0.240593          -0.88219         -0.967626         -0.726869         -0.683807          -1.49734         -0.931492         -0.781861         -0.196735          -1.44957       -0.00318007          -0.72214           -1.4649           -1.3127          -1.22083         -0.521007          0.466156           -1.2714         -0.530829         0.0126102          -0.75044           -1.0742          0.143747         -0.755591         -0.275966         -0.757153         -0.555645          -1.27461         -0.460621         -0.482472          0.109014          0.394336         -0.241008          0.756075         -0.615671         -0.969468           -1.3067          -1.31682         -0.466339          0.219794        -0.0251265           1.20006           -1.0898          0.266171          -1.07612
          0.531961         -0.277786         0.0230573         -0.688771         -0.262463           1.18877         -0.979997          0.558191         -0.868746         0.0211831          0.595103         -0.804333          0.705973          0.595349         -0.830584          0.210929         -0.756068         -0.398854         -0.481388        -0.0294783          0.447189          -1.01633          0.517128         -0.465634          0.126965         -0.176065         -0.325874          0.236775          0.893989          0.452366         -0.752371          0.642825         -0.183347          -1.01067          0.923858          0.473091           0.52078          0.496888         -0.739112         -0.697635          0.255739         -0.404217         -0.716074          0.347947         -0.907027          0.345311         0.0480859          0.667114          0.220665         0.0493714          0.309052         0.0357806          -1.13913         -0.269909         -0.615928         -0.910605          -1.37218         -0.891793         -0.084259          0.655102          0.702216          -1.11882        -0.0224178          0.632256         -0.156714         -0.231469          0.220687         -0.925812         -0.485749          0.508945          0.498437          0.435301         -0.908736         -0.586504         -0.200381         -0.698617          0.428136         -0.211235          0.551076          0.536756         -0.405959          0.361972          0.424054        0.00450503          -0.89358          0.424611          0.459178          0.476017         -0.590329          -1.29809         -0.725906          0.278571          0.608226          0.307877          0.584314         0.0751209          0.640158           -1.0224          -1.35877          0.116456           0.38798          0.213553         -0.351898         -0.960283           0.11614          0.936817          0.631796         -0.193085          0.238106          0.423374         0.0253017          0.709548         -0.612835          -1.31371         -0.642434         -0.935071          0.690159         -0.960723         -0.671904        -0.0663574           -1.6344         -0.693757          0.626741           0.63445          0.357848          0.240442          0.478873         -0.265723         -0.928014          -0.19089        -0.0946586         -0.685982          0.576367          0.228719        -0.0947432           0.65067          0.180667          0.178728         -0.218036         -0.630816         -0.267176          0.829313         -0.814215         -0.762528         0.0712119          0.395059          0.420736           1.21441         -0.222487          0.227575          0.113322          0.720307       -0.00377006         -0.850633
          0.793595           1.61244           0.53737          0.528544          0.379653          0.075441          0.276431           0.37116          0.697776         -0.679602           1.69298          0.570472         -0.355144          0.584697           1.13204          0.922476          0.396796           1.50471           1.28816          0.838468           1.25395          0.703012          0.498399           0.70806           1.20352          0.688944          0.112287          0.894416          0.432056         -0.116185          0.960984           0.19844           1.47228          0.948037           1.01092          0.968748           1.07135            1.0161           0.51048          0.955284           1.06185         -0.151091          0.772706        -0.0199361          0.604344          0.985947          0.499196           1.08653           1.49028           0.66822           1.04163          0.901028           1.52897          0.868385          0.932805           1.32971           1.17717          0.732803           1.59499           1.24419           1.01981           1.11713            1.0021           0.26555          0.734668           1.22716           0.89067           0.57753          0.575422         -0.132764           1.04691           1.38931          0.674923           1.01589          0.546338          0.797908          0.162769           1.35854          0.255443         -0.165323          0.231141         -0.387135          0.923899          0.828039            0.9183         -0.173559           1.30398        -0.0812228          0.664661           1.71694          0.417507          0.871263          0.944529          0.555932            1.2903          0.713287          0.490577          0.556456           0.98955             1.011           0.70267          0.965367           1.07274          0.710496           0.56344          0.992187         -0.348615          0.528666          0.996229         -0.223328           0.55245        -0.0356751          0.634336          0.619052           1.33805          0.853117         -0.619028           0.15612          0.973707        -0.0535312           1.39197          0.965905          0.368814          0.420017           1.44531          0.407932          0.698759       -0.00788368           1.23214           1.25734          0.780325          0.770137          0.720571         -0.020995          0.753204           1.26595          0.981843          0.782073         -0.449434          0.686084          0.155417          0.666818          0.672824          0.745766          0.803347          0.985466           1.08694         -0.263014         -0.423295          0.655365          0.542177          0.904969          0.817162           1.24329
          -0.62948         -0.103592          0.207778         -0.889274         -0.253568          0.671883         -0.786067          0.239843           -0.9367         -0.326904          0.807038         -0.879882          0.411054          0.686249         -0.287547         -0.801817          -1.10086          0.692176          0.259728          -1.15035          0.376832         -0.387766         0.0556635         -0.450192         -0.107875          0.241025         -0.498582         -0.556169         -0.595825         -0.483449           -0.4963          0.656356          0.485239          -1.19446          0.335677         0.0265811         -0.209879           0.34284          -1.39883          0.208738         0.0326621          -0.45216          -1.15703          0.717185          -1.16192         -0.560216         -0.123985          0.499287         -0.860169          0.543701         -0.581228          0.419971          0.136819            0.2909         -0.477108         -0.180218         -0.690682         -0.711645        -0.0757531          0.844928          -0.69874          0.287225         -0.607338           0.26899          -1.27988          0.505393           1.06036          -1.20233         -0.815013       0.000183632         -0.271014          0.254908         -0.753153           1.22684          -0.83637         -0.534839          0.461177          -0.94499             1.145           1.11613          -1.13784          0.856197           0.38438         -0.733249         0.0998919           1.01894           1.04785          0.882115         -0.845237          0.413737          -1.23483       -0.00780734          0.406513          0.392522          0.716368        -0.0673698           0.41872           -1.1939         -0.391637         -0.294421         -0.517099          0.731765          -0.62031         -0.997159          0.906713          0.068182         -0.236304          -1.23478         -0.353384        -0.0962161         -0.705131           1.32184         -0.647441         -0.483137         -0.234564          -1.34723           0.63865         -0.564425         -0.168016          0.252493          0.564124         -0.243827            1.4126          0.957752          0.258799          0.222816          0.747747            1.0481        -0.0873075         -0.264496         -0.602443          -1.00257          0.666081         0.0106742          0.483667           1.24704         -0.407008          0.688653         -0.240113         -0.958208         -0.383678          0.601534         -0.941952          -1.21076         -0.160675          0.687915         0.0894197          0.487031        -0.0397696          0.335531         -0.228182         -0.339209          0.172359         -0.109308
         -0.740088          -0.61274          0.892739         -0.178944         -0.241682          0.853334          0.108445          -0.16754         -0.525595          0.123918          0.476661         -0.271039         -0.353504          0.201305         -0.463936         -0.876914         -0.523284         -0.299988         -0.362394         -0.065842          0.576378         -0.790395        -0.0918007         -0.303013            1.4676            0.1915         -0.461257          -0.89945         -0.720069         -0.945146         -0.583071          0.969434         -0.546565         -0.516121         0.0559728          -0.68729          -1.58398          0.494339         -0.411924          -0.36888          0.164596         -0.647027         -0.464569          0.233412         -0.354731         -0.820775         -0.677656           1.33513          -0.47793           0.60402          0.125422         -0.246672         -0.972239         0.0538453         -0.188431         -0.647846         -0.833307         -0.493115         -0.904395           1.08559        -0.0826215         -0.631626          0.613883         -0.476942         -0.166898        -0.0472823          0.339867         -0.175803         -0.697186         0.0505717         -0.289958          0.262798         -0.593783         -0.250377         0.0993337         -0.672147         -0.503356          -1.03375          0.419319           1.00281         -0.529869           1.90364          0.339417         -0.219746         -0.185376            1.5652         -0.238213          0.971897        -0.0211532         -0.642234          0.428418         -0.671709        0.00352214         -0.341915          0.377232         -0.827576          0.751317         -0.652006         -0.628979         -0.484061          -0.17994         -0.542107         -0.787124         -0.149608          0.917369        -0.0508039           0.50514         -0.315502         -0.474717           1.09761         -0.605596           1.50974         -0.917522          -0.15489         -0.673239         -0.307131          0.298393          0.234512         -0.229706        -0.0763618         -0.755962         -0.762631           1.02177          0.780118         -0.309091          0.566889         -0.305772            1.1906         -0.357049         -0.683954         -0.314735         -0.424552          0.269096           0.55768          -1.27299         -0.555585         -0.398145         -0.218308            1.1452         -0.720545          0.332512           1.81052          -0.30922          -0.41656          -0.56823         -0.168219          -0.48462         -0.410843           1.60764           1.79654         0.0940656         -0.506928         -0.192802         -0.439483
         -0.024583           0.48423          0.190134           1.16668           1.25317         -0.429269           1.58272         -0.632255           1.62833         -0.688876         -0.413096           1.40971          -0.47235         -0.277992         -0.302204           1.43218           1.18761         -0.314617          0.793738           1.18063          0.481754          0.189943          0.677427           1.65145          0.747776          0.589605          0.579619          0.696446          0.484681          0.281963           0.42012         -0.945506           0.68963           1.54952          0.590119           0.39329          0.189826          0.258385           1.42187          0.271892          0.869813          0.508038           1.02821          0.465598           1.16599            0.6751          0.482392         -0.442951          0.757909           1.06564         -0.514772         -0.538682          0.532344          0.267253          0.440213          0.376112          0.259124        -0.0579413          0.459942          0.691522          0.684747         -0.446188         -0.737877          0.424566           1.24904          0.232601         -0.145022           1.52097           1.34956         -0.699265          0.867014         -0.587542            1.2643          0.370817           1.00115          0.594295         -0.981264          0.368386          0.217321           -1.2526         0.0821922         -0.807206         -0.356252           1.29954          0.406562         -0.742625         -0.333524         -0.564166           0.81045          0.386963          0.963104          0.172172          0.584674         -0.986995          0.548841            1.5495          -1.12176          0.082166          0.014909         -0.250929          0.973038          0.193812          0.583095          0.665678         -0.592432          0.293599         -0.687076           1.33522          0.430631          0.889267          0.951961          -1.64971          0.542174          0.868376         -0.417789           1.29097        -0.0607903          0.474464          0.287501          0.035922          0.580988         -0.302369          0.165954          -1.00328          0.430536          0.384192         -0.837564         -0.818457          0.591587          0.859018          0.608025           1.34159          0.662404           1.37967           0.68179          0.665157         -0.935569          0.406558         -0.826742          0.290286          0.411693          0.428189           1.30994           1.32392           1.54828          0.346087         -0.325919         -0.526323         -0.161646           1.41531          0.708882          0.509921         -0.182588         -0.578412
