weight 0:
         -0.941347          -0.69764         -0.541341         -0.317222          0.456948          -0.19478       -0.00948506          0.358423          0.321669          -0.94925          0.524026         -0.255595           1.00192        -0.0574703          -1.49895         -0.778144         -0.691774         -0.248505         -0.375336        -0.0119791         -0.666642          0.454653         -0.871977         -0.975839         -0.749279          -1.04878          -1.11198          -1.03578          -1.21582         -0.848543         0.0557565          0.238334         -0.874196          -0.44822          -1.22319         -0.956952         -0.238908         -0.467885         -0.681689           0.32433            1.7262          -1.01634          0.619354         0.0458979           1.42645           1.32765         -0.465532          0.298241          -0.80333         -0.580696          -1.42738          0.102074         -0.679207         -0.117614         -0.182345           1.62647          -1.76886          -0.42619          0.127957         -0.711115          0.664418        0.00835766          -0.41067         -0.155777         -0.636151          0.193403         -0.464759          -1.21712         0.0634033         -0.607753          0.942012         -0.767219            -1.203         -0.270544         -0.335854          0.909398         -0.136561          -1.06197          0.650681         -0.428735           0.27702         -0.664448           1.58417        0.00752705         0.0207519          0.151184         -0.541725         -0.393779          -1.14902        -0.0288811           -0.6695         -0.491128         -0.584955         -0.437689         0.0356476         -0.832102          0.101964         -0.548824           0.63896           0.79824         -0.286487          0.112611          -0.39546         -0.207416           1.74078         -0.810416          -1.37641         -0.114408         -0.843012        0.00232534          -1.36177          0.505144         -0.268115          0.145632         -0.898487         -0.921802         -0.355724         -0.303679          0.632574         -0.124435          0.490181           1.50223          0.657918         -0.778353         -0.311059          -1.06553          0.533263           0.40219          -1.21886          -1.22725          -1.30593          -1.28981         0.0113022           0.71235          -0.53773           1.20664         -0.438697         -0.118456           2.05841         -0.115729           0.38035          0.364362         -0.912989          -1.24479          0.163532          -1.42221          0.994752         0.0918033          -1.28845          0.334205          0.899836         -0.826234          0.334085         -0.844167         -0.719605          0.146947         -0.532399          0.382201        -0.0937648          0.791486         -0.245724          0.108506         -0.789014           1.83753           1.11446         -0.815472        -0.0512109          -0.94551          0.296034         -0.794444         -0.803547         -0.689166          -1.16529          0.829755          -1.09519         -0.213719         -0.424008         0.0756914        -0.0894095         -0.997947         -0.236623         -0.760527          0.582258          0.343367          0.247608           -0.7279          0.144687         -0.531096          -1.08365          0.197667            0.1729          -1.15304         -0.511371          0.419795          0.110828        -0.0132054           0.14406           1.80828          -0.75063          -1.22467          0.415352          -0.75275         -0.235285          0.101859         -0.339872          0.409965           -1.2033         -0.430663         -0.167605         -0.762118          -1.32086          -1.54546           1.19422          0.544543          0.666588           1.36617         0.0240863         0.0472968           0.24977         -0.419818         0.0976043         -0.615978          0.195219          0.674122         -0.143971          -1.38213          0.501274        -0.0002836           1.05317         -0.599261          -1.05296         -0.235195         -0.275227          -0.61182          0.552329         -0.372732         -0.407865          0.458203           1.22212           1.09214          -0.12923        -0.0228526          0.048191          0.114949          0.265543          0.737047
         -0.879394          0.358515          0.864129         -0.734473         -0.617709          0.298152         -0.690433         0.0720495         -0.267902          0.247209         -0.319702          -1.21458          -1.25995         -0.531068         -0.218057         -0.573981          0.305541        0.00517754          -0.46167          0.292057          -1.18974          0.993714          0.300784          0.618271         -0.802998         -0.684904           1.13229          0.135398          0.678967         -0.382923          0.696274          -1.23729          0.349576         -0.973543         -0.545992         -0.338233          -1.12282          -1.12911           0.65113         -0.093676         -0.788936         -0.394251          -1.22403          0.685074         -0.897204         -0.652588         -0.133297          -0.93497        -0.0181361          0.340901         -0.594566         -0.315427         -0.345932         -0.526228            0.3575          -1.08265         -0.620714          0.705926          -0.19789          0.597528         -0.893825         -0.327504          0.220245         -0.776668           0.64486         -0.484761         -0.997564            0.2337         -0.119886          0.674595         -0.456046         -0.275311         -0.545489          -0.27371         -0.352922         -0.705671          -0.42423         -0.788747          0.107086           0.37613          -1.19316          0.541522          -1.33569          0.760204          0.167526         -0.697965           1.47674          0.788938         -0.121056         -0.541647         -0.169247         -0.743501          -1.83024           -1.3245          0.836849         -0.476669          -1.30069         -0.683102         -0.104413          0.383222         -0.980477         -0.142757          -1.22449        -0.0319074        -0.0267982          0.913234         -0.545625            1.4732          0.783622          0.624509         -0.183071          -1.07243          0.412487          -1.37373         -0.426019          0.575319         -0.941657          0.151768          0.157325          -1.26408         -0.610404         -0.180671         -0.948932          -1.01913          -1.62619         -0.421237         -0.249645          0.763665           1.16785          0.995257          0.348585          0.577221         -0.308471          -1.08599         -0.530769         -0.519843          0.380834         -0.293822         -0.186925         -0.188893          -1.26395         -0.781227         -0.465403         0.0278833          -0.89774         -0.951955          -0.15782          -1.35114         -0.591047          0.171807         -0.769388         -0.463021          -1.17217         -0.744209         -0.294403         0.0492706          -1.10286          0.774335         -0.210101         -0.359508          -1.39016         -0.507124         -0.559639          0.260353          -1.17053          0.796796          -0.10883         -0.898286         -0.186868          0.561004         -0.991918          0.570816         -0.679242         -0.625723          0.495823         -0.190087         0.0708414         -0.421445          -1.48769         -0.151294         -0.849716         -0.410497          0.181096          -1.38702         0.0403729        -0.0209954          -1.25198         -0.163728          -0.12924          0.825715          -1.22476          -1.01511          -1.50102         -0.257101          -0.31454        0.00907116         -0.907606          0.271884          -0.36882         -0.437557         -0.501597         -0.217173          0.280256         -0.334911         0.0845745         -0.976924        -0.0776769         -0.298141          -0.35299          0.713689          0.305314         -0.739174        -0.0940751         -0.906046         -0.247446         -0.605636         0.0636063          -1.10501        -0.0814405          -1.20083         -0.911756         -0.397631         -0.912544         -0.243969          0.498724         -0.237868          -1.19817             -1.13          -1.27833        -0.0882722          0.180295         -0.687057         -0.819914         -0.611473           1.00279          -0.38957          0.551797          -1.01967          0.577703         -0.644126          0.973684          0.273573         -0.476018          -1.54942          0.940208        -0.0440286
         -0.603355        0.00169538           1.37674           1.29406           1.86069           1.29695         -0.612914           0.68994           1.26093         -0.234177           1.31304        -0.0310393           1.04093           1.92848         -0.868411          0.782938          0.686003          -0.26995           0.12791          0.374064          0.204414         -0.175869          0.860262           1.99534          0.850687          0.986817          0.198353         -0.322221          -0.37201          0.375703         -0.192389          0.665741         -0.225185            1.6987            1.0348          0.936713           1.04047          0.101514          0.833748          0.537733           2.18277           1.36684           1.30709         -0.275007           1.26241           1.87556          0.862556           1.15338          0.651213           1.40072          0.113213           1.67937          0.970841           1.07636         -0.180755           1.13414         -0.875347          0.461629            1.5027         0.0743118           1.77725          0.856778            1.5809          0.315419          0.333635          0.980063          0.867362         -0.383565          0.393555          0.407664           2.51402          0.302585          0.282331           1.03656           1.15895           1.63896         -0.317365          0.535037           2.21812           1.21413           1.18794            1.9079           1.24223          0.836296        -0.0984576          0.349505          0.494925          0.673128          0.129428          0.463903          0.607247           1.59861         -0.247547          0.258411          0.535854           2.01142           0.34229          0.535726           1.60373          0.660109          0.932676          0.320951           0.10571          0.619023           1.12043           2.34777         -0.166599         0.0495516          0.912181           1.44746          0.406587         -0.189071           1.23965            1.5176          0.268833          0.209514           0.54989          0.965671          0.349415         0.0819908          0.128177           1.51716           1.85503           1.01057           1.01413         -0.442989            1.2528        -0.0133286         -0.306359         -0.879456         -0.774774           0.56651          0.500079           1.85628         -0.416046          0.518221         -0.552949           1.49286           2.59975         -0.491271          0.978784           2.00999          0.269662          0.646481          0.302042         -0.214437          0.821607           1.72032            1.1882         -0.245627            1.3544           1.18255           2.40781         -0.222267           0.76871          0.797541          0.617437         -0.236328           1.86043          0.834955           1.56507          0.103641          0.256565           2.19683       -0.00813726          0.247241         0.0211268          0.811177          0.247255         0.0869182         -0.470502          0.994057           1.01723           1.47426           1.76883         0.0649334          0.177073           1.37012          0.480689          0.614823           1.47215          0.804792           1.54022          0.451959         -0.609469           1.44943           1.06835          -0.46539           1.86731          0.994786           1.49237          0.874533       -0.00566697          0.312852          0.343617         -0.408607        -0.0936562           1.22967          0.399901           1.11001           0.48186            1.0755          0.159278           2.16016         -0.555765          0.145527          0.887225           1.03272           0.95492          -1.15344          0.760014         -0.148776          0.361445          0.675621          0.620556           1.64629           1.05636           1.02271           1.34837           1.08772            0.9015           1.08216           0.94479           2.17655          0.235349         -0.141813          0.727614          0.925771           1.93621          0.100643          0.102028        -0.0638333          0.699124          0.816128           1.58234          0.262038           1.40258           0.73742         -0.143424          0.362577          0.427207          0.905045         0.0287963           1.65754          0.428995          0.768933
          0.230828        -0.0329029          0.829011          -1.00937         0.0344575         -0.555587           -1.5885          -1.17436         -0.331335         -0.758304              0.67          0.246161          -0.58656          0.695901         -0.114641         0.0869972          0.118962         -0.616109          0.224387         -0.754897        -0.0743167         -0.687745           1.40027          0.835712         -0.736595        -0.0655577         -0.545251          -1.29233         -0.196943          0.697234         -0.219138         -0.617626         -0.699328          0.270565          0.990678          0.461676         0.0464374          -1.04152        -0.0543233          0.495738         -0.407517            1.1999         -0.828753         -0.933448          -0.21842         -0.524434         -0.130731         -0.981223          0.673593          0.441976         0.0902421           1.00102          0.887747           1.11153           0.45365        -0.0599356         -0.706985           1.05886           1.24891        -0.0341838         -0.192579          -1.11237           1.05925         -0.340267         -0.114286         -0.994929        -0.0721378        -0.0218112           0.67027          0.473709          0.130092         -0.117117         -0.398591           1.12564          0.708391         -0.883801         -0.404396          -1.04446         -0.272757          0.908803         0.0147225          0.962274          -0.96022          0.116349         -0.056215          0.866469        -0.0670105         -0.826214          -1.22688          -1.11945          0.482903         -0.119838         -0.746548         -0.366847         -0.674585           1.53041         0.0625026          0.679076         -0.292642          0.228676        0.00877603           -1.0768         -0.437923            1.1228          -0.69014          0.812615           0.23093          -0.31993           1.38502           1.12269           1.04999          0.524758         -0.676473         -0.424166            1.1459         -0.679208         -0.982997           1.11695         -0.781086         -0.116297         -0.578368         -0.267889         -0.719618          -1.03069         -0.489539         -0.761017         0.0568231         -0.291623          -1.51219          0.231782         -0.444618           1.30729          0.966439          -1.41397          -1.16184         -0.887014         -0.141539          0.977092         -0.348717          0.172712          0.101349         -0.241521          -1.10607         0.0295614         -0.973326          0.170312         -0.682179          -1.07526          0.565243         -0.405034          0.265093           1.30201         -0.150529        -0.0892551           1.01128          -1.13374            0.5977         0.0528139          0.545967           0.23667          -1.40371          -1.06665          0.471106          0.268704          -1.07939         -0.084515          0.102863          0.105846          0.617687          0.032019         -0.251905           1.12579         -0.658409         -0.769305          0.564028         -0.647373          0.920527           1.08015          0.205907           1.29159           0.74924          0.356238        -0.0981313        -0.0932104         -0.155673          -1.14882         -0.146996         -0.690177           1.21492          0.817906          -1.06209          0.140284         -0.163115         -0.569849            -1.523         -0.506971         0.0525569          -1.02298       -0.00283425          0.181115         -0.553978          0.363916         -0.819874           1.01669         -0.300216         -0.920943         -0.517959         -0.187153          0.285354          0.180666          0.713763        -0.0777981         -0.328897         -0.842978         -0.621537         -0.214694          -1.12773          0.157327         -0.676296          -1.13406          -0.64569          0.639758           0.39067         -0.836753          0.835571          0.293471         -0.058543          0.584248          -1.06151        -0.0115812         0.0255572         -0.072436          -1.24592          0.858772         -0.285497          0.603316           1.25641         -0.486736        0.00267294          -0.18174           1.17424          0.273279          0.787277          -0.67836         0.0345073        -0.0693917
         -0.557559        -0.0448042         -0.803503          -0.59675          0.230085         -0.615727         -0.166939         -0.341275         -0.638116         -0.434567         -0.521608         -0.418742         -0.420818         -0.463401         -0.604807         -0.944018         -0.513058          0.453786         -0.615953         -0.117706         -0.409508         -0.195835         -0.646259          -0.75627         -0.545392         -0.797996         -0.300056         -0.545062         -0.775784         -0.631527         -0.332465          -0.30013         -0.894487         -0.175746         -0.951298         -0.691663         -0.120848         -0.382793          -0.24408         -0.978293          -0.16388         -0.821518         0.0422835          -0.16198         -0.383462         0.0697505         -0.173606          -0.51903         -0.705048         -0.842744         -0.703282          -0.74239         -0.789516          -0.79169          0.377336         -0.215715         -0.614788        -0.0104052         -0.978749         -0.719757          -0.44527         -0.421973         -0.623635         -0.916332         -0.433003         -0.378825         -0.774425         -0.689911         -0.481882         -0.986503         0.0731119         -0.687905         -0.697556         -0.739416          -1.01872        -0.0915139         -0.767802         -0.207665        -0.0391288         -0.989954         -0.437506         -0.699768         -0.345913           -0.7959         -0.704372          -1.20855          0.660111         -0.516756         -0.381103       -0.00524014         -0.955589         -0.882463         -0.168412         -0.180483          0.555282         -0.874034         -0.515507         -0.909855         -0.506344          0.417074         -0.580116         -0.167236          -0.71034         -0.989863          0.151652         -0.512263         -0.809215         -0.203739         -0.608046         -0.746438         -0.779213           -0.8671         -0.329625         -0.449584         -0.708635          0.158055         -0.833768         -0.778223        -0.0384961         -0.337997         -0.731406         -0.157102         -0.220173         -0.626862         -0.408993          -0.73617          -0.10735         -0.466918         -0.320183         -0.307083          -1.25807         -0.808279         -0.540985        -0.0497292            -1.105          0.177523         -0.434665          -1.13563        -0.0226475         -0.475366         -0.336156         -0.909266         -0.654354         -0.526634         -0.271412         -0.411241         -0.179285         -0.143491         -0.542058          0.756085          -0.27352         -0.752943         -0.779868         -0.599285         -0.692596           0.57795         -0.153352        -0.0619288         -0.362616         -0.541991         -0.205139         -0.241519         0.0919375         -0.151302         -0.116142         -0.582261         -0.983979         -0.442319          0.311686         -0.628349         -0.418747         -0.923781         -0.371132           0.46028         -0.741019           -0.7518         -0.941796         -0.946477         -0.742803         -0.860004          -0.98996         -0.663989        -0.0536783         -0.330145          0.293929         -0.227195         -0.446763         -0.378994         0.0660246         -0.505319         -0.382407         -0.412695         -0.268947         -0.710926         -0.112273         -0.705862         -0.159121          0.324912         -0.822491         -0.955837         -0.321195          -1.13285            -1.458         -0.869646          -1.01994         -0.560953         -0.340369         -0.762784         -0.643941         -0.363597         -0.769559         -0.515472        -0.0603937           -0.1844         -0.161769        -0.0654559         -0.614317         -0.524359          0.362657         -0.519601         -0.328578         -0.698457          0.129693         0.0663378         -0.791154          -1.23996         -0.276925          0.415247         -0.329374         -0.603206         -0.706555         -0.443247         -0.596183         -0.609052          -0.30468         -0.386624         -0.727021         -0.149548         -0.533693         -0.281399         -0.379814         -0.950052          -1.04545         0.0157001          0.267105         0.0330201
         -0.491425          -1.13019          -1.11203           0.35173          0.621426         -0.378302         -0.962555          0.839691         -0.912028         0.0396361         -0.131672         -0.283901         -0.290347         -0.164625          -1.03669         -0.568648          -1.18172           1.12188           -0.5923          0.570359          0.366153        -0.0975928         -0.257792          0.627989          0.818003          0.568447          0.590936         -0.356867           0.42781         -0.832212          -0.77094           1.02918          -1.03267          0.931784          -1.42803         -0.937543       -0.00030802         -0.389493         0.0808458         -0.415253          0.496035         -0.747495          0.655313          0.678476          0.820733           1.45463         -0.668145          0.645171         -0.636803          -1.03565         -0.805455         -0.871424         -0.294968         -0.750041         -0.676824          0.371001        -0.0426284         -0.687137          -1.16764          0.160411         0.0808287          0.743492         0.0448658          -0.25187         -0.529208         -0.209152         -0.176588          -1.14167         -0.615128          -1.33683          0.120778           1.24951           -0.5311          0.507282         -0.647152          0.159512          -0.49938           1.12846        -0.0243198          -1.16494         -0.135347         -0.164975           0.95295          0.764731          0.214361         -0.669396         -0.530477          0.205289         -0.491551          0.574292         -0.979296          0.352977          -0.18181          0.716492           1.45374         -0.591337          0.622119         -0.873522          0.328264          0.735696          -0.69816           1.06958          0.165431         -0.538102          0.779531          -0.54838          -1.30954         -0.571963         -0.734885         -0.704077         -0.568258         -0.158082         -0.201643          0.894806        -0.0488409            1.3779           0.38016         -0.786301         -0.232862         -0.239638          0.552635           1.49985          0.317359         -0.274014         -0.502839         -0.743266           1.27985         -0.522758          0.203433         -0.265591          -1.04846         -0.924016         -0.743901           1.31732        -0.0555318          0.465426         -0.135598          -1.06879           0.31142          0.227833          0.102609         -0.912137          0.545352           1.02339         -0.157405         0.0741237           1.02447          0.104688          -0.87563         -0.290122         -0.125081          -1.19597          0.498426         -0.416438          -1.43455            1.1337         -0.173812         -0.182727          0.573399        0.00967257         0.0700347          0.731306         -0.662046           1.21198         0.0156486          0.689862         -0.773687         -0.434685          0.661429         -0.760297          0.199145          0.529296         -0.721604           1.42458         -0.299863        -0.0980375          -1.27092          -1.23324         -0.475977          -1.14801         -0.783098          0.904157         -0.232511         -0.168978         -0.469332           0.97274         -0.467429         0.0634911          -0.39176          0.614065          0.342388         -0.332789          0.373542         -0.235551          0.355757         -0.573611          0.595491          0.871145         -0.378706          -1.11004         -0.322945          0.420405          0.255317         -0.717491         -0.325228         -0.418019         0.0715197          0.322097          0.637561         -0.243292         -0.629121         -0.328429          0.774145          0.383523           1.02015         0.0289256          -0.39293          -0.40063           1.35724          -0.58801          0.607521           0.77394        -0.0298168           1.75836         -0.272894         0.0301952        -0.0629157          0.109376         0.0944886           1.05331          -0.79036          0.465185         -0.483171         -0.669454         -0.472231         -0.690735         -0.778327         -0.330568           1.15833         -0.247723         -0.525021           0.69565          0.187442          0.302853         -0.865163           1.14154
         -0.207021          -1.21369          0.435395          0.202284          -1.13406         -0.511453          -1.28414          -0.11028         -0.434143          -1.08028          -0.60248         -0.938034         -0.672403         -0.782457          -1.74844         -0.492754         -0.151231          -1.06275          -1.13869          -1.57223          -1.00207         -0.570337          0.991028          0.540552         0.0580292         -0.896232          -1.33941          -1.04782         -0.783632         0.0174703         -0.929801          0.405268         -0.280477         -0.703805          0.515316         -0.296549          0.194702         -0.351253         -0.147418          0.261229           1.04851          0.161451         -0.237591          -1.19176         -0.419469         0.0262216          -1.06609         -0.146029          0.112323        -0.0329238         -0.655111           0.64475          0.413661          -0.30519          -1.00381        -0.0889779          -1.44018         -0.726868          0.905579         -0.661516          0.239524         -0.080129          0.610546         -0.102485         -0.779912         0.0814613         -0.613845          -1.55334          -1.66672         -0.240247         -0.301031         -0.638067          -1.07801          0.782594          0.101272         -0.114255         -0.745067         -0.819735          -1.03404           0.60624         0.0174327          0.745335        -0.0633175         -0.556831         -0.523305         -0.845933          -1.02126         -0.557662          -1.21913         -0.533766         -0.529819         -0.379068           -1.1125         -0.610504          -1.53154          0.485074         -0.858863         -0.749226          0.586578           1.00605         -0.984676         -0.736187         0.0179844          0.904136         -0.288429          0.822188         -0.274759           -1.4128          0.130564          0.579311          0.403668         -0.948441         -0.815538          0.221196         -0.297595          -1.18575          0.291112         -0.831567         -0.639887         -0.660559          -0.37908         -0.432678         -0.386708         -0.130719         -0.347315          -1.03702         -0.104945         -0.580137           -1.2858          -1.23229          -0.35794         -0.540214          0.623167         -0.436541          -1.11732          -0.44464          -1.26036          0.920167           1.15233         -0.799428         -0.433357          0.883052         0.0352816         -0.169682         -0.868334          -1.11567         -0.843094          0.295294          -1.14204          -1.72093         -0.181222         -0.462096         -0.103844         -0.925158           0.34766         -0.534001         -0.788869         -0.827929          0.600526          0.523197         -0.818911         -0.867563          -1.16921           1.05144         -0.503939          -0.46245          -1.15014         0.0614617          0.050736         -0.528917       -0.00928476         -0.195447         -0.665451         -0.416977          0.736432          0.494845           0.54306          0.819635          -0.56927          0.308821         -0.309856          0.383577         -0.983266         0.0199125         -0.978278          0.190957         -0.669518         -0.656759          0.410718         -0.545827          -0.63412          0.276109         -0.823394          0.263984         -0.809249           -1.0231          -1.22161         -0.724015         -0.456021         -0.284803          -0.40409          0.416609         -0.740715           0.75057         -0.107418         -0.567933          0.527815          -0.72904          0.780036          -0.92222         -0.611386        -0.0442911          0.678646          0.642766         -0.239425        -0.0577207         -0.910671         -0.562944          0.270263         -0.813267          -0.69857         -0.100733         -0.491317         0.0141431         -0.699154           0.41448         0.0898068         -0.864199         -0.606829         -0.874799         -0.107341         -0.974817         0.0534565          0.604972          0.785481         -0.978369         -0.205964         -0.410543         -0.756714         -0.755437          -1.18813           1.24845         -0.690569          0.213012          -0.20525          0.230556
          -1.06388          0.205372         -0.993323        -0.0665443         -0.299193          0.135289          0.195319        0.00842988         -0.478838          0.487785         -0.108203         -0.612952           0.42808         -0.931965          -1.04947          -1.23407         0.0655389         0.0400507          -1.21561         -0.452875         -0.638552          0.304936          -1.07635           0.17584         -0.615112          0.115471         -0.764521         -0.891606         -0.229211         -0.751308          -1.10761          0.315019         -0.622286          0.321491          -1.10811         -0.960435          -0.80162          -1.19297        -0.0443612         -0.112575           1.11471         -0.780557          0.956533          0.165846          0.751485        -0.0621093          -1.01226         -0.750853         -0.957584          -0.17388         -0.702235         -0.887969          -1.93302         -0.456541        -0.0184175          0.922279          -1.53545         -0.308258          -1.02673        -0.0470797         0.0150849          0.326576         -0.961914         -0.987047         0.0279622          0.689535          -1.19317          -1.00159         -0.815812         -0.349752         -0.272958          0.280119         -0.216121         -0.963254         -0.487062         0.0210169          -1.09447          0.201598           0.19962          -1.05614         -0.645629         -0.843472          0.917771          0.119217        -0.0513762         -0.786313        -0.0969278          -0.77727         -0.913264        0.00729379         -0.553189         -0.909501          0.262009         -0.695388          0.276353          0.170765         -0.817243          -1.52071         0.0849098          0.208725          0.261746          0.643556          0.133966         -0.280701          0.727054         -0.294952          0.187768         -0.145714         -0.189552         0.0704488         -0.690212        -0.0383515         -0.130933         -0.727384         -0.358169        -0.0124476          -1.20824          -0.33963          -0.85479          -1.18405         -0.289108           1.05453          0.256683          -1.00696         -0.805496          0.226847          0.732534         -0.977097          -1.52366          -1.09375          -0.18256          -1.70761          -1.06285          0.642177         -0.989996          0.988757          0.213673         -0.898916         0.0535435          -1.01466        -0.0791782         -0.798065         -0.348753        -0.0677902          0.403911          0.133791         -0.800636         -0.148848         -0.682774         -0.392465          0.730656         -0.770686          -1.15555         -0.728557          -1.46028          0.474182          -0.20638        -0.0303828         -0.878904           0.27767          0.542134          0.369624         -0.960861           1.17007          0.431365         -0.878402         -0.706191         -0.880557          0.389623          -1.03566         0.0300941          -1.04675         -0.419291            1.0413          -1.56096          0.138361          -1.05967          -1.32929          -1.07383          -1.52003          -0.24949         -0.242046         -0.350822         -0.538028           -0.3963         -0.495442         -0.745754         -0.767153         -0.998879         -0.916258         -0.742924         -0.892129         -0.419772        -0.0185831          0.434413         -0.105786         -0.516418         0.0657264          0.140176          -1.34135          0.251328          -1.07084          -1.46094         -0.953211         -0.416342          0.179521         -0.934897          -1.33049         -0.828414         -0.902788         -0.134108          -1.10992         -0.966672           1.07287           1.05055         -0.787849         -0.816082          0.327445          0.653765         -0.232717         -0.639431         0.0904467         -0.359844          0.862222       -0.00191196          -1.90366         -0.632651         -0.331811          0.129942        -0.0384867         -0.922076         0.0736152       -0.00632623          -1.08781         0.0676148         -0.339952         -0.259775           1.09609        -0.0388667         -0.779627         -0.790335         -0.536498          -1.19916          0.797518         -0.598573           -1.1817
         -0.312458          0.951148          0.346605         -0.824068         -0.150163         -0.764872         0.0413343         0.0507765           1.23458          0.688968         -0.623433            1.3099          -0.46024         -0.172262         -0.826629          0.411574          0.520992          0.200375          0.199428          0.486887          0.127536          0.481253         -0.736406         -0.924899         -0.304916          0.368361         -0.227491        -0.0664747          0.469271           1.24572          0.512552           1.34173          0.567189          0.142456         -0.572371         -0.535448            1.3921           1.24351         -0.664634          0.910477         0.0905553          -0.89164          0.959104          -0.33902          0.326341         -0.504198         0.0411996          0.133282          0.180996           0.51077         -0.651433         -0.788573         -0.322275         -0.860159          0.146389          0.372392          0.572019        -0.0975656         -0.733295          0.223188         -0.366516         -0.260526          -0.55774          -0.54184          -0.10563         -0.145824          0.172946         -0.760718          0.528278          0.022482          0.426934         -0.105228         -0.283537         -0.691537          0.933133         -0.220072          0.302463          0.952989          0.749681         -0.205895          0.101154         -0.867744         -0.248892         -0.439505         -0.406039           1.26447         -0.564267          0.107588         -0.372983          0.509581         -0.221157         -0.693252         -0.330429          0.790704          0.221796          -1.01723         -0.167792        -0.0513953          0.394794           1.11523        -0.0316752          0.183712          -1.50634         -0.588326            1.4626         -0.709182         -0.192099         -0.940839          0.279837          0.110678         -0.763952         -0.577285         -0.890142         0.0100444          0.611386          0.680929         -0.344053         0.0478507          0.378263          0.947613          0.455192         -0.227043          -0.69183         -0.300174         -0.465197          0.623059           1.07647         -0.681777         -0.290354          0.457686         -0.439853          0.481305         -0.669232           1.34258          0.575995          0.797616         -0.232734         -0.973252          0.609724         -0.101695          0.744275          0.365119           1.06664          0.653486          0.870152          0.546318          -0.79236        0.00428568           0.39573         0.0829501         -0.983715          0.424857         -0.297425          -1.06912           0.91282          0.929068           1.27652         -0.273199         -0.618979         -0.926597        -0.0414936           1.05103          -0.19719         -0.277436          0.600686          0.302343         0.0573403         -0.207903          0.999853          0.549773          0.312321         -0.818688          -1.03665          0.838328         -0.448354         -0.813884         -0.391506           -0.7597         -0.474347         -0.534565        -0.0459572         -0.353997         -0.114605          0.776116          0.218322         -0.160756          0.135232          0.858394          0.219101         -0.562967          0.477687         -0.242917        -0.0181169         0.0344186           1.25883         -0.210318          0.805348         -0.291505         -0.632511         -0.623918          0.920233          0.495958          0.886822         -0.941329          0.759492          0.754567         -0.866866          -0.34576         -0.936243          -0.79667         0.0221973          0.157353          -0.48126           0.29225          0.799309         -0.177046          0.335547           1.05553           1.34203        0.00721987          0.588259            1.2831           1.62405           1.07144           1.21326         -0.127101         -0.257717           1.07625        0.00399431          0.236663          0.524356          -0.15132         -0.138086         -0.622974         -0.936686          0.155441          0.477174          0.402116         -0.143797          0.255355         -0.987794          0.715494         -0.428537         -0.180382          0.580298           1.46419
          0.472677           1.58491         -0.183494           2.53553          0.360182           1.92651           1.33322         -0.880355           -1.1947         -0.250833           1.05175           -1.3163         -0.666206          0.799566          0.804404         -0.648568         -0.167226           2.49296          0.252162           1.45723        -0.0244451           1.40751         0.0787888           1.31023          0.342648         -0.903862          0.755546          0.367932          -1.92709          -1.15154          0.830056          -0.17993          0.727603           -1.0369         -0.312938           0.33365          0.345383         -0.924906          -1.01275         -0.607323          0.190625           0.68698          0.817785         -0.484252          0.174195          0.964288          0.390787          0.369712          0.888246          -1.27621           1.23079          0.925879         -0.688699        -0.0984868          0.855644           0.69863         0.0430539          0.866314        -0.0565841           1.30566           1.12869         0.0445639          0.282187          -1.19536            1.4935          0.311188          0.323467          0.444527          0.690846          0.100908          0.885957           1.52578           0.59956           0.56504         -0.987747           1.23614           1.02355          0.773309           1.25513        0.00171897          0.242184           0.60424           0.93944           1.05435          0.287116         -0.362527         -0.148402          0.493422          0.197538          0.337238          -1.26961          0.279662         -0.293043           -1.1214           2.14446         -0.585816          0.342875         -0.263856           1.69503          0.299373        -0.0700749         -0.443839          0.427721         0.0562799          0.971577           1.05404          0.116406           1.41037           1.14859          -1.64149          -1.41466         0.0873408           2.13717          0.299377          0.906338            2.0926         -0.942773           0.79411           2.23058         -0.104871           1.67198          0.901895           1.87392          0.258253          0.657015         -0.817895         0.0282677            1.7056          0.203925           1.38043          -1.00592          -1.07306          0.272768        0.00426688          0.115124          0.970477          -0.60959         -0.325705          0.817711          0.221322         -0.694475            1.5526         -0.849117          -0.66914          -1.01236           0.22035           2.01468          0.446668           1.13028           1.70671          0.972323        0.00365032           1.13452           1.32411         -0.564902          0.599097         -0.706287           2.04179           1.09151           1.54669          0.336949          -1.45441          -1.49119          0.853468          0.900941          0.393638         -0.162815         0.0366637         -0.762341          0.397746          0.691024          0.126149           2.14535         -0.217013        -0.0779301           2.20878          -1.23137         -0.188793          0.483493         -0.976525         -0.488963           1.47447         -0.478407          0.531117          0.743233         -0.668182          0.203779         -0.639752          0.452376           1.48436         0.0849321            0.2011          0.434918          0.756677         -0.643763          0.351601        -0.0580746          0.927867           1.42492          -0.13936         -0.898342          0.855765          0.757979           0.77411          -0.58413         -0.393705          0.857482         -0.806183          0.343786           1.27859          -1.23539          0.751911           1.23754         0.0276979         -0.498851          0.509427           -1.1988         -0.917748           0.50816        -0.0889361          0.250635           -1.0856          0.420289         -0.139632         -0.209941          -1.13892         0.0260896         -0.682989         -0.566129            1.6132          0.747797           2.20358          0.206573           1.31902           1.73649          -0.63752         0.0443103          0.783408           1.54201           2.30328           1.05735         -0.254085          0.153087       -0.00888875           2.00293        -0.0378417
         -0.758124         -0.128538           1.81141           -1.2024          0.490439           0.59637         -0.667754           -1.0564          0.827663           0.59773         -0.470916          0.205532         -0.104995         -0.125562         -0.352331           1.62286           1.30773           0.57602            1.1171         -0.503543         -0.597552          0.378789          0.762666         0.0365989          -1.09948          0.543699         0.0634945          0.328543          0.604456          0.560592           1.15056         -0.520653          0.856047          -0.62408          0.711005           1.14766          0.226225          0.306334          0.200023           1.06272         -0.255709          0.578192          -1.39252         -0.914097          0.706505         -0.781588           1.00588         -0.578295           1.39934           1.70877         -0.546567          0.358694           0.50507           1.40341         -0.126811         -0.991258         -0.680769          0.529665          0.955878          0.041944         -0.685248         -0.657618          0.547355         -0.615361          0.882837         -0.519337         -0.115301        -0.0101393           1.23969           1.73551          0.340864          0.994549         -0.146792          0.612038          0.964184         -0.822863         -0.297472          -0.76327          -0.52298           0.54067         -0.688079          0.562765         -0.836843           0.61651           0.13854          0.298475          0.775521         -0.652473         -0.886886         -0.738722          0.568028         -0.309068        -0.0591214          0.684987         -0.773068          0.909855         0.0499163          0.722765        -0.0667873         -0.101194         -0.654259         -0.875724          0.679894          0.929383          -0.18645         0.0543247          0.653877        -0.0338593          0.742341           1.57983           1.28229          0.159584         -0.775202         -0.694194          0.372858          0.188605         -0.477687          0.255489         -0.487719         -0.623973         -0.396306           -1.3719         -0.221952          -0.79114         -0.201073          0.146919         -0.615216          0.903774         -0.999969         -0.241924         -0.588617           1.70765           1.46488          -0.50989          0.248764         -0.965149          0.223186           1.84733         -0.818051         -0.469497         -0.636566         0.0835895          0.672799           1.09688           -1.6521         -0.776499          0.498084         -0.793844         -0.523778          0.694842         -0.439729          0.943479         -0.359897        -0.0459619           1.24811          0.411772         -0.396229          0.394739         -0.528906         -0.668253         -0.795204          0.438342          0.640655         -0.437394          -1.14485        -0.0287901          0.578876         -0.678477          0.636061           1.00501         -0.810004           0.37556         -0.525815          0.530499           1.15099         -0.541155          0.721593           0.48685         -0.781583           1.04216          0.748065          0.143089          0.868343         -0.228479          0.336246         -0.642264         -0.746252          0.799076          0.736811       -0.00434829          -1.01647         -0.519182         -0.989912          0.822228         -0.938332          0.328393          -0.80835         -0.924946         -0.368456           1.62549          0.716161          0.869634         -0.336648          0.436877          0.543072         -0.448305         -0.341491        -0.0106379          0.659927          0.427264           1.20862           1.38933         -0.401782         -0.700749          0.562253       -0.00242067         -0.617256         -0.535296         -0.639659          0.760221         -0.705123          0.283338         -0.765306         -0.401196          0.109389         -0.254115         -0.538167         -0.369588          -0.42347           1.10645           0.94589          0.527893         -0.746068           1.50534         -0.396722        -0.0619204           1.71535         -0.920986          0.280586          -1.01979          0.952057           0.30451          0.593099          0.109988         -0.578612         -0.214084
         -0.300302         -0.461689         -0.290506          0.540535          0.522709         -0.866882         -0.953817        0.00164673          -1.14095          -1.12924          0.170215         -0.982627          -1.04572           0.11646           0.14517         -0.838655         -0.632751         -0.252913          -0.15267         -0.349408         -0.269527         -0.764911          0.199242          0.632801        -0.0545912         -0.260337          -0.43808          -1.21096          -1.21822          -1.33514        -0.0990278         -0.574888         -0.415374           0.17125        -0.0789284          0.319414          0.294517          -1.32275         -0.518634          0.370675          -0.77637          0.362984         -0.451907          -0.69635         -0.507285            1.2123          0.430847        -0.0294134          0.590367          -1.13802          0.103035           0.52894         -0.184526         -0.589022          0.332537         -0.755789         -0.285665         -0.820367           0.39128         -0.730638         -0.202136        0.00210866         -0.643298        -0.0667088         -0.535638          -1.23099          -1.22201         -0.332223          0.746241          -0.75027          0.250548         -0.368991          0.723385          0.491814         -0.989137         -0.368064         -0.143579         -0.866148         -0.620302         -0.863874         0.0951821          0.626581          0.244103          0.691555        -0.0418682          -1.18452          0.712371          0.377421          0.200104          -1.19953          -1.18425         -0.706687         -0.243692         -0.145749          0.738446          0.156797          -1.28697         -0.541631          0.710808        -0.0697432         -0.180188         -0.342564          -1.07458         -0.122229         -0.583281          0.780653         -0.901436      -0.000857397         -0.459619         -0.909425         -0.823182          -1.17978          0.981364         -0.117702         -0.617895         -0.225567         0.0909775          0.606167         -0.387127          -0.33007         -0.822951         -0.119529         -0.769651          -0.10454         -0.282413          -1.47696         -0.465806         -0.337065          0.147379          0.753374         0.0515671         -0.933848          -0.46443         -0.900133           -1.0057        -0.0792899         -0.723092        -0.0845842         -0.641385         -0.132838          -0.97822          -0.69042          -1.03916         -0.534341          -1.01515          -1.10965         -0.802901         -0.288578         -0.171071         -0.037458         -0.724702        -0.0119946          0.702622        -0.0469339         -0.995588         -0.719773          -1.08352          -0.41336         -0.598383         -0.561748         -0.973463          -1.15286          -1.64728           0.84216         -0.637875         -0.338907         -0.285831          0.077304         -0.541795          0.592875         -0.324738           0.47448          -0.50114         0.0132569          0.215053         -0.495219         0.0840244          0.219881         -0.123293         -0.967721          0.274541         -0.762388         -0.113629          -1.23617          0.111044           0.14017          0.138683          -1.11259         -0.317599          0.582622         -0.382749        -0.0731386          -1.33794         -0.229336          -1.01217          -1.18563         -0.339328          0.708697          0.162193        -0.0643511         -0.440898         -0.721119            -1.128          0.488043          -1.10267          -1.07837          0.666406          -0.46859        -0.0762362          -1.02835          -1.09133         -0.280867         -0.373551         -0.628311         -0.565649         -0.639812          -1.24833         -0.982492         -0.620531         -0.533348         0.0272241         -0.970158          -1.22353         -0.818238        -0.0762198          -0.18586          0.129651         0.0764755         -0.944113         -0.206795         -0.742954         -0.670431          -1.25728         0.0197095         -0.401469           -1.2111         -0.781084         -0.647946         -0.656173          -0.87482        -0.0459451         -0.441363          0.222217         -0.604127          0.689872         -0.955497
         -0.432424         -0.828442         -0.429875           1.06413         -0.443363          0.127449          -0.80848          0.233376         -0.700679          -0.70126         -0.947638         -0.765683           1.16067         -0.051361          -1.52501          0.216608         -0.476407         -0.236138         -0.770466         -0.268328         -0.598303          -0.58188           1.05028          0.423802          0.102867         -0.836825         -0.813809         -0.829924          -1.01894         -0.717219         -0.294967        -0.0813215         -0.324932          0.819797          -0.85951         -0.576313            1.5816         -0.887481          0.916355         -0.286342           1.34635           0.68733         -0.291988         -0.785255           0.75561           1.23136         -0.947551          0.236286          -0.50803         -0.470049          -1.31814          0.516309          0.294361         -0.275053         -0.367494            1.1757          -1.26669         -0.356177          0.130586          0.377029           1.07418         0.0225719          0.711241         0.0364951         -0.355166          0.917592         -0.789981          0.158876          -0.64232         -0.578791        -0.0675533         -0.360298         -0.865261         -0.373599         -0.447591           1.18565          -0.50728         -0.498268          0.130312          0.485144         -0.282669          0.719147           1.03967         -0.419956          0.787292          0.338522         -0.830903         -0.949643          -0.26237         -0.825423         -0.917413          0.581071          0.155017         -0.486129        -0.0319766          0.174115          -0.54233          -0.90475         -0.722229         -0.222549          0.213901         -0.551559           0.62929          0.825012         0.0665179          0.277833         -0.699453          -1.58479         -0.415308         -0.177635         -0.296392          0.064667         -0.824941          0.194668          -0.52681         -0.210966         -0.585456         -0.357926         -0.815925         -0.999261          -0.46897          -0.18121            1.0556          0.273568          0.448746         -0.789488           1.29149         -0.513861         -0.216303         -0.967911            -1.039         -0.547014         -0.608345            1.1567         -0.938411         -0.429309          -1.02055          0.354703           1.32097          0.159445           1.12759         -0.672705         -0.870168         -0.359092          -0.17029         -0.842765         -0.481765          0.883701         -0.690366         -0.492874          0.459931         0.0650755          0.971052         -0.386254         -0.530194         -0.128142         -0.102449        -0.0663189          0.318338          0.474692           1.07664         -0.746177         -0.983349           1.54029          -0.33592         -0.774546          -1.09962          0.271239          0.111085         -0.388438          -1.20142          0.517797          -1.22812         0.0139468          0.722776          0.595851         -0.010912          0.695493         0.0381292          0.211662        -0.0263694         -0.327208          0.525878         -0.335234         -0.459717          0.177422          0.322599         -0.532195         -0.225802          -1.15203          0.746343          0.188515         -0.747089         -0.524286          0.999712         -0.840748          0.453616         -0.457567          -1.10927         -0.141574         -0.221165          0.483332          -0.57546         -0.574854          -1.02164         -0.335482          0.852331         -0.635398          -0.46056          -1.03938         -0.317619         -0.639492          0.412201          0.265467          0.519093        -0.0582516          0.377037         -0.644562          0.717436          -0.89887          -0.58136          0.280238         -0.255915       -0.00363512          -1.00121          -1.04543           1.16562            1.6127          0.617882         -0.398828          -0.24384         -0.744404         0.0360203          0.247292          0.276225         -0.913511         -0.361917           0.18093         -0.128849         -0.182932         -0.368972         -0.223183          0.158444           1.57239         -0.683371         -0.400086
         -0.294059         -0.355626         -0.874324          0.388157          -0.67128          0.430046         -0.120126        -0.0582333          0.624397         -0.405392          0.132361          -1.14951        -0.0883928         -0.108146          0.053138         -0.376166          0.130817         -0.656178         0.0477395          0.495835          -1.32217         -0.266718         -0.344092          0.103686        -0.0909598        -0.0880412          0.450206          -1.17677         -0.305002          -0.40328          0.600171        -0.0640491          -1.22672        -0.0719137           -1.2705         0.0964648          -0.99294         -0.235671         -0.200502          -1.50586          0.207701         -0.294107         0.0242345         0.0520049           0.48399          0.312914          -1.54303          -0.19205           0.19511         -0.321869         -0.728078         -0.255187         -0.509448          -0.58554          0.191209          0.274476          -1.45225          0.866209         -0.668588         -0.338693         0.0809172         -0.156314        -0.0532502          0.145317          0.101325        0.00179996           -1.4794          -1.66496          0.137653         -0.826382          0.886229         -0.145834          -1.60115         -0.671334          0.129611          0.937015        -0.0856214         -0.198543          0.044469          -1.27665         -0.327067          0.219639          0.372017         -0.084358         -0.139542           0.36382       -0.00813514         0.0607567          -0.81449          0.865217          0.244787         0.0056842          -1.48943         -0.125396          0.379923           0.39031         -0.647278         -0.185456           0.31013         -0.921407         -0.588033         -0.687483          0.339367           0.23089          0.262821          0.330229         0.0519039         -0.228696         -0.189909        -0.0798309         -0.122006          0.216298          0.512238         0.0760329           -0.1776         -0.282154        -0.0887056          0.616101          0.373144          -1.30205          0.168307          0.610677          0.135504       -0.00905079         0.0123032          -0.21945         -0.909605          0.289262        -0.0500249         -0.712407         -0.273005         -0.114946         -0.346549        -0.0379407         -0.407588          -0.58649          0.143346         0.0610676          0.429852        -0.0764254         0.0410907          -0.42767         -0.224097          -1.57573         -0.147394         -0.131287          0.515275          0.202238         -0.333602          0.178116          0.523389          0.174959         -0.147455          -0.33442         -0.604995          0.273478           0.24314          0.243926          0.280964          0.126442         -0.137401        -0.0328352         -0.881444          0.696405          0.472614          0.156633          0.305261          -1.64286          -1.15448          0.150978         -0.224664         0.0956916          0.140371          -1.09527         -0.338135          0.275627         -0.953858      -0.000227863          -1.24435          -1.14964         -0.110019         0.0921141         -0.155418          0.143829          0.434005         -0.124974         -0.641101        -0.0371782          0.143269         0.0165774         -0.197655         -0.223211           -1.0344         -0.484346         -0.202965          -1.25681          -1.33033         -0.162479          0.346675        -0.0468287          -1.20884         -0.216734         -0.125722         0.0381414          -0.82804         -0.472731         -0.183587         -0.350409         0.0995345       -0.00265491        -0.0696352          0.208362          0.519023         -0.868598           0.41666           0.18378         -0.435266        -0.0689234         0.0358228           0.16482        0.00525738        -0.0307691          -1.42039          0.580178         0.0252621         -0.372086        -0.0595151         -0.280326           0.26908         -0.140764         -0.353226          0.632903         -0.359644        -0.0862487          0.313218         -0.541699         -0.406501           0.65031         -0.408293          0.292878          0.605651         0.0694457          0.225394        -0.0370084           0.17159          0.128146
        0.00560746         -0.966444          -1.09547           1.24786         -0.228381         -0.950566          0.799534        -0.0267534         -0.536197          0.723761          -1.62119         -0.521857          0.939288         -0.196668        -0.0867125          0.526089          -1.32105           1.26035           -1.4426          0.609092         -0.523755          0.560351          -1.01052          0.419597         -0.523544        -0.0871393          0.578893          0.292448         -0.354157          -1.52669          0.379601         0.0674082        -0.0930199          0.480002          -1.25983         -0.154809         -0.654108          0.122354        -0.0989401         -0.630632          0.835861         -0.782234          0.754508          0.661554         -0.375806           0.81538        -0.0174118          0.265021         -0.363177        -0.0271194          0.164421          -0.94009          0.229414         -0.360027        -0.0532171         -0.192638          0.466244          0.918904          -1.08455          -1.51362         -0.330957         -0.588877         -0.256481          -0.68412           1.11666         -0.241542         -0.784307         -0.794212         -0.505317          0.345826         -0.307582        -0.0617175           0.86755          -1.15979        -0.0550305          0.277645           1.00423          0.612199           1.21184          -0.83244          0.578432          -1.08848         -0.148412        -0.0123416          -0.62655          -1.07313         -0.365427          0.106433         -0.592638         -0.263092          0.353038         -0.735166         -0.312036          0.580393          0.264428          -1.02299          0.711703          -1.24272          0.380543         0.0466853         -0.603553          -0.29633         -0.343103          -1.50579         -0.111972         -0.933697          -1.00147          0.138871         -0.542562          -1.43358          0.200842           1.07844         -0.553898           0.62339          -1.57891           1.12844          0.102564         -0.583296           0.37553          0.319135          0.548397          0.797102          0.121184         -0.749549          0.713256           0.49579          0.648715         -0.642054          -1.01315         -0.621138         -0.770952          -1.29776          -1.00012          0.884961          0.160836           1.00734           1.00023         -0.688145          0.804438          -0.69467          0.677668          0.428717          0.314848          0.741018           0.61353         -0.683022         -0.526914         -0.175655          0.431494          0.865488          0.699746        -0.0342012           -0.6191         -0.504089         -0.766802          0.978328          0.140169         -0.270541          0.109465          0.419881          0.954993         -0.275986          -1.03803           0.79616         -0.345876           0.31606         -0.549886         -0.476601           0.68019           -1.1615         -0.793644         -0.180893          0.225099          0.979768         -0.416657         -0.406832          -1.16948         -0.985269         -0.566285         -0.690287         -0.146509           0.39613         -0.563689          0.649349          0.910839         -0.141054         -0.609919          0.791491         -0.227314          -1.79471          0.614792         -0.632052        -0.0334284         -0.620087         -0.321949         -0.484068         -0.173378          0.707974          -1.60182          -1.11831           0.55764         -0.379274           0.20232          -1.32991          0.447734         -0.219412          0.961651          0.526974          0.562206         -0.328069          -1.17641          0.831627          0.282555          0.178376          0.400453          0.211832         -0.568422          0.444172          0.878828          -0.45212          0.636658         -0.165605          -0.38348          0.858185         -0.954182         -0.416037         -0.377207         -0.045636         -0.147707         -0.334678          0.243219          0.895184         -0.490043          0.505089         -0.949705          0.541104         -0.917247        -0.0767189          0.765794         -0.430098         -0.324263          0.230777         -0.885976         -0.179055         -0.302502          0.299654
         -0.356331          0.212168         0.0258011         -0.549501         -0.387256          0.111481          0.190332         -0.175287         -0.334774          0.607749         -0.538743          0.585247          0.463876         -0.769032          0.254443         -0.129233          -0.14023         -0.497823         -0.933562          0.341657         -0.417728          0.543542         -0.306106         -0.824882         -0.889587           -0.3627          0.826044         -0.317659         -0.942773         -0.625922          0.183556        -0.0472494         -0.814208         -0.438245          -1.09657         -0.700221         -0.357197          0.824885         0.0323549          0.046418         -0.471816         -0.419028          0.555355         -0.406071           0.27855         -0.251202          0.246307         -0.476505         -0.102862        -0.0337053         -0.315163         -0.851459         -0.805065         -0.202596          0.633797          0.598454        -0.0919482           1.01472         -0.300918          0.336571         -0.473603         -0.372535         -0.619591         -0.211596         0.0342554         -0.243701          0.856528         -0.453612          0.157083         0.0590479         -0.128537         -0.152276          0.182601         -0.711664         -0.505044          0.397229        -0.0801247         -0.358294          0.501054         -0.445578         -0.253346         -0.775164         -0.681714         0.0317412         -0.706823          0.218129          0.616832           1.37262         -0.653699         -0.804055         -0.386901          0.206404          0.467831         -0.553521          0.409497         -0.691984          0.205076          -1.14714         -0.107409          0.219039         -0.115333         -0.570317          0.446934         -0.612202          0.488901          0.169731        -0.0934792         -0.705619          -0.39319         -0.341128         -0.946219       -0.00317514         -0.529259         -0.270605         -0.166815          0.330549         -0.523874          0.155321        -0.0447894          0.392616        -0.0882602         -0.220023         -0.294123         -0.365079         0.0573794           0.62801         -0.453884          -0.82814        -0.0702959          0.412915         -0.180811         -0.434745        -0.0481194         -0.421122         -0.520766          -1.12609          0.423912         -0.993518          0.115077         -0.382335          0.761912        -0.0612754          0.939755         -0.330035         -0.428587          0.198442         -0.266033           0.64644          -0.27375          0.232289         0.0144327           0.14501          -0.78599         -0.250263          -0.96536          0.879814           1.30482         0.0888881         -0.529669         -0.601518         -0.320358          0.804342         -0.274053          0.114481          0.382745         -0.823232          0.607168          0.512339         -0.177898         -0.154501         -0.181009         -0.223612          0.379944          0.309743         -0.846933          -0.79246         -0.978951          -1.16294          -0.51826         -0.854206         -0.444538          -1.04664          -0.36534          0.631198          0.370659          0.601691         -0.458689         0.0226599        -0.0294334          -0.46111          0.821393         -0.496045         -0.374044         -0.514176          0.340129         -0.504352         -0.308964         -0.490422         -0.575272          -1.05275          0.538669         -0.252305          0.707937         -0.893425          0.285046          0.528185         -0.399637         0.0996171          -1.05698          0.732623         -0.546847         -0.485678         -0.489681         -0.540337          0.324335          0.120051         -0.579493          0.739775          0.256719         -0.426291         -0.200651          -0.28007         0.0419832          -0.38268         0.0291628         -0.951839         -0.452443         -0.735612          0.421031         -0.329658         -0.586897          0.312149         -0.449187          -1.10141        -0.0855253          0.284098        -0.0178074         -0.168103          0.282091          0.248489          0.640497          -1.31419         -0.877998         -0.540212         -0.379621          0.108911
         -0.741522            1.0681          0.603065         -0.587183          -0.19644         -0.740268         -0.476201          -1.07766         -0.400786         -0.440718          -1.02506          -1.20461         0.0481291         -0.779814         -0.339986         -0.465472         -0.149099          0.606545         -0.315033        -0.0950539          -1.29798           0.67435         -0.330213         -0.883663         -0.860572         -0.230848        -0.0083349        -0.0634502          -1.15087           -1.2525         -0.111627         -0.540225          0.403982         0.0033598          -1.03673         -0.682315         -0.635009         -0.120344        -0.0378787          0.370012          -0.53115          -0.80459          0.329665         -0.434207          0.434464         -0.494302           0.93252         -0.955525         -0.449083         -0.369119         -0.756635         -0.836018          -0.89033          0.135762          0.288679         0.0357548          0.287889          0.462444         -0.288891          0.286595         -0.667973          -1.22219         -0.777711          -1.12443          0.421004         -0.954142         0.0797634         -0.231071         -0.221124          0.560102          0.834957          0.459384           1.01169         -0.842299          0.231593          0.268581          0.580908          0.331556          0.844155          -0.42538         -0.760876         -0.799425         -0.352258         -0.547419         -0.961093          0.265122           1.41556         -0.536706          -1.09732         -0.183951            0.1055         -0.450222         -0.417931          -1.13116          0.517679         -0.348753          -1.02709         -0.180114         -0.649255          0.046938           -1.1892         -0.698322          0.509576          -0.82784          0.355872          0.230529         -0.307179         -0.292746          0.214949         -0.656678          -1.00555         -0.181518          -0.18418          -1.19736          0.235032          0.635676         -0.844898          0.841224          0.668152          -1.39995         -0.872445          0.745399         -0.633843         -0.902131          -1.50144        -0.0273415         -0.854285         -0.740732         -0.487171          0.397941         -0.609373          0.347839          0.560766          -1.05699         -0.021367         -0.432548         -0.550438         -0.386967           0.40558          -0.04079          -1.05283         -0.972488          -0.10288         -0.120712          -0.34304         -0.676757          0.991617         -0.032529          -0.15899          0.328211         0.0258102         0.0694588         -0.374048          0.111091         -0.443966          0.409724         -0.987262          0.960243         -0.875189         -0.649431          -1.33623         0.0114096           0.51187         -0.058643         -0.900088         -0.758898        -0.0588932         -0.896074          0.367055         0.0989875         -0.361689         -0.799993         -0.553118         0.0898303         -0.371883         -0.690163          -1.08944         -0.380407         -0.919428          0.510999         -0.755994         -0.968553        -0.0885708          -1.03725         -0.248134          -0.26847          -1.01779         -0.412955          0.626477         -0.641951         -0.543902          -0.83529          -1.78125         -0.345755          -1.10083          -0.12236         -0.888371         -0.703907         -0.067813         -0.715368        -0.0547534          0.137073          0.453896         -0.775927          0.111222         -0.556137          0.760679          0.767923         -0.544348          0.420457          0.533067        0.00430388         -0.826226         -0.282935          0.549001          0.162004         -0.787529         -0.970473         -0.460934        -0.0986095          -1.23295           -0.2686           0.10993         0.0429948          -0.58198          0.191568          -1.13443          0.178027         -0.798137          0.379326          0.317362          0.621672          -1.31352          -0.46241         -0.670896           0.23761          -0.64001         0.0735905         -0.831978         -0.103565          0.896872           -1.0103          0.181473          0.575632          0.134506          -1.24004
         -0.335762          -1.28739          0.390444         -0.521199          0.454209         -0.742947        -0.0345846          0.710901        -0.0406716          0.333259         -0.934651          0.498894          0.375521         -0.726638           0.61089          0.188944         0.0400618        -0.0411529         -0.375256          -0.13276        -0.0174417          0.124675          0.119165         -0.931709         -0.161019          0.993381          0.540336         -0.305195          0.342351         -0.435936          0.584679          0.430664           0.64857         -0.126947         0.0417046         -0.262683         -0.344117          0.464312          0.615607          0.867929         -0.229729         -0.922065          0.784924           1.04347          0.370042          0.226381          0.785988          0.475259          0.554512         -0.557531          0.653606         -0.755155         -0.384015          -0.17177         -0.589799          0.729149          0.701356          0.549798        -0.0852942           0.27417        -0.0535991          0.252312         -0.829216         -0.398625          0.510067          0.945048          0.639089          0.801415         -0.112685          0.713449         -0.196227         0.0654801           1.20658        -0.0833275         0.0439537          0.506664          0.740373          0.567859          0.185966          0.447111         -0.184064         -0.177586          0.147604           0.14197           -1.0002         -0.784913          0.363903         0.0638384         -0.508976          0.186657          0.328537         -0.834285          0.826813          0.947271         -0.239469          -0.99363           0.17708         -0.656873         -0.860047          0.768964          0.767901          0.443166            1.1282         -0.930498          0.849232          -0.71607           1.10648         -0.804001         -0.415869          -0.47735         -0.723514         -0.521455         -0.922305         -0.188396          0.435007         -0.282854          0.653671        -0.0937096          0.287924          0.075442          0.217489          0.677797         -0.244171        -0.0604775          0.531753          0.875802          0.786396         -0.836402         -0.461459          0.528578          0.745388          0.178223          0.199999          0.803593          0.736005          0.802577          0.690547          -0.41391          0.725881         -0.193561          0.834291         -0.184595          0.652384          0.341523          0.937205          0.571994         -0.631645          0.941976            0.3276          0.686352           1.10944         0.0667757          0.477979         -0.122739         -0.790492             1.009         -0.302588         -0.141583         -0.301965         -0.275832          0.103481          0.765323         -0.696523           1.30446         0.0821031         0.0412726         -0.999827          0.821864          0.576472          0.312952          0.636523         -0.478707         -0.541347          0.303799        -0.0109516         -0.791969          -1.00531          0.690003         -0.107113          0.210982         -0.677164         -0.305518          -0.21414          0.762483          0.760501          0.106332         -0.386599            1.0291          -0.29124         -0.702497          0.668166           -0.1654        -0.0048248          0.102129          0.706041         -0.165136          0.870628         -0.342447          -1.01589         -0.703414          0.112009          0.458065          0.747577          -0.94512          0.548748          0.331344          0.579266          0.542967          0.318321          0.320252          -1.48445          0.357984          -1.31387           1.13697           1.08959          0.800845         -0.333686          0.800252           1.08267         -0.172567        -0.0762662         -0.367752         -0.169885           0.90194          0.591999         -0.695082          0.810491           1.08903          0.707462          0.356302          0.329311         0.0115112          -0.30346          0.399827         -0.816752          0.230385         -0.200061          0.781873          0.432943         0.0509839         -0.650417          0.205829         -0.200988        -0.0361364          0.676795          0.496212
           0.49491          0.364339        -0.0307407          -1.09719         -0.341015           0.65325         0.0850972          0.301756          -1.10519           1.64236         -0.838554          0.203299         -0.144541         -0.614819          0.457731         -0.692556         -0.932403         0.0465256         -0.733137         -0.621831          0.308989           1.22514         -0.270094         -0.607628          0.773192          0.633516           0.50973          0.784533         -0.662763         -0.928306         -0.753142         -0.743527          0.262791           1.05254         -0.364434         -0.344804         -0.164536          0.134106         -0.107671          0.415985          -1.16959         -0.792837         -0.896911           1.19252          -1.93634         -0.214012          0.387991        -0.0181385         -0.926157          -0.25458          0.039105          -0.87284          0.592613         -0.801502          0.730182         -0.659905           1.12001         -0.450538          0.204775         -0.346986         0.0125005          0.290463         -0.911543           1.04126          0.544005          0.639579           0.30775           1.64837           0.36292          0.319222          -1.35575          -1.38722          0.293028          -1.52889             1.483         -0.341714         -0.297977          0.198325          -1.01156        -0.0341732          0.341675         -0.691015          0.537354          -0.43427         -0.734445         -0.836716          0.603833          0.912454          0.257362          -1.17887         -0.320732         -0.583197          0.900786          0.175298          -1.07712          0.745368           1.47794           1.11452          0.420632        -0.0787842           0.35735          0.402202          0.340798           1.38081          -1.07471          -0.63905            1.3398          0.464702         -0.222586         -0.623768           0.27804          -1.33897          0.961071          0.194908         -0.847622          0.431041          0.491781         -0.366545          -0.60987          0.170395         -0.601006         -0.435704         -0.189063        -0.0882499          0.189069           1.65177          0.334835          0.458454           1.21748           1.18745          0.879088         -0.404255         -0.923696         -0.241456           2.16584         -0.701077         -0.278448         -0.480246          -1.42336           1.10004        -0.0864567           -0.5566          0.613861         -0.121093          0.456917           1.58081          0.806707         -0.391559          0.327711         -0.565807          0.111918         -0.415468         -0.299502         -0.855307         -0.180932          0.923423         -0.242922         -0.463112         -0.496032          0.470557          0.947969          0.106606         -0.781311         -0.880636           -0.6384          0.420995         0.0298049          0.715384          0.746351          -1.26479           1.36684          -1.12211           0.18072         -0.939325         -0.249908          0.509995          -1.00392         0.0619512         -0.122236          0.227632         -0.887237          -1.42313          0.774921          0.118921          0.864462          0.701989          0.242414           1.71712         -0.630476         -0.594111          0.544815          0.113137           1.33705        -0.0385862        -0.0719075           1.43159          0.741604         -0.426534         -0.520822          0.499365           -0.3036          0.424451          0.993175          -1.22316          0.579067         -0.147611          0.153872          0.195869         -0.965537         -0.228999        -0.0827096         -0.116774         -0.465988          0.802466          -0.98626          -0.36406          0.723945          0.313426          0.558405           1.59437          0.384545         -0.977771         -0.121073         -0.828548         -0.190534          0.812089          0.269015        -0.0192862           0.55388         -0.273961          -1.13149         -0.247397          0.673899           0.78998         0.0971318          0.109568         -0.498886         -0.488816          0.324984          0.557009         -0.719313          0.485485          -1.09738          0.938516         -0.507312         -0.453902
         -0.584703        -0.0616207          -1.25642          -1.19307         -0.861459          -1.47492         -0.281184         -0.705787         -0.200006         -0.406329         -0.907138          0.137812          -0.83608         -0.844673         -0.421026          0.360005         -0.863622         -0.687929          0.755889          0.829645          -1.05037         -0.360044         -0.905312          -0.96367         -0.697043         -0.872288         0.0275497          -1.18956          -0.30728          -0.72257          0.493996          -1.53623          -1.06606         -0.990304         -0.588527          -1.12612         -0.917747          -1.39192            -1.442         -0.519336          -2.10959         -0.924314          -0.43613         -0.388907          -1.09388         -0.834436         -0.504945         -0.739661         -0.963504          -0.16281         -0.419022         -0.862926         -0.682645          -1.08122            1.1545          -1.72695         -0.430013          0.887338         -0.868272         -0.816544         -0.883292         -0.709769         -0.399242          -1.04909         0.0307373          -1.31873         -0.564561         -0.624404          0.112332         -0.213164          0.244673         -0.207242          0.144249          -1.24154          -1.16412          -0.81556          -1.96094         -0.872182          0.412575        -0.0573041          -0.90937           -1.0498          -1.04549         -0.974832          -1.20538          0.310552          0.989997          0.349532         -0.807474         -0.594973         -0.714856         -0.999065           -1.1049          -0.84778          0.705806           -1.0646         -0.116773         -0.923962        -0.0217479          -1.11039         -0.668551          -1.22905          -1.01456          -1.31075         -0.392102         -0.826801         -0.315841           -0.4128          -1.19459         -0.676248         -0.202576         -0.067488          0.184595          -1.26985          -1.04871          0.431824         -0.614036          0.533379          0.359921          0.335346         -0.620856          -1.15696          -1.06902         -0.894901          -1.02486        -0.0555961          -1.18345          -1.27646         -0.442088        0.00184919        -0.0429824           -1.3917         -0.482306         -0.168785          0.524553         -0.437816          0.183583          -1.11558          -2.01441          0.409735          -1.05648          -0.25755            0.2036          0.210424         -0.580424          0.236491          0.174104          -1.56737          0.917205          0.909052         -0.960118          0.317605          -1.06796          -1.08949         -0.195114         0.0421634         -0.458293         0.0590575         -0.759201         -0.962243          -1.15471          0.277358          0.281338          -1.17632        0.00212507         -0.748188          0.235675         -0.803015          0.125339          0.254941          -1.55105          -1.17257         -0.439221          0.147693        -0.0462772          -1.37823         -0.800795          -1.35268         -0.745953          -1.08494         0.0184956          -1.16978         -0.518032           0.34488          0.339863         -0.778002         -0.199993         -0.118323          0.235671          -0.74619          -1.60873         -0.790343          -1.30588          0.150173          -1.78047         -0.245097         -0.830823         -0.705743         0.0335049          -1.12919         -0.646237         -0.232864          0.488664          -1.15412           0.75204         -0.904133         -0.890363          -1.14371          -1.20261          0.550043         -0.811376         -0.158938          0.204296          -1.61795         -0.201267        -0.0816265          -1.38253         -0.454713        -0.0990134          -1.04716          -1.09059          -0.22661         -0.932363          -1.09444         -0.583749           -1.1339          -1.02158           -1.1326          -1.33611          0.269585         -0.127795          0.387728          -1.32052          -1.09313          -1.10646         -0.570954         -0.925996          -1.39991          -1.48076         -0.309248         -0.348478         -0.626771          0.399391          -1.14544         -0.330447          -1.36849
          0.111542         0.0895769         -0.186755          0.624775          0.702878          0.837428          0.177298        -0.0148017          0.462826          -1.30209          0.815218         -0.422885          -1.14728          0.134255        -0.0985005          -1.71713          0.671111          0.467733           0.46101          0.437874          0.194886          0.999617          0.724305          0.852594          0.211392        -0.0759063          -0.69404            0.1037          0.577426          0.504109         -0.426577          0.286667         -0.734402         0.0714526           0.64846          0.714213        -0.0183166        -0.0884973           0.90789          -1.03156          0.293306           0.67912          0.118125        0.00626242          0.451676          0.584699         -0.604541          0.124804          0.570919          0.840544          0.265262          0.782263          0.439174           0.71548          0.489939          0.680406         -0.265446         -0.541874          0.803945           1.06128          0.375829          0.166125          0.290092          0.170769          0.413246          -0.23182        -0.0431659          0.289129          -0.35313         0.0153319          0.643015          0.509536          0.397983          0.695228         -0.512227          0.799342       -0.00880118         -0.100433          0.408348           0.44509         0.0136573          0.733633          0.662485          0.720875          -1.26762          0.316297          0.120209         0.0982585          0.264603           0.94395         -0.163473          0.742635          -1.09889        0.00292395          0.638692          0.930099         -0.217225          0.322415          0.697948          -1.24238         0.0249629          -1.26749         -0.269278          0.979459          0.248127          0.692959          0.528678         -0.779447         -0.111523          0.745419          0.701524          0.408468         0.0769381          0.152834          0.811422         -0.118278          0.175436         0.0859756          0.873913          0.124821         0.0394402          0.789974          -0.26795          0.201524          0.184042         -0.357475          0.230402          0.099899          0.487638         -0.113844           -1.1129         -0.495395          0.685051         -0.115001         -0.108975          0.823094         -0.110276          0.783721          0.658572         -0.175191         -0.225774         -0.123678          -1.26442         -0.252138         0.0177577          0.155948          0.129578          0.260818          0.150054         -0.710269          0.823101          0.697826         -0.255235           0.93448          0.635031         0.0161254         -0.118602          0.825865          0.882338           0.93712          0.363806          -1.13592          0.203872          0.571975         -0.377481          0.826362          0.244104          0.231103          -1.22653         -0.724116          0.191498          0.623301          0.575237         -0.349184          0.670171          0.670965          0.478944           1.00159          0.287283          0.687071          0.785034          0.637117         -0.158566        -0.0471439         -0.847217        -0.0130088         -0.171726          -1.04046           0.33194          0.899474         -0.196255         -0.249366          0.229338         -0.426587         0.0951728          -1.14967          0.303549          0.413083           0.91106          0.720202          -1.27012          0.363252         -0.100956          0.751156           -1.2191          -1.02585          0.313848          0.383805          0.550142          -1.05212          0.316293          0.450998          0.867281          0.499866         -0.741065           0.28084         -0.102456        -0.0459358          0.260532        -0.0655756         0.0296082         -0.177061          0.240256          0.321357         -0.897612          0.111935         -0.390607          0.332567        -0.0724332         -0.232126         -0.966596          0.688945        -0.0155529          0.853056           1.02705          -1.20296          0.807826          0.967994           0.23916           0.92168          0.527371          0.542456          0.542677          0.173736         0.0353597          -1.16383
          -0.73182         -0.418765         -0.994396          -1.04865           1.45322          -0.49967          -1.85064         0.0556275          0.239588          -1.05966          0.792778          0.351299         -0.254542         -0.432346          -1.81304         -0.179165          -1.09403         -0.455193          -1.29522         -0.638957           0.31974         -0.343312         -0.980983        -0.0158528          0.572757          0.271409         -0.825699          0.111402          -1.11452          -1.41479          -0.75374           1.65261          -1.21015         -0.436156          -1.18819         -0.112456         -0.101539          0.147676         -0.900448         -0.138553          0.824713         0.0914047          0.729583         -0.921293           1.36899            1.6495          -1.54509          0.540017          0.371307         -0.518113          -1.18084          0.317764         -0.205318         0.0435545         -0.211942           1.01662           -1.4847          -1.35166         -0.409089         -0.810612          0.521343         -0.594143         0.0795877         0.0712685          -1.20074         0.0421613         -0.612956         -0.379317         -0.430783          -1.45277           1.06545         -0.893532          -1.24606          -0.49931         -0.830893          0.910538          -1.05513          0.260721          -0.51856          -1.54344          0.614796          -1.04236            1.5527         -0.855544          0.324669           0.15497         -0.912082         -0.103762          0.460063         -0.352119        -0.0975083         -0.471611         -0.675434          0.459132         0.0290553         -0.752574          0.391627          -1.14137         -0.775854          0.394045         0.0457243          0.837357         0.0846823          -1.56536          0.927052         -0.717235          -1.57589         -0.964121          -1.08761          -1.08115         -0.508702          0.275639          0.478981          0.798201          -0.61761          -0.27933         0.0368573           -1.2983         -0.387685          0.490893       -0.00133812             1.873         0.0992416         -0.889396          0.243581          -1.05173           1.56154         -0.769318         -0.055035         -0.619209         -0.511753          -1.48028         -0.712288           1.30354         0.0347738          0.851993         -0.844659         -0.625314           1.44433          -0.96989         -0.135132         -0.839901          0.382058         -0.764007          0.382193          -1.32269         0.0791731          0.322173         -0.920896          -1.09026         0.0511859         -0.580201          0.253196          0.207475         -0.245899          0.476865          -0.53857          -1.09506          0.616878         -0.557203         -0.120906         -0.611251         -0.695836           2.09285           1.00321          0.349371         -0.363523          0.197829           1.04781         0.0756562         -0.763573        -0.0104248         -0.846242           1.26015         -0.160035         -0.641431        -0.0757775         -0.138547          0.186023          -1.14948          0.116857         -0.909294          0.103017         -0.243363          -1.19406          0.443214          0.413422         -0.825275         -0.648821          0.732458         -0.430486          -0.51454          0.122987          0.720325           0.30247          0.341077          0.143743           1.46333         -0.642913          -0.27223        0.00586783         -0.155155          -1.13238          0.313486         -0.376035          0.122418         -0.397847         -0.384058         -0.897724         -0.298364         -0.538919           -1.5846          0.912958           1.02626           1.66612           1.37483         -0.592351          0.350888          0.883475         -0.440902          0.188049         -0.372379        -0.0757826             1.865        -0.0435007           0.16734          0.632852          0.109559           1.26463          -1.12602         -0.914868         -0.762402        -0.0697526         0.0354863         -0.159873         -0.684578          0.113083         0.0860638          0.893824         -0.384164          -1.20212          0.351098         0.0156905          0.527475         -0.238963        0.00598028
