weight 0:
         -0.183097          0.555131          0.397431           1.26002         -0.456737          0.537709         -0.540566          0.776007          -0.41182          0.846967         -0.428236            1.7984          0.847031          0.066759           1.35208           1.15807          0.329057         -0.202928          0.337299          0.779217         -0.490614         -0.528493          0.648295           1.12956           1.48637          0.342818          0.730709          -0.35744          0.775795       0.000242324         -0.584457         -0.688719           0.61953          0.608103         -0.286687           1.50272           0.57571          -0.48977         -0.535944         -0.489576           1.33827          0.406338           1.50243           0.80058         -0.575861         -0.497896          0.531408         -0.649612          0.152433          0.648521        -0.0892429        -0.0758931          0.387391           1.30817          0.487521          0.676408          0.704991          0.578377           1.01948           0.62616           1.08419          0.887091         -0.448221          0.624917         -0.478189          0.260184           1.18546           1.44174          0.535266          0.849534          -0.46988           0.70576           1.44322           1.51807        0.00565084           -0.1416           0.71559         -0.185382           0.11014          0.706415           1.28647         -0.270679           1.39974          0.786391          0.226435         -0.559768         -0.114263          0.564464         -0.483149         -0.156142          0.300265         0.0854197           1.36279          0.953364           1.34888         -0.504545           1.21102          0.697661         -0.437004          0.597432          0.716688          0.702435          0.726464         -0.108962          0.815303         -0.558917         -0.548135         -0.532588           0.72155          0.093615         -0.152054         0.0762599          -0.40737           1.19895          0.146458           0.82738           1.57812          0.732638         -0.246087         -0.360783           1.45052           1.15742         -0.253865          0.921227          0.708072         -0.457373          0.871483          0.586302           1.44994           0.63491         -0.397082           1.27448          0.710011          0.621675        -0.0512576          0.914962           0.59899           0.12899          0.679814           1.16725         -0.392783         -0.630061          0.969096           -0.3307          0.814217         -0.338587           1.10324         -0.524339         -0.174039          0.408914           1.24233          0.635432         -0.358257          0.864092         -0.614091         -0.341887          0.856296          0.427109         -0.472584          0.274667          0.787115           1.36256            1.0469          0.542713          0.756088          0.558809           1.00158         -0.890029         -0.534589         0.0451395           1.27926         -0.548899           1.05473          0.619346           0.46536           1.01598          0.849796           1.41521           1.36246         0.0958592          0.792984          0.266372            1.3081           1.21191           0.82378          0.585805          0.936596          0.628894          0.101079          0.332887         -0.568102        -0.0539197         -0.164585          0.744042          0.957254         -0.564749         -0.365299             1.815           1.03089            1.7042           1.10149          0.550076         -0.408588         -0.211054         -0.448286          0.246107         -0.387605          0.977692         -0.235351          0.715547          0.643187       -0.00134615         -0.520521          0.515537           1.21856           1.05819          0.768688          0.812395           1.08469         0.0662008          0.859177           0.18934          0.563329         -0.206237          0.992969          -0.50899           1.04569         -0.561642          0.695091           1.61337          0.810177           1.31284         -0.583201         -0.553302          0.630439          0.808582          0.798821          0.633387          0.272279         -0.551175           1.02761          0.649871         -0.460252         0.0472802           1.06676           1.09855            1.4949           0.50448           1.13014          0.676622          0.620388       -0.00890444           1.53756            1.1688            1.3343           0.74414          0.414276         -0.451198            1.3957           1.24057          0.997308           1.10786          0.657578          0.299874         -0.288466        -0.0301652         -0.113481        -0.0871716             1.671          0.989403         0.0935922         -0.299829           1.50282           1.47722          0.869718         -0.213947           1.65467          0.500431           1.10728           1.00711         -0.580126           0.63169          0.931381          0.906402          0.620949          0.669994          0.576218           1.39823          0.164276          0.902321          0.716685         -0.424199          0.618885          0.846172          0.991318          0.569689          0.325315          0.791767          0.796919         -0.055494         -0.540226         -0.145393           1.46246          0.850787            1.7063        -0.0440562          0.426661         -0.488887          0.711204           1.07566         -0.566085          0.782262         -0.276906         -0.375687         -0.515218         -0.202036         -0.554679          0.261839          0.449133          0.634252          0.189474        -0.0755237          0.650107          0.678155          0.677647           0.35994          -0.45804          0.157423           1.13318         -0.206478         -0.607722          0.683889          0.691698           1.24853         -0.552882          0.527293            1.2244          0.125176          0.581867           1.05578          0.830218         -0.240959           0.68096           1.82417           1.31768          0.673758         -0.232142         -0.513653          0.678452           1.12463          0.736088           -0.5407           1.30945          -0.20452             1.031         -0.103408           1.52879          -0.18533          0.100845          0.803104         -0.151588          0.544884         -0.417107         -0.346491          0.625671           0.11292          0.864608         -0.332783         -0.446014        0.00527694         -0.576464          0.403452         0.0221914         -0.617344         -0.728268         -0.502975          0.806978         -0.361147        -0.0546136          0.508342          0.457793          0.779933         -0.536743          0.671841          0.978271          -0.38515          0.671772         0.0257466           1.18421          0.831995            1.3849         -0.379663          -0.53577          0.768545         -0.488274           1.15412         -0.473044         -0.332834         0.0899908          0.879362         -0.511724           0.69165         -0.332501         -0.428046          0.728046          0.992087           1.51739          0.508258          0.494458           1.16139          0.603486          0.507626           1.74118          0.725771          0.502126          0.917745         -0.817069         -0.538523          0.905821           1.17793           1.15692         -0.376942           1.43196          0.768225         -0.517797         -0.582049            1.2941         -0.463601          0.662706           1.10937         -0.482251          0.683731         -0.632968          0.679252         -0.449288          0.650159          0.634924         -0.657475           1.04634         -0.336239           0.77021           1.36599          0.599639           1.40445           1.20452          0.625121          0.885394          0.630672         -0.301321           1.01809         -0.726528          0.469035          0.737715           1.02615          0.384088          0.535228            1.0102         -0.554449           1.49654          0.816557          0.506884         0.0396288         -0.435255           1.19298          0.632771         -0.376705           1.60411         -0.527017          0.696483         -0.502833          0.244648         -0.512567          0.417812           1.20564         -0.426515         -0.531939
         -0.565442          0.745209        0.00403742         -0.978157         -0.567709          -1.13822          0.221489         -0.880015           -1.5305          -0.98901         -0.954305          0.620142         -0.565556          0.215963         -0.514553          0.417936         -0.275024          -1.37602         -0.431228            0.2232         -0.434265          -1.01558        -0.0128747          0.621337         -0.859889          -1.13904         -0.242854          -1.10015           -0.9872          -1.49754          -0.79802         -0.474901          0.356032         -0.125468         -0.781647          0.579435          0.518158         -0.741634          -0.81282          0.550894            0.8009         -0.552783         0.0559518          -1.01774          -1.05556          0.294339        -0.0667716         -0.979555          0.241172          -1.24085          0.643039         -0.806532         -0.283123           1.23913          0.534071         -0.751605          0.422746         -0.579445          -1.00482         -0.491673          -1.10172          -0.85842         -0.615538          -1.00267         -0.847091         -0.667423         -0.921736         -0.462502           0.60884          -1.24848           -1.0672         -0.476732           -1.3329           1.46421         -0.820617          0.333804          -1.19016          -1.13084            0.1743          0.574666         -0.971611          -1.74945          0.128175         -0.453734          -1.50753          -1.65963         -0.513916          0.151275          -1.80204          -0.19282         -0.758813         -0.939053       -0.00118398           1.25664          -0.55244         -0.563532         -0.414839        -0.0658326         -0.669995           1.08128          0.202706          -0.80051          -1.76273         -0.657228         -0.927354          -1.64074          0.180523          -0.92995         -0.601357          -0.19006         -0.244271         -0.282072          0.724006         0.0747825         -0.660328            0.1904          0.777092         -0.800675          -1.14026          -1.31011           1.00143          -0.14763          -1.02068          -1.30303          -1.21132         -0.953442          0.258972         0.0650877          -1.29211          0.293987          -1.13487          0.981253         -0.815494         -0.559227         -0.608127          -1.37265         -0.365141         -0.679572         -0.516752          0.376404         -0.793242         -0.659093          -1.10997          -1.19622         -0.709067         -0.485337         -0.629123          0.962754         -0.754473           -1.2221         -0.196119         -0.870047          0.195669           0.17271           0.19921         -0.833798         -0.419782         -0.713718          0.981749         -0.588025         -0.522916          0.626216          -1.05021         -0.823659          0.298909          0.534235          0.489242         -0.540053         -0.720299           -1.4587          -1.19743          -1.04202        -0.0974416         -0.421061          -1.62678           0.74992         -0.727877          0.518628           0.20719         -0.175167            1.4801         -0.602638         -0.753851         -0.579181          -1.21955         -0.311772         -0.877687          0.794833          0.390986         -0.366993         -0.629692         -0.150125         -0.813454          0.596654         -0.418266         -0.799691         0.0918358          0.749256         -0.658275           1.11681          0.139569          0.507877          -1.29924         -0.684455          -1.05684         -0.336656          -1.03978         -0.579533          -1.04972          0.426636          0.435701          0.254173         -0.092767         -0.674496           1.51101          0.410888          0.466282         -0.262828          0.095191          -1.26859         -0.245779          -0.98518         -0.754848         -0.576333          0.495296         -0.502105         -0.115081          -0.20679          0.571612         -0.702242          0.470454          0.247454          0.667345         -0.827583         -0.638156           1.15464          -1.49049          -0.45265         0.0569826         -0.674274         -0.935031          0.566821         -0.427659          0.312145         -0.835767         -0.513281         0.0213973          0.706672         -0.526687         -0.981803         -0.827241         -0.557593         -0.653531          0.427022          0.898028         -0.335593          -1.19899         -0.695605          -1.27587         -0.956827          0.704495         -0.770325          -1.15244          -1.05452          -0.45086         -0.874346         0.0774832         -0.491468          0.591068          0.608253          0.452309          -0.65056         -0.294131           0.95219         0.0343943         -0.488238         -0.757406          -1.23254          -0.80853           0.06281          0.161824         -0.532564          -1.16935          0.128856         -0.823346          -1.01572         -0.342993         -0.982072         -0.834694         -0.136021          -1.41235         -0.419622         -0.355666         -0.578127          0.663365         -0.390367         -0.871175         -0.744954         -0.209693         -0.210628         -0.410165         0.0308761            1.0338          -1.02952          -1.06837          0.014687          -1.61044         0.0106084         -0.574809           -0.5522         -0.400826          0.656866          -1.02086          -1.00497          0.217351          0.333657         -0.690925          -1.20522          -0.72812          0.116654          0.655369         -0.112887          -1.33378          -1.26755         -0.472776          0.739828         -0.277134           -1.3381         -0.442833          -1.63167          -1.03111         -0.245176          0.544701         -0.950735         -0.881037          -1.24488          -1.26741          -0.46434         -0.690311         -0.344665         -0.146589          -1.35206          0.909217          0.193034          0.775369         -0.684037         -0.488763         -0.862492         -0.749573       -0.00308025          -0.79439         -0.275447          0.746121         -0.719906          -1.13492         -0.812395           1.28438         -0.985488         -0.138815         -0.821349         -0.469704          0.903855         -0.223009         -0.408936         -0.615305          -1.43623         -0.798759         -0.770496         -0.796898          -1.41554          -0.93217         -0.194773         -0.371075         -0.421701          -1.27904         -0.461455          0.604949          -1.37617         -0.825359          0.769511         -0.570024          -1.60969         -0.941906         -0.376567          -1.08579         -0.968906         -0.167184          0.947662          0.150302         -0.718507          0.870558          -1.09095         -0.859499         -0.627108         -0.618073          -1.42688         -0.955448         -0.637641          -1.17043          0.366484         -0.298294          -0.30706          -0.51979          -1.14436         -0.920808         -0.757597         -0.759383           -1.3656         -0.958658          0.777987         -0.182784          -0.97756          0.239923         0.0858051          -1.01523         -0.599338          0.573199          -1.03431         -0.639269          0.312894         -0.179315         -0.899082          -1.15151          -1.22833          -0.72396         -0.573682          0.798687           -0.9696         -0.291372          0.519863         -0.608374         -0.643768          -1.15385         -0.655719          0.222045         -0.699673         -0.714495          -1.79289       0.000514552         -0.324798         -0.591358          0.722004          -1.11148         -0.591778         -0.485135        -0.0504708         -0.130616         -0.530078           1.03181          0.743316         -0.812151         -0.310644          -0.54565         -0.885256         -0.421586         -0.921372         -0.581004         -0.374218         -0.852886           -1.3014          -1.28791          -0.61451         -0.942793         -0.853833         -0.957629         -0.958838         -0.505457         -0.034505         -0.623925        -0.0957289          -0.55749          -1.14902         -0.123273         -0.896136          -1.03552          0.293665
          0.255869         0.0158749         0.0163547         -0.691351         -0.627988         -0.574853          -1.46088         -0.676817          -1.16919          0.653997          0.645479        -0.0094147          0.178084         -0.226622          0.072129          -1.17473          0.285203           -1.0929         -0.763374          -1.41119          0.123204          0.364924         -0.719423         -0.106255         -0.440319            0.2989          0.405465         -0.788851         0.0640592         -0.944322         -0.248031          0.119878          -0.54679          0.554109          -1.23446          0.221906          -1.83562          0.099314         -0.756927         -0.577289          0.514453          0.535647         -0.522488         -0.850877         -0.829228        -0.0273246          0.418563          0.333855          -1.28857          0.140565          0.510234          0.130705         0.0330784          0.530023          0.245526          0.180454          0.614875          0.405318          0.292035         -0.800106         0.0396063          0.384549          -1.32457         -0.305596           0.34215          0.590217         -0.708797          0.246557          -2.03612         0.0489934          -1.63067         -0.646694         0.0799695        -0.0620556          0.835093        -0.0673519          -1.45813          0.356208          0.522984          -0.68178          0.223889         -0.440969          0.690179         -0.870073          0.790828           -0.1945         -0.934305          -1.25983          0.566058          0.208428          -0.33049          0.670458          0.573293          0.375132            0.5887          -0.97811           0.08813        -0.0988298         -0.719583          -1.28304          0.584449         -0.631194          -1.11472          0.203642         -0.883149          -1.00079           0.36813          -1.12997         -0.546045        -0.0293838          0.744131           0.15074         -0.169393         0.0389413          0.643741         -0.789819         -0.607725          0.732347           -1.1261          0.306185        -0.0667943          0.547335         -0.316274        -0.0176004         -0.418472          -1.10497        -0.0219272          0.175737          0.558341          0.319524          -1.36549          0.455965          0.465572         0.0470537         -0.411926          0.257207          -1.23972          0.518015          0.207116          -0.63658         -0.627066          0.433962            0.4576         -0.452844          0.500568          0.267924         -0.768496          0.538998        -0.0266832        -0.0140759         -0.562004         -0.961066          0.178943         -0.589511          -1.51745         -0.506666         -0.413765          -1.54479         -0.617882         0.0619956         -0.667901         -0.896485         -0.419424          0.528198          0.452754         -0.793049         -0.552277          -1.54796          0.364021         -0.375802         -0.923081          0.170484          -0.60146          -1.36427          -1.34765          0.453548           0.27358         -0.445835           0.26389          -0.41824           0.45434         -0.645068          0.676916          0.595238         0.0337027          0.452952         -0.227679          0.217303          -1.04734         -0.425296         -0.748106          0.084197          0.405932          0.203185         -0.111966         -0.951846          0.469369          0.268466          0.610171         -0.579198          0.414188        -0.0779106          0.173858          0.466677         -0.139331         -0.630929         0.0894221         -0.397816          0.622455          0.525323          -1.18187        0.00250139          -1.38735          0.672665         -0.878437          0.501753          0.292839          0.418947         -0.558459         -0.842555          0.123257          -1.16236          0.389704          -1.14956         -0.599889          -1.00339         -0.634299         -0.523582          0.645952         -0.292655          0.451991         -0.600067         -0.849728         -0.110507          0.563659         -0.936669           -1.3194           -0.8838         -0.788384           0.13619         0.0635237          0.538732          -1.31229         -0.793765         -0.398805          0.516223           0.41604         -0.996614          -1.04676          0.534127          0.371275          0.533869          0.196647         -0.574948        -0.0239989        -0.0913235         -0.219371          0.152354         -0.320251        -0.0371821          0.709152          0.635666          -1.49233          -1.02041           0.45222         -0.679716          -1.15523         0.0115648           0.50843          0.275196          0.684377          0.123654          0.293983          0.447596          0.352318          0.575754         -0.982898         -0.177774          -1.16009         -0.958124          -1.25848          0.385123          0.364165          -1.19983          0.356336          -1.14985         0.0461213          0.739578          0.514601          0.242106        -0.0674567           -1.2358          0.292159         -0.627911          0.181833         -0.269563         -0.533609          0.466568         0.0334134          0.113063         -0.780396         -0.704352         -0.664995          0.572204         0.0700558          0.436811         -0.611387          0.267378         -0.817054         -0.581527          0.454137           0.66548         -0.927248          -1.53383         -0.611223          0.493165         -0.114573         -0.739573          -0.83445          0.155051          0.640388         -0.488019          -1.22496         -0.941387         -0.654823         -0.490164         -0.966938         -0.719056          0.462544          -1.21048         -0.464233         -0.357401         -0.558204          0.293474          -1.21678         -0.889015         -0.677267         -0.634042          0.119543          -0.80597           0.61201         -0.785992          0.455025          0.789659          0.313304          -1.10356         -0.335164          -1.06559          0.601642          0.690393          0.374748         -0.724782         -0.263204          -0.67852         -0.104166         0.0442951         -0.644568          -1.21046         -0.136766          0.383455          0.850421           -1.2601         -0.184819         -0.694411         0.0518652          -1.25525          0.439746         -0.338856         -0.551192         -0.835648        -0.0857727          -1.15216          0.334818          -1.47973          -1.00548          -1.01183          0.405229         -0.333038          0.529653         -0.415314         -0.398664         0.0167152         0.0644368         -0.297992         -0.799516          0.670733          -0.88293          -1.11016          0.208882          -0.97483          0.143296         -0.079296          0.250787        -0.0118237          -1.24609          -1.07437         0.0184429         -0.107916         -0.897416        -0.0635403          0.305538          -1.07494          -0.11873         -0.174972          -1.12867         -0.200644         -0.427857          -0.80002          0.094551          0.686236           -1.2985          0.184346        -0.0335846          0.417969         -0.774656         -0.717387          -1.22214          -1.23162          -0.72472          -1.05621           0.45891          -1.01304         -0.504859          -1.12584         -0.140727          0.366814          0.453001          0.226542         -0.117911          -1.06593          0.433793          -1.89828         -0.204532           0.35338            0.5183          -1.25722          0.264022           0.48389         -0.714755          -1.32811          0.663779          0.284288          0.300328          0.176969          0.217895         -0.940542          0.550622          -1.03268          -1.52852          0.324766          -1.11127          -1.08944          0.191554         -0.924195          -0.94654         0.0834677         -0.619682          -1.12354         -0.806846         -0.257847         -0.744743          0.281821          -0.18009          -1.14295          0.264027          0.663356          0.428885        -0.0795339          0.137361          0.176737          0.642208          -1.14302         -0.284087          -0.39424         0.0123921          0.330085
         -0.501918      -0.000251365         -0.455705         -0.427515         -0.376472         -0.157127         -0.355316         -0.385185          -0.80532         -0.485628           1.08518         -0.440118          0.986615         0.0919663           0.71732         -0.833777           1.02611         -0.624477         -0.262877          0.877116        -0.0652348         -0.602264          0.156538          0.951119         -0.282838         -0.495673          0.668703         -0.648436          0.735298         -0.471804         -0.404075         -0.340189           1.78026         -0.094767         -0.512226         0.0590451         -0.557704          0.717296         -0.282648         -0.687536          0.939696         -0.518016        -0.0840857           1.07418          0.761424          0.523228           1.03469         -0.364771          0.666826          0.466491         -0.111711          0.108919          0.928527          0.965283         -0.439385         -0.348669          0.713194         -0.439148          0.328585         -0.471936          0.856919         -0.268982         -0.511378          -0.59627          0.908519          0.221934          0.802132          0.390943          0.974845         -0.498769         -0.683032         -0.346737          0.586267          0.851887         -0.380355         -0.301078         -0.723868         -0.590345           1.33609          0.790307         -0.581405          0.171617         -0.343344        -0.0923482           1.36928          0.782968          0.957924          -0.64426         -0.571699         -0.318204         0.0677134          0.722295          0.872768        -0.0232812         -0.323435          0.230619         -0.194859         -0.328635         -0.462872         -0.351537         0.0728625          0.132649          0.513646          0.807505         -0.547957         -0.475523         -0.326233         0.0925354          0.632394          0.831284          0.768484          0.666999           0.78867          0.343291         -0.346154          0.858719          0.208737          0.741926          0.106748         -0.761013          0.698364         -0.335021          -0.57456         -0.484773          0.109298          -0.47265         -0.388322         0.0939079          0.753333          0.389814          0.259855            1.1979         -0.463394           -0.3841         -0.472931         -0.439739         -0.549814          0.977535         -0.406534          0.986108             1.024         -0.382208           1.09594         -0.547911          0.881848         -0.312937            0.4857           1.01275         -0.500472         -0.573893         -0.564352         -0.347765          0.729302         -0.718163          -1.03542          0.848662         -0.384031          0.568143          0.219244         -0.609552          0.759079          -0.50819          0.249466        -0.0765234         -0.575332         -0.504476          0.781518         -0.477708         -0.337663          0.401114          -0.45051           1.11358         -0.503664          0.510404         -0.306133           1.04038         -0.383708          0.768945         -0.385674          0.104517         0.0395834          0.653482          0.832666         -0.400643         -0.520933         -0.490858           1.12745          0.720448         -0.692517         0.0516234         -0.396847         -0.351385         0.0364383         -0.487573        -0.0511292         0.0762038         0.0681933         -0.136889         -0.493171         -0.489129       -0.00639568          0.818383          0.577962         -0.735674         -0.392728         -0.308444         -0.479262           1.17889            1.7987         -0.260955         -0.524555          0.568904         -0.497648        -0.0950483         0.0713508         -0.342631         -0.380093         -0.534612       -0.00510513         -0.493077         -0.582586          0.704839         -0.441368         -0.442734         -0.521613         -0.549852           0.96494         -0.875248         -0.131558           0.83687          0.409589         -0.736841          0.434578         -0.622658         -0.221827          0.416856          0.498215        -0.0426415        -0.0956232         -0.571943         -0.426458              1.24          0.780529         -0.113502         -0.405636          0.948527          0.868274         -0.312169          0.750412         -0.424336         -0.403404         -0.408407         -0.294843           1.10941           1.08887         -0.279238           1.16841         -0.488497          0.351933         -0.776219          0.730975          0.905374         -0.217961         -0.616567          0.654093         -0.136474         -0.342836          0.668713         -0.107449         -0.217357         -0.672881         -0.424593         0.0681204         -0.491505          0.975764           1.44972         -0.396693         -0.191414         -0.118856          -0.49156           -0.5556         -0.688485         -0.459314          0.504586         -0.868781          0.987642           -0.5288          0.841574            1.0211           0.58592         -0.321586           1.36093         -0.437684           1.18153          0.204518         -0.274855         -0.494022         -0.414088         -0.632812         -0.461536         -0.444341         -0.423644         -0.288566          0.388268         -0.852946         -0.312359          0.812214         -0.680294          0.869123         -0.418233         -0.401131          0.647416         -0.505208         -0.677778        -0.0474502           1.24927         -0.595047         -0.511211         -0.214367         -0.435246         -0.168255         -0.235761         -0.598712         -0.540137            1.0765         -0.360952         -0.278135         -0.511168           1.99993         0.0116479          0.709342         -0.549091         -0.487991          0.142226            1.1405         -0.474179         -0.422881         -0.467859         -0.146446         -0.390676         0.0647621         -0.526229          -0.49538        -0.0618875           1.31717         -0.503851          0.685922          0.532315           1.14827        -0.0768803           1.01283         -0.424609           1.17075           0.96531         -0.585481          -0.13682         -0.436519         -0.648535         -0.344728         -0.498034           1.37056          -1.24374         -0.608746         -0.304378         -0.587532        -0.0152183         -0.303017         0.0264281         -0.127542         -0.445984         -0.504807         -0.298835         -0.302446          -0.53604         -0.457576          0.274602         0.0642438          0.499814          0.036824        -0.0955436         -0.553192         -0.673747         -0.358863         -0.463732          0.613917          0.178794          0.857063         -0.490715          0.425209         -0.271426          0.726896         -0.478884          0.696763          0.171054         -0.630259          0.203828          0.901276          -0.47599         -0.506901         -0.192237        -0.0113595          0.445573         -0.465905          0.680194          0.828602           1.06084         -0.801852          -0.48384         -0.587252           1.14364         -0.382987         -0.486471         -0.517344        -0.0274067         -0.223353          0.941275         -0.389521          0.841372          0.678081         -0.205762          0.411638         -0.130595         -0.342301         -0.391309          0.938389          0.541244           1.17827         -0.372652          0.729416         -0.443979          -0.39756         -0.426045         -0.469982          0.423205          0.878918         -0.799492          -0.58332         -0.450831          0.866176         -0.425007           1.05484         -0.808531          0.578327         -0.566747         -0.346432          0.923094           0.91036         0.0174416          -1.10844         -0.464166          0.816497           0.83954         -0.283213           0.25346          0.842584          0.679463          0.909446         -0.348962         -0.399838          -0.13779         -0.845109           1.04615         -0.596673          0.726826         -0.463063           1.04858           1.08005         -0.534563          0.923758          0.616045         -0.320877         -0.625654          0.984812          -0.19519         -0.534787           0.68403
         -0.643735          0.171752          0.390489         -0.626936          -0.61781          -1.03221          0.334583          0.239734          -1.02329            0.3221         -0.664964          0.598073          0.834216         0.0459372          0.620703        -0.0929412          0.736711         -0.665505         -0.933141          0.421838          0.877027          -0.52158          0.793056         -0.269584          0.569132         -0.368942          0.362195           0.41438         0.0359471          -1.01866         -0.298855         -0.562563         0.0169095         -0.976208         -0.128679          0.787944          0.364718          0.194332          0.741164         -0.991086          0.729728           0.09603          0.578751          0.359054         0.0437012          0.361228          -0.28442         -0.538288          0.279959          0.113454          0.720601          0.152541          0.292229          0.745284         -0.432323         -0.138286          0.532526         -0.567055          0.475321          0.577015         -0.127839          0.637636         -0.489866          0.527246          0.134253          0.563426            0.4301         -0.136119          0.460531          -1.05133         -0.960174          0.372736        -0.0115538         -0.119616          0.548355         -0.124839         0.0327739         0.0713572         -0.776535           0.36298          0.226959          -1.01173         -0.723936          0.357092          0.549917         0.0859626         -0.359729         -0.415916          0.393567          0.468788          0.653833          0.059337          0.612263          0.554015          0.108789          0.901961         -0.628985          0.304224         -0.352588         -0.463523         0.0193665          0.122497          -0.40004           0.38589         -0.607999         -0.427607          0.675544         -0.571839         -0.730383          0.689255           -0.2475         -0.345338          0.545861          0.505885          0.703376          0.591795          0.865023         -0.481891           0.44719        -0.0630131          0.747481          0.462365          0.175891          0.419241         -0.894151         0.0731899          0.519255          0.369703         -0.534278          0.709567        -0.0957603          0.662042         -0.661193          0.228123          0.536573          -1.30606          0.327315          0.421865          0.562632          0.133972          0.396732         -0.558812          0.275014         -0.492175         -0.354973         -0.684253         -0.827215         -0.718256          0.464364          -1.01325         -0.834234          0.408848         -0.749295          0.658998         -0.557106          0.427133         -0.662472           0.65786         -0.967833         -0.829409          0.174268          0.711505         -0.337911          0.737038          0.514443          0.453023         0.0942193          0.332376           0.52674         -0.811294         -0.262985         -0.723245          0.491597          0.342457          0.294823           0.12858          0.320346          0.158942          0.731797          0.392224          -0.23971          0.594056         -0.239218        -0.0713667         -0.254186         -0.566207         -0.407983         -0.216607         -0.322683         -0.731775         -0.601381         0.0195478         -0.696516         -0.644315          -0.21415         -0.620769           0.50136          0.195719         -0.858587          0.717221          0.287027           0.22924          0.223796          0.838539         -0.523903          -1.11185          0.655136          0.459787          0.185113          0.493275         -0.225688          0.415099         -0.719485          0.400836          -0.05618          0.278702          0.515389          0.464804            0.6395          0.287082          0.557424            0.4029          0.393873         -0.776151         -0.677538           0.16959          0.791358         0.0217747          0.690335          0.824717         0.0265255         -0.318996         -0.432551         -0.744479          0.895907        -0.0431795         -0.733313          0.251119         0.0262322         -0.815336        0.00151213          0.465744          0.132432          0.658518         -0.504462         -0.107957          0.783663          0.684747          0.120909          0.798852           0.14661           0.67529         -0.427397          0.430753            0.7793         -0.616366          0.347195         -0.624839          -1.00809          -0.84619          0.195005          0.629123           0.31856          0.270102         -0.526002          0.295072         -0.921292          0.324483          0.737011          0.804252          0.345987          0.626961          0.391311          0.669872         -0.523907           0.21507          0.422012          0.480929         -0.621159          0.382603         -0.756051         -0.704622         0.0694486          -1.07697         -0.470686         -0.222166          -1.20584          0.390128          0.689702          0.522911          0.250965          0.409435          0.144332       -0.00645663         -0.344248         0.0859619         -0.139661          0.720615          0.621376         -0.762603          0.504859           0.41963          0.694073         -0.084402         -0.662559         -0.706026         -0.511424         -0.476667         -0.507591          0.321182          0.475973          0.444951          -1.28365         -0.735068         0.0662485          0.633943         -0.645532         -0.547983          0.350652          0.787678          0.764537          0.798258         -0.778073         -0.831263          -0.75624       0.000972231          0.118301          0.100245         -0.854455        -0.0771787           0.36073         -0.217677         -0.959413          0.576774          0.548252         -0.280005          -0.74979          0.650767         -0.489136           0.77121          -0.96696          -1.51812         -0.572943         -0.299611          0.795077         -0.978004         -0.786347         -0.353084         -0.493519          0.575902          0.866555          -1.01216         -0.112916          0.559816         -0.775576          0.602265          0.781793         -0.869526          -0.18532          0.660627          0.271889          0.790168         -0.898047         -0.630733          0.382431         -0.625991          0.259543         -0.413063         -0.703102         -0.518048         -0.682573          -1.06354          0.791027         -0.566157         -0.582942          0.559111          0.368471          0.168514         -0.650167          0.674136          0.240148         -0.290737          0.258104          0.370695        -0.0152886          0.589429          0.120007          -0.17971         -0.464767        -0.0709259          0.623967          0.381525         -0.137893       -0.00377274          0.724942         -0.330734         0.0596463          0.293451         -0.209167         0.0490381          0.555915          0.268892         -0.225853         -0.680904         -0.615698          0.571915         -0.889354          -0.50934         -0.492748          0.725892          -1.12113         -0.695202         -0.307874           0.13698           0.37591          0.580271         -0.732541          0.230175         -0.927304          0.386887          0.509212         -0.567082           0.67593          0.171158          0.323833          0.530609          0.817017          -0.46508          0.662078            0.6258          0.651322         -0.666355         -0.980524          0.366962          0.180811          0.347957         -0.699078         -0.298432          0.528176          0.543143         -0.511267         0.0754861         -0.840777          0.437786          0.296114         -0.717599          0.653517          0.418934          0.295467          0.281577          0.407814         -0.470016         0.0801146         -0.479786         -0.947765          0.284204        0.00780419          0.749897          0.517589         -0.147702         -0.227006          0.802011         -0.568394         -0.806147          0.688311         -0.648771          0.881536          0.201924          0.397251         -0.365078          0.562709         -0.849566           0.16808         -0.784032          0.431281          0.476899
          0.422991         -0.411089         -0.490434         -0.628818         -0.893871           0.32318        -0.0685676         -0.303978         -0.348416          0.666235          0.828239          0.942833          0.791489          0.633347          0.699768          0.766851          0.204664         -0.192392          0.410803           0.54547          0.364631          0.258867          0.705004           0.32372        -0.0674651          0.315935         -0.884846         -0.573347          0.253999          0.416541          0.104198         -0.906061           0.61835         0.0472384          -1.14297         -0.023215          0.148785           -0.8904          0.412868          0.598656          0.312323          0.464717         -0.137077          -0.83775         -0.126555          0.572719       -0.00505197           0.14273          0.112067          0.336522           1.03495         -0.637636          0.672549          0.995014           0.68977          0.722365          0.489658         -0.808956          0.442562          0.626737         -0.815242         -0.756005           0.32206          -1.12434          0.226887          0.799577          0.504234          0.149314          0.338814         -0.642034          0.166744          0.451402          0.224395          0.890958         -0.153898          0.320316         -0.199146         -0.445202          0.570967         -0.775973         -0.266863          0.108597          0.333538          0.407389           1.22781           -1.0407          0.557267          0.238594          0.196701         0.0585637           0.63094         -0.501154          0.893187         0.0926921           0.92981         -0.441803          0.274446         -0.211202            0.5092           1.02645          0.672833          0.750408          0.464459           -1.0112         0.0786716         -0.826249         0.0397589        -0.0330666          0.507615          0.282359           1.11951         -0.628368          0.498064        -0.0810701          0.123152          0.305297         0.0878378          0.680371          0.201333          0.474897          0.914458         -0.211691           -1.0727         0.0681782         -0.298926          0.283461          0.705079         -0.935893         0.0732029          0.944068          0.152272           1.02478          0.177805         -0.747456          0.288917         -0.896448          -1.41547          0.812911           -0.6955          0.564959         -0.693066         -0.801102          0.328981       7.70255e-05          0.762619          0.502961          0.244897          0.263647         -0.850469          0.370671         -0.616149           -0.6443         -0.840868       -0.00329228          0.868699         -0.434699          0.562497            0.3548          0.345418         -0.212089           0.55254          0.745042         -0.265149          0.398524         -0.986176          0.467978          0.636066         -0.575827         -0.816115         -0.631041          0.404222          0.517887         -0.884205          0.284269           0.11873          0.883906        -0.0247732          0.795816          0.378362           1.12665           1.09497         0.0854805          0.805396          0.246222         -0.251785         -0.946872          0.392232         -0.159902          -0.16888           1.18643         0.0516138          0.197045         -0.842711          -1.04534          0.632815          0.166624          0.359717         -0.189329          0.109437          0.841518         -0.193654         -0.980479         -0.805622         -0.133352          0.239868          0.906386         -0.804852         0.0305709         -0.364099          0.548211          0.253984          0.218221      -0.000870986         -0.671644           1.01065          0.585666         -0.818497          -1.14034        -0.0460133          0.344305          0.482522         -0.771834         -0.960252          0.547214           0.50836          0.312646          0.833059          -1.18834          0.761489        -0.0247901           0.33472          0.287862           1.04733          0.293917          0.721303          0.310341        0.00223484          0.352042          0.880787          0.466042         -0.187761         -0.748247         -0.261365          0.637393          0.858528          0.156873           1.00648         -0.915339          0.679998         -0.209935          0.378258          0.843308        -0.0155885           0.47631          0.972168          0.024464          0.746457          0.487681         0.0149793          0.351258          0.758914          0.880922          0.171077         -0.404502          0.482753          0.427164         0.0597318          0.301455          0.930493          0.919389        -0.0111731          0.549518          0.919337          0.237396          0.515636          0.394703         -0.368581          0.828757          0.239194          0.791786         -0.171996          0.439583          0.418685        -0.0388162           1.07769          0.299704          0.108102          0.519363       -0.00291324           1.02077         0.0948246          0.179188           -1.2185          0.720332          0.537572          0.327604           0.80058          -1.12163         -0.759007          0.661963         -0.715981         -0.756164          0.820685           -0.6942           -0.7161          0.524107           0.53409          -1.59107          0.646309          0.245843         -0.651027          0.641036         -0.113351        -0.0309363          -1.71047          0.500711           0.52002          0.378082         -0.133654          0.338124          0.879752          0.703826         -0.850757          -1.03394          -0.42005         -0.114809        -0.0411118           0.47867          0.470679          -1.68173          0.186801          0.856447          0.875102          0.149732         -0.864219           0.12667          0.713217          0.893135          0.600447          0.825153          0.292198          0.208825         -0.750424       -0.00671058         -0.200702          0.188732         -0.804467         -0.974996          0.607346         -0.501892          0.814425          0.415042          0.869561          0.398346         -0.494906        -0.0614212         -0.061795         -0.142655         -0.130765         -0.562892         0.0358957         -0.346167         -0.328151          0.559671         -0.762924         0.0836169          0.904253          0.969121          0.751927          0.793502         -0.867352          0.262405          0.403332          -1.11039         -0.871926         0.0866467         -0.570257          -1.29092          0.602487          0.104597         -0.510463          0.026833         -0.917282         -0.656436          0.618866         -0.434675          0.240588          0.821834          0.736718        -0.0231468          0.828635          -1.36962          0.395245        -0.0159889         -0.724551          0.563127         -0.988404          -1.23682          -1.01195         -0.452936          0.831726          -1.20667         0.0799414         -0.937241          0.435364          0.436748          0.235478          -0.55492          0.426691          0.851798         -0.023212          0.126213          0.851389         -0.933026           -0.5273          0.872461           0.75077          0.044957          0.442563         -0.796968          0.636056         -0.516558          0.763626         -0.805842          0.392647         -0.720959        -0.0108781          -0.83622          0.278495          0.513865          0.252436          0.410094         -0.795734          -1.14511         -0.749309          -1.07736          -1.16402          -1.45842          0.394497         -0.731083          0.554644         -0.129692          0.232449          0.311708          0.311655          0.428402           0.14228         -0.490709          0.452792           0.77047      -0.000902396          0.247474         -0.959051          0.117304          0.590312        -0.0277933          0.563112          -0.85608         -0.191673          0.473787          0.194502         -0.044764          0.152436          0.699319           0.70321          0.654993          0.634019         -0.805375          0.708815         -0.296991          0.279671         -0.160056         -0.415514          0.308841         -0.876534          0.166095
            0.3802          0.571757          0.560634           0.51243         -0.785749         -0.736877         -0.405909         -0.051485         -0.289367          0.450967         0.0701707          0.324594          0.726308         -0.733414          0.775162         -0.381422        -0.0895284         -0.218106         -0.580573          0.478937          0.726573          0.765742           0.67882        -0.0708543          0.284255         -0.389805           0.29902          0.426307          0.492092         -0.653317         -0.550095          0.465551          0.224366         0.0944994          0.135561          0.062811          0.402759         -0.620076          0.416007          -1.11391          0.682655          0.372605          0.783369          0.263269          -0.30805          0.450038          0.590751          0.169862         -0.369882          0.297726          0.723422        -0.0730549          0.568738          0.580612         -0.415582        -0.0469216          0.524745         -0.428053          0.568619         -0.214747          0.276111          0.529313         -0.474338           0.67004         -0.242275          0.592521          0.586721           0.30633          0.540898         -0.229717          0.696557          0.249487          0.469289         -0.517395          0.393781         -0.886152          0.482197         -0.239548          0.389841          0.260129          0.511813         -0.859944          0.824229           0.35973           1.15945         -0.531254          0.355626         -0.453888          0.416474          0.849595          0.274598          0.380975          0.832183          0.734154          0.794516          -0.57712            -0.234          0.697309         -0.470267         -0.872451           0.44114          0.474565          0.282191          0.442649          0.507455          0.207055          0.356798         -0.781955          0.225473          0.776192         -0.305717          0.205103          0.392704          0.660085          0.799398          0.160261          0.799032          0.388029         -0.434913          0.349923          0.608624          0.617495          0.528378           0.33711          0.655469         -0.502797         -0.262337          0.561258           0.55023         -0.190555          0.461665          0.627413          0.419665          0.456964         -0.242263          0.607496           1.04672          0.628306          0.455884           0.36578          0.453843          0.419649          0.323423         -0.507773          0.864524          0.215705          0.523591          0.367114         -0.327055          0.610302          0.308749          0.517919        -0.0580509          0.463871          -0.70407          0.315282          0.365887         0.0471383         -0.635688         -0.589263          0.338303          0.721684         -0.191547          0.634283          0.362417          0.292635          0.663495          0.146104         -0.703339         -0.592841        -0.0555859          0.287915          0.391341          0.400761         -0.334813          0.864122          0.635616           1.00077          0.802997         -0.150408         -0.369685          0.468041          0.744413         -0.205802          0.601984          0.472131          0.833771          0.188526           -0.2482           1.00294         -0.571574        -0.0704854         -0.689772           0.25035          0.860957         -0.773828         -0.440317          0.639396          -0.61596          0.796692         0.0799685          0.491154           0.21571          0.699624         -0.462187         -0.516252          0.436999          0.409554          0.248755            0.3745          0.580976           0.11276            1.0091          0.868359         -0.101669         -0.717048          0.455626          0.766828          0.706227         -0.638488          0.590815           0.52868        -0.0511607         -0.583267          0.441475          0.632187          0.763115          -0.44036          0.761563        -0.0499081          0.437508          0.238184         -0.794681         -0.699886          0.726258         -0.762528          0.415139          0.573846          0.806871           1.01062         -0.559413          0.514575          0.377911        -0.0191054         -0.353869         -0.376272          0.675491          0.548936           0.53029           0.76379         -0.727551          0.914978          0.519854          0.485575          0.634393         -0.635207         -0.437675         -0.675323           0.32592         -0.596742          0.756719          0.826036          0.681828          0.524998         -0.774694         -0.281235          0.488156           0.66906          0.753316          0.704536         -0.265128         -0.546051          0.775245          0.521718          0.297876          0.533227          0.789365         0.0473984          0.395676          0.420629           -0.6826         -0.761099          0.448853          0.357497          0.591361           0.21041         -0.223223          0.892253         -0.399361          0.656162         -0.212713          0.591459          0.231354       -0.00497647           0.82233          0.520241            1.0838         -0.626584         -0.439724          0.394368         -0.589002         -0.482504          0.697976          0.359487         -0.507572         -0.771766          0.340255          0.365624           0.47199          0.258528         -0.732411          0.497169          0.447957          0.113082           0.62344          0.605523         -0.642859         -0.633628          0.575342          0.395136          0.822476           0.86111         -0.558057           1.15761         -0.795919           1.13641          0.339236          0.305456          0.159772          0.713461          0.622638         -0.233949          0.327562          0.177848          0.466414         -0.400973         -0.590518         -0.350557         -0.311552          0.736856          0.246777            0.6583          0.410493         -0.637502          0.648078          0.164192          0.282003          0.422279          0.452745          0.651423            1.1885           0.81546          0.138934          0.533986           0.14294          0.394561          0.753749         -0.656453          0.338434           0.79188          0.661091          0.505837          0.568868         -0.666049          0.392275          -1.30014           0.39115         -0.340703         -0.626756          0.301207         -0.255326          0.651032          0.639701         -0.902604          0.161111          0.501122          0.427194          0.650165         -0.335157           0.58179          0.550284          0.394271        0.00224364         -0.797147          0.904167          0.611491          0.144856          0.631849          0.700395           0.12069          0.472745          0.551965          0.774609         -0.728721         -0.599286          0.743615          0.977968          0.619739          0.723167           0.55104          0.607274          0.846939         -0.478872        -0.0805756          -0.50249          0.571248         -0.722447            0.5645          0.505548          0.799221           0.57748         -0.593091       0.000300075         0.0490152          0.622109         -0.329611         -0.562839          0.446224         -0.857478          0.453577        -0.0104357          0.215548          0.759142           0.55291          0.460823          0.480779           0.61871         -0.188671          0.440085          0.242013          0.541696         -0.535522           0.37484          0.707004          0.591364          0.722608         -0.646943          0.667542          0.378812          0.317287           0.57562         -0.366399          0.824497          0.292128          0.386675         -0.557784          0.525078         -0.888814         -0.185496          0.149095          0.439276        0.00744848        -0.0215982         -0.755109          0.220278           0.46955           0.56285          0.715011          0.129856         0.0753807         -0.966894          0.698689           0.47341          0.525868          0.690037          0.550056          0.680735        -0.0563603          0.536303         -0.356708          0.780283         -0.709534         -0.514745          0.566034          0.600915          0.621658
          0.793814         -0.525378         -0.922006         -0.992336         -0.526271          0.678109         -0.993807          0.546354       -0.00995079         -0.530737         -0.278975         -0.451706         -0.592402          -0.47544         -0.402159         -0.556377         -0.511211         -0.759883        0.00593276         -0.736994           1.27896         -0.851214         -0.317236         0.0913728         -0.501104         -0.911979          0.083819         -0.857921          -1.04326         -0.145104         -0.738811         -0.608803        -0.0690864         -0.263829          -1.28115         -0.512525         -0.670746         -0.822398         -0.143698           1.26199         -0.610684         -0.415788         -0.528978         -0.512079         -0.128675         -0.404697         -0.573394         -0.819876          0.253514          -1.09184          -0.46883         -0.481805          0.908306         -0.193859         -0.404009         -0.640575         -0.407707         -0.355513         -0.795483          0.846938          0.694884         -0.451971         -0.392086         -0.279966          -1.12815         -0.632074          -1.11432         -0.634689         -0.247235        0.00077361         -0.940807          0.921112          -1.06969           1.46284          -0.53941           1.01812         -0.894629         -0.913075           1.01416         -0.229355         -0.870289          0.169709          0.390555         -0.227414        -0.0611629          -1.17578         -0.364039          0.233679         -0.743421         -0.846905         -0.512736         -0.293424         -0.475881         -0.489608         -0.463483         -0.337267          0.166201         -0.711277         -0.344262            1.2773          0.439772          0.895754         -0.611029        -0.0062271          0.113615         -0.470836         -0.773517          0.344224         -0.493061         -0.282224         -0.641367         -0.708405          0.776573         -0.103544         -0.641005         -0.315839          0.479448         -0.230192         0.0913823         -0.805771          0.228487          -1.07589         0.0304694          0.382171          -1.32377         -0.903518         -0.493109           -0.8529        -0.0705161         -0.376631         -0.190594           1.67414          -0.51536         -0.680488         -0.522291         -0.849044          -1.96984         -0.345307         -0.333766         -0.257271          0.615078         -0.488865         -0.586303         -0.829913           1.39851          0.198537          0.675226          0.260225         -0.502793          -1.50209        -0.0083492         -0.900441         -0.945106          0.195311         -0.467874         0.0723626         -0.356851         -0.561479           2.04269         -0.242285          0.878909         -0.642057          0.464801         -0.326326         -0.292256         -0.469524         -0.594186         0.0441279         0.0718879         -0.637169          0.457211         -0.949784         -0.617127         -0.863935         -0.746157         -0.569749         -0.787044         -0.570303          -0.79446         -0.455395          0.731194         -0.607623          0.713342         -0.497696         -0.543847         -0.700125          0.647274         -0.196349         -0.696006         -0.062239          0.485152           0.31499         -0.741472         -0.252775         -0.429141         -0.543515          0.488062         -0.124193         -0.193652         -0.308435          -0.63428         -0.652794         -0.764031         -0.577678         -0.697085          0.224581          -1.00172          0.721455          0.449681          0.453343         -0.500504         -0.908414          0.609269         -0.604718          0.537532          0.156022         -0.536061         -0.699643           0.63669          0.462058         -0.888372           -0.5487         -0.655758          0.103262         -0.247944          0.258658          -0.21109          -1.66582         -0.456785         -0.201053          -0.16218         -0.241842           0.19645         -0.488032         -0.541058          0.227638          0.163476         -0.145596          0.649768         -0.705825         -0.407145         -0.534827         -0.449548         -0.411573           1.69775          -0.59759         -0.314099         -0.286291         -0.525193           -1.2479           -0.9114         -0.410367          0.705297         -0.396429         -0.470923         -0.992095          0.925809       -0.00616575         0.0709496          0.310468         -0.437935          -0.45618         -0.898481         -0.644622         -0.179613          -0.11083           1.09356         -0.601804          -0.35524          -0.24517           0.30604         -0.620633         -0.491775           1.05858          0.194667          -0.48688         -0.720842         -0.435079         -0.183734         -0.610344         -0.904073         -0.894247         -0.756337          -1.24711           -1.1551          0.158365         -0.834622         -0.609107         -0.565596          -0.93982         -0.902882         -0.398895         -0.377592         -0.113993          0.512357         -0.272539         -0.770113         -0.429086         -0.819224         -0.710008         -0.448293          -0.51207         -0.421754          -0.46466          -1.11942         -0.457145         -0.626757         -0.463605         -0.189183          0.380873         -0.543883           1.04287        -0.0155574         -0.226035          -2.02498         -0.294083          -0.81795         -0.588575         -0.623046         -0.616581         -0.509134         -0.348723           -1.0893          0.235281         0.0892899         -0.253818         -0.849946          0.263562          0.972599          -1.18168         -0.697139          0.434989          0.172545          -0.26805         -0.586297         -0.941882        -0.0366775            1.1335          0.623644         -0.275696          0.799548          -1.04082         -0.218653          0.604817           2.04048         -0.222652          0.846877          0.206314          0.697494         -0.617592         -0.151564         -0.188449          0.196022          -0.62218         -0.909036         -0.205572       -0.00659708         -0.973258         -0.579487         -0.775099          0.991249         -0.183714          -0.97536         -0.508487         -0.792729         -0.273482         -0.519884          0.878003          0.789416         -0.392001          -1.15103         0.0543365        -0.0426639         -0.214184          -1.29785         -0.560054          0.494184          -1.25932         -0.711161         -0.447012         -0.803795         -0.941586         -0.726189         -0.534699         -0.500063         -0.287141           1.35148          -0.63401          0.613604         -0.640238           1.17128         -0.754237         -0.936008         -0.878162         -0.764505          -1.08502         -0.873648         -0.785849         -0.370124         -0.878707         -0.466701         -0.556802         -0.408768          -1.03171         -0.438987         -0.564116         -0.921845         -0.748744           0.30518         -0.163868         -0.950963         -0.794935         -0.411867          -0.59014         -0.929677         -0.308709           1.02498          -1.02402          0.695026         -0.350862         -0.165622         -0.889396         -0.662008          -0.75557          0.469745          0.633404         -0.391604         -0.538162         -0.187114          0.554206         -0.578053         -0.755148          0.594935         -0.790621         -0.455669         -0.821565         -0.992825          -1.35499          0.844641         -0.541339          0.431463          0.813036          -0.10618          0.882911          -0.41223          0.510609         -0.595162         -0.341441         -0.580294         -0.511704         -0.757318          0.482323         -0.607528         -0.859476          0.589548         -0.958376          0.515797          0.570381         -0.674048        -0.0939588          -1.04115          0.117294         -0.973647          -1.00031         -0.623121         -0.789168         -0.689947          -1.15061            0.6748           0.35345         -0.527246          -1.18303         -0.206797         -0.406178         -0.876609           0.49306
           1.25249         -0.353897         -0.733615         -0.840501          0.836291         -0.786051         -0.396293         -0.757844         -0.249994         -0.845557         -0.595355        -0.0989093         -0.344305         -0.731493         -0.300666         -0.293533          0.806112         -0.692854          0.101921         -0.312465         0.0464815         -0.574811         0.0820255           1.08989          0.223565          0.508749            1.2015         -0.446513          0.086557          0.182052           1.22872         -0.168192          0.481161         -0.467088          -0.96448         -0.573249         0.0765898         -0.793079         0.0234694         -0.886011         -0.580784          0.730265          -0.97901         -0.529313         -0.366866         -0.347753         -0.575353          0.855878         -0.699007          -1.00242         -0.477078         -0.715294          -1.18758         -0.284657          -1.02247         -0.052394          0.431552           1.00167         -0.705551           0.38688         -0.366493         -0.256143          0.740055           1.13763           1.15114         -0.738106           0.55827          -1.11699           1.12286          -1.14166          0.725484          0.715666         -0.190023         -0.334269         -0.637303         -0.012973           0.15174          -1.37423         -0.110864          0.561785         -0.381612         -0.392147          -1.07388           1.22218         -0.721394         -0.541265          0.598948          0.704872          -1.11486           1.02463         -0.912872         -0.989485         -0.503055         -0.220366         -0.644068           1.31819          -1.10101        -0.0271222         -0.115498          0.140861          0.870933          0.663195          0.616718          0.710537          0.789947          0.242164         -0.148889          0.261436          0.715495          0.137397          -1.34556        -0.0232162           1.41614         -0.364741         -0.572192          0.480577          0.558337          0.720212          0.911795         -0.708574         -0.223438          -0.22605          -0.64708         -0.832232          0.823733           1.23194         -0.255973         -0.237345          -1.45901        -0.0434751          0.638661             0.763         -0.228561         -0.474036          0.070013         -0.340749           1.31298          0.404364           1.01986         -0.779718          0.400276         -0.300025         0.0914368         -0.565356           0.45815            1.0519           1.11078           1.05101          0.639128            1.0782          0.455928         -0.561089         0.0945786          0.669798          0.753245         -0.964727         -0.149783           1.05735          0.771749         -0.687603         -0.325286           1.20716          -1.14358         -0.897111        -0.0679003           1.21962          0.458152          0.267965          -0.44717          0.392886           0.57009         -0.516932           1.05366           1.28725         -0.558968         -0.580418          0.460761          0.376344         -0.619202         -0.602959         -0.155414          0.590346           0.55932         -0.313863         -0.476972         -0.227655         0.0821207         -0.162617          -0.47347         -0.224921         -0.354694         -0.951221         -0.456623         -0.318257          0.734252         -0.394605         -0.298695         0.0112821         -0.650745         -0.180631         -0.603496         -0.262866         -0.322145          0.615796         -0.403781          0.578259          0.932937          0.605166         -0.780581          0.046515         -0.362029         -0.363367           1.08926         -0.566778         -0.332497          0.184459       -0.00582761         -0.389575          0.753292          0.387177         0.0286231          0.700165          -0.63568          0.834116         -0.470864         0.0396204         -0.248964          0.282289         -0.961236          0.059008         -0.521025            1.1617          0.803379          0.473146         -0.714711         -0.263849         -0.700609           1.68864          0.745594          0.250665         -0.788426         -0.358784          0.969869          0.813542          0.109692          0.446151          -0.39591          0.298803          -0.29759            0.2955           1.12628         -0.627771          0.112352          0.757394         -0.228287         -0.614574         0.0552607          0.341242         -0.336784          -0.21781          0.601012         -0.692223          0.757205           -0.8108           1.27929          0.107561         -0.490564         -0.471194         -0.478616          -0.15628          0.268482         -0.207062          0.871085         0.0983829           1.17326           0.49906          0.794476          0.361909         -0.293173         -0.305214         -0.559219          0.998984           0.21108        -0.0225116          0.892182           0.19328         -0.395073          -1.14453         -0.674649          0.425471         -0.757199         -0.124995          0.298544          0.959176         -0.567317         0.0520833          0.674726        -0.0297215         -0.316186         -0.704431          0.958293          0.371647         -0.468786         0.0571653         -0.775507         -0.201178         -0.156454         -0.487736          0.926805          0.511184         0.0581599         0.0949131          0.057892          0.231931         -0.253241         -0.201315         -0.757608         -0.286576          0.135179         -0.222334          -0.53944           1.11357         0.0106771          0.721895        -0.0357489         -0.327908         -0.580882          0.420781         -0.188751         -0.885068          0.571642            1.0117          0.492052         -0.853084        -0.0685519         -0.211134         -0.671388          0.612152          0.496226           1.04999         -0.650205          0.408646          -0.34804         -0.601272         -0.104526          0.360023          0.550679          0.438773           1.43197         -0.276281         -0.450466           1.00504         -0.521369          0.717519         -0.784534           1.06094          0.886373         -0.847739         -0.203931         -0.256474          -0.82769            1.0313         -0.762826          0.885564         -0.562154         -0.144113          0.464422         -0.619822         -0.405751        -0.0606292          0.505869          0.646536         -0.117168           1.43234          0.844449         -0.178311          -0.31144          0.913698         -0.745732          -0.42554         -0.262191         -0.953445          0.183884        -0.0864767          0.284799         -0.442765          0.890246          0.972438         -0.779278          0.743984          0.919092         -0.255111          0.867978         -0.720652          0.848893         -0.713952         -0.367201          0.976529         -0.909829         -0.518623         -0.193263         -0.143838         -0.999669          0.704772          0.963722          0.128309          0.268301          0.568306          0.710003         -0.523189         -0.670958          0.531819          0.758646          0.490222          -1.34422          0.929877          0.155624          0.212067          0.206723          -0.60542         -0.611448          0.562609          0.430492          0.450314          0.835349         -0.341969         -0.386834         -0.410778          0.280038          0.744458         -0.160574            1.7216          0.385744         -0.766154         -0.501951         -0.144345         -0.721759         -0.725475           1.07427          0.270701          0.919429          0.152123          -1.10785          0.578958         -0.934954          0.852635          0.273773            0.8356          0.629575         -0.469266          0.823056           1.07199         -0.899256         -0.181216          0.451706         -0.206696         -0.946609        -0.0269158          0.481493         -0.712158          0.376042         -0.500779         -0.499253          0.140569          0.374024         -0.689491          0.728657         -0.970215           0.73764         -0.341342          0.164071          0.735859         -0.660347          0.281202         -0.333897          0.806604
         -0.563121          -0.77389          0.884938          0.291816          -1.01045        -0.0832304         -0.116332          0.132332          0.282199          0.112936         -0.973587          -1.19971         -0.612594          0.171332          -0.97634         -0.155388          -1.01203          0.683705         -0.159665         -0.144478         -0.442794          -0.88182         -0.443844          -1.31302         -0.374016         -0.313639          -1.53286           -1.9484         -0.656949          0.758878          -1.12511         -0.903018         -0.015706          -1.30616       -0.00406305         -0.846357         -0.241311          0.524299         -0.495889         -0.414711         -0.484965         -0.242884         -0.224753         -0.163617          0.330407        -0.0321508         -0.596285         -0.358256          -1.04574         -0.168898          -1.01364         -0.960201         -0.167699          -0.41375          -1.19923         -0.782466          0.106268        -0.0309653          0.627959         0.0450726         -0.195227          0.217917          -0.11865          -1.28211         -0.711865         -0.577827          0.364534          0.656692          0.110129           1.04336         -0.633418         -0.200077         -0.239763         -0.706216         -0.246601          0.590272         -0.494986         0.0988675         -0.898422         0.0393181          -0.63369          0.969905          -1.14337          0.290806         -0.481128          0.212595           -1.0165         -0.627824         -0.158346          -1.24671          0.113211          0.667522          -1.18429          0.600299         -0.502195         -0.882556           0.53601         0.0943178          -1.19369          -1.15966          -1.46225          -1.08851         0.0929296          -1.44647         -0.467107          0.764513         -0.930717           -0.1915         -0.938743          -1.08817          0.248175         0.0604856          -1.21202         -0.757881          -1.01486         -0.939513         -0.392616           -1.3566          0.314607         -0.629694         -0.781864         -0.400443          0.479794          0.531028           0.38859          -0.29276         -0.428164         -0.390406          0.581835          -1.05908         0.0866422         -0.690334         -0.161109          -1.14381         -0.149464          0.429404          0.402036          -1.20573      -7.43119e-05          -0.11116         -0.165707          -1.57455          -1.09437           0.32259           -1.0746         -0.999147          -1.71534          -1.45655          0.115757         -0.789387         -0.233136            0.5863          -1.08172         0.0254741          -1.33141          0.267386          -1.25115         0.0791158           -1.0333         -0.563006         -0.508275         -0.268804         -0.363169          -0.54926          -1.92809         0.0994826         -0.788932          -0.47396          -1.34012          -0.55967         -0.361639          -1.33831          -1.40079          0.128018           1.02014         -0.257019          -1.29014          -1.09797         0.0474075         -0.183332         -0.679691          -1.17305          -1.08418         -0.830539          0.698736         -0.956792         -0.182018         -0.886063         -0.322099          -1.30695         -0.651189          0.936391          -1.39014          -1.56438           1.13806         -0.793463        -0.0192378         -0.977568        -0.0878871         -0.557718        -0.0842309         0.0857546          0.434189          -1.02127         -0.756064          -0.55793        -0.0123711         0.0909624          -1.04913         -0.309171          -1.43083         0.0423518          -1.45432         0.0623107        -0.0293725          -1.19953           -1.2568         0.0108118          0.106994          0.712101          -1.51309         -0.312774         -0.485907          -1.47912         -0.391586          0.170806          -1.00032          0.281146        -0.0405272         -0.255515         -0.425536         -0.542834          -1.94693         -0.871618        -0.0423316         -0.386462          0.695732          0.246108          -1.18509          -0.65439         -0.281014         -0.329878         -0.759444           -1.3309          -1.17869         -0.766703          -0.42536         -0.394363         -0.972177           -1.0452        -0.0385826         -0.874885         -0.864023         0.0801638          -1.04585          0.794074         -0.235627        -0.0119024          0.775921         -0.887354         -0.658366         -0.514195          0.307892          0.263711          -1.46066         -0.195737         -0.210678           0.72356          -1.01626          -1.03479         -0.760707          -1.22677          -1.01916         -0.559576          -1.35205         -0.869241         -0.228551         0.0556216          0.472657         -0.043645         -0.225649         -0.263421          0.105357          -0.63475         -0.160751          0.497943          0.329004          -0.84575         -0.976246        -0.0405796         -0.111727         -0.973291         0.0376443          0.453496         -0.132938          -1.52565          -1.26217         -0.993364          0.119604          0.484928          -1.17831            0.3352          -1.05253         -0.304735          0.546392         -0.471454          0.505248          -1.74693           0.47837         -0.852588          0.380424          -1.23962            1.0969          0.107096          0.462953          -1.66861         -0.463732           0.11334          0.258422          0.280711         -0.157944          -1.18398          0.246933          0.747949           -1.3606          0.272879          -1.04423           0.71722          -1.44179           1.05989         -0.952645          -1.23265         -0.225387         -0.968002          -1.38581         -0.082347           0.22773          -1.16674          -1.35593          0.177024          -1.21943           0.97423           -1.8316         -0.243964          0.396977         -0.323376          0.193259         -0.297432          -1.19305         -0.963984           0.45414          -1.18985         -0.704392          -1.26615         -0.129494          0.417185          0.373451         0.0266522         0.0843059         -0.985871          0.548072           -2.0518          0.178213         -0.833793         -0.229307        -0.0731457         -0.943083         -0.563225         -0.302962         -0.151198          -1.00541         -0.133178          -1.07022         -0.891915         -0.241468          -1.23713         -0.468432          0.626721           -1.0872          0.229146            0.6355          0.687713         0.0569797          0.374534         0.0303661          -0.84232          -1.51875         -0.212184         -0.721572          -1.17353          -0.80474         -0.631501         -0.803863          0.466682         -0.505226        -0.0658464         -0.973429         -0.757505          0.358767          0.176103          -1.43215          -1.55304         -0.111483         -0.577991           0.12217          0.334937         -0.356386           0.20549          -1.72232          0.363692         -0.390925         -0.830356          -1.31676          -1.43664         -0.364539          -1.50512          0.137299         -0.200258        0.00737881         -0.327951         -0.772248         -0.776585          0.230984          0.778614          -0.80957          -1.55953         -0.538828        -0.0964529         -0.432454         -0.422491          -1.17219      -0.000847621           1.01334          0.332704          0.431725        -0.0163758        -0.0833121           1.31597         -0.624906           -1.0289        -0.0688941          -1.89204         -0.229494           -1.1615         -0.206334          -1.29895          -1.31104         -0.377955          -1.83064          0.227144         -0.324099          -1.15153          0.561652         -0.630575          -1.31394          0.506752          0.040471          -1.04091         -0.675605         -0.479908          0.730673         -0.664682         -0.904373         -0.389458         0.0574787        -0.0169522        -0.0349154         -0.269085          0.131781          0.130877         -0.770565         -0.416006          -1.03728         -0.618886          -1.52428          0.333616
       -0.00235517         -0.845891         -0.589126          0.027494            0.7315        -0.0870335         -0.654128          -1.25543          0.337716          0.688999          0.536423         -0.498906          0.196871           0.10379          0.310274       0.000782813          0.354618         -0.216839          0.420464         -0.278036          0.199181          0.410912        0.00820421         0.0721166          -0.18792          0.195323           1.55107          0.611713          0.215853          -1.37148          0.957996           0.74161          -0.28351          0.690275          -1.35375          0.010693          -1.01865          0.173902         -0.190652          0.087007          -1.01411          0.744388        -0.0726078          0.515215          0.879236          -0.08392          0.627036           1.20946          0.070613         -0.114164          0.378032          0.710708           0.38768         -0.615578         0.0208293          -1.10502           1.08412          0.932442          0.273484          0.524383          0.768083          0.847816          0.746666          0.806583          0.788775         0.0124504         -0.894325         -0.237964         -0.265871         -0.155751           1.12557        -0.0442098         -0.636531         -0.302775          0.322022         -0.488818         -0.175848          0.206467          0.948373           1.19176          0.253595         -0.736949         -0.587716           1.81664          0.503321          0.197546           0.59138         -0.288927          0.242446          0.674351         -0.921087          0.417169          0.220373         -0.970915          0.370017           0.54713         -0.289389          0.429498          0.783444         -0.141034          0.859317         -0.295469          -1.00696         -0.157045          -0.36988          -1.03049          0.835825         -0.436782           1.21154          0.160815          0.312269          -1.07349           1.04321          0.612572          0.328424           1.19901         0.0949814           1.07823         0.0563058          0.241218         -0.631605          0.325066         -0.744601         -0.320463         -0.957801          0.776472           1.17443          0.307772         0.0473454         0.0401035          -1.37115         -0.847111           1.42591           1.36143         -0.256626         -0.277405          0.556578          0.269121         -0.137325         -0.929128          0.773232          0.851926          0.887945         -0.761899           0.19169           1.34608          0.820945           1.24189          -0.43835          0.812613         -0.159145          -1.60285          0.679862          0.617035           1.05544          0.532601          0.146845          0.445242          0.637735         -0.550647         -0.307822          -1.43492        0.00863701          0.322838           1.57744          0.596783        -0.0932557          0.705031          0.891053          0.693028          -1.46585           1.00531         -0.202062           1.04169         -0.435357          0.111495          0.896381         -0.678913          0.259587         -0.562084          0.232899         0.0338057         -0.284902          0.224066          0.071026           1.97548           1.12588          0.653032         -0.844748          -0.70393          0.305362         -0.362206          0.685908         0.0865834          0.496553           1.04214          0.967381          0.153941          0.621439        -0.0892787           1.11221          0.367861          -1.22885          0.299682           0.13208          0.309096           1.83614         -0.760901          0.638419         -0.201493          0.587127         -0.367183         -0.349639          0.615975          -0.82641         -0.125372          0.789251           1.33271          -1.10878         -0.533516           1.22808          -1.10667           1.71421           1.31564           1.26979          -1.22318         0.0170834          0.364239        -0.0638658          0.249941           1.11428         -0.463911          0.692849          -1.06108         -0.375128         -0.580322          -1.30805         -0.226289          -1.39974          0.396725          -1.13589          0.872788         -0.224066          0.135454         -0.602078          -1.08442          0.278474         -0.579755          -1.25464          0.324411          -0.48717          0.290553         -0.997543           0.91327          -1.33449          0.225976         -0.253731           1.05215         -0.253026           -1.0828         -0.204061         -0.294221         -0.970995         0.0755711            1.3533           1.15585          0.450347          0.164729         -0.050959         0.0981938          0.114303          0.685435         -0.943716         -0.954843          0.665697           1.23066          -1.21436          -1.35467          0.253393         -0.708696          -1.10657           1.26487        -0.0107858          0.320086           1.20469          -1.08191          0.419564          0.222243          0.329118          0.919551          -0.34662          0.558763           1.88293         -0.458952          0.397631           1.02283          -0.59014          0.289723         -0.905993          -1.35157           1.20999          0.307205          0.146688          0.622142          0.203368          0.884981          -1.06204          0.914572          0.691361         -0.316181          0.860837        -0.0261924          -1.06837         -0.397604           0.35728          0.695888          0.343919          0.054033          -1.09921          0.599666          0.128039          0.110581          -1.03405         -0.148764          0.741893          0.978715          0.511398          -1.14708          0.831691         -0.225547          0.364245          -1.27617         -0.596879          0.297039          0.793321         -0.940952          0.677542          -1.43988          -1.07164        0.00621978          0.940226         -0.877307          0.276848          0.295115          0.577606           1.10536           1.46186          0.255518          0.835291          0.762641          0.112806         -0.464745          -1.07425          0.941862         -0.361876         0.0608536          -1.04074           -1.3175         0.0255558          0.941408          0.423144           1.56044         0.0767931         -0.370538         -0.311343         0.0622327         -0.221945          0.657014          0.824077          0.170651         0.0937314          0.387305          0.319637           1.02045        -0.0480795          0.776218         -0.105971          -0.89035          0.596093          -1.25601         -0.748083         -0.423184          0.351313          0.268365         -0.351214          0.667243           1.63934        -0.0595998          -1.23958           1.00411         -0.686889          0.531658          0.369505          -1.28035          0.796258         -0.691138          0.531619          0.457518          -1.03387           -1.5714          0.717297          0.558498          0.525286         -0.103309               0.9            0.2677         -0.798478            -1.046          0.496775         -0.495615          0.406714         -0.104917         -0.292917          0.854636          0.345157           1.17354          0.328471          0.230213         -0.354949         -0.159483          0.635032          -1.22688          -1.15591          0.122872          0.616887          0.656804         -0.853033           1.19326          0.973286         -0.912334            0.6615          0.807181          0.103153        -0.0825749          0.424009          0.137571          -1.25006          0.396326         -0.968022          0.399096         -0.326712          0.997219         -0.420449        -0.0106089         0.0639792         -0.129953           1.02524           1.45487          0.132957          -1.36964         -0.833214         -0.260974         -0.158991           -0.6213          0.345706          0.307388           0.15313          0.749255          0.321332         -0.466692           -1.2914         0.0548468        -0.0222918          -1.06253          0.991151          0.357242        -0.0812772          0.051179            1.2838           -1.2754         -0.121037          -1.11929          0.769515         -0.477377          0.654012         -0.305481
